/*!
 * The following copyright notice may not be removed under any circumstances.
 * 
 * Copyright:
 * Copyright (c) 2008 by Jos Buivenga/exljbris. All rights reserved.
 * 
 * Trademark:
 * Museo is a trademark of Jos Buivenga/exljbris.
 * 
 * Description:
 * Copyright (c) 2008 by Jos Buivenga/exljbris. All rights reserved.
 * 
 * Manufacturer:
 * Jos Buivenga
 * 
 * Designer:
 * Jos Buivenga
 * 
 * Vendor URL:
 * http://www.josbuivenga.demon.nl
 */
Cufon.registerFont({"w":606,"face":{"font-family":"Museo 300","font-weight":300,"font-stretch":"normal","units-per-em":"1000","panose-1":"2 0 0 0 0 0 0 0 0 0","ascent":"750","descent":"-250","x-height":"12","bbox":"-53 -883 1017 210.052","underline-thickness":"50","underline-position":"-50","stemh":"62","stemv":"70","unicode-range":"U+0020-U+FB04"},"glyphs":{" ":{"w":272},"\u00a0":{"w":272},"!":{"d":"116,-184r-3,-519r70,0r-3,519r-64,0xm111,0r0,-77r77,0r0,77r-77,0","w":297},"\"":{"d":"187,-544r0,-169r59,0r0,169r-59,0xm66,-544r0,-169r59,0r0,169r-59,0","w":312},"#":{"d":"149,0r34,-195r-142,0r10,-56r141,0r35,-196r-141,0r9,-56r142,0r35,-200r61,0r-35,200r173,0r35,-200r61,0r-35,200r140,0r-10,56r-140,0r-34,196r139,0r-9,56r-140,0r-34,195r-61,0r34,-195r-173,0r-34,195r-61,0xm254,-251r172,0r35,-196r-173,0","w":713},"$":{"d":"46,-120r52,-42v0,0,58,109,178,109v85,0,139,-56,139,-125v0,-174,-347,-137,-347,-362v0,-87,70,-159,179,-172r0,-95r57,0r0,93v67,6,164,37,164,120r0,50r-66,0r0,-33v0,-42,-53,-73,-118,-73v-91,0,-144,50,-144,109v0,168,347,125,347,360v0,94,-70,180,-183,191r0,93r-57,0r0,-93v-139,-14,-201,-130,-201,-130","w":532},"%":{"d":"202,-437v-78,0,-140,-62,-140,-139v0,-76,62,-139,140,-139v78,0,141,63,141,139v0,77,-63,139,-141,139xm68,0r536,-703r71,0r-535,703r-72,0xm202,-493v46,0,82,-37,82,-83v0,-45,-36,-83,-82,-83v-46,0,-81,38,-81,83v0,46,35,83,81,83xm400,-126v0,-77,62,-140,140,-140v78,0,141,63,141,140v0,76,-63,138,-141,138v-78,0,-140,-62,-140,-138xm460,-127v0,46,34,83,80,83v46,0,82,-37,82,-83v0,-45,-36,-83,-82,-83v-46,0,-80,38,-80,83","w":743},"&":{"d":"46,-196v0,-78,44,-159,127,-183r0,-2v0,0,-97,-31,-97,-156v0,-104,80,-178,208,-178v38,0,82,11,82,11r-20,57v0,0,-33,-7,-58,-7v-81,0,-140,48,-140,121v0,47,20,127,151,127r146,0r0,-97r69,0r0,97r93,0r0,62r-93,0r0,103v0,168,-91,253,-231,253v-140,0,-237,-90,-237,-208xm117,-198v0,79,61,145,166,145v97,0,162,-55,162,-190r0,-101r-144,0v-123,0,-184,58,-184,146","w":624},"'":{"d":"66,-544r0,-169r59,0r0,169r-59,0","w":191},"(":{"d":"200,95v-142,-229,-160,-591,-7,-825r64,0v-153,250,-139,570,6,825r-63,0","w":309},")":{"d":"46,95v145,-254,159,-575,6,-825r64,0v152,234,136,595,-7,825r-63,0","w":309},"*":{"d":"152,-337r-53,-38r94,-120r0,-2r-147,-42r20,-63r144,53r-6,-154r68,0r-7,154r146,-52r20,61r-148,43r0,2r94,120r-52,39r-86,-127r-2,0","w":477},"+":{"d":"42,-255r0,-58r231,0r0,-255r61,0r0,255r230,0r0,58r-230,0r0,255r-61,0r0,-255r-231,0"},",":{"d":"80,-82r73,0r-73,179r-57,0","w":215},"-":{"d":"74,-253r0,-62r284,0r0,62r-284,0","w":432},"\u00ad":{"d":"74,-253r0,-62r284,0r0,62r-284,0","w":432},".":{"d":"69,0r0,-80r77,0r0,80r-77,0","w":215},"\/":{"d":"3,42r254,-784r63,0r-253,784r-64,0","w":325},"0":{"d":"301,12v-183,0,-242,-160,-242,-364v0,-202,59,-363,242,-363v183,0,243,161,243,363v0,204,-60,364,-243,364xm301,-53v133,0,171,-131,171,-299v0,-167,-38,-298,-171,-298v-133,0,-171,131,-171,298v0,168,38,299,171,299","w":602},"1":{"d":"64,0r0,-62r157,0r1,-555v-6,-1,-7,12,-37,42r-75,75r-44,-45r159,-158r66,0r0,641r154,0r0,62r-381,0","w":476},"2":{"d":"42,-69v0,-261,372,-240,372,-448v0,-75,-55,-132,-144,-132v-70,0,-125,36,-125,76r0,33r-66,0r0,-52v0,-89,121,-123,193,-123v134,0,214,88,214,197v0,247,-372,241,-372,436v0,14,8,20,23,20r294,0v31,2,20,-41,22,-69r65,0r0,70v0,43,-18,61,-61,61r-352,0v-48,0,-63,-20,-63,-69","w":564},"3":{"d":"26,-86r42,-52v0,0,72,84,184,84v83,0,159,-62,159,-152v0,-95,-82,-148,-171,-148r-49,0r-16,-41r173,-208v17,-26,37,-36,36,-41v-54,5,-173,3,-240,3v-32,0,-20,41,-22,69r-65,0r0,-70v0,-43,16,-61,59,-61r357,0r0,46r-207,243v88,5,217,56,217,207v0,119,-99,219,-232,219v-139,0,-225,-98,-225,-98","w":528},"4":{"d":"15,-194r0,-46r342,-463r75,0r0,447r112,0r0,62r-112,0r0,194r-70,0r0,-194r-347,0xm363,-256r0,-287v0,-30,3,-68,3,-68v-6,-1,-18,27,-38,54r-195,258v-20,28,-38,41,-37,46v67,-5,189,-2,267,-3","w":562},"5":{"d":"54,-88r44,-49v0,0,53,83,163,83v100,0,175,-71,175,-164v0,-97,-81,-165,-182,-165v-79,0,-135,39,-135,39r-36,-15r30,-283v4,-43,18,-61,61,-61r231,0v42,0,60,18,60,61r0,70r-65,0v-2,-28,10,-69,-22,-69r-178,0v-14,0,-20,7,-22,22r-18,159v-1,26,-10,41,-4,40v0,0,44,-26,106,-26v143,0,246,102,246,229v0,125,-104,229,-247,229v-140,0,-207,-100,-207,-100","w":569},"6":{"d":"297,12v-153,0,-254,-137,-254,-321v0,-179,92,-406,309,-406v77,0,129,29,129,29r-26,61v0,0,-44,-25,-102,-25v-147,0,-222,147,-235,289r2,0v33,-55,106,-85,179,-85v128,0,219,92,219,223v0,146,-98,235,-221,235xm118,-264v0,93,73,211,178,211v95,0,151,-72,151,-169v0,-98,-63,-162,-159,-162v-94,0,-170,63,-170,120","w":560},"7":{"d":"79,0r306,-576v20,-41,40,-62,39,-67v0,0,-18,2,-53,2r-253,0v-31,-2,-20,41,-22,69r-66,0r0,-70v0,-43,17,-61,60,-61r415,0r0,48r-348,655r-78,0","w":512},"8":{"d":"47,-198v0,-123,125,-186,125,-186r0,-2v0,0,-96,-45,-96,-145v0,-97,76,-184,212,-184v133,0,215,78,215,187v0,107,-94,174,-94,174r0,2v66,34,113,79,113,161v0,110,-102,203,-236,203v-124,0,-239,-77,-239,-210xm281,-403v16,6,50,19,63,19v25,0,89,-69,89,-142v0,-76,-60,-124,-145,-124v-89,0,-142,53,-142,119v0,74,62,101,135,128xm119,-201v0,92,81,148,167,148v83,0,164,-57,164,-139v0,-73,-60,-102,-134,-132v-26,-11,-74,-28,-82,-28v-27,0,-115,64,-115,151","w":570},"9":{"d":"79,-17r26,-61v0,0,44,25,102,25v147,0,223,-148,235,-290r-2,0v-33,55,-106,86,-179,86v-128,0,-218,-92,-218,-223v0,-146,97,-235,220,-235v153,0,254,137,254,321v0,179,-91,406,-309,406v-77,0,-129,-29,-129,-29xm272,-319v94,0,170,-63,170,-120v0,-93,-73,-211,-178,-211v-95,0,-151,72,-151,169v0,98,63,162,159,162","w":560},":":{"d":"103,-423r0,-80r77,0r0,80r-77,0xm103,0r0,-80r77,0r0,80r-77,0","w":283},";":{"d":"103,-423r0,-80r77,0r0,80r-77,0xm54,97r48,-179r73,0r-64,179r-57,0","w":283},"<":{"d":"69,-259r0,-50r452,-202r0,67r-367,159r0,2r367,159r0,67"},"=":{"d":"70,-342r0,-58r466,0r0,58r-466,0xm70,-168r0,-58r466,0r0,58r-466,0"},">":{"d":"77,-57r0,-67r367,-159r0,-2r-367,-159r0,-67r452,202r0,50"},"?":{"d":"153,-184r0,-45v0,-159,175,-181,175,-307v0,-64,-54,-115,-131,-115v-68,0,-121,43,-121,43r-37,-51v0,0,62,-57,161,-57v114,0,200,73,200,177v0,166,-179,180,-179,312r0,43r-68,0xm149,0r0,-77r77,0r0,77r-77,0","w":431},"@":{"d":"41,-242v0,-204,160,-367,356,-367v181,0,245,92,245,189r0,315r71,0r0,56r-269,0v-115,0,-200,-88,-200,-192v0,-103,84,-192,200,-192r130,0v-2,-62,-54,-117,-172,-117v-164,0,-291,140,-291,308v0,170,125,306,296,306r0,60v-208,0,-366,-163,-366,-366xm314,-242v0,76,59,137,136,137r124,0r0,-275r-122,0v-79,0,-138,63,-138,138","w":739},"A":{"d":"12,0r0,-62v25,0,41,1,49,-22r230,-619r75,0r230,619v8,23,22,22,48,22r0,62v-65,1,-94,0,-115,-58r-61,-166r-279,0r-62,166v-18,60,-49,59,-115,58xm208,-285r241,0r-93,-251v-12,-33,-27,-91,-27,-91r-2,0v-26,100,-83,241,-119,342","w":657},"B":{"d":"105,-61r0,-580r-65,0r0,-62r299,0v110,0,190,67,190,177v0,77,-39,128,-90,153r0,2v72,20,118,89,118,174v0,125,-92,197,-210,197r-181,0v-43,0,-61,-18,-61,-61xm175,-398r163,0v71,0,119,-50,119,-123v0,-72,-46,-120,-120,-120r-162,0r0,243xm175,-84v0,15,8,22,22,22r150,0v85,0,137,-53,137,-137v0,-84,-56,-139,-138,-139r-171,0r0,254"},"C":{"d":"38,-357v0,-203,149,-358,347,-358v100,0,263,43,263,149r0,58r-66,0r0,-39v0,-66,-114,-102,-195,-102v-156,0,-276,122,-276,292v0,168,119,303,279,303v145,0,230,-99,230,-99r40,51v0,0,-97,114,-271,114v-206,0,-351,-164,-351,-369","w":694},"D":{"d":"107,-61r0,-580r-65,0r0,-62r282,0v212,0,353,129,353,351v0,224,-141,352,-353,352r-156,0v-43,0,-61,-18,-61,-61xm177,-84v0,15,8,22,22,22r118,0v173,0,287,-102,287,-290v0,-187,-115,-289,-287,-289r-140,0r0,557","w":715},"E":{"d":"107,-61r0,-580r-65,0r0,-62r402,0v43,0,61,18,61,61r0,70r-66,0v-2,-28,10,-69,-22,-69r-240,0r0,256r264,0r0,62r-264,0r0,239v0,15,8,22,22,22r247,0v31,2,20,-41,22,-69r65,0r0,70v0,43,-18,61,-61,61r-304,0v-43,0,-61,-18,-61,-61","w":558},"F":{"d":"107,0r0,-641r-65,0r0,-62r374,0v43,0,60,18,60,61r0,70r-65,0v-2,-28,10,-69,-22,-69r-212,0r0,264r255,0r0,62r-255,0r0,315r-70,0","w":499},"G":{"d":"39,-353v0,-202,152,-362,351,-362v163,0,246,86,246,86r-41,52v0,0,-78,-72,-204,-72v-158,0,-279,127,-279,296v0,173,119,299,278,299v139,0,222,-103,222,-103r0,-87v1,-31,-38,-20,-65,-22r0,-62r70,0v43,0,61,18,61,61r0,267r-64,0r1,-83v-6,-1,-80,95,-232,95v-192,0,-344,-154,-344,-365","w":730},"H":{"d":"107,0r0,-619v1,-31,-38,-20,-65,-22r0,-62r74,0v43,0,61,18,61,61r0,259r404,0r0,-259v0,-43,18,-61,60,-61r75,0r0,62v-27,2,-65,-9,-65,22r0,619r-70,0r0,-321r-404,0r0,321r-70,0","w":757},"I":{"d":"46,0r0,-62r66,0r0,-579r-66,0r0,-62r201,0r0,62r-67,0r0,579r67,0r0,62r-201,0","w":293},"J":{"d":"24,-197r0,-28r70,0r0,24v0,111,66,147,129,147v62,0,127,-37,127,-145r0,-420v0,-15,-8,-22,-22,-22r-174,0r0,-62r205,0v43,0,61,18,61,61r0,445v0,152,-101,209,-198,209v-97,0,-198,-58,-198,-209","w":505},"K":{"d":"107,0r0,-619v1,-31,-38,-20,-65,-22r0,-62r74,0v43,0,61,18,61,61r0,244v55,-4,120,14,143,-25r170,-280r80,0r-181,295v-19,32,-37,36,-36,41v0,0,17,6,34,40r122,242v11,27,37,23,71,23r0,62r-37,0v-57,0,-74,-6,-97,-53r-128,-257v-19,-41,-88,-22,-141,-26r0,336r-70,0","w":590},"L":{"d":"107,-61r0,-558v1,-31,-38,-20,-65,-22r0,-62r74,0v43,0,61,18,61,61r0,558v0,15,8,22,22,22r233,0v31,2,20,-41,22,-69r66,0r0,70v0,43,-18,61,-61,61r-291,0v-43,0,-61,-18,-61,-61","w":530},"M":{"d":"22,0r0,-62v27,-1,57,7,59,-22r49,-619r71,0r186,409v17,36,35,83,35,83v6,2,19,-45,36,-83r186,-409r71,0r49,619v0,30,33,21,60,22r0,62r-68,0v-43,0,-58,-18,-61,-61r-33,-427v-3,-38,-3,-98,-3,-98r-2,0v0,0,-19,62,-36,98r-167,357r-63,0r-166,-357v-16,-35,-37,-100,-37,-100r-2,0v0,0,0,62,-3,100r-33,427v-3,43,-18,61,-61,61r-67,0","w":845},"N":{"d":"42,0r0,-62v27,-2,65,9,65,-22r0,-619r64,0r359,501v24,35,57,92,57,92r2,0v0,0,-5,-55,-5,-92r0,-440v0,-43,18,-61,61,-61r74,0r0,62v-27,2,-65,-9,-65,22r0,619r-64,0r-359,-501v-25,-34,-58,-91,-58,-91r-2,0v0,0,6,54,6,91r0,440v0,43,-18,61,-61,61r-74,0","w":760},"O":{"d":"38,-356v0,-202,158,-359,358,-359v199,0,358,157,358,359v0,206,-159,368,-358,368v-200,0,-358,-162,-358,-368xm111,-356v0,170,127,302,285,302v157,0,285,-132,285,-302v0,-166,-128,-293,-285,-293v-158,0,-285,127,-285,293","w":791},"P":{"d":"107,0r0,-641r-65,0r0,-62r297,0v125,0,217,82,217,212v0,131,-92,215,-217,215r-162,0r0,276r-70,0xm177,-338r153,0v93,0,154,-57,154,-153v0,-95,-61,-150,-153,-150r-154,0r0,303","w":579},"Q":{"d":"38,-356v0,-202,157,-359,356,-359v202,0,360,157,360,359v0,92,-34,178,-88,242r86,86r-43,45r-86,-87v-62,53,-141,82,-229,82v-199,0,-356,-163,-356,-368xm111,-356v0,169,124,302,283,302v111,0,180,-64,180,-64r-84,-85r43,-45r83,86v40,-51,65,-121,65,-194v0,-166,-125,-292,-287,-292v-159,0,-283,126,-283,292","w":791},"R":{"d":"107,0r0,-641r-65,0r0,-62r298,0v118,0,202,78,202,200v0,109,-67,173,-136,188v-1,6,13,7,24,30r101,200v11,25,33,23,64,23r0,62r-31,0v-57,0,-74,-7,-97,-53r-101,-201v-19,-37,-32,-42,-71,-42r-118,0r0,296r-70,0xm177,-358r156,0v84,0,136,-55,136,-143v0,-87,-52,-140,-135,-140r-157,0r0,283","w":605},"S":{"d":"37,-88r43,-51v0,0,71,86,182,86v77,0,139,-50,139,-125v0,-174,-347,-139,-347,-357v0,-98,85,-180,215,-180v68,0,190,29,190,121r0,50r-66,0r0,-33v0,-42,-58,-73,-123,-73v-91,0,-144,53,-144,113v0,163,347,123,347,355v0,105,-81,194,-213,194v-144,0,-223,-100,-223,-100","w":518},"T":{"d":"275,0r0,-641r-174,0v-31,-3,-20,41,-22,69r-64,0r0,-74v0,-43,14,-57,57,-57r476,0v43,0,57,14,57,57r0,74r-65,0v-2,-28,11,-69,-22,-69r-173,0r0,641r-70,0","w":620},"U":{"d":"99,-241r0,-378v1,-31,-38,-20,-65,-22r0,-62r74,0v43,0,61,18,61,61r0,398v0,117,74,190,189,190v115,0,190,-73,190,-192r0,-396v0,-43,18,-61,61,-61r74,0r0,62v-27,2,-65,-9,-65,22r0,378v0,152,-104,253,-259,253v-155,0,-260,-101,-260,-253","w":717},"V":{"d":"289,0r-231,-619v-8,-22,-21,-22,-46,-22r0,-62v64,-1,92,0,113,58r173,473v13,36,27,91,27,91r2,0v0,0,14,-55,27,-91r173,-473v18,-60,48,-59,113,-58r0,62v-24,0,-37,0,-45,22r-231,619r-75,0","w":653},"W":{"d":"227,0r-161,-619v-6,-23,-24,-22,-49,-22r0,-62v63,-1,101,-1,116,58r122,485v9,36,15,75,15,75r2,0v0,0,9,-39,19,-75r155,-540r69,0r141,540v10,36,16,75,16,75r2,0v0,0,7,-39,16,-75r122,-485v12,-60,52,-59,116,-58r0,62v-25,0,-43,-1,-48,22r-162,619r-83,0r-131,-489v-12,-45,-23,-104,-23,-104r-2,0v0,0,-12,58,-25,103r-144,490r-83,0","w":945},"X":{"d":"15,0r224,-367r-152,-248v-19,-29,-36,-26,-71,-26r0,-62v71,-1,100,-2,134,56r90,151r45,80v6,1,22,-42,45,-80r90,-151v32,-59,63,-57,134,-56r0,62v-35,0,-52,-3,-71,26r-153,248r225,367r-80,0r-146,-242r-45,-77v-6,-1,-21,40,-44,78r-145,241r-80,0","w":570},"Y":{"d":"261,0r0,-306r-188,-309v-16,-26,-31,-27,-63,-26r0,-62v66,-1,89,-2,123,56r119,199v25,38,39,80,45,79v36,-71,117,-201,162,-278v34,-58,56,-57,123,-56r0,62v-31,-1,-47,0,-62,26r-189,309r0,306r-70,0","w":592},"Z":{"d":"19,0r0,-49r377,-528v26,-40,52,-61,51,-66v0,0,-17,2,-51,2r-280,0v-31,-2,-20,41,-22,69r-65,0r0,-70v0,-43,18,-61,61,-61r443,0r0,49r-376,528v-26,40,-53,61,-52,66v0,0,17,-2,52,-2r303,0v31,2,20,-41,22,-69r65,0r0,70v0,43,-18,61,-61,61r-467,0","w":575},"[":{"d":"101,34r0,-703v0,-43,18,-61,61,-61r74,0r0,56v-29,3,-72,-11,-72,22r0,669v-1,33,43,19,72,22r0,56r-74,0v-43,0,-61,-18,-61,-61","w":303},"\\":{"d":"259,42r-254,-784r64,0r253,784r-63,0","w":317},"]":{"d":"67,39v29,-3,72,11,72,-22r0,-669v1,-33,-43,-19,-72,-22r0,-56r74,0v43,0,61,18,61,61r0,703v0,43,-18,61,-61,61r-74,0r0,-56","w":303},"^":{"d":"73,-250r198,-453r47,0r198,453r-65,0r-156,-370r-156,370r-66,0"},"_":{"d":"5,0r516,0r0,58r-516,0r0,-58","w":526},"`":{"d":"180,-752r-87,-119r76,0r70,119r-59,0","w":360},"a":{"d":"40,-137v0,-167,221,-173,308,-173r28,0v2,-107,-36,-149,-130,-148v-25,0,-98,7,-98,44r0,32r-65,0r0,-48v0,-70,120,-85,164,-85v159,0,197,85,197,193r0,241v-1,31,37,20,64,22r0,59r-69,0v-43,0,-60,-19,-60,-60v0,-23,5,-38,-1,-37v1,0,-41,109,-167,109v-84,0,-171,-49,-171,-149xm110,-141v0,47,37,95,112,95v103,0,160,-105,154,-210r-29,0v-79,0,-237,2,-237,115","w":529},"b":{"d":"84,0r0,-622v1,-30,-37,-21,-64,-22r0,-59r71,0v43,0,61,18,61,61r0,182v2,24,-6,42,0,41v0,0,42,-96,171,-96v135,0,219,108,219,264v0,159,-95,263,-227,263v-120,0,-165,-97,-165,-97r-2,0v2,6,3,66,2,85r-66,0xm150,-250v0,101,52,202,160,202v89,0,162,-75,162,-203v0,-123,-66,-202,-159,-202v-84,0,-163,60,-163,203","w":584},"c":{"d":"40,-251v0,-154,115,-264,265,-264v57,0,179,24,179,107r0,45r-64,0r0,-29v0,-42,-73,-62,-115,-62v-108,0,-195,81,-195,203v0,124,91,201,197,201v103,0,162,-71,162,-71r32,51v0,0,-68,82,-197,82v-150,0,-264,-107,-264,-263","w":528},"d":{"d":"42,-252v0,-159,94,-263,226,-263v122,0,164,94,164,94r2,0v-4,-53,-2,-141,-2,-201v0,-30,-37,-21,-64,-22r0,-59r71,0v43,0,61,18,61,61r0,561v-1,31,37,20,64,22r0,59r-70,0v-42,0,-60,-19,-60,-56v0,-20,6,-33,0,-32v0,0,-41,100,-173,100v-135,0,-219,-108,-219,-264xm271,-49v84,0,163,-60,163,-203v0,-102,-52,-202,-160,-202v-89,0,-162,75,-162,202v0,124,65,203,159,203","w":588},"e":{"d":"40,-251v0,-165,113,-264,248,-264v150,0,223,120,209,266r-386,0v2,127,91,200,195,200v92,0,151,-62,151,-62r33,51v0,0,-73,72,-187,72v-149,0,-263,-108,-263,-263xm114,-303r315,0v-4,-104,-68,-155,-142,-155v-83,0,-156,54,-173,155","w":548},"f":{"d":"88,0r0,-446r-63,0r0,-57r63,0r0,-18v0,-166,117,-187,173,-187v19,0,31,2,31,2r0,61v0,0,-9,-2,-24,-2v-38,0,-112,14,-112,126r0,18r128,0r0,57r-128,0r0,446r-68,0","w":305},"g":{"d":"42,-261v0,-151,83,-254,218,-254v135,0,167,86,167,86r2,0v-3,-47,8,-75,57,-74r70,0r0,59v-27,2,-63,-9,-63,22r0,410v0,228,-242,264,-406,182r26,-57v0,0,62,35,136,35v98,0,176,-46,176,-158r1,-80r-2,0v-30,55,-80,87,-158,87v-135,0,-224,-107,-224,-258xm276,-64v80,0,150,-49,150,-197v0,-147,-70,-192,-159,-192v-98,0,-155,71,-155,191v0,120,65,198,164,198","w":579},"h":{"d":"342,-451v-105,0,-190,83,-190,210r0,241r-68,0r0,-622v1,-30,-37,-21,-64,-22r0,-59r71,0v43,0,61,18,61,59r0,213v2,24,-6,42,0,41v19,-48,86,-125,199,-125v125,0,169,71,169,195r0,239v-1,31,37,20,64,22r0,59r-71,0v-43,0,-61,-18,-61,-61r0,-241v0,-79,-12,-149,-110,-149","w":605},"i":{"d":"90,-617r0,-86r66,0r0,86r-66,0xm92,-61r0,-361v1,-30,-37,-21,-64,-22r0,-59r71,0v43,0,61,18,61,61r0,361v-1,31,37,20,64,22r0,59r-71,0v-43,0,-61,-18,-61,-61","w":251},"j":{"d":"114,-617r0,-86r65,0r0,86r-65,0xm-21,144v0,0,9,1,22,1v39,0,114,-14,114,-129r0,-438v1,-30,-37,-21,-64,-22r0,-59r71,0v43,0,61,18,61,61r0,461v0,167,-118,187,-175,187v-18,0,-29,-3,-29,-3r0,-59","w":268},"k":{"d":"84,0r0,-622v1,-30,-37,-21,-64,-22r0,-59r71,0v43,0,61,15,61,58r0,334v47,-1,85,7,109,-24r129,-168r83,0r-145,184v-26,34,-39,32,-38,38v0,0,15,7,31,37r91,163v8,24,39,22,73,22r0,59r-47,0v-50,0,-64,-8,-87,-50r-100,-180v-21,-31,-57,-20,-99,-22r0,252r-68,0","w":498},"l":{"d":"86,-61r0,-561v1,-30,-37,-21,-64,-22r0,-59r71,0v43,0,61,18,61,61r0,561v-1,31,37,20,64,22r0,59r-71,0v-43,0,-61,-18,-61,-61","w":245},"m":{"d":"669,-453v-98,0,-168,97,-168,215r0,238r-68,0r0,-303v0,-76,-11,-150,-106,-150v-82,0,-143,71,-164,148v-6,21,-8,44,-8,67r0,238r-68,0r0,-422v1,-30,-37,-21,-64,-22r0,-59r70,0v51,-1,61,28,61,79v0,21,-6,37,0,36v25,-68,104,-127,182,-127v93,0,141,43,156,126r2,0v27,-68,100,-126,185,-126v122,0,167,71,167,195r0,239v-1,31,37,20,64,22r0,59r-71,0v-43,0,-61,-18,-61,-61r0,-242v0,-82,-17,-150,-109,-150","w":931},"n":{"d":"346,-451v-106,0,-191,83,-191,210r0,241r-68,0r0,-422v1,-30,-37,-21,-64,-22r0,-59r70,0v51,-1,61,28,61,79v0,21,-6,37,0,36v18,-46,82,-127,200,-127v125,0,169,71,169,195r0,239v-1,31,37,20,64,22r0,59r-71,0v-43,0,-61,-18,-61,-61r0,-241v0,-79,-12,-149,-109,-149","w":608},"o":{"d":"40,-254v0,-149,119,-261,265,-261v147,0,266,112,266,261v0,152,-119,266,-265,266v-147,0,-266,-114,-266,-266xm110,-254v0,117,88,205,196,205v107,0,195,-88,195,-205v0,-114,-88,-199,-195,-199v-108,0,-196,85,-196,199","w":611},"p":{"d":"87,200r0,-622v1,-30,-37,-21,-64,-22r0,-59r69,0v43,0,60,18,60,53v0,21,-4,35,1,34v0,0,40,-99,173,-99v135,0,219,108,219,264v0,159,-95,263,-225,263v-123,0,-165,-95,-165,-95r-2,0v0,0,2,18,2,44r0,239r-68,0xm153,-250v0,101,55,202,160,202v89,0,162,-75,162,-203v0,-123,-65,-202,-159,-202v-84,0,-163,60,-163,203","w":587},"q":{"d":"43,-252v0,-159,94,-263,226,-263v123,0,166,97,166,97r2,0v0,0,-1,-14,-1,-33v0,-35,18,-52,60,-52r69,0r0,59v-27,1,-64,-8,-64,22r0,622r-68,0r0,-241v-2,-27,6,-45,0,-44v0,0,-42,97,-171,97v-135,0,-219,-108,-219,-264xm272,-49v84,0,163,-60,163,-203v0,-102,-53,-202,-160,-202v-89,0,-163,75,-163,202v0,124,66,203,160,203","w":588},"r":{"d":"340,-438v-120,-18,-185,102,-185,226r0,212r-68,0r0,-422v1,-30,-37,-21,-64,-22r0,-59r70,0v56,-3,61,35,61,91v0,22,-6,39,0,38v28,-83,89,-147,186,-131r0,67","w":362},"s":{"d":"29,-76r39,-47v0,0,56,76,155,76v56,0,106,-27,106,-80v0,-110,-282,-90,-282,-252v0,-91,78,-136,179,-136v51,0,153,20,153,91r0,43r-64,0r0,-24v0,-37,-54,-51,-87,-51v-70,0,-112,24,-112,73v0,113,282,87,282,254v0,84,-76,141,-176,141v-131,0,-193,-88,-193,-88","w":440},"t":{"d":"93,-183r0,-263r-66,0r0,-57r67,0r0,-139r67,0r0,139r126,0r0,57r-126,0r0,256v0,118,75,133,113,133v14,0,23,-2,23,-2r0,61v0,0,-12,2,-29,2v-58,0,-175,-19,-175,-187","w":335},"u":{"d":"85,-183r0,-239v1,-30,-37,-21,-64,-22r0,-59r71,0v43,0,61,18,61,59r0,243v0,79,13,149,110,149v114,0,185,-101,185,-210r0,-241r68,0r0,422v-1,31,37,20,64,22r0,59r-69,0v-51,1,-61,-28,-61,-79v0,-21,6,-37,0,-36v-20,49,-86,127,-196,127v-119,0,-169,-64,-169,-195","w":603},"v":{"d":"222,0r-164,-421v-8,-21,-20,-24,-44,-23r0,-59v61,-1,86,2,107,55r121,314v9,25,17,59,17,59v6,2,9,-33,19,-59r121,-314v18,-54,44,-56,105,-55r0,59v-23,-1,-36,2,-44,23r-164,421r-74,0","w":518},"w":{"d":"202,0r-144,-421v-7,-22,-23,-24,-48,-23r0,-59v64,-1,95,-3,114,56r103,319v10,25,11,56,17,54v0,0,8,-30,16,-54r123,-373r68,0r123,373v10,25,12,56,18,54v31,-120,83,-253,118,-373v17,-59,50,-57,114,-56r0,59v-25,-1,-41,0,-49,23r-144,421r-75,0r-123,-358v-10,-26,-11,-56,-17,-54v0,0,-7,29,-16,54r-122,358r-76,0","w":834},"x":{"d":"19,0r175,-262r-109,-161v-15,-23,-35,-21,-67,-21r0,-59r37,0v51,0,64,8,94,55r72,112v10,14,14,31,19,30v26,-51,61,-94,89,-142v34,-57,58,-56,130,-55r0,59v-31,0,-52,-2,-67,20r-109,162r176,262r-80,0r-123,-187v-10,-14,-13,-29,-18,-28v0,0,-8,14,-17,28r-123,187r-79,0","w":477},"y":{"d":"40,111v0,1,32,38,75,38v71,1,97,-94,123,-151r-177,-419v-9,-21,-20,-24,-45,-23r0,-59v61,-1,85,0,108,55r129,314v12,26,14,55,20,54v0,0,7,-29,17,-54r124,-314v18,-56,47,-56,109,-55r0,59v-24,-1,-37,2,-45,23r-217,526v-26,64,-77,105,-144,105v-70,0,-109,-49,-109,-49","w":539},"z":{"d":"39,0r0,-44r283,-353v19,-27,41,-43,40,-48v-59,4,-166,2,-234,2v-29,0,-21,35,-22,61r-64,0r0,-60v0,-43,18,-61,61,-61r349,0r0,45r-282,352v-20,27,-43,43,-42,48v0,0,18,-2,51,-2r208,0v29,2,21,-35,22,-61r64,0r0,60v0,43,-18,61,-61,61r-373,0","w":499},"{":{"d":"118,-83r0,-95v0,-104,-85,-114,-85,-114r0,-62v0,0,85,-10,85,-115r0,-82v0,-165,109,-179,149,-179r15,0r0,56r-9,0v-25,0,-92,9,-92,125r0,98v0,98,-80,127,-80,127r0,2v0,0,80,25,80,127r0,110v0,115,67,125,92,125r9,0r0,56v0,0,-6,1,-15,1v-40,0,-149,-14,-149,-180","w":326},"|":{"d":"111,157r0,-945r63,0r0,945r-63,0","w":285},"}":{"d":"44,40r10,0v24,0,91,-10,91,-125r0,-110v0,-102,80,-127,80,-127r0,-2v0,0,-80,-29,-80,-127r0,-98v0,-116,-67,-125,-91,-125r-10,0r0,-56r16,0v39,0,148,14,148,179r0,82v0,105,85,115,85,115r0,62v0,0,-85,10,-85,114r0,95v0,166,-109,180,-148,180v-10,0,-16,-1,-16,-1r0,-56","w":326},"~":{"d":"67,-209v0,-110,52,-155,127,-155v110,0,114,104,199,104v60,0,71,-63,71,-100r59,0v0,110,-52,155,-127,155v-110,0,-114,-104,-199,-104v-60,0,-71,63,-71,100r-59,0"},"\u00a1":{"d":"109,-426r0,-77r77,0r0,77r-77,0xm113,200r3,-519r64,0r3,519r-70,0","w":297},"\u00a2":{"d":"256,39r0,-111v-131,-15,-201,-134,-201,-280v0,-145,70,-264,201,-279r0,-111r57,0r0,111v85,10,144,67,179,148r-64,24v-27,-63,-71,-108,-140,-108v-110,0,-162,95,-162,215v0,122,51,215,162,215v69,0,113,-44,140,-108r64,25v-34,77,-92,140,-179,148r0,111r-57,0","w":545},"\u00a3":{"d":"54,0r0,-62r63,0r0,-264r-45,0r0,-55r45,0r0,-149v0,-105,86,-185,206,-185v95,0,157,57,157,57r-43,50v0,0,-48,-42,-114,-42v-87,0,-136,57,-136,124r0,145r191,0r0,55r-191,0r0,264r263,0v31,2,20,-41,22,-69r65,0r0,70v0,43,-18,61,-61,61r-422,0","w":582},"\u00a5":{"d":"107,-213r0,-52r162,0r0,-41r-29,-46r-137,0r0,-51r105,0r0,-2r-131,-214v-14,-21,-32,-23,-60,-22r0,-62v64,-1,90,0,123,56r119,199v25,38,39,79,45,78v36,-70,118,-200,163,-277v32,-55,58,-57,122,-56r0,62v-28,-1,-46,1,-60,22r-130,214r0,2r100,0r0,51r-133,0r-27,46r0,41r160,0r0,52r-160,0r0,213r-70,0r0,-213r-162,0","w":607},"\u00a7":{"d":"145,-85r-68,-434v-21,-113,53,-195,168,-196v69,0,116,42,116,42r-35,47v0,0,-34,-29,-81,-29v-71,0,-118,56,-106,138r66,432r-60,0xm60,20r35,-48v0,0,35,30,82,30v71,0,117,-59,105,-141r-65,-429r60,0r68,434v21,114,-54,195,-169,196v-69,0,-116,-42,-116,-42","w":415},"\u00a8":{"d":"307,-785r0,-86r59,0r0,86r-59,0xm157,-785r0,-86r59,0r0,86r-59,0","w":493},"\u00a9":{"d":"41,-352v0,-202,158,-363,353,-363v199,0,358,161,358,363v0,204,-159,364,-358,364v-195,0,-353,-160,-353,-364xm100,-352v0,175,128,310,294,310v170,0,300,-135,300,-310v0,-173,-130,-309,-300,-309v-166,0,-294,136,-294,309xm198,-350v0,-105,74,-206,206,-206v110,0,163,93,163,93r-46,31v0,0,-41,-69,-115,-69v-97,0,-149,73,-149,150v0,77,51,150,149,150v75,0,115,-69,115,-69r46,31v0,0,-54,93,-163,93v-132,0,-206,-99,-206,-204","w":793},"\u00aa":{"d":"170,-382v-57,0,-110,-34,-110,-96v0,-105,134,-110,190,-110r13,0v-1,-57,-21,-77,-71,-77v-13,0,-52,2,-52,20r0,24r-53,0r0,-39v0,-44,78,-53,106,-53v161,-1,119,131,125,265v0,16,25,7,38,9r0,51v-48,1,-96,7,-89,-51v-6,-1,-24,57,-97,57xm177,-430v55,0,85,-55,87,-114v-54,0,-147,-2,-147,63v0,26,20,51,60,51xm58,-264r0,-47r303,0r0,47r-303,0","w":414},"\u00ab":{"d":"217,-282r164,-206r74,0r-164,206r164,205r-74,0xm202,-77r-164,-205r164,-206r73,0r-164,206r164,205r-73,0","w":522},"\u00ac":{"d":"70,-342r0,-58r466,0r0,242r-61,0r0,-184r-405,0"},"\u00ae":{"d":"41,-352v0,-202,158,-363,353,-363v199,0,358,161,358,363v0,204,-159,364,-358,364v-195,0,-353,-160,-353,-364xm100,-352v0,175,128,310,294,310v170,0,300,-135,300,-310v0,-173,-130,-309,-300,-309v-166,0,-294,136,-294,309xm276,-157r0,-343r-36,0r0,-47r175,0v69,0,117,46,117,116v0,58,-37,94,-73,103v-1,6,10,3,20,23r45,90v9,15,20,13,37,13r0,45v-42,-1,-67,5,-85,-30r-54,-106v-14,-35,-51,-18,-90,-22r0,158r-56,0xm332,-359r73,0v42,0,69,-27,69,-72v0,-44,-27,-69,-69,-69r-73,0r0,141","w":793},"\u00af":{"d":"112,-785r0,-54r246,0r0,54r-246,0","w":461},"\u02c9":{"d":"112,-785r0,-54r246,0r0,54r-246,0","w":461},"\u00b0":{"d":"191,-436v-78,0,-140,-62,-140,-139v0,-76,62,-139,140,-139v78,0,141,63,141,139v0,77,-63,139,-141,139xm191,-492v46,0,82,-37,82,-83v0,-45,-36,-83,-82,-83v-46,0,-80,38,-80,83v0,46,34,83,80,83","w":383},"\u00b1":{"d":"42,-255r0,-58r231,0r0,-255r61,0r0,255r230,0r0,58r-230,0r0,255r-61,0r0,-255r-231,0xm60,104r486,0r0,58r-486,0r0,-58"},"\u00b2":{"d":"96,-265v-33,0,-45,-12,-45,-50v0,-87,65,-124,126,-159v50,-28,98,-56,98,-111v0,-41,-30,-72,-79,-72v-38,0,-68,19,-68,40r0,26r-54,0r0,-39v0,-58,79,-81,122,-81v87,0,137,55,137,126v0,84,-68,119,-128,154v-49,28,-97,57,-97,108v0,5,3,6,9,6r175,0v4,0,6,-2,6,-7r0,-35r54,0r0,50v0,31,-13,44,-44,44r-212,0","w":409},"\u00b3":{"d":"198,-257v-88,0,-148,-72,-148,-72r40,-39v0,0,45,57,109,57v45,0,88,-35,88,-86v0,-51,-45,-81,-94,-81r-35,0r-10,-34r96,-117v10,-14,24,-21,23,-26v-27,5,-95,3,-131,3v-16,-1,-8,25,-10,39r-54,0r0,-43v0,-35,11,-47,47,-47r221,0r0,39r-118,138v55,5,123,47,123,130v0,81,-68,139,-147,139","w":409},"\u00b4":{"d":"115,-752r70,-119r76,0r-87,119r-59,0","w":371},"\u00b5":{"d":"21,-444r0,-59r71,0v43,0,61,18,61,59r0,243v0,79,13,149,110,149v114,0,185,-101,185,-210r0,-241r68,0r0,422v-1,31,37,20,64,22r0,59r-69,0v-52,1,-61,-28,-61,-79v0,-22,7,-38,-1,-36v0,0,-49,127,-195,127v-87,0,-107,-43,-113,-42v9,49,7,163,7,230r-63,0r0,-622v1,-30,-37,-21,-64,-22","w":603},"\u03bc":{"d":"21,-444r0,-59r71,0v43,0,61,18,61,59r0,243v0,79,13,149,110,149v114,0,185,-101,185,-210r0,-241r68,0r0,422v-1,31,37,20,64,22r0,59r-69,0v-52,1,-61,-28,-61,-79v0,-22,7,-38,-1,-36v0,0,-49,127,-195,127v-87,0,-107,-43,-113,-42v9,49,7,163,7,230r-63,0r0,-622v1,-30,-37,-21,-64,-22","w":603},"\u00b6":{"d":"282,50r0,-291v-129,0,-239,-102,-239,-232v0,-130,109,-230,238,-230r239,0r0,62r-181,0r0,691r-57,0xm401,50r0,-631r58,0r0,631r-58,0","w":574},"\u00b7":{"d":"69,-248r0,-80r77,0r0,80r-77,0","w":215},"\u2219":{"d":"69,-248r0,-80r77,0r0,80r-77,0","w":215},"\u00b8":{"d":"158,-20r40,7v-1,26,-8,45,-12,68v41,6,71,31,71,71v0,58,-48,79,-97,79v-29,0,-49,-5,-49,-5r0,-48v0,0,19,6,42,6v26,0,51,-7,51,-34v0,-26,-37,-38,-72,-33","w":413},"\u00b9":{"d":"80,-265r0,-52r94,0r1,-309v-5,-1,-5,9,-15,18r-45,44r-36,-37r102,-102r51,0r0,386r93,0r0,52r-245,0","w":409},"\u00ba":{"d":"228,-383v-92,0,-167,-72,-167,-167v0,-93,75,-164,167,-164v92,0,167,71,167,164v0,95,-75,167,-167,167xm228,-434v62,0,112,-49,112,-116v0,-66,-50,-114,-112,-114v-62,0,-112,48,-112,114v0,67,50,116,112,116xm78,-264r0,-47r303,0r0,47r-303,0","w":456},"\u00bb":{"d":"246,-77r164,-205r-164,-206r74,0r164,206r-164,205r-74,0xm66,-77r164,-205r-164,-206r74,0r164,206r-164,205r-74,0","w":522},"\u00bc":{"d":"269,0r297,-703r62,0r-296,703r-63,0xm78,-265r0,-52r94,0r1,-309v-5,-1,-5,9,-15,18r-45,44r-36,-37r102,-102r50,0r0,386r92,0r0,52r-243,0xm496,-117r0,-37r208,-284r60,0r0,269r67,0r0,52r-67,0r0,117r-57,0r0,-117r-211,0xm564,-168r144,-1r1,-192v-5,-1,-6,13,-18,27r-113,149v-6,9,-14,15,-14,17","w":890},"\u00bd":{"d":"258,0r297,-703r62,0r-296,703r-63,0xm78,-265r0,-52r94,0r1,-309v-5,-1,-5,9,-15,18r-45,44r-36,-37r102,-102r50,0r0,386r92,0r0,52r-243,0xm519,-50v0,-87,65,-125,126,-159v50,-28,98,-56,98,-111v0,-41,-30,-72,-79,-72v-38,0,-68,19,-68,40r0,25r-54,0r0,-38v0,-59,79,-81,122,-81v87,0,137,55,137,126v0,83,-68,119,-128,154v-49,28,-96,57,-96,107v0,5,2,7,8,7r175,0v4,0,6,-2,6,-7r0,-35r54,0r0,50v0,30,-13,44,-44,44r-212,0v-33,0,-45,-12,-45,-50","w":890},"\u00be":{"d":"268,0r297,-703r62,0r-296,703r-63,0xm210,-257v-88,0,-148,-72,-148,-72r40,-39v0,0,45,57,109,57v45,0,88,-35,88,-86v0,-51,-45,-81,-94,-81r-35,0r-10,-34r96,-117v10,-14,24,-21,23,-26v-27,5,-95,3,-131,3v-16,-1,-8,25,-10,39r-54,0r0,-43v0,-35,11,-47,47,-47r221,0r0,39r-118,138v55,5,123,47,123,130v0,81,-68,139,-147,139xm496,-117r0,-37r208,-284r60,0r0,269r67,0r0,52r-67,0r0,117r-57,0r0,-117r-211,0xm564,-168r144,-1r1,-192v-5,-1,-6,13,-18,27r-113,149v-6,9,-14,15,-14,17","w":890},"\u00bf":{"d":"205,-426r0,-77r77,0r0,77r-77,0xm31,33v0,-165,179,-180,179,-312r0,-40r67,0r0,43v0,158,-174,180,-174,306v0,64,54,115,131,115v68,0,121,-42,121,-42r37,50v0,0,-62,57,-161,57v-114,0,-200,-73,-200,-177","w":431},"\u00c0":{"d":"12,0r0,-62v25,0,41,1,49,-22r230,-619r75,0r230,619v8,23,22,22,48,22r0,62v-65,1,-94,0,-115,-58r-61,-166r-279,0r-62,166v-18,60,-49,59,-115,58xm208,-285r241,0r-93,-251v-12,-33,-27,-91,-27,-91r-2,0v-26,100,-83,241,-119,342xm299,-752r-87,-119r76,0r70,119r-59,0","w":657},"\u00c1":{"d":"12,0r0,-62v25,0,41,1,49,-22r230,-619r75,0r230,619v8,23,22,22,48,22r0,62v-65,1,-94,0,-115,-58r-61,-166r-279,0r-62,166v-18,60,-49,59,-115,58xm208,-285r241,0r-93,-251v-12,-33,-27,-91,-27,-91r-2,0v-26,100,-83,241,-119,342xm299,-752r70,-119r76,0r-87,119r-59,0","w":657},"\u00c2":{"d":"12,0r0,-62v25,0,41,1,49,-22r230,-619r75,0r230,619v8,23,22,22,48,22r0,62v-65,1,-94,0,-115,-58r-61,-166r-279,0r-62,166v-18,60,-49,59,-115,58xm208,-285r241,0r-93,-251v-12,-33,-27,-91,-27,-91r-2,0v-26,100,-83,241,-119,342xm211,-752r83,-119r70,0r83,119r-63,0r-54,-81r-2,0r-54,81r-63,0","w":657},"\u00c3":{"d":"12,0r0,-62v25,0,41,1,49,-22r230,-619r75,0r230,619v8,23,22,22,48,22r0,62v-65,1,-94,0,-115,-58r-61,-166r-279,0r-62,166v-18,60,-49,59,-115,58xm208,-285r241,0r-93,-251v-12,-33,-27,-91,-27,-91r-2,0v-26,100,-83,241,-119,342xm171,-755v0,-77,31,-117,93,-117v67,0,81,72,126,72v33,0,40,-43,40,-69r53,0v0,77,-32,117,-93,117v-68,0,-81,-71,-127,-71v-33,0,-40,42,-40,68r-52,0","w":657},"\u00c4":{"d":"12,0r0,-62v25,0,41,1,49,-22r230,-619r75,0r230,619v8,23,22,22,48,22r0,62v-65,1,-94,0,-115,-58r-61,-166r-279,0r-62,166v-18,60,-49,59,-115,58xm208,-285r241,0r-93,-251v-12,-33,-27,-91,-27,-91r-2,0v-26,100,-83,241,-119,342xm375,-785r0,-86r59,0r0,86r-59,0xm225,-785r0,-86r59,0r0,86r-59,0","w":657},"\u00c5":{"d":"12,0r0,-62v25,0,41,1,49,-22r230,-619r75,0r230,619v8,23,22,22,48,22r0,62v-65,1,-94,0,-115,-58r-61,-166r-279,0r-62,166v-18,60,-49,59,-115,58xm208,-285r241,0r-93,-251v-12,-33,-27,-91,-27,-91r-2,0v-26,100,-83,241,-119,342xm329,-741v-40,0,-74,-29,-74,-71v0,-42,34,-71,74,-71v40,0,74,29,74,71v0,42,-34,71,-74,71xm329,-779v19,0,33,-14,33,-33v0,-20,-14,-34,-33,-34v-19,0,-33,14,-33,34v0,19,13,33,33,33","w":657},"\u00c6":{"d":"12,0r0,-62v23,0,37,0,45,-22r238,-619r414,0v43,0,61,18,61,61r0,70r-66,0v-2,-28,10,-69,-22,-69r-232,0r0,256r256,0r0,62r-256,0r0,239v0,19,9,22,28,22r233,0v31,2,20,-41,22,-69r66,0r0,70v0,43,-18,61,-61,61r-288,0v-50,0,-70,-11,-70,-61r0,-262r-159,0r-100,265v-17,58,-45,59,-109,58xm244,-385r136,0r0,-256r-40,0","w":823},"\u00c7":{"d":"38,-357v0,-203,149,-358,347,-358v100,0,263,43,263,149r0,58r-66,0r0,-39v0,-66,-114,-102,-195,-102v-156,0,-276,122,-276,292v0,168,116,303,276,303v145,0,233,-98,233,-98r40,50v0,0,-94,110,-266,114r-9,43v41,6,70,31,70,71v0,58,-47,79,-96,79v-29,0,-49,-5,-49,-5r0,-48v0,0,19,6,42,6v26,0,50,-7,50,-34v0,-26,-36,-38,-71,-33r19,-81v-187,-17,-312,-173,-312,-367","w":694},"\u00c8":{"d":"107,-61r0,-580r-65,0r0,-62r402,0v43,0,61,18,61,61r0,70r-66,0v-2,-28,10,-69,-22,-69r-240,0r0,256r264,0r0,62r-264,0r0,239v0,15,8,22,22,22r247,0v31,2,20,-41,22,-69r65,0r0,70v0,43,-18,61,-61,61r-304,0v-43,0,-61,-18,-61,-61xm264,-752r-87,-119r76,0r70,119r-59,0","w":558},"\u00c9":{"d":"107,-61r0,-580r-65,0r0,-62r402,0v43,0,61,18,61,61r0,70r-66,0v-2,-28,10,-69,-22,-69r-240,0r0,256r264,0r0,62r-264,0r0,239v0,15,8,22,22,22r247,0v31,2,20,-41,22,-69r65,0r0,70v0,43,-18,61,-61,61r-304,0v-43,0,-61,-18,-61,-61xm264,-752r70,-119r76,0r-87,119r-59,0","w":558},"\u00ca":{"d":"107,-61r0,-580r-65,0r0,-62r402,0v43,0,61,18,61,61r0,70r-66,0v-2,-28,10,-69,-22,-69r-240,0r0,256r264,0r0,62r-264,0r0,239v0,15,8,22,22,22r247,0v31,2,20,-41,22,-69r65,0r0,70v0,43,-18,61,-61,61r-304,0v-43,0,-61,-18,-61,-61xm176,-752r83,-119r70,0r83,119r-63,0r-54,-81r-2,0r-54,81r-63,0","w":558},"\u00cb":{"d":"107,-61r0,-580r-65,0r0,-62r402,0v43,0,61,18,61,61r0,70r-66,0v-2,-28,10,-69,-22,-69r-240,0r0,256r264,0r0,62r-264,0r0,239v0,15,8,22,22,22r247,0v31,2,20,-41,22,-69r65,0r0,70v0,43,-18,61,-61,61r-304,0v-43,0,-61,-18,-61,-61xm340,-785r0,-86r59,0r0,86r-59,0xm190,-785r0,-86r59,0r0,86r-59,0","w":558},"\u00cc":{"d":"46,0r0,-62r66,0r0,-579r-66,0r0,-62r201,0r0,62r-67,0r0,579r67,0r0,62r-201,0xm116,-752r-87,-119r76,0r70,119r-59,0","w":293},"\u00cd":{"d":"46,0r0,-62r66,0r0,-579r-66,0r0,-62r201,0r0,62r-67,0r0,579r67,0r0,62r-201,0xm116,-752r70,-119r76,0r-87,119r-59,0","w":293},"\u00ce":{"d":"46,0r0,-62r66,0r0,-579r-66,0r0,-62r201,0r0,62r-67,0r0,579r67,0r0,62r-201,0xm28,-752r83,-119r70,0r83,119r-63,0r-54,-81r-2,0r-54,81r-63,0","w":293},"\u00cf":{"d":"46,0r0,-62r66,0r0,-579r-66,0r0,-62r201,0r0,62r-67,0r0,579r67,0r0,62r-201,0xm192,-785r0,-86r59,0r0,86r-59,0xm42,-785r0,-86r59,0r0,86r-59,0","w":293},"\u00d0":{"d":"107,-61r0,-262r-50,0r0,-60r50,0r0,-258r-65,0r0,-62r282,0v212,0,353,129,353,351v0,224,-141,352,-353,352r-156,0v-43,0,-61,-18,-61,-61xm177,-84v0,15,8,22,22,22r118,0v173,0,287,-102,287,-290v0,-187,-115,-289,-287,-289r-140,0r0,258r164,0r0,60r-164,0r0,239","w":715},"\u00d1":{"d":"42,0r0,-62v27,-2,65,9,65,-22r0,-619r64,0r359,501v24,35,57,92,57,92r2,0v0,0,-5,-55,-5,-92r0,-440v0,-43,18,-61,61,-61r74,0r0,62v-27,2,-65,-9,-65,22r0,619r-64,0r-359,-501v-25,-34,-58,-91,-58,-91r-2,0v0,0,6,54,6,91r0,440v0,43,-18,61,-61,61r-74,0xm233,-755v0,-77,31,-117,93,-117v67,0,81,72,126,72v33,0,40,-43,40,-69r53,0v0,77,-32,117,-93,117v-68,0,-81,-71,-127,-71v-33,0,-40,42,-40,68r-52,0","w":760},"\u00d2":{"d":"38,-356v0,-202,158,-359,358,-359v199,0,358,157,358,359v0,206,-159,368,-358,368v-200,0,-358,-162,-358,-368xm111,-356v0,170,127,302,285,302v157,0,285,-132,285,-302v0,-166,-128,-293,-285,-293v-158,0,-285,127,-285,293xm363,-752r-87,-119r76,0r70,119r-59,0","w":791},"\u00d3":{"d":"38,-356v0,-202,158,-359,358,-359v199,0,358,157,358,359v0,206,-159,368,-358,368v-200,0,-358,-162,-358,-368xm111,-356v0,170,127,302,285,302v157,0,285,-132,285,-302v0,-166,-128,-293,-285,-293v-158,0,-285,127,-285,293xm363,-752r70,-119r76,0r-87,119r-59,0","w":791},"\u00d4":{"d":"38,-356v0,-202,158,-359,358,-359v199,0,358,157,358,359v0,206,-159,368,-358,368v-200,0,-358,-162,-358,-368xm111,-356v0,170,127,302,285,302v157,0,285,-132,285,-302v0,-166,-128,-293,-285,-293v-158,0,-285,127,-285,293xm275,-752r83,-119r70,0r83,119r-63,0r-54,-81r-2,0r-54,81r-63,0","w":791},"\u00d5":{"d":"38,-356v0,-202,158,-359,358,-359v199,0,358,157,358,359v0,206,-159,368,-358,368v-200,0,-358,-162,-358,-368xm111,-356v0,170,127,302,285,302v157,0,285,-132,285,-302v0,-166,-128,-293,-285,-293v-158,0,-285,127,-285,293xm235,-755v0,-77,31,-117,93,-117v67,0,81,72,126,72v33,0,40,-43,40,-69r53,0v0,77,-32,117,-93,117v-68,0,-81,-71,-127,-71v-33,0,-40,42,-40,68r-52,0","w":791},"\u00d6":{"d":"38,-356v0,-202,158,-359,358,-359v199,0,358,157,358,359v0,206,-159,368,-358,368v-200,0,-358,-162,-358,-368xm111,-356v0,170,127,302,285,302v157,0,285,-132,285,-302v0,-166,-128,-293,-285,-293v-158,0,-285,127,-285,293xm439,-785r0,-86r59,0r0,86r-59,0xm289,-785r0,-86r59,0r0,86r-59,0","w":791},"\u00d7":{"d":"48,-41r216,-243r-216,-243r41,-41r214,241r214,-241r41,41r-217,243r217,243r-41,41r-214,-241r-214,241"},"\u00d8":{"d":"116,-5r49,-69v-77,-67,-126,-168,-126,-282v0,-202,159,-359,358,-359v70,0,134,20,189,54r48,-67r41,30r-47,66v77,66,127,163,127,276v0,206,-159,368,-358,368v-70,0,-136,-20,-191,-56r-48,68xm207,-131r340,-475v-44,-27,-95,-43,-150,-43v-157,0,-285,127,-285,293v0,91,36,171,95,225xm246,-99v44,28,96,45,151,45v158,0,285,-132,285,-302v0,-88,-37,-166,-96,-218","w":794},"\u00d9":{"d":"99,-241r0,-378v1,-31,-38,-20,-65,-22r0,-62r74,0v43,0,61,18,61,61r0,398v0,117,74,190,189,190v115,0,190,-73,190,-192r0,-396v0,-43,18,-61,61,-61r74,0r0,62v-27,2,-65,-9,-65,22r0,378v0,152,-104,253,-259,253v-155,0,-260,-101,-260,-253xm330,-752r-87,-119r76,0r70,119r-59,0","w":717},"\u00da":{"d":"99,-241r0,-378v1,-31,-38,-20,-65,-22r0,-62r74,0v43,0,61,18,61,61r0,398v0,117,74,190,189,190v115,0,190,-73,190,-192r0,-396v0,-43,18,-61,61,-61r74,0r0,62v-27,2,-65,-9,-65,22r0,378v0,152,-104,253,-259,253v-155,0,-260,-101,-260,-253xm330,-752r70,-119r76,0r-87,119r-59,0","w":717},"\u00db":{"d":"99,-241r0,-378v1,-31,-38,-20,-65,-22r0,-62r74,0v43,0,61,18,61,61r0,398v0,117,74,190,189,190v115,0,190,-73,190,-192r0,-396v0,-43,18,-61,61,-61r74,0r0,62v-27,2,-65,-9,-65,22r0,378v0,152,-104,253,-259,253v-155,0,-260,-101,-260,-253xm242,-752r83,-119r70,0r83,119r-63,0r-54,-81r-2,0r-54,81r-63,0","w":717},"\u00dc":{"d":"99,-241r0,-378v1,-31,-38,-20,-65,-22r0,-62r74,0v43,0,61,18,61,61r0,398v0,117,74,190,189,190v115,0,190,-73,190,-192r0,-396v0,-43,18,-61,61,-61r74,0r0,62v-27,2,-65,-9,-65,22r0,378v0,152,-104,253,-259,253v-155,0,-260,-101,-260,-253xm406,-785r0,-86r59,0r0,86r-59,0xm256,-785r0,-86r59,0r0,86r-59,0","w":717},"\u00dd":{"d":"261,0r0,-306r-188,-309v-16,-26,-31,-27,-63,-26r0,-62v66,-1,89,-2,123,56r119,199v25,38,39,80,45,79v36,-71,117,-201,162,-278v34,-58,56,-57,123,-56r0,62v-31,-1,-47,0,-62,26r-189,309r0,306r-70,0xm267,-752r70,-119r76,0r-87,119r-59,0","w":592},"\u00de":{"d":"107,0r0,-619v1,-31,-38,-20,-65,-22r0,-62r74,0v43,0,61,18,61,61r0,64r162,0v125,0,217,82,217,213v0,130,-92,214,-219,214r-160,0r0,151r-70,0xm177,-213r153,0v93,0,154,-57,154,-152v0,-96,-61,-151,-153,-151r-154,0r0,303","w":584},"\u00df":{"d":"20,0r0,-59v27,-2,63,9,63,-22r0,-450v0,-120,101,-184,201,-184v107,0,175,71,175,149v0,99,-111,129,-111,189v0,73,195,111,195,246v0,96,-78,143,-162,143v-96,0,-155,-58,-155,-58r25,-53v0,0,55,50,125,50v51,0,98,-25,98,-84v0,-99,-196,-131,-196,-242v0,-83,111,-113,111,-190v0,-42,-36,-88,-108,-88v-65,0,-130,44,-130,127r0,465v0,43,-18,61,-61,61r-70,0","w":558},"\u00e0":{"d":"40,-137v0,-167,221,-173,308,-173r28,0v2,-107,-36,-149,-130,-148v-25,0,-98,7,-98,44r0,32r-65,0r0,-48v0,-70,120,-85,164,-85v159,0,197,85,197,193r0,241v-1,31,37,20,64,22r0,59r-69,0v-43,0,-60,-19,-60,-60v0,-23,5,-38,-1,-37v1,0,-41,109,-167,109v-84,0,-171,-49,-171,-149xm110,-141v0,47,37,95,112,95v103,0,160,-105,154,-210r-29,0v-79,0,-237,2,-237,115xm230,-584r-87,-119r76,0r70,119r-59,0","w":529},"\u00e1":{"d":"40,-137v0,-167,221,-173,308,-173r28,0v2,-107,-36,-149,-130,-148v-25,0,-98,7,-98,44r0,32r-65,0r0,-48v0,-70,120,-85,164,-85v159,0,197,85,197,193r0,241v-1,31,37,20,64,22r0,59r-69,0v-43,0,-60,-19,-60,-60v0,-23,5,-38,-1,-37v1,0,-41,109,-167,109v-84,0,-171,-49,-171,-149xm110,-141v0,47,37,95,112,95v103,0,160,-105,154,-210r-29,0v-79,0,-237,2,-237,115xm230,-584r70,-119r76,0r-87,119r-59,0","w":529},"\u00e2":{"d":"40,-137v0,-167,221,-173,308,-173r28,0v2,-107,-36,-149,-130,-148v-25,0,-98,7,-98,44r0,32r-65,0r0,-48v0,-70,120,-85,164,-85v159,0,197,85,197,193r0,241v-1,31,37,20,64,22r0,59r-69,0v-43,0,-60,-19,-60,-60v0,-23,5,-38,-1,-37v1,0,-41,109,-167,109v-84,0,-171,-49,-171,-149xm110,-141v0,47,37,95,112,95v103,0,160,-105,154,-210r-29,0v-79,0,-237,2,-237,115xm142,-584r83,-119r70,0r83,119r-63,0r-54,-81r-2,0r-54,81r-63,0","w":529},"\u00e3":{"d":"40,-137v0,-167,221,-173,308,-173r28,0v2,-107,-36,-149,-130,-148v-25,0,-98,7,-98,44r0,32r-65,0r0,-48v0,-70,120,-85,164,-85v159,0,197,85,197,193r0,241v-1,31,37,20,64,22r0,59r-69,0v-43,0,-60,-19,-60,-60v0,-23,5,-38,-1,-37v1,0,-41,109,-167,109v-84,0,-171,-49,-171,-149xm110,-141v0,47,37,95,112,95v103,0,160,-105,154,-210r-29,0v-79,0,-237,2,-237,115xm102,-587v0,-77,31,-117,93,-117v67,0,81,72,126,72v33,0,40,-43,40,-69r53,0v0,77,-32,117,-93,117v-68,0,-81,-71,-127,-71v-33,0,-40,42,-40,68r-52,0","w":529},"\u00e4":{"d":"40,-137v0,-167,221,-173,308,-173r28,0v2,-107,-36,-149,-130,-148v-25,0,-98,7,-98,44r0,32r-65,0r0,-48v0,-70,120,-85,164,-85v159,0,197,85,197,193r0,241v-1,31,37,20,64,22r0,59r-69,0v-43,0,-60,-19,-60,-60v0,-23,5,-38,-1,-37v1,0,-41,109,-167,109v-84,0,-171,-49,-171,-149xm110,-141v0,47,37,95,112,95v103,0,160,-105,154,-210r-29,0v-79,0,-237,2,-237,115xm306,-617r0,-86r59,0r0,86r-59,0xm156,-617r0,-86r59,0r0,86r-59,0","w":529},"\u00e5":{"d":"40,-137v0,-167,221,-173,308,-173r28,0v2,-107,-36,-149,-130,-148v-25,0,-98,7,-98,44r0,32r-65,0r0,-48v0,-70,120,-85,164,-85v159,0,197,85,197,193r0,241v-1,31,37,20,64,22r0,59r-69,0v-43,0,-60,-19,-60,-60v0,-23,5,-38,-1,-37v1,0,-41,109,-167,109v-84,0,-171,-49,-171,-149xm110,-141v0,47,37,95,112,95v103,0,160,-105,154,-210r-29,0v-79,0,-237,2,-237,115xm260,-573v-40,0,-74,-29,-74,-71v0,-42,34,-71,74,-71v40,0,74,29,74,71v0,42,-34,71,-74,71xm260,-611v19,0,33,-14,33,-33v0,-20,-14,-34,-33,-34v-19,0,-33,14,-33,34v0,19,13,33,33,33","w":529},"\u00e6":{"d":"40,-137v0,-163,190,-168,302,-168r33,0v3,-108,-35,-155,-129,-153v-26,0,-98,7,-98,44r0,32r-65,0r0,-48v0,-61,94,-85,164,-85v108,0,154,41,174,104r2,0v41,-69,108,-104,190,-104v153,0,221,121,205,264r-377,0v3,131,83,202,188,202v91,0,151,-62,151,-62r32,51v0,0,-72,72,-186,72v-103,0,-184,-53,-221,-140r-2,0v-8,26,-56,140,-190,140v-92,0,-173,-52,-173,-149xm446,-305r305,0v-4,-104,-70,-152,-141,-152v-83,0,-149,52,-164,152xm110,-141v0,49,38,95,113,95v101,0,158,-103,153,-205r-59,0v-85,0,-207,7,-207,110","w":871},"\u00e7":{"d":"40,-251v0,-154,115,-264,265,-264v57,0,179,24,179,107r0,45r-64,0r0,-29v0,-42,-73,-62,-115,-62v-108,0,-195,81,-195,203v0,124,91,201,197,201v103,0,162,-71,162,-71r32,51v0,0,-68,81,-199,82r-8,43v41,6,70,31,70,71v0,58,-47,79,-96,79v-29,0,-50,-5,-50,-5r0,-48v0,0,19,6,42,6v26,0,51,-7,51,-34v0,-26,-37,-38,-72,-33r19,-83v-126,-18,-218,-119,-218,-259","w":528},"\u00e8":{"d":"40,-251v0,-165,113,-264,248,-264v150,0,223,120,209,266r-386,0v2,127,91,200,195,200v92,0,151,-62,151,-62r33,51v0,0,-73,72,-187,72v-149,0,-263,-108,-263,-263xm114,-303r315,0v-4,-104,-68,-155,-142,-155v-83,0,-156,54,-173,155xm256,-584r-87,-119r76,0r70,119r-59,0","w":548},"\u00e9":{"d":"40,-251v0,-165,113,-264,248,-264v150,0,223,120,209,266r-386,0v2,127,91,200,195,200v92,0,151,-62,151,-62r33,51v0,0,-73,72,-187,72v-149,0,-263,-108,-263,-263xm114,-303r315,0v-4,-104,-68,-155,-142,-155v-83,0,-156,54,-173,155xm256,-584r70,-119r76,0r-87,119r-59,0","w":548},"\u00ea":{"d":"40,-251v0,-165,113,-264,248,-264v150,0,223,120,209,266r-386,0v2,127,91,200,195,200v92,0,151,-62,151,-62r33,51v0,0,-73,72,-187,72v-149,0,-263,-108,-263,-263xm114,-303r315,0v-4,-104,-68,-155,-142,-155v-83,0,-156,54,-173,155xm168,-584r83,-119r70,0r83,119r-63,0r-54,-81r-2,0r-54,81r-63,0","w":548},"\u00eb":{"d":"40,-251v0,-165,113,-264,248,-264v150,0,223,120,209,266r-386,0v2,127,91,200,195,200v92,0,151,-62,151,-62r33,51v0,0,-73,72,-187,72v-149,0,-263,-108,-263,-263xm114,-303r315,0v-4,-104,-68,-155,-142,-155v-83,0,-156,54,-173,155xm332,-617r0,-86r59,0r0,86r-59,0xm182,-617r0,-86r59,0r0,86r-59,0","w":548},"\u00ec":{"d":"93,-61r0,-361v1,-30,-37,-21,-64,-22r0,-59r71,0v43,0,61,18,61,61r0,361v-1,31,37,20,64,22r0,59r-71,0v-43,0,-61,-18,-61,-61xm89,-584r-86,-119r76,0r69,119r-59,0","w":252},"\u00ed":{"d":"93,-61r0,-361v1,-30,-37,-21,-64,-22r0,-59r71,0v43,0,61,18,61,61r0,361v-1,31,37,20,64,22r0,59r-71,0v-43,0,-61,-18,-61,-61xm89,-584r70,-119r76,0r-87,119r-59,0","w":252},"\u00ee":{"d":"93,-61r0,-361v1,-30,-37,-21,-64,-22r0,-59r71,0v43,0,61,18,61,61r0,361v-1,31,37,20,64,22r0,59r-71,0v-43,0,-61,-18,-61,-61xm1,-584r84,-119r69,0r84,119r-63,0r-54,-81r-2,0r-55,81r-63,0","w":252},"\u00ef":{"d":"93,-61r0,-361v1,-30,-37,-21,-64,-22r0,-59r71,0v43,0,61,18,61,61r0,361v-1,31,37,20,64,22r0,59r-71,0v-43,0,-61,-18,-61,-61xm151,-617r0,-86r59,0r0,86r-59,0xm25,-617r0,-86r60,0r0,86r-60,0","w":252},"\u00f0":{"d":"37,-232v0,-119,82,-235,239,-235v99,0,141,55,146,54v-24,-69,-67,-120,-124,-159r-176,80r-13,-48r135,-63v-43,-22,-91,-39,-142,-51r20,-58v64,16,134,40,196,77r131,-59r13,48r-97,45v87,68,151,176,151,328v0,134,-73,285,-248,285v-147,0,-231,-121,-231,-244xm107,-231v0,92,58,182,163,182v124,0,176,-115,176,-211v0,-86,-65,-149,-163,-149v-120,0,-176,89,-176,178","w":565},"\u00f1":{"d":"346,-451v-106,0,-191,83,-191,210r0,241r-68,0r0,-422v1,-30,-37,-21,-64,-22r0,-59r70,0v51,-1,61,28,61,79v0,21,-6,37,0,36v18,-46,82,-127,200,-127v125,0,169,71,169,195r0,239v-1,31,37,20,64,22r0,59r-71,0v-43,0,-61,-18,-61,-61r0,-241v0,-79,-12,-149,-109,-149xm159,-587v0,-77,31,-117,93,-117v67,0,81,72,126,72v33,0,40,-43,40,-69r53,0v0,77,-32,117,-93,117v-68,0,-81,-71,-127,-71v-33,0,-40,42,-40,68r-52,0","w":608},"\u00f2":{"d":"40,-254v0,-149,119,-261,265,-261v147,0,266,112,266,261v0,152,-119,266,-265,266v-147,0,-266,-114,-266,-266xm110,-254v0,117,88,205,196,205v107,0,195,-88,195,-205v0,-114,-88,-199,-195,-199v-108,0,-196,85,-196,199xm276,-584r-87,-119r76,0r70,119r-59,0","w":611},"\u00f3":{"d":"40,-254v0,-149,119,-261,265,-261v147,0,266,112,266,261v0,152,-119,266,-265,266v-147,0,-266,-114,-266,-266xm110,-254v0,117,88,205,196,205v107,0,195,-88,195,-205v0,-114,-88,-199,-195,-199v-108,0,-196,85,-196,199xm276,-584r70,-119r76,0r-87,119r-59,0","w":611},"\u00f4":{"d":"40,-254v0,-149,119,-261,265,-261v147,0,266,112,266,261v0,152,-119,266,-265,266v-147,0,-266,-114,-266,-266xm110,-254v0,117,88,205,196,205v107,0,195,-88,195,-205v0,-114,-88,-199,-195,-199v-108,0,-196,85,-196,199xm188,-584r83,-119r70,0r83,119r-63,0r-54,-81r-2,0r-54,81r-63,0","w":611},"\u00f5":{"d":"40,-254v0,-149,119,-261,265,-261v147,0,266,112,266,261v0,152,-119,266,-265,266v-147,0,-266,-114,-266,-266xm110,-254v0,117,88,205,196,205v107,0,195,-88,195,-205v0,-114,-88,-199,-195,-199v-108,0,-196,85,-196,199xm148,-587v0,-77,31,-117,93,-117v67,0,81,72,126,72v33,0,40,-43,40,-69r53,0v0,77,-32,117,-93,117v-68,0,-81,-71,-127,-71v-33,0,-40,42,-40,68r-52,0","w":611},"\u00f6":{"d":"40,-254v0,-149,119,-261,265,-261v147,0,266,112,266,261v0,152,-119,266,-265,266v-147,0,-266,-114,-266,-266xm110,-254v0,117,88,205,196,205v107,0,195,-88,195,-205v0,-114,-88,-199,-195,-199v-108,0,-196,85,-196,199xm352,-617r0,-86r59,0r0,86r-59,0xm202,-617r0,-86r59,0r0,86r-59,0","w":611},"\u00f7":{"d":"257,-433r0,-74r75,0r0,74r-75,0xm50,-255r0,-58r490,0r0,58r-490,0xm257,-61r0,-74r75,0r0,74r-75,0"},"\u00f8":{"d":"98,3r37,-51v-58,-48,-95,-121,-95,-206v0,-149,119,-261,265,-261v50,0,97,13,137,37r39,-55r41,30r-39,54v54,47,88,116,88,195v0,152,-119,266,-265,266v-48,0,-91,-11,-129,-32r-38,53xm173,-102r232,-324v-29,-17,-63,-27,-99,-27v-108,0,-196,85,-196,199v0,62,25,115,63,152xm214,-73v133,72,287,-30,287,-181v0,-56,-22,-105,-58,-140","w":611},"\u00f9":{"d":"85,-183r0,-239v1,-30,-37,-21,-64,-22r0,-59r71,0v43,0,61,18,61,59r0,243v0,79,13,149,110,149v114,0,185,-101,185,-210r0,-241r68,0r0,422v-1,31,37,20,64,22r0,59r-69,0v-51,1,-61,-28,-61,-79v0,-21,6,-37,0,-36v-20,49,-86,127,-196,127v-119,0,-169,-64,-169,-195xm265,-584r-87,-119r76,0r70,119r-59,0","w":603},"\u00fa":{"d":"85,-183r0,-239v1,-30,-37,-21,-64,-22r0,-59r71,0v43,0,61,18,61,59r0,243v0,79,13,149,110,149v114,0,185,-101,185,-210r0,-241r68,0r0,422v-1,31,37,20,64,22r0,59r-69,0v-51,1,-61,-28,-61,-79v0,-21,6,-37,0,-36v-20,49,-86,127,-196,127v-119,0,-169,-64,-169,-195xm265,-584r70,-119r76,0r-87,119r-59,0","w":603},"\u00fb":{"d":"85,-183r0,-239v1,-30,-37,-21,-64,-22r0,-59r71,0v43,0,61,18,61,59r0,243v0,79,13,149,110,149v114,0,185,-101,185,-210r0,-241r68,0r0,422v-1,31,37,20,64,22r0,59r-69,0v-51,1,-61,-28,-61,-79v0,-21,6,-37,0,-36v-20,49,-86,127,-196,127v-119,0,-169,-64,-169,-195xm177,-584r83,-119r70,0r83,119r-63,0r-54,-81r-2,0r-54,81r-63,0","w":603},"\u00fc":{"d":"85,-183r0,-239v1,-30,-37,-21,-64,-22r0,-59r71,0v43,0,61,18,61,59r0,243v0,79,13,149,110,149v114,0,185,-101,185,-210r0,-241r68,0r0,422v-1,31,37,20,64,22r0,59r-69,0v-51,1,-61,-28,-61,-79v0,-21,6,-37,0,-36v-20,49,-86,127,-196,127v-119,0,-169,-64,-169,-195xm341,-617r0,-86r59,0r0,86r-59,0xm191,-617r0,-86r59,0r0,86r-59,0","w":603},"\u00fd":{"d":"40,111v0,1,32,38,75,38v71,1,97,-94,123,-151r-177,-419v-9,-21,-20,-24,-45,-23r0,-59v61,-1,85,0,108,55r129,314v12,26,14,55,20,54v0,0,7,-29,17,-54r124,-314v18,-56,47,-56,109,-55r0,59v-24,-1,-37,2,-45,23r-217,526v-26,64,-77,105,-144,105v-70,0,-109,-49,-109,-49xm238,-584r70,-119r76,0r-87,119r-59,0","w":539},"\u00fe":{"d":"84,200r0,-822v1,-30,-37,-21,-64,-22r0,-59r71,0v43,0,61,18,61,61r0,179v2,27,-6,45,0,44v30,-59,83,-96,169,-96v137,0,221,108,221,263v0,156,-84,264,-221,264v-128,0,-169,-94,-169,-94r-2,0v0,0,2,18,2,44r0,238r-68,0xm150,-251v0,147,80,202,164,202v95,0,158,-81,158,-203v0,-121,-63,-201,-158,-201v-88,0,-164,54,-164,202","w":584},"\u00ff":{"d":"40,111v0,1,32,38,75,38v71,1,97,-94,123,-151r-177,-419v-9,-21,-20,-24,-45,-23r0,-59v61,-1,85,0,108,55r129,314v12,26,14,55,20,54v0,0,7,-29,17,-54r124,-314v18,-56,47,-56,109,-55r0,59v-24,-1,-37,2,-45,23r-217,526v-26,64,-77,105,-144,105v-70,0,-109,-49,-109,-49xm314,-617r0,-86r59,0r0,86r-59,0xm164,-617r0,-86r59,0r0,86r-59,0","w":539},"\u0100":{"d":"12,0r0,-62v25,0,41,1,49,-22r230,-619r75,0r230,619v8,23,22,22,48,22r0,62v-65,1,-94,0,-115,-58r-61,-166r-279,0r-62,166v-18,60,-49,59,-115,58xm208,-285r241,0r-93,-251v-12,-33,-27,-91,-27,-91r-2,0v-26,100,-83,241,-119,342xm206,-785r0,-54r246,0r0,54r-246,0","w":657},"\u0101":{"d":"40,-137v0,-167,221,-173,308,-173r28,0v2,-107,-36,-149,-130,-148v-25,0,-98,7,-98,44r0,32r-65,0r0,-48v0,-70,120,-85,164,-85v159,0,197,85,197,193r0,241v-1,31,37,20,64,22r0,59r-69,0v-43,0,-60,-19,-60,-60v0,-23,5,-38,-1,-37v1,0,-41,109,-167,109v-84,0,-171,-49,-171,-149xm110,-141v0,47,37,95,112,95v103,0,160,-105,154,-210r-29,0v-79,0,-237,2,-237,115xm137,-617r0,-54r246,0r0,54r-246,0","w":529},"\u0102":{"d":"12,0r0,-62v25,0,41,1,49,-22r230,-619r75,0r230,619v8,23,22,22,48,22r0,62v-65,1,-94,0,-115,-58r-61,-166r-279,0r-62,166v-18,60,-49,59,-115,58xm208,-285r241,0r-93,-251v-12,-33,-27,-91,-27,-91r-2,0v-26,100,-83,241,-119,342xm442,-856v0,143,-227,142,-227,0r0,-15r52,0v-4,50,25,75,62,75v35,0,66,-25,61,-75r52,0r0,15","w":657},"\u0103":{"d":"40,-137v0,-167,221,-173,308,-173r28,0v2,-107,-36,-149,-130,-148v-25,0,-98,7,-98,44r0,32r-65,0r0,-48v0,-70,120,-85,164,-85v159,0,197,85,197,193r0,241v-1,31,37,20,64,22r0,59r-69,0v-43,0,-60,-19,-60,-60v0,-23,5,-38,-1,-37v1,0,-41,109,-167,109v-84,0,-171,-49,-171,-149xm110,-141v0,47,37,95,112,95v103,0,160,-105,154,-210r-29,0v-79,0,-237,2,-237,115xm373,-688v0,143,-227,142,-227,0r0,-15r52,0v-4,50,25,75,62,75v35,0,66,-25,61,-75r52,0r0,15","w":529},"\u0104":{"d":"12,0r0,-62v25,0,41,1,49,-22r230,-619r75,0r230,619v8,23,22,22,48,22r0,62v-21,17,-72,59,-72,99v0,45,62,50,62,50r-16,56v0,0,-109,-7,-109,-92v0,-54,41,-94,69,-115r0,-2v-26,-6,-36,-20,-49,-54r-61,-166r-279,0r-62,166v-18,60,-49,59,-115,58xm208,-285r241,0r-93,-251v-12,-33,-27,-91,-27,-91r-2,0v-26,100,-83,241,-119,342","w":657},"\u0105":{"d":"40,-137v0,-167,221,-173,308,-173r28,0v2,-106,-36,-149,-130,-148v-26,0,-98,8,-98,44r0,32r-65,0r0,-48v0,-70,119,-85,164,-85v159,0,197,85,197,193r0,241v-1,31,37,20,64,22r0,59v-22,17,-73,59,-73,99v0,45,62,50,62,50r-15,56v0,0,-110,-7,-110,-92v0,-51,38,-90,66,-111r0,-2v-63,8,-64,-50,-58,-97r-2,0v0,0,-35,109,-174,109v-88,0,-164,-58,-164,-149xm110,-141v0,47,37,95,112,95v103,0,160,-105,154,-210r-29,0v-79,0,-237,2,-237,115","w":529},"\u0106":{"d":"38,-357v0,-203,149,-358,347,-358v100,0,263,43,263,149r0,58r-66,0r0,-39v0,-66,-114,-102,-195,-102v-156,0,-276,122,-276,292v0,168,119,303,279,303v145,0,230,-99,230,-99r40,51v0,0,-97,114,-271,114v-206,0,-351,-164,-351,-369xm353,-752r70,-119r76,0r-87,119r-59,0","w":694},"\u0107":{"d":"40,-251v0,-154,115,-264,265,-264v57,0,179,24,179,107r0,45r-64,0r0,-29v0,-42,-73,-62,-115,-62v-108,0,-195,81,-195,203v0,124,91,201,197,201v103,0,162,-71,162,-71r32,51v0,0,-68,82,-197,82v-150,0,-264,-107,-264,-263xm261,-584r70,-119r76,0r-87,119r-59,0","w":528},"\u0108":{"d":"38,-357v0,-203,149,-358,347,-358v100,0,263,43,263,149r0,58r-66,0r0,-39v0,-66,-114,-102,-195,-102v-156,0,-276,122,-276,292v0,168,119,303,279,303v145,0,230,-99,230,-99r40,51v0,0,-97,114,-271,114v-206,0,-351,-164,-351,-369xm265,-752r83,-119r70,0r83,119r-63,0r-54,-81r-2,0r-54,81r-63,0","w":694},"\u0109":{"d":"40,-251v0,-154,115,-264,265,-264v57,0,179,24,179,107r0,45r-64,0r0,-29v0,-42,-73,-62,-115,-62v-108,0,-195,81,-195,203v0,124,91,201,197,201v103,0,162,-71,162,-71r32,51v0,0,-68,82,-197,82v-150,0,-264,-107,-264,-263xm173,-584r83,-119r70,0r83,119r-63,0r-54,-81r-2,0r-54,81r-63,0","w":528},"\u010a":{"d":"38,-357v0,-203,149,-358,347,-358v100,0,263,43,263,149r0,58r-66,0r0,-39v0,-66,-114,-102,-195,-102v-156,0,-276,122,-276,292v0,168,119,303,279,303v145,0,230,-99,230,-99r40,51v0,0,-97,114,-271,114v-206,0,-351,-164,-351,-369xm350,-785r0,-86r66,0r0,86r-66,0","w":694},"\u010b":{"d":"40,-251v0,-154,115,-264,265,-264v57,0,179,24,179,107r0,45r-64,0r0,-29v0,-42,-73,-62,-115,-62v-108,0,-195,81,-195,203v0,124,91,201,197,201v103,0,162,-71,162,-71r32,51v0,0,-68,82,-197,82v-150,0,-264,-107,-264,-263xm258,-617r0,-86r66,0r0,86r-66,0","w":528},"\u010c":{"d":"38,-357v0,-203,149,-358,347,-358v100,0,263,43,263,149r0,58r-66,0r0,-39v0,-66,-114,-102,-195,-102v-156,0,-276,122,-276,292v0,168,119,303,279,303v145,0,230,-99,230,-99r40,51v0,0,-97,114,-271,114v-206,0,-351,-164,-351,-369xm348,-752r-84,-119r64,0r54,80r2,0r54,-80r63,0r-84,119r-69,0","w":694},"\u010d":{"d":"40,-251v0,-154,115,-264,265,-264v57,0,179,24,179,107r0,45r-64,0r0,-29v0,-42,-73,-62,-115,-62v-108,0,-195,81,-195,203v0,124,91,201,197,201v103,0,162,-71,162,-71r32,51v0,0,-68,82,-197,82v-150,0,-264,-107,-264,-263xm256,-584r-84,-119r64,0r54,80r2,0r54,-80r63,0r-84,119r-69,0","w":528},"\u010e":{"d":"107,-61r0,-580r-65,0r0,-62r282,0v212,0,353,129,353,351v0,224,-141,352,-353,352r-156,0v-43,0,-61,-18,-61,-61xm177,-84v0,15,8,22,22,22r118,0v173,0,287,-102,287,-290v0,-187,-115,-289,-287,-289r-140,0r0,557xm315,-752r-84,-119r64,0r54,80r2,0r54,-80r63,0r-84,119r-69,0","w":715},"\u010f":{"d":"42,-252v0,-159,94,-263,226,-263v122,0,164,94,164,94r2,0v-4,-53,-2,-141,-2,-201v0,-30,-37,-21,-64,-22r0,-59r71,0v43,0,61,18,61,61r0,561v-1,31,37,20,64,22r0,59r-70,0v-42,0,-60,-19,-60,-56v0,-20,6,-33,0,-32v0,0,-41,100,-173,100v-135,0,-219,-108,-219,-264xm271,-49v84,0,163,-60,163,-203v0,-102,-52,-202,-160,-202v-89,0,-162,75,-162,202v0,124,65,203,159,203xm562,-703r62,0v15,53,5,89,-17,137r-53,0v20,-51,27,-85,8,-137","w":664},"\u0110":{"d":"107,-61r0,-262r-50,0r0,-60r50,0r0,-258r-65,0r0,-62r282,0v212,0,353,129,353,351v0,224,-141,352,-353,352r-156,0v-43,0,-61,-18,-61,-61xm177,-84v0,15,8,22,22,22r118,0v173,0,287,-102,287,-290v0,-187,-115,-289,-287,-289r-140,0r0,258r164,0r0,60r-164,0r0,239","w":715},"\u0111":{"d":"261,12v-135,0,-219,-108,-219,-264v0,-159,94,-263,226,-263v122,0,164,94,164,94r2,0v-3,-33,-2,-104,-2,-145r-131,0r0,-51r131,0r0,-86r68,0r0,86r80,0r0,51r-80,0r0,485v-1,31,37,20,64,22r0,59r-70,0v-42,0,-60,-19,-60,-56v0,-20,6,-33,0,-32v0,0,-41,100,-173,100xm271,-49v84,0,163,-60,163,-203v0,-102,-52,-202,-160,-202v-89,0,-162,75,-162,202v0,124,65,203,159,203","w":588},"\u0112":{"d":"107,-61r0,-580r-65,0r0,-62r402,0v43,0,61,18,61,61r0,70r-66,0v-2,-28,10,-69,-22,-69r-240,0r0,256r264,0r0,62r-264,0r0,239v0,15,8,22,22,22r247,0v31,2,20,-41,22,-69r65,0r0,70v0,43,-18,61,-61,61r-304,0v-43,0,-61,-18,-61,-61xm171,-785r0,-54r246,0r0,54r-246,0","w":558},"\u0113":{"d":"40,-251v0,-165,113,-264,248,-264v150,0,223,120,209,266r-386,0v2,127,91,200,195,200v92,0,151,-62,151,-62r33,51v0,0,-73,72,-187,72v-149,0,-263,-108,-263,-263xm114,-303r315,0v-4,-104,-68,-155,-142,-155v-83,0,-156,54,-173,155xm163,-617r0,-54r246,0r0,54r-246,0","w":548},"\u0114":{"d":"107,-61r0,-580r-65,0r0,-62r402,0v43,0,61,18,61,61r0,70r-66,0v-2,-28,10,-69,-22,-69r-240,0r0,256r264,0r0,62r-264,0r0,239v0,15,8,22,22,22r247,0v31,2,20,-41,22,-69r65,0r0,70v0,43,-18,61,-61,61r-304,0v-43,0,-61,-18,-61,-61xm408,-856v0,143,-227,142,-227,0r0,-15r52,0v-4,50,25,75,62,75v35,0,66,-25,61,-75r52,0r0,15","w":558},"\u0115":{"d":"40,-251v0,-165,113,-264,248,-264v150,0,223,120,209,266r-386,0v2,127,91,200,195,200v92,0,151,-62,151,-62r33,51v0,0,-73,72,-187,72v-149,0,-263,-108,-263,-263xm114,-303r315,0v-4,-104,-68,-155,-142,-155v-83,0,-156,54,-173,155xm399,-688v0,143,-227,142,-227,0r0,-15r52,0v-4,50,25,75,62,75v35,0,66,-25,61,-75r52,0r0,15","w":548},"\u0116":{"d":"107,-61r0,-580r-65,0r0,-62r402,0v43,0,61,18,61,61r0,70r-66,0v-2,-28,10,-69,-22,-69r-240,0r0,256r264,0r0,62r-264,0r0,239v0,15,8,22,22,22r247,0v31,2,20,-41,22,-69r65,0r0,70v0,43,-18,61,-61,61r-304,0v-43,0,-61,-18,-61,-61xm261,-785r0,-86r66,0r0,86r-66,0","w":558},"\u0117":{"d":"40,-251v0,-165,113,-264,248,-264v150,0,223,120,209,266r-386,0v2,127,91,200,195,200v92,0,151,-62,151,-62r33,51v0,0,-73,72,-187,72v-149,0,-263,-108,-263,-263xm114,-303r315,0v-4,-104,-68,-155,-142,-155v-83,0,-156,54,-173,155xm253,-617r0,-86r66,0r0,86r-66,0","w":548},"\u0118":{"d":"107,-61r0,-580r-65,0r0,-62r402,0v43,0,61,18,61,61r0,70r-66,0v-2,-28,10,-69,-22,-69r-240,0r0,256r264,0r0,62r-264,0r0,239v0,15,8,22,22,22r247,0v31,2,20,-41,22,-69r65,0v-1,45,7,102,-20,122v-33,24,-85,62,-85,108v0,45,62,50,62,50r-15,56v0,0,-110,-7,-110,-92v0,-51,35,-89,65,-111r0,-2r-262,0v-43,0,-61,-18,-61,-61","w":558},"\u0119":{"d":"40,-251v0,-165,113,-264,248,-264v150,0,223,120,209,266r-386,0v2,126,91,200,195,200v92,0,151,-62,151,-62r33,51v-42,40,-145,89,-145,159v0,45,62,50,62,50r-15,56v0,0,-110,-7,-110,-92v0,-44,28,-78,54,-102r0,-2v-169,20,-296,-96,-296,-260xm114,-303r315,0v-5,-104,-68,-155,-142,-155v-83,0,-156,54,-173,155","w":548},"\u011a":{"d":"107,-61r0,-580r-65,0r0,-62r402,0v43,0,61,18,61,61r0,70r-66,0v-2,-28,10,-69,-22,-69r-240,0r0,256r264,0r0,62r-264,0r0,239v0,15,8,22,22,22r247,0v31,2,20,-41,22,-69r65,0r0,70v0,43,-18,61,-61,61r-304,0v-43,0,-61,-18,-61,-61xm259,-752r-84,-119r64,0r54,80r2,0r54,-80r63,0r-84,119r-69,0","w":558},"\u011b":{"d":"40,-251v0,-165,113,-264,248,-264v150,0,223,120,209,266r-386,0v2,127,91,200,195,200v92,0,151,-62,151,-62r33,51v0,0,-73,72,-187,72v-149,0,-263,-108,-263,-263xm114,-303r315,0v-4,-104,-68,-155,-142,-155v-83,0,-156,54,-173,155xm251,-584r-84,-119r64,0r54,80r2,0r54,-80r63,0r-84,119r-69,0","w":548},"\u011c":{"d":"39,-353v0,-202,152,-362,351,-362v163,0,246,86,246,86r-41,52v0,0,-78,-72,-204,-72v-158,0,-279,127,-279,296v0,173,119,299,278,299v139,0,222,-103,222,-103r0,-87v1,-31,-38,-20,-65,-22r0,-62r70,0v43,0,61,18,61,61r0,267r-64,0r1,-83v-6,-1,-80,95,-232,95v-192,0,-344,-154,-344,-365xm269,-752r83,-119r70,0r83,119r-63,0r-54,-81r-2,0r-54,81r-63,0","w":730},"\u011d":{"d":"42,-261v0,-151,83,-254,218,-254v135,0,167,86,167,86r2,0v-3,-47,8,-75,57,-74r70,0r0,59v-27,2,-63,-9,-63,22r0,410v0,228,-242,264,-406,182r26,-57v0,0,62,35,136,35v98,0,176,-46,176,-158r1,-80r-2,0v-30,55,-80,87,-158,87v-135,0,-224,-107,-224,-258xm276,-64v80,0,150,-49,150,-197v0,-147,-70,-192,-159,-192v-98,0,-155,71,-155,191v0,120,65,198,164,198xm171,-584r83,-119r70,0r83,119r-63,0r-54,-81r-2,0r-54,81r-63,0","w":579},"\u011e":{"d":"39,-353v0,-202,152,-362,351,-362v163,0,246,86,246,86r-41,52v0,0,-78,-72,-204,-72v-158,0,-279,127,-279,296v0,173,119,299,278,299v139,0,222,-103,222,-103r0,-87v1,-31,-38,-20,-65,-22r0,-62r70,0v43,0,61,18,61,61r0,267r-64,0r1,-83v-6,-1,-80,95,-232,95v-192,0,-344,-154,-344,-365xm501,-856v0,143,-227,142,-227,0r0,-15r52,0v-4,50,25,75,62,75v35,0,66,-25,61,-75r52,0r0,15","w":730},"\u011f":{"d":"42,-261v0,-151,83,-254,218,-254v135,0,167,86,167,86r2,0v-3,-47,8,-75,57,-74r70,0r0,59v-27,2,-63,-9,-63,22r0,410v0,228,-242,264,-406,182r26,-57v0,0,62,35,136,35v98,0,176,-46,176,-158r1,-80r-2,0v-30,55,-80,87,-158,87v-135,0,-224,-107,-224,-258xm276,-64v80,0,150,-49,150,-197v0,-147,-70,-192,-159,-192v-98,0,-155,71,-155,191v0,120,65,198,164,198xm403,-688v0,143,-227,142,-227,0r0,-15r52,0v-4,50,25,75,62,75v35,0,66,-25,61,-75r52,0r0,15","w":579},"\u0120":{"d":"39,-353v0,-202,152,-362,351,-362v163,0,246,86,246,86r-41,52v0,0,-78,-72,-204,-72v-158,0,-279,127,-279,296v0,173,119,299,278,299v139,0,222,-103,222,-103r0,-87v1,-31,-38,-20,-65,-22r0,-62r70,0v43,0,61,18,61,61r0,267r-64,0r1,-83v-6,-1,-80,95,-232,95v-192,0,-344,-154,-344,-365xm355,-785r0,-86r66,0r0,86r-66,0","w":730},"\u0121":{"d":"42,-261v0,-151,83,-254,218,-254v135,0,167,86,167,86r2,0v-3,-47,8,-75,57,-74r70,0r0,59v-27,2,-63,-9,-63,22r0,410v0,228,-242,264,-406,182r26,-57v0,0,62,35,136,35v98,0,176,-46,176,-158r1,-80r-2,0v-30,55,-80,87,-158,87v-135,0,-224,-107,-224,-258xm276,-64v80,0,150,-49,150,-197v0,-147,-70,-192,-159,-192v-98,0,-155,71,-155,191v0,120,65,198,164,198xm256,-617r0,-86r66,0r0,86r-66,0","w":579},"\u0122":{"d":"39,-353v0,-202,152,-362,351,-362v163,0,246,86,246,86r-41,52v0,0,-78,-72,-204,-72v-158,0,-279,127,-279,296v0,173,119,299,278,299v139,0,222,-103,222,-103r0,-87v1,-31,-38,-20,-65,-22r0,-62r70,0v43,0,61,18,61,61r0,267r-64,0r1,-83v-6,-1,-80,95,-232,95v-192,0,-344,-154,-344,-365xm347,63r62,0v15,53,5,89,-17,137r-53,0v20,-51,27,-85,8,-137","w":730},"\u0123":{"d":"42,-261v0,-151,83,-254,218,-254v135,0,167,86,167,86r2,0v-3,-47,8,-75,57,-74r70,0r0,59v-27,2,-63,-9,-63,22r0,410v0,228,-242,264,-406,182r26,-57v0,0,62,35,136,35v98,0,176,-46,176,-158r1,-80r-2,0v-30,55,-80,87,-158,87v-135,0,-224,-107,-224,-258xm276,-64v80,0,150,-49,150,-197v0,-147,-70,-192,-159,-192v-98,0,-155,71,-155,191v0,120,65,198,164,198xm311,-566r-62,0v-15,-53,-5,-89,17,-137r53,0v-20,51,-27,85,-8,137","w":579},"\u0124":{"d":"107,0r0,-619v1,-31,-38,-20,-65,-22r0,-62r74,0v43,0,61,18,61,61r0,259r404,0r0,-259v0,-43,18,-61,60,-61r75,0r0,62v-27,2,-65,-9,-65,22r0,619r-70,0r0,-321r-404,0r0,321r-70,0xm261,-752r83,-119r70,0r83,119r-63,0r-54,-81r-2,0r-54,81r-63,0","w":757},"\u0125":{"d":"342,-451v-105,0,-190,83,-190,210r0,241r-68,0r0,-622v1,-30,-37,-21,-64,-22r0,-59r71,0v43,0,61,18,61,59r0,213v2,24,-6,42,0,41v19,-48,86,-125,199,-125v125,0,169,71,169,195r0,239v-1,31,37,20,64,22r0,59r-71,0v-43,0,-61,-18,-61,-61r0,-241v0,-79,-12,-149,-110,-149xm200,-752r83,-119r70,0r83,119r-63,0r-54,-81r-2,0r-54,81r-63,0","w":605},"\u0126":{"d":"107,0r0,-512r-66,0r0,-54r66,0r0,-137r70,0r0,137r404,0r0,-137r70,0r0,137r65,0r0,54r-65,0r0,512r-70,0r0,-321r-404,0r0,321r-70,0xm177,-383r404,0r0,-129r-404,0r0,129","w":757},"\u0127":{"d":"84,0r0,-566r-79,0r0,-51r79,0r0,-86r68,0r0,86r131,0r0,51r-131,0r0,135v2,24,-6,42,0,41v13,-37,76,-125,199,-125v125,0,169,71,169,195r0,239v-1,31,37,20,64,22r0,59r-71,0v-43,0,-61,-18,-61,-61r0,-241v0,-78,-12,-149,-110,-149v-110,0,-190,92,-190,210r0,241r-68,0","w":605},"\u0128":{"d":"46,0r0,-62r66,0r0,-579r-66,0r0,-62r201,0r0,62r-67,0r0,579r67,0r0,62r-201,0xm-12,-755v0,-77,31,-117,93,-117v67,0,81,72,126,72v33,0,40,-43,40,-69r53,0v0,77,-32,117,-93,117v-68,0,-81,-71,-127,-71v-33,0,-40,42,-40,68r-52,0","w":293},"\u0129":{"d":"93,-61r0,-361v1,-30,-37,-21,-64,-22r0,-59r71,0v43,0,61,18,61,61r0,361v-1,31,37,20,64,22r0,59r-71,0v-43,0,-61,-18,-61,-61xm-16,-587v0,-77,25,-117,83,-117v56,0,70,70,100,70v30,0,34,-41,34,-67r50,0v0,77,-24,117,-83,117v-56,0,-70,-70,-99,-70v-30,0,-34,41,-34,67r-51,0","w":252},"\u012a":{"d":"46,0r0,-62r66,0r0,-579r-66,0r0,-62r201,0r0,62r-67,0r0,579r67,0r0,62r-201,0xm23,-785r0,-54r246,0r0,54r-246,0","w":293},"\u012b":{"d":"93,-61r0,-361v1,-30,-37,-21,-64,-22r0,-59r71,0v43,0,61,18,61,61r0,361v-1,31,37,20,64,22r0,59r-71,0v-43,0,-61,-18,-61,-61xm13,-617r0,-54r214,0r0,54r-214,0","w":252},"\u012c":{"d":"46,0r0,-62r66,0r0,-579r-66,0r0,-62r201,0r0,62r-67,0r0,579r67,0r0,62r-201,0xm259,-856v0,143,-227,142,-227,0r0,-15r52,0v-4,50,25,75,62,75v35,0,66,-25,61,-75r52,0r0,15","w":293},"\u012d":{"d":"93,-61r0,-361v1,-30,-37,-21,-64,-22r0,-59r71,0v43,0,61,18,61,61r0,361v-1,31,37,20,64,22r0,59r-71,0v-43,0,-61,-18,-61,-61xm233,-688v0,143,-227,142,-227,0r0,-15r52,0v-4,50,25,75,62,75v35,0,66,-25,61,-75r52,0r0,15","w":252},"\u012e":{"d":"46,0r0,-62r66,0r0,-579r-66,0r0,-62r201,0r0,62r-67,0r0,579r67,0r0,62v-22,17,-73,59,-73,99v0,45,62,50,62,50r-15,56v0,0,-110,-7,-110,-92v0,-51,35,-89,65,-111r0,-2r-130,0","w":293},"\u012f":{"d":"90,-617r0,-86r66,0r0,86r-66,0xm160,-442r0,361v-1,31,37,20,64,22r0,59v-21,17,-72,59,-72,99v0,45,62,50,62,50r-16,56v0,0,-109,-7,-109,-92v0,-51,36,-89,65,-111r0,-2v-51,4,-62,-28,-62,-83r0,-339v1,-30,-37,-21,-64,-22r0,-59r71,0v43,0,61,18,61,61","w":251},"\u0130":{"d":"46,0r0,-62r66,0r0,-579r-66,0r0,-62r201,0r0,62r-67,0r0,579r67,0r0,62r-201,0xm113,-785r0,-86r66,0r0,86r-66,0","w":293},"\u0131":{"d":"93,-61r0,-361v1,-30,-37,-21,-64,-22r0,-59r71,0v43,0,61,18,61,61r0,361v-1,31,37,20,64,22r0,59r-71,0v-43,0,-61,-18,-61,-61","w":252},"\u0132":{"d":"341,5r0,-65v64,0,147,-23,147,-168r0,-391v0,-15,-8,-22,-22,-22r-119,0r0,-62r150,0v43,0,61,18,61,61r0,414v0,195,-118,233,-217,233xm46,0r0,-62r66,0r0,-579r-66,0r0,-62r201,0r0,62r-67,0r0,579r67,0r0,62r-201,0","w":642},"\u0133":{"d":"90,-617r0,-86r66,0r0,86r-66,0xm92,-61r0,-361v1,-30,-37,-21,-64,-22r0,-59r71,0v43,0,61,18,61,61r0,361v-1,31,37,20,64,22r0,59r-71,0v-43,0,-61,-18,-61,-61xm355,-617r0,-86r66,0r0,86r-66,0xm220,144v0,0,9,1,22,1v39,0,115,-14,115,-129r0,-438v1,-30,-37,-21,-64,-22r0,-59r71,0v43,0,61,18,61,61r0,461v0,167,-119,187,-176,187v-17,0,-29,-3,-29,-3r0,-59","w":510},"\u0134":{"d":"24,-197r0,-28r70,0r0,24v0,111,66,147,129,147v62,0,127,-37,127,-145r0,-420v0,-15,-8,-22,-22,-22r-174,0r0,-62r205,0v43,0,61,18,61,61r0,445v0,152,-101,209,-198,209v-97,0,-198,-58,-198,-209xm162,-752r83,-119r70,0r83,119r-63,0r-54,-81r-2,0r-54,81r-63,0","w":505},"\u0135":{"d":"6,-584r84,-119r69,0r84,119r-63,0r-56,-82r-55,82r-63,0xm-21,144v0,0,9,2,22,2v39,0,114,-14,114,-129r0,-440v2,-31,-37,-20,-64,-22r0,-58r70,0v43,0,61,15,61,58r0,464v0,167,-117,187,-174,187v-18,0,-29,-3,-29,-3r0,-59","w":267},"\u0136":{"d":"107,0r0,-619v1,-31,-38,-20,-65,-22r0,-62r74,0v43,0,61,18,61,61r0,244v55,-4,120,14,143,-25r170,-280r80,0r-181,295v-19,32,-37,36,-36,41v0,0,17,6,34,40r122,242v11,27,37,23,71,23r0,62r-37,0v-57,0,-74,-6,-97,-53r-128,-257v-19,-41,-88,-22,-141,-26r0,336r-70,0xm280,63r62,0v15,53,5,89,-17,137r-53,0v20,-51,27,-85,8,-137","w":590},"\u0137":{"d":"84,0r0,-622v1,-30,-37,-21,-64,-22r0,-59r71,0v43,0,61,15,61,58r0,334v47,-1,85,7,109,-24r129,-168r83,0r-145,184v-26,34,-39,32,-38,38v0,0,15,7,31,37r91,163v8,24,39,22,73,22r0,59r-47,0v-50,0,-64,-8,-87,-50r-100,-180v-21,-31,-57,-20,-99,-22r0,252r-68,0xm231,63r62,0v15,53,5,89,-17,137r-53,0v20,-51,27,-85,8,-137","w":498},"\u0138":{"d":"84,0r0,-422v1,-30,-37,-21,-64,-22r0,-59r71,0v43,0,61,15,61,58r0,157v48,-2,83,12,109,-24r137,-191r82,0r-153,206v-25,35,-37,32,-36,38v0,0,13,6,30,37r79,141v9,26,43,22,78,22r0,59r-52,0v-50,0,-64,-8,-87,-50r-88,-157v-21,-33,-57,-19,-99,-22r0,229r-68,0","w":498},"\u0139":{"d":"107,-61r0,-558v1,-31,-38,-20,-65,-22r0,-62r74,0v43,0,61,18,61,61r0,558v0,15,8,22,22,22r233,0v31,2,20,-41,22,-69r66,0r0,70v0,43,-18,61,-61,61r-291,0v-43,0,-61,-18,-61,-61xm115,-752r70,-119r76,0r-87,119r-59,0","w":530},"\u013a":{"d":"86,-61r0,-561v1,-30,-37,-21,-64,-22r0,-59r71,0v43,0,61,18,61,61r0,561v-1,31,37,20,64,22r0,59r-71,0v-43,0,-61,-18,-61,-61xm75,-752r70,-119r76,0r-87,119r-59,0","w":245},"\u013b":{"d":"107,-61r0,-558v1,-31,-38,-20,-65,-22r0,-62r74,0v43,0,61,18,61,61r0,558v0,15,8,22,22,22r233,0v31,2,20,-41,22,-69r66,0r0,70v0,43,-18,61,-61,61r-291,0v-43,0,-61,-18,-61,-61xm279,63r62,0v15,53,5,89,-17,137r-53,0v20,-51,27,-85,8,-137","w":530},"\u013c":{"d":"86,-61r0,-561v1,-30,-37,-21,-64,-22r0,-59r71,0v43,0,61,18,61,61r0,561v-1,31,37,20,64,22r0,59r-71,0v-43,0,-61,-18,-61,-61xm103,63r62,0v15,53,5,89,-17,137r-53,0v20,-51,27,-85,8,-137","w":245},"\u013d":{"d":"107,-61r0,-558v1,-31,-38,-20,-65,-22r0,-62r74,0v43,0,61,18,61,61r0,558v0,15,8,22,22,22r233,0v31,2,20,-41,22,-69r66,0r0,70v0,43,-18,61,-61,61r-291,0v-43,0,-61,-18,-61,-61xm268,-703r62,0v15,53,5,89,-17,137r-53,0v20,-51,27,-85,8,-137","w":530},"\u013e":{"d":"86,-61r0,-561v1,-30,-37,-21,-64,-22r0,-59r71,0v43,0,61,18,61,61r0,561v-1,31,37,20,64,22r0,59r-71,0v-43,0,-61,-18,-61,-61xm216,-703r62,0v15,53,5,89,-17,137r-53,0v20,-51,27,-85,8,-137","w":318},"\u013f":{"d":"107,-61r0,-558v1,-31,-38,-20,-65,-22r0,-62r74,0v43,0,61,18,61,61r0,558v0,15,8,22,22,22r233,0v31,2,20,-41,22,-69r66,0r0,70v0,43,-18,61,-61,61r-291,0v-43,0,-61,-18,-61,-61xm301,-332r0,-80r77,0r0,80r-77,0","w":530},"\u0140":{"d":"86,-61r0,-561v1,-30,-37,-21,-64,-22r0,-59r71,0v43,0,61,18,61,61r0,561v-1,31,37,20,64,22r0,59r-71,0v-43,0,-61,-18,-61,-61xm223,-332r0,-80r77,0r0,80r-77,0","w":305},"\u0141":{"d":"107,-61r0,-277r-65,36r0,-70r65,-37r0,-210v1,-31,-38,-20,-65,-22r0,-62r74,0v43,0,61,18,61,61r0,193r109,-64r0,72r-109,63r0,294v0,15,8,22,22,22r233,0v31,2,20,-41,22,-69r66,0r0,70v0,43,-18,61,-61,61r-291,0v-43,0,-61,-18,-61,-61","w":530},"\u0142":{"d":"101,-61r0,-294r-85,48r0,-71r85,-49r0,-195v1,-30,-37,-21,-64,-22r0,-59r71,0v43,0,61,18,61,61r0,176r83,-48r0,72r-83,48r0,313v-1,31,37,20,64,22r0,59r-71,0v-43,0,-61,-18,-61,-61","w":267},"\u0143":{"d":"42,0r0,-62v27,-2,65,9,65,-22r0,-619r64,0r359,501v24,35,57,92,57,92r2,0v0,0,-5,-55,-5,-92r0,-440v0,-43,18,-61,61,-61r74,0r0,62v-27,2,-65,-9,-65,22r0,619r-64,0r-359,-501v-25,-34,-58,-91,-58,-91r-2,0v0,0,6,54,6,91r0,440v0,43,-18,61,-61,61r-74,0xm361,-752r70,-119r76,0r-87,119r-59,0","w":760},"\u0144":{"d":"346,-451v-106,0,-191,83,-191,210r0,241r-68,0r0,-422v1,-30,-37,-21,-64,-22r0,-59r70,0v51,-1,61,28,61,79v0,21,-6,37,0,36v18,-46,82,-127,200,-127v125,0,169,71,169,195r0,239v-1,31,37,20,64,22r0,59r-71,0v-43,0,-61,-18,-61,-61r0,-241v0,-79,-12,-149,-109,-149xm287,-584r70,-119r76,0r-87,119r-59,0","w":608},"\u0145":{"d":"42,0r0,-62v27,-2,65,9,65,-22r0,-619r64,0r359,501v24,35,57,92,57,92r2,0v0,0,-5,-55,-5,-92r0,-440v0,-43,18,-61,61,-61r74,0r0,62v-27,2,-65,-9,-65,22r0,619r-64,0r-359,-501v-25,-34,-58,-91,-58,-91r-2,0v0,0,6,54,6,91r0,440v0,43,-18,61,-61,61r-74,0xm344,63r62,0v15,53,5,89,-17,137r-53,0v20,-51,27,-85,8,-137","w":760},"\u0146":{"d":"346,-451v-106,0,-191,83,-191,210r0,241r-68,0r0,-422v1,-30,-37,-21,-64,-22r0,-59r70,0v51,-1,61,28,61,79v0,21,-6,37,0,36v18,-46,82,-127,200,-127v125,0,169,71,169,195r0,239v-1,31,37,20,64,22r0,59r-71,0v-43,0,-61,-18,-61,-61r0,-241v0,-79,-12,-149,-109,-149xm287,63r62,0v15,53,5,89,-17,137r-53,0v20,-51,27,-85,8,-137","w":608},"\u0147":{"d":"42,0r0,-62v27,-2,65,9,65,-22r0,-619r64,0r359,501v24,35,57,92,57,92r2,0v0,0,-5,-55,-5,-92r0,-440v0,-43,18,-61,61,-61r74,0r0,62v-27,2,-65,-9,-65,22r0,619r-64,0r-359,-501v-25,-34,-58,-91,-58,-91r-2,0v0,0,6,54,6,91r0,440v0,43,-18,61,-61,61r-74,0xm356,-752r-84,-119r64,0r54,80r2,0r54,-80r63,0r-84,119r-69,0","w":760},"\u0148":{"d":"346,-451v-106,0,-191,83,-191,210r0,241r-68,0r0,-422v1,-30,-37,-21,-64,-22r0,-59r70,0v51,-1,61,28,61,79v0,21,-6,37,0,36v18,-46,82,-127,200,-127v125,0,169,71,169,195r0,239v-1,31,37,20,64,22r0,59r-71,0v-43,0,-61,-18,-61,-61r0,-241v0,-79,-12,-149,-109,-149xm282,-584r-84,-119r64,0r54,80r2,0r54,-80r63,0r-84,119r-69,0","w":608},"\u0149":{"d":"370,-451v-106,0,-191,83,-191,210r0,241r-68,0r0,-422v1,-30,-37,-21,-64,-22r0,-59r70,0v51,-1,61,28,61,79v0,21,-6,37,0,36v18,-46,82,-127,200,-127v125,0,169,71,169,195r0,239v-1,31,37,20,64,22r0,59r-71,0v-43,0,-61,-18,-61,-61r0,-241v0,-79,-12,-149,-109,-149xm-1,-703r62,0v15,53,5,89,-17,137r-53,0v20,-51,27,-85,8,-137","w":632},"\u014a":{"d":"42,0r0,-62v27,-2,65,9,65,-22r0,-619r64,0r359,501v24,35,57,92,57,92r2,0v0,0,-5,-55,-5,-92r0,-440v0,-43,18,-61,61,-61r74,0r0,62v-27,2,-65,-9,-65,22r0,607v0,166,-110,217,-209,217r0,-65v64,1,143,-41,139,-150r-353,-491v-25,-34,-58,-91,-58,-91r-2,0v0,0,6,54,6,91r0,440v0,43,-18,61,-61,61r-74,0","w":760},"\u014b":{"d":"346,-451v-106,0,-191,83,-191,210r0,241r-68,0r0,-422v1,-30,-37,-21,-64,-22r0,-59r70,0v51,-1,61,28,61,79v0,21,-6,37,0,36v18,-46,82,-127,200,-127v125,0,169,71,169,195r0,343v0,167,-118,187,-175,187v-18,0,-29,-3,-29,-3r0,-59v0,0,9,1,22,1v39,0,114,-14,114,-129r0,-322v0,-79,-12,-149,-109,-149","w":603},"\u014c":{"d":"38,-356v0,-202,158,-359,358,-359v199,0,358,157,358,359v0,206,-159,368,-358,368v-200,0,-358,-162,-358,-368xm111,-356v0,170,127,302,285,302v157,0,285,-132,285,-302v0,-166,-128,-293,-285,-293v-158,0,-285,127,-285,293xm270,-785r0,-54r246,0r0,54r-246,0","w":791},"\u014d":{"d":"40,-254v0,-149,119,-261,265,-261v147,0,266,112,266,261v0,152,-119,266,-265,266v-147,0,-266,-114,-266,-266xm110,-254v0,117,88,205,196,205v107,0,195,-88,195,-205v0,-114,-88,-199,-195,-199v-108,0,-196,85,-196,199xm183,-617r0,-54r246,0r0,54r-246,0","w":611},"\u014e":{"d":"38,-356v0,-202,158,-359,358,-359v199,0,358,157,358,359v0,206,-159,368,-358,368v-200,0,-358,-162,-358,-368xm111,-356v0,170,127,302,285,302v157,0,285,-132,285,-302v0,-166,-128,-293,-285,-293v-158,0,-285,127,-285,293xm506,-856v0,143,-227,142,-227,0r0,-15r52,0v-4,50,25,75,62,75v35,0,66,-25,61,-75r52,0r0,15","w":791},"\u014f":{"d":"40,-254v0,-149,119,-261,265,-261v147,0,266,112,266,261v0,152,-119,266,-265,266v-147,0,-266,-114,-266,-266xm110,-254v0,117,88,205,196,205v107,0,195,-88,195,-205v0,-114,-88,-199,-195,-199v-108,0,-196,85,-196,199xm419,-688v0,143,-227,142,-227,0r0,-15r52,0v-4,50,25,75,62,75v35,0,66,-25,61,-75r52,0r0,15","w":611},"\u0150":{"d":"38,-356v0,-202,158,-359,358,-359v199,0,358,157,358,359v0,206,-159,368,-358,368v-200,0,-358,-162,-358,-368xm111,-356v0,170,127,302,285,302v157,0,285,-132,285,-302v0,-166,-128,-293,-285,-293v-158,0,-285,127,-285,293xm428,-752r70,-119r76,0r-87,119r-59,0xm295,-752r66,-119r65,0r-67,119r-64,0","w":791},"\u0151":{"d":"40,-254v0,-149,119,-261,265,-261v147,0,266,112,266,261v0,152,-119,266,-265,266v-147,0,-266,-114,-266,-266xm110,-254v0,117,88,205,196,205v107,0,195,-88,195,-205v0,-114,-88,-199,-195,-199v-108,0,-196,85,-196,199xm341,-584r70,-119r76,0r-87,119r-59,0xm208,-584r66,-119r65,0r-67,119r-64,0","w":611},"\u0152":{"d":"38,-352v0,-202,143,-361,339,-361v47,0,105,10,142,10r276,0v43,0,61,18,61,61r0,70r-65,0v-2,-28,10,-69,-22,-69r-233,0r0,256r256,0r0,62r-256,0r0,261r262,0v31,2,20,-41,22,-69r65,0r0,70v0,43,-18,61,-56,61r-309,0v-36,0,-96,10,-143,10v-196,0,-339,-158,-339,-362xm111,-352v0,168,106,295,266,295v29,0,67,-2,89,-7r0,-574v-22,-5,-60,-8,-89,-8v-160,0,-266,127,-266,294","w":910},"\u0153":{"d":"40,-250v0,-160,121,-265,265,-265v101,0,185,52,228,135r2,0v39,-86,118,-135,215,-135v150,0,223,120,209,266r-386,0v5,131,94,200,195,200v92,0,151,-62,151,-62r33,51v0,0,-73,72,-187,72v-105,0,-188,-53,-229,-137r-2,0v-42,85,-126,137,-229,137v-144,0,-265,-103,-265,-262xm576,-303r315,0v-5,-104,-67,-155,-142,-155v-83,0,-156,54,-173,155xm110,-250v0,121,88,201,195,201v106,0,195,-80,195,-205v0,-122,-91,-199,-195,-199v-107,0,-195,81,-195,203","w":1010},"\u0154":{"d":"107,0r0,-641r-65,0r0,-62r298,0v118,0,202,78,202,200v0,109,-67,173,-136,188v-1,6,13,7,24,30r101,200v11,25,33,23,64,23r0,62r-31,0v-57,0,-74,-7,-97,-53r-101,-201v-19,-37,-32,-42,-71,-42r-118,0r0,296r-70,0xm177,-358r156,0v84,0,136,-55,136,-143v0,-87,-52,-140,-135,-140r-157,0r0,283xm253,-752r70,-119r76,0r-87,119r-59,0","w":605},"\u0155":{"d":"340,-438v-120,-18,-185,102,-185,226r0,212r-68,0r0,-422v1,-30,-37,-21,-64,-22r0,-59r70,0v56,-3,61,35,61,91v0,22,-6,39,0,38v28,-83,89,-147,186,-131r0,67xm155,-584r70,-119r76,0r-87,119r-59,0","w":361},"\u0156":{"d":"107,0r0,-641r-65,0r0,-62r298,0v118,0,202,78,202,200v0,109,-67,173,-136,188v-1,6,13,7,24,30r101,200v11,25,33,23,64,23r0,62r-31,0v-57,0,-74,-7,-97,-53r-101,-201v-19,-37,-32,-42,-71,-42r-118,0r0,296r-70,0xm177,-358r156,0v84,0,136,-55,136,-143v0,-87,-52,-140,-135,-140r-157,0r0,283xm298,63r62,0v15,53,5,89,-17,137r-53,0v20,-51,27,-85,8,-137","w":605},"\u0157":{"d":"340,-438v-120,-18,-185,102,-185,226r0,212r-68,0r0,-422v1,-30,-37,-21,-64,-22r0,-59r70,0v56,-3,61,35,61,91v0,22,-6,39,0,38v28,-83,89,-147,186,-131r0,67xm93,63r62,0v15,53,5,89,-17,137r-53,0v20,-51,27,-85,8,-137","w":361},"\u0158":{"d":"107,0r0,-641r-65,0r0,-62r298,0v118,0,202,78,202,200v0,109,-67,173,-136,188v-1,6,13,7,24,30r101,200v11,25,33,23,64,23r0,62r-31,0v-57,0,-74,-7,-97,-53r-101,-201v-19,-37,-32,-42,-71,-42r-118,0r0,296r-70,0xm177,-358r156,0v84,0,136,-55,136,-143v0,-87,-52,-140,-135,-140r-157,0r0,283xm248,-752r-84,-119r64,0r54,80r2,0r54,-80r63,0r-84,119r-69,0","w":605},"\u0159":{"d":"340,-438v-120,-18,-185,102,-185,226r0,212r-68,0r0,-422v1,-30,-37,-21,-64,-22r0,-59r70,0v56,-3,61,35,61,91v0,22,-6,39,0,38v28,-83,89,-147,186,-131r0,67xm151,-584r-84,-119r64,0r54,80r2,0r54,-80r63,0r-84,119r-69,0","w":361},"\u015a":{"d":"37,-88r43,-51v0,0,71,86,182,86v77,0,139,-50,139,-125v0,-174,-347,-139,-347,-357v0,-98,85,-180,215,-180v68,0,190,29,190,121r0,50r-66,0r0,-33v0,-42,-58,-73,-123,-73v-91,0,-144,53,-144,113v0,163,347,123,347,355v0,105,-81,194,-213,194v-144,0,-223,-100,-223,-100xm235,-752r70,-119r76,0r-87,119r-59,0","w":518},"\u015b":{"d":"29,-76r39,-47v0,0,56,76,155,76v56,0,106,-27,106,-80v0,-110,-282,-90,-282,-252v0,-91,78,-136,179,-136v51,0,153,20,153,91r0,43r-64,0r0,-24v0,-37,-54,-51,-87,-51v-70,0,-112,24,-112,73v0,113,282,87,282,254v0,84,-76,141,-176,141v-131,0,-193,-88,-193,-88xm189,-584r70,-119r76,0r-87,119r-59,0","w":440},"\u015c":{"d":"37,-88r43,-51v0,0,71,86,182,86v77,0,139,-50,139,-125v0,-174,-347,-139,-347,-357v0,-98,85,-180,215,-180v68,0,190,29,190,121r0,50r-66,0r0,-33v0,-42,-58,-73,-123,-73v-91,0,-144,53,-144,113v0,163,347,123,347,355v0,105,-81,194,-213,194v-144,0,-223,-100,-223,-100xm147,-752r83,-119r70,0r83,119r-63,0r-54,-81r-2,0r-54,81r-63,0","w":518},"\u015d":{"d":"29,-76r39,-47v0,0,56,76,155,76v56,0,106,-27,106,-80v0,-110,-282,-90,-282,-252v0,-91,78,-136,179,-136v51,0,153,20,153,91r0,43r-64,0r0,-24v0,-37,-54,-51,-87,-51v-70,0,-112,24,-112,73v0,113,282,87,282,254v0,84,-76,141,-176,141v-131,0,-193,-88,-193,-88xm101,-584r83,-119r70,0r83,119r-63,0r-54,-81r-2,0r-54,81r-63,0","w":440},"\u015e":{"d":"37,-88r43,-51v0,0,71,86,182,86v77,0,139,-50,139,-125v0,-174,-347,-139,-347,-357v0,-98,85,-180,215,-180v68,0,190,29,190,121r0,50r-66,0r0,-33v0,-42,-58,-73,-123,-73v-91,0,-144,53,-144,113v0,163,347,123,347,355v0,101,-74,187,-197,194r-8,43v41,6,70,31,70,71v0,58,-47,79,-96,79v-29,0,-49,-5,-49,-5r0,-48v0,0,19,6,41,6v26,0,51,-7,51,-34v0,-26,-37,-38,-72,-33r19,-81v-126,-11,-195,-98,-195,-98","w":518},"\u015f":{"d":"29,-76r39,-47v0,0,56,76,155,76v56,0,106,-27,106,-80v0,-110,-282,-90,-282,-252v0,-91,78,-136,179,-136v51,0,153,20,153,91r0,43r-64,0r0,-24v0,-37,-54,-51,-87,-51v-70,0,-112,24,-112,73v0,113,282,87,282,254v0,83,-72,137,-168,141r-8,43v41,6,70,31,70,71v0,58,-47,79,-96,79v-29,0,-49,-5,-49,-5r0,-48v0,0,19,6,41,6v26,0,51,-7,51,-34v0,-26,-37,-38,-72,-33r19,-82v-106,-12,-157,-85,-157,-85","w":440},"\u0160":{"d":"37,-88r43,-51v0,0,71,86,182,86v77,0,139,-50,139,-125v0,-174,-347,-139,-347,-357v0,-98,85,-180,215,-180v68,0,190,29,190,121r0,50r-66,0r0,-33v0,-42,-58,-73,-123,-73v-91,0,-144,53,-144,113v0,163,347,123,347,355v0,105,-81,194,-213,194v-144,0,-223,-100,-223,-100xm231,-752r-84,-119r64,0r54,80r2,0r54,-80r63,0r-84,119r-69,0","w":518},"\u0161":{"d":"29,-76r39,-47v0,0,56,76,155,76v56,0,106,-27,106,-80v0,-110,-282,-90,-282,-252v0,-91,78,-136,179,-136v51,0,153,20,153,91r0,43r-64,0r0,-24v0,-37,-54,-51,-87,-51v-70,0,-112,24,-112,73v0,113,282,87,282,254v0,84,-76,141,-176,141v-131,0,-193,-88,-193,-88xm185,-584r-84,-119r64,0r54,80r2,0r54,-80r63,0r-84,119r-69,0","w":440},"\u0162":{"d":"518,-641r-173,0r0,641r-14,0r-10,55v41,6,70,31,70,71v0,58,-47,79,-96,79v-29,0,-50,-5,-50,-5r0,-48v0,0,19,6,42,6v26,0,51,-7,51,-34v0,-26,-37,-38,-72,-33r21,-91r-12,0r0,-641r-174,0v-31,-3,-20,41,-22,69r-64,0r0,-74v0,-43,14,-57,57,-57r476,0v43,0,57,14,57,57r0,74r-65,0v-2,-28,10,-69,-22,-69","w":620},"\u0163":{"d":"93,-183r0,-263r-66,0r0,-57r67,0r0,-139r67,0r0,139r126,0r0,57r-126,0r0,256v0,118,75,133,113,133v14,0,23,-2,23,-2r0,61v-15,2,-55,4,-78,-3r-10,56v41,6,70,31,70,71v0,58,-47,79,-96,79v-29,0,-49,-5,-49,-5r0,-48v0,0,19,6,41,6v26,0,51,-7,51,-34v0,-26,-37,-38,-72,-33r25,-105v-46,-22,-86,-69,-86,-169","w":335},"\u0164":{"d":"275,0r0,-641r-174,0v-31,-3,-20,41,-22,69r-64,0r0,-74v0,-43,14,-57,57,-57r476,0v43,0,57,14,57,57r0,74r-65,0v-2,-28,11,-69,-22,-69r-173,0r0,641r-70,0xm276,-752r-84,-119r64,0r54,80r2,0r54,-80r63,0r-84,119r-69,0","w":620},"\u0165":{"d":"94,-183r0,-263r-66,0r0,-57r67,0r0,-139r67,0r0,139r126,0r0,57r-126,0r0,256v0,118,75,133,113,133v14,0,23,-2,23,-2r0,61v0,0,-12,2,-29,2v-58,0,-175,-19,-175,-187xm230,-703r62,0v15,53,5,89,-17,137r-53,0v20,-51,27,-85,8,-137","w":348},"\u0166":{"d":"275,0r0,-324r-161,0r0,-57r161,0r0,-260r-174,0v-31,-3,-20,41,-22,69r-64,0r0,-74v0,-43,14,-57,57,-57r476,0v43,0,57,14,57,57r0,74r-65,0v-2,-28,11,-69,-22,-69r-173,0r0,260r165,0r0,57r-165,0r0,324r-70,0","w":620},"\u0167":{"d":"93,-183r0,-95r-66,0r0,-53r66,0r0,-115r-66,0r0,-57r67,0r0,-139r67,0r0,139r126,0r0,57r-126,0r0,115r126,0r0,53r-126,0r0,90v0,115,75,131,113,131v14,0,23,-2,23,-2r0,61v0,0,-12,2,-29,2v-58,0,-175,-19,-175,-187","w":335},"\u0168":{"d":"99,-241r0,-378v1,-31,-38,-20,-65,-22r0,-62r74,0v43,0,61,18,61,61r0,398v0,117,74,190,189,190v115,0,190,-73,190,-192r0,-396v0,-43,18,-61,61,-61r74,0r0,62v-27,2,-65,-9,-65,22r0,378v0,152,-104,253,-259,253v-155,0,-260,-101,-260,-253xm202,-755v0,-77,31,-117,93,-117v67,0,81,72,126,72v33,0,40,-43,40,-69r53,0v0,77,-32,117,-93,117v-68,0,-81,-71,-127,-71v-33,0,-40,42,-40,68r-52,0","w":717},"\u0169":{"d":"85,-183r0,-239v1,-30,-37,-21,-64,-22r0,-59r71,0v43,0,61,18,61,59r0,243v0,79,13,149,110,149v114,0,185,-101,185,-210r0,-241r68,0r0,422v-1,31,37,20,64,22r0,59r-69,0v-51,1,-61,-28,-61,-79v0,-21,6,-37,0,-36v-20,49,-86,127,-196,127v-119,0,-169,-64,-169,-195xm137,-587v0,-77,31,-117,93,-117v67,0,81,72,126,72v33,0,40,-43,40,-69r53,0v0,77,-32,117,-93,117v-68,0,-81,-71,-127,-71v-33,0,-40,42,-40,68r-52,0","w":603},"\u016a":{"d":"99,-241r0,-378v1,-31,-38,-20,-65,-22r0,-62r74,0v43,0,61,18,61,61r0,398v0,117,74,190,189,190v115,0,190,-73,190,-192r0,-396v0,-43,18,-61,61,-61r74,0r0,62v-27,2,-65,-9,-65,22r0,378v0,152,-104,253,-259,253v-155,0,-260,-101,-260,-253xm237,-785r0,-54r246,0r0,54r-246,0","w":717},"\u016b":{"d":"85,-183r0,-239v1,-30,-37,-21,-64,-22r0,-59r71,0v43,0,61,18,61,59r0,243v0,79,13,149,110,149v114,0,185,-101,185,-210r0,-241r68,0r0,422v-1,31,37,20,64,22r0,59r-69,0v-51,1,-61,-28,-61,-79v0,-21,6,-37,0,-36v-20,49,-86,127,-196,127v-119,0,-169,-64,-169,-195xm172,-617r0,-54r246,0r0,54r-246,0","w":603},"\u016c":{"d":"99,-241r0,-378v1,-31,-38,-20,-65,-22r0,-62r74,0v43,0,61,18,61,61r0,398v0,117,74,190,189,190v115,0,190,-73,190,-192r0,-396v0,-43,18,-61,61,-61r74,0r0,62v-27,2,-65,-9,-65,22r0,378v0,152,-104,253,-259,253v-155,0,-260,-101,-260,-253xm473,-856v0,143,-227,142,-227,0r0,-15r52,0v-4,50,25,75,62,75v35,0,66,-25,61,-75r52,0r0,15","w":717},"\u016d":{"d":"85,-183r0,-239v1,-30,-37,-21,-64,-22r0,-59r71,0v43,0,61,18,61,59r0,243v0,79,13,149,110,149v114,0,185,-101,185,-210r0,-241r68,0r0,422v-1,31,37,20,64,22r0,59r-69,0v-51,1,-61,-28,-61,-79v0,-21,6,-37,0,-36v-20,49,-86,127,-196,127v-119,0,-169,-64,-169,-195xm408,-688v0,143,-227,142,-227,0r0,-15r52,0v-4,50,25,75,62,75v35,0,66,-25,61,-75r52,0r0,15","w":603},"\u016e":{"d":"99,-241r0,-378v1,-31,-38,-20,-65,-22r0,-62r74,0v43,0,61,18,61,61r0,398v0,117,74,190,189,190v115,0,190,-73,190,-192r0,-396v0,-43,18,-61,61,-61r74,0r0,62v-27,2,-65,-9,-65,22r0,378v0,152,-104,253,-259,253v-155,0,-260,-101,-260,-253xm360,-741v-40,0,-74,-29,-74,-71v0,-42,34,-71,74,-71v40,0,74,29,74,71v0,42,-34,71,-74,71xm360,-779v19,0,33,-14,33,-33v0,-20,-14,-34,-33,-34v-19,0,-33,14,-33,34v0,19,13,33,33,33","w":717},"\u016f":{"d":"85,-183r0,-239v1,-30,-37,-21,-64,-22r0,-59r71,0v43,0,61,18,61,59r0,243v0,79,13,149,110,149v114,0,185,-101,185,-210r0,-241r68,0r0,422v-1,31,37,20,64,22r0,59r-69,0v-51,1,-61,-28,-61,-79v0,-21,6,-37,0,-36v-20,49,-86,127,-196,127v-119,0,-169,-64,-169,-195xm295,-573v-40,0,-74,-29,-74,-71v0,-42,34,-71,74,-71v40,0,74,29,74,71v0,42,-34,71,-74,71xm295,-611v19,0,33,-14,33,-33v0,-20,-14,-34,-33,-34v-19,0,-33,14,-33,34v0,19,13,33,33,33","w":603},"\u0170":{"d":"99,-241r0,-378v1,-31,-38,-20,-65,-22r0,-62r74,0v43,0,61,18,61,61r0,398v0,117,74,190,189,190v115,0,190,-73,190,-192r0,-396v0,-43,18,-61,61,-61r74,0r0,62v-27,2,-65,-9,-65,22r0,378v0,152,-104,253,-259,253v-155,0,-260,-101,-260,-253xm395,-752r70,-119r76,0r-87,119r-59,0xm262,-752r66,-119r65,0r-67,119r-64,0","w":717},"\u0171":{"d":"85,-183r0,-239v1,-30,-37,-21,-64,-22r0,-59r71,0v43,0,61,18,61,59r0,243v0,79,13,149,110,149v114,0,185,-101,185,-210r0,-241r68,0r0,422v-1,31,37,20,64,22r0,59r-69,0v-51,1,-61,-28,-61,-79v0,-21,6,-37,0,-36v-20,49,-86,127,-196,127v-119,0,-169,-64,-169,-195xm330,-584r70,-119r76,0r-87,119r-59,0xm197,-584r66,-119r65,0r-67,119r-64,0","w":603},"\u0172":{"d":"99,-241r0,-378v1,-31,-38,-20,-65,-22r0,-62r74,0v43,0,61,18,61,61r0,398v0,117,74,190,189,190v115,0,190,-73,190,-192r0,-396v0,-43,18,-61,61,-61r74,0r0,62v-27,2,-65,-9,-65,22r0,384v0,124,-75,188,-136,222v-43,25,-95,65,-95,112v0,45,62,50,62,50r-16,56v0,0,-110,-7,-110,-92v0,-43,26,-77,52,-101r0,-2v-163,10,-276,-95,-276,-251","w":717},"\u0173":{"d":"254,12v-119,0,-169,-64,-169,-195r0,-239v1,-30,-37,-21,-64,-22r0,-59r71,0v56,0,61,27,61,87r0,215v0,79,13,149,110,149v114,0,185,-101,185,-210r0,-241r68,0r0,422v-1,31,37,20,64,22r0,59v-21,17,-72,59,-72,99v0,45,62,50,62,50r-15,56v0,0,-110,-7,-110,-92v0,-51,39,-92,67,-112r0,-2v-49,5,-62,-25,-62,-78v0,-21,7,-37,-1,-35v0,0,-49,126,-195,126","w":603},"\u0174":{"d":"227,0r-161,-619v-6,-23,-24,-22,-49,-22r0,-62v63,-1,101,-1,116,58r122,485v9,36,15,75,15,75r2,0v0,0,9,-39,19,-75r155,-540r69,0r141,540v10,36,16,75,16,75r2,0v0,0,7,-39,16,-75r122,-485v12,-60,52,-59,116,-58r0,62v-25,0,-43,-1,-48,22r-162,619r-83,0r-131,-489v-12,-45,-23,-104,-23,-104r-2,0v0,0,-12,58,-25,103r-144,490r-83,0xm362,-752r83,-119r70,0r83,119r-63,0r-54,-81r-2,0r-54,81r-63,0","w":945},"\u0175":{"d":"202,0r-144,-421v-7,-22,-23,-24,-48,-23r0,-59v64,-1,95,-3,114,56r103,319v10,25,11,56,17,54v0,0,8,-30,16,-54r123,-373r68,0r123,373v10,25,12,56,18,54v31,-120,83,-253,118,-373v17,-59,50,-57,114,-56r0,59v-25,-1,-41,0,-49,23r-144,421r-75,0r-123,-358v-10,-26,-11,-56,-17,-54v0,0,-7,29,-16,54r-122,358r-76,0xm299,-584r83,-119r70,0r83,119r-63,0r-54,-81r-2,0r-54,81r-63,0","w":834},"\u0176":{"d":"261,0r0,-306r-188,-309v-16,-26,-31,-27,-63,-26r0,-62v66,-1,89,-2,123,56r119,199v25,38,39,80,45,79v36,-71,117,-201,162,-278v34,-58,56,-57,123,-56r0,62v-31,-1,-47,0,-62,26r-189,309r0,306r-70,0xm179,-752r83,-119r70,0r83,119r-63,0r-54,-81r-2,0r-54,81r-63,0","w":592},"\u0177":{"d":"40,111v0,1,32,38,75,38v71,1,97,-94,123,-151r-177,-419v-9,-21,-20,-24,-45,-23r0,-59v61,-1,85,0,108,55r129,314v12,26,14,55,20,54v0,0,7,-29,17,-54r124,-314v18,-56,47,-56,109,-55r0,59v-24,-1,-37,2,-45,23r-217,526v-26,64,-77,105,-144,105v-70,0,-109,-49,-109,-49xm150,-584r83,-119r70,0r83,119r-63,0r-54,-81r-2,0r-54,81r-63,0","w":539},"\u0178":{"d":"261,0r0,-306r-188,-309v-16,-26,-31,-27,-63,-26r0,-62v66,-1,89,-2,123,56r119,199v25,38,39,80,45,79v36,-71,117,-201,162,-278v34,-58,56,-57,123,-56r0,62v-31,-1,-47,0,-62,26r-189,309r0,306r-70,0xm343,-785r0,-86r59,0r0,86r-59,0xm193,-785r0,-86r59,0r0,86r-59,0","w":592},"\u0179":{"d":"19,0r0,-49r377,-528v26,-40,52,-61,51,-66v0,0,-17,2,-51,2r-280,0v-31,-2,-20,41,-22,69r-65,0r0,-70v0,-43,18,-61,61,-61r443,0r0,49r-376,528v-26,40,-53,61,-52,66v0,0,17,-2,52,-2r303,0v31,2,20,-41,22,-69r65,0r0,70v0,43,-18,61,-61,61r-467,0xm262,-752r70,-119r76,0r-87,119r-59,0","w":575},"\u017a":{"d":"39,0r0,-44r283,-353v19,-27,41,-43,40,-48v-59,4,-166,2,-234,2v-29,0,-21,35,-22,61r-64,0r0,-60v0,-43,18,-61,61,-61r349,0r0,45r-282,352v-20,27,-43,43,-42,48v0,0,18,-2,51,-2r208,0v29,2,21,-35,22,-61r64,0r0,60v0,43,-18,61,-61,61r-373,0xm228,-584r70,-119r76,0r-87,119r-59,0","w":499},"\u017b":{"d":"19,0r0,-49r377,-528v26,-40,52,-61,51,-66v0,0,-17,2,-51,2r-280,0v-31,-2,-20,41,-22,69r-65,0r0,-70v0,-43,18,-61,61,-61r443,0r0,49r-376,528v-26,40,-53,61,-52,66v0,0,17,-2,52,-2r303,0v31,2,20,-41,22,-69r65,0r0,70v0,43,-18,61,-61,61r-467,0xm259,-785r0,-86r66,0r0,86r-66,0","w":575},"\u017c":{"d":"39,0r0,-44r283,-353v19,-27,41,-43,40,-48v-59,4,-166,2,-234,2v-29,0,-21,35,-22,61r-64,0r0,-60v0,-43,18,-61,61,-61r349,0r0,45r-282,352v-20,27,-43,43,-42,48v0,0,18,-2,51,-2r208,0v29,2,21,-35,22,-61r64,0r0,60v0,43,-18,61,-61,61r-373,0xm225,-617r0,-86r66,0r0,86r-66,0","w":499},"\u017d":{"d":"19,0r0,-49r377,-528v26,-40,52,-61,51,-66v0,0,-17,2,-51,2r-280,0v-31,-2,-20,41,-22,69r-65,0r0,-70v0,-43,18,-61,61,-61r443,0r0,49r-376,528v-26,40,-53,61,-52,66v0,0,17,-2,52,-2r303,0v31,2,20,-41,22,-69r65,0r0,70v0,43,-18,61,-61,61r-467,0xm258,-752r-84,-119r64,0r54,80r2,0r54,-80r63,0r-84,119r-69,0","w":575},"\u017e":{"d":"39,0r0,-44r283,-353v19,-27,41,-43,40,-48v-59,4,-166,2,-234,2v-29,0,-21,35,-22,61r-64,0r0,-60v0,-43,18,-61,61,-61r349,0r0,45r-282,352v-20,27,-43,43,-42,48v0,0,18,-2,51,-2r208,0v29,2,21,-35,22,-61r64,0r0,60v0,43,-18,61,-61,61r-373,0xm223,-584r-84,-119r64,0r54,80r2,0r54,-80r63,0r-84,119r-69,0","w":499},"\u017f":{"d":"88,0r0,-446r-63,0r0,-57r63,0r0,-18v0,-166,117,-187,173,-187v19,0,31,2,31,2r0,61v0,0,-9,-2,-24,-2v-38,0,-112,14,-112,126r0,521r-68,0","w":305},"\u0192":{"d":"-23,56v-18,0,-30,-2,-30,-2r6,-60v0,0,9,2,23,2v38,0,113,-15,123,-129r20,-231r-79,0r0,-58r85,0r9,-99v14,-166,132,-187,189,-187v19,0,31,2,31,2r-6,61v0,0,-9,-2,-23,-2v-40,0,-113,14,-124,129r-9,96r109,0r0,58r-114,0r-20,234v-15,166,-133,186,-190,186","w":346},"\u0218":{"d":"37,-88r43,-51v0,0,71,86,182,86v77,0,139,-50,139,-125v0,-174,-347,-139,-347,-357v0,-98,85,-180,215,-180v68,0,190,29,190,121r0,50r-66,0r0,-33v0,-42,-58,-73,-123,-73v-91,0,-144,53,-144,113v0,163,347,123,347,355v0,105,-81,194,-213,194v-144,0,-223,-100,-223,-100xm229,63r62,0v15,53,5,89,-17,137r-53,0v20,-51,27,-85,8,-137","w":518},"\u0219":{"d":"29,-76r39,-47v0,0,56,76,155,76v56,0,106,-27,106,-80v0,-110,-282,-90,-282,-252v0,-91,78,-136,179,-136v51,0,153,20,153,91r0,43r-64,0r0,-24v0,-37,-54,-51,-87,-51v-70,0,-112,24,-112,73v0,113,282,87,282,254v0,84,-76,141,-176,141v-131,0,-193,-88,-193,-88xm187,63r62,0v15,53,5,89,-17,137r-53,0v20,-51,27,-85,8,-137","w":440},"\u021a":{"d":"275,0r0,-641r-174,0v-31,-3,-20,41,-22,69r-64,0r0,-74v0,-43,14,-57,57,-57r476,0v43,0,57,14,57,57r0,74r-65,0v-2,-28,11,-69,-22,-69r-173,0r0,641r-70,0xm277,63r62,0v15,53,5,89,-17,137r-53,0v20,-51,27,-85,8,-137","w":620},"\u021b":{"d":"93,-183r0,-263r-66,0r0,-57r67,0r0,-139r67,0r0,139r126,0r0,57r-126,0r0,256v0,118,75,133,113,133v14,0,23,-2,23,-2r0,61v0,0,-12,2,-29,2v-58,0,-175,-19,-175,-187xm160,63r62,0v15,53,5,89,-17,137r-53,0v20,-51,27,-85,8,-137","w":335},"\u02c6":{"d":"117,-752r83,-119r70,0r83,119r-63,0r-54,-81r-2,0r-54,81r-63,0","w":470},"\u02c7":{"d":"200,-752r-84,-119r64,0r54,80r2,0r54,-80r63,0r-84,119r-69,0","w":474},"\u02d8":{"d":"346,-856v0,143,-227,142,-227,0r0,-15r52,0v-4,50,25,75,62,75v35,0,66,-25,61,-75r52,0r0,15","w":485},"\u02d9":{"d":"78,-785r0,-86r66,0r0,86r-66,0","w":223},"\u02da":{"d":"188,-741v-40,0,-74,-29,-74,-71v0,-42,34,-71,74,-71v40,0,74,29,74,71v0,42,-34,71,-74,71xm188,-779v19,0,33,-14,33,-33v0,-20,-14,-34,-33,-34v-19,0,-33,14,-33,34v0,19,13,33,33,33","w":376},"\u02db":{"d":"105,113v0,-79,93,-132,93,-132r53,11v0,0,-83,56,-83,107v0,45,62,50,62,50r-15,56v0,0,-110,-7,-110,-92","w":343},"\u02dc":{"d":"89,-755v0,-77,31,-117,93,-117v67,0,81,72,126,72v33,0,40,-43,40,-69r53,0v0,77,-32,117,-93,117v-68,0,-81,-71,-127,-71v-33,0,-40,42,-40,68r-52,0","w":492},"\u02dd":{"d":"238,-752r70,-119r76,0r-87,119r-59,0xm105,-752r66,-119r65,0r-67,119r-64,0","w":516},"\u1e9e":{"d":"34,0r0,-62v27,-2,65,9,65,-22r0,-432v0,-106,81,-187,188,-187r264,0r0,48r-157,223v-17,26,-27,32,-26,37v129,-9,212,84,212,195v0,110,-90,200,-201,200r-95,0r0,-62r91,0v79,0,133,-64,133,-138v0,-75,-54,-137,-131,-137r-91,0r0,-49r136,-196v31,-48,45,-55,44,-61v-34,3,-128,2,-174,2v-73,0,-123,55,-123,124r0,456v0,43,-18,61,-61,61r-74,0","w":621},"\u2013":{"d":"71,-255r0,-58r500,0r0,58r-500,0","w":642},"\u2014":{"d":"71,-255r0,-58r700,0r0,58r-700,0","w":842},"\u2018":{"d":"51,-540r56,-172r54,0r-39,172r-71,0","w":212},"\u2019":{"d":"51,-541r39,-172r71,0r-56,172r-54,0","w":212},"\u201a":{"d":"90,-82r71,0r-56,172r-54,0","w":212},"\u201c":{"d":"169,-540r56,-172r54,0r-39,172r-71,0xm51,-540r56,-172r54,0r-39,172r-71,0","w":330},"\u201d":{"d":"169,-541r39,-172r71,0r-56,172r-54,0xm51,-541r39,-172r71,0r-56,172r-54,0","w":330},"\u201e":{"d":"169,90r39,-172r71,0r-56,172r-54,0xm90,-82r71,0r-56,172r-54,0","w":330},"\u2020":{"d":"146,50r0,-495r-117,0r0,-58r117,0r0,-200r67,0r0,200r121,0r0,58r-121,0r0,495r-67,0","w":363},"\u2021":{"d":"146,50r0,-229r-117,0r0,-58r117,0r0,-208r-117,0r0,-58r117,0r0,-200r67,0r0,200r121,0r0,58r-121,0r0,208r121,0r0,58r-121,0r0,229r-67,0","w":363},"\u2022":{"d":"220,-148v-79,0,-143,-64,-143,-143v0,-79,64,-143,143,-143v79,0,142,64,142,143v0,79,-63,143,-142,143","w":439},"\u2026":{"d":"605,0r0,-80r77,0r0,80r-77,0xm370,0r0,-80r77,0r0,80r-77,0xm135,0r0,-80r77,0r0,80r-77,0","w":817},"\u2030":{"d":"202,-437v-78,0,-140,-62,-140,-139v0,-76,62,-139,140,-139v78,0,141,63,141,139v0,77,-63,139,-141,139xm68,0r536,-703r71,0r-535,703r-72,0xm202,-493v46,0,82,-37,82,-83v0,-45,-36,-83,-82,-83v-46,0,-81,38,-81,83v0,46,35,83,81,83xm736,-126v0,-77,63,-140,140,-140v78,0,141,63,141,140v0,76,-63,138,-141,138v-77,0,-140,-62,-140,-138xm400,-126v0,-77,62,-140,140,-140v78,0,141,63,141,140v0,76,-63,138,-141,138v-78,0,-140,-62,-140,-138xm796,-127v0,46,34,83,80,83v46,0,82,-37,82,-83v0,-45,-36,-83,-82,-83v-46,0,-80,38,-80,83xm460,-127v0,46,34,83,80,83v46,0,82,-37,82,-83v0,-45,-36,-83,-82,-83v-46,0,-80,38,-80,83","w":1057},"\u2039":{"d":"202,-77r-164,-205r164,-206r73,0r-164,206r164,205r-73,0","w":343},"\u203a":{"d":"66,-77r164,-205r-164,-206r74,0r164,206r-164,205r-74,0","w":343},"\u2044":{"d":"28,0r297,-703r63,0r-297,703r-63,0","w":416},"\u20ac":{"d":"39,-266r0,-51r57,0v-2,-4,-2,-80,0,-81r-57,0r0,-51r66,0v42,-181,224,-304,428,-254r-16,65v0,0,-36,-11,-77,-11v-128,0,-226,81,-260,200r303,0r-10,51r-304,0v0,0,-4,20,-4,44v0,12,2,37,2,37r291,0r-9,51r-270,0v30,125,132,212,263,212v51,0,90,-14,90,-14r16,64v0,0,-46,16,-107,16v-170,0,-303,-115,-338,-278r-64,0","w":590},"\u2122":{"d":"419,-265r0,-51v14,-1,35,6,36,-10r29,-377r52,0r115,251v11,20,11,42,16,41v0,0,5,-22,14,-41r115,-251r52,0r29,377v1,16,22,8,36,10r0,51r-43,0v-36,0,-45,-10,-48,-46r-20,-251v-3,-16,4,-31,-1,-29r-112,244r-46,0r-112,-244r-2,0v0,0,2,14,1,29r-20,251v-3,36,-12,46,-48,46r-43,0xm199,-265r0,-386r-94,0v-17,0,-8,26,-10,40r-52,0r0,-46v0,-35,11,-46,47,-46r276,0v36,0,47,11,47,46r0,46r-52,0v-2,-15,7,-40,-10,-40r-95,0r0,386r-57,0","w":976},"\u2212":{"d":"50,-255r0,-58r506,0r0,58r-506,0"},"\u221e":{"d":"250,-176v-95,0,-173,-78,-173,-173v0,-96,78,-172,173,-172v96,0,172,76,172,172v0,95,-76,173,-172,173","w":499},"\u2248":{"d":"91,-321r-33,-44v33,-33,87,-69,146,-69v94,0,127,70,198,70v43,0,86,-27,113,-56r33,44v-32,33,-86,69,-146,69v-94,0,-127,-70,-198,-70v-43,0,-85,28,-113,56xm91,-147r-33,-44v33,-33,87,-69,146,-69v94,0,127,70,198,70v43,0,86,-28,113,-56r33,44v-32,33,-86,69,-146,69v-94,0,-127,-70,-198,-70v-43,0,-85,28,-113,56"},"\u2260":{"d":"126,-83r62,-85r-118,0r0,-58r159,0r86,-116r-245,0r0,-58r285,0r86,-117r42,30r-65,87r118,0r0,58r-158,0r-86,116r244,0r0,58r-284,0r-84,114"},"\u2264":{"d":"69,-259r0,-50r452,-202r0,67r-367,159r0,2r367,159r0,67xm70,104r451,0r0,58r-451,0r0,-58"},"\u2265":{"d":"85,-57r0,-67r368,-159r0,-2r-368,-159r0,-67r452,202r0,50xm85,104r451,0r0,58r-451,0r0,-58"}}});
