/*!
 * The following copyright notice may not be removed under any circumstances.
 * 
 * Copyright:
 * Copyright (c) 2008 by Jos Buivenga/exljbris. All rights reserved.
 * 
 * Trademark:
 * Museo is a trademark of Jos Buivenga/exljbris.
 * 
 * Description:
 * Copyright (c) 2008 by Jos Buivenga/exljbris. All rights reserved.
 * 
 * Manufacturer:
 * Jos Buivenga
 * 
 * Designer:
 * Jos Buivenga
 * 
 * Vendor URL:
 * http://www.josbuivenga.demon.nl
 */
Cufon.registerFont({"w":613,"face":{"font-family":"Museo 500","font-weight":400,"font-stretch":"normal","units-per-em":"1000","panose-1":"2 0 0 0 0 0 0 0 0 0","ascent":"750","descent":"-250","x-height":"12","bbox":"-53 -892 1079 210","underline-thickness":"50","underline-position":"-50","stemh":"86","stemv":"100","unicode-range":"U+0020-U+FB04"},"glyphs":{" ":{"w":269},"\u00a0":{"w":269},"!":{"d":"114,-194r-7,-512r100,0r-6,512r-87,0xm108,0r0,-97r99,0r0,97r-99,0","w":314},"\"":{"d":"202,-530r0,-188r76,0r0,188r-76,0xm62,-530r0,-188r76,0r0,188r-76,0","w":340},"#":{"d":"134,0r33,-191r-130,0r12,-74r131,0r29,-168r-129,0r12,-73r130,0r35,-200r81,0r-35,200r155,0r35,-200r81,0r-35,200r131,0r-13,73r-130,0r-30,168r130,0r-13,74r-129,0r-34,191r-81,0r33,-191r-155,0r-33,191r-81,0xm261,-265r155,0r30,-168r-155,0","w":706},"$":{"d":"42,-125r71,-59v0,0,58,105,171,105v72,0,121,-44,121,-105v0,-149,-341,-123,-341,-351v0,-93,75,-165,184,-180r0,-94r73,0r0,93v71,8,165,43,165,128r0,58r-92,0r0,-33v0,-37,-48,-64,-104,-64v-76,0,-124,40,-124,91v0,148,340,111,340,349v0,96,-71,182,-185,196r0,93r-73,0r0,-92v-143,-17,-206,-135,-206,-135","w":546},"%":{"d":"210,-422v-84,0,-151,-66,-151,-148v0,-81,67,-148,151,-148v84,0,152,67,152,148v0,82,-68,148,-152,148xm74,0r540,-706r94,0r-540,706r-94,0xm210,-496v42,0,74,-32,74,-74v0,-41,-32,-75,-74,-75v-42,0,-74,34,-74,75v0,42,32,74,74,74xm421,-136v0,-81,67,-148,152,-148v83,0,152,67,152,148v0,82,-69,148,-152,148v-85,0,-152,-66,-152,-148xm499,-136v0,42,32,74,74,74v41,0,74,-32,74,-74v0,-41,-33,-75,-74,-75v-42,0,-74,34,-74,75","w":783},"&":{"d":"44,-202v0,-73,43,-153,122,-176r0,-2v0,0,-91,-33,-91,-156v0,-109,85,-182,212,-182v46,0,89,11,89,11r-25,79v0,0,-29,-7,-53,-7v-73,0,-123,46,-123,109v0,44,21,111,130,111r127,0r0,-91r97,0r0,91r89,0r0,86r-89,0r0,94v0,157,-92,247,-240,247v-144,0,-245,-93,-245,-214xm145,-203v0,67,54,124,144,124v87,0,143,-49,143,-160r0,-90r-126,0v-103,0,-161,47,-161,126","w":638},"'":{"d":"62,-530r0,-188r77,0r0,188r-77,0","w":201},"(":{"d":"200,95v-149,-230,-161,-598,-4,-830r85,0v-154,253,-141,573,5,830r-86,0","w":330},")":{"d":"44,95v146,-257,159,-577,5,-830r85,0v156,233,145,600,-4,830r-86,0","w":330},"*":{"d":"161,-329r-72,-52r89,-110r0,-2r-136,-37r26,-84r133,50r-7,-142r91,0r-8,142r134,-50r27,84r-137,37r0,2r88,110r-71,52r-77,-118r-2,0","w":480},"+":{"d":"42,-246r0,-78r224,0r0,-246r82,0r0,246r223,0r0,78r-223,0r0,246r-82,0r0,-246r-224,0"},",":{"d":"84,-105r98,0r-85,206r-75,0","w":240},"-":{"d":"70,-242r0,-86r292,0r0,86r-292,0","w":431},"\u00ad":{"d":"70,-242r0,-86r292,0r0,86r-292,0","w":431},".":{"d":"70,0r0,-103r99,0r0,103r-99,0","w":240},"\/":{"d":"1,42r254,-786r86,0r-254,786r-86,0","w":346},"0":{"d":"304,12v-189,0,-250,-162,-250,-366v0,-203,61,-364,250,-364v188,0,249,161,249,364v0,204,-61,366,-249,366xm304,-79v115,0,148,-121,148,-275v0,-153,-33,-273,-148,-273v-116,0,-149,120,-149,273v0,154,33,275,149,275","w":607},"1":{"d":"64,0r0,-86r155,0r1,-500v-6,-1,-8,14,-35,41r-66,65r-60,-62r169,-164r91,0r0,620r154,0r0,86r-409,0","w":504},"2":{"d":"38,-81v0,-260,359,-242,359,-433v0,-65,-48,-112,-124,-112v-63,0,-109,32,-109,67r0,31r-92,0r0,-60v0,-92,123,-130,205,-130v129,0,222,82,222,203v0,243,-358,247,-358,410v0,14,8,19,25,19r251,0v31,1,20,-39,22,-67r92,0r0,89v0,45,-19,64,-64,64r-362,0v-55,0,-67,-24,-67,-81","w":573},"3":{"d":"26,-87r54,-75v0,0,70,80,179,80v76,0,140,-53,140,-129v0,-79,-70,-126,-152,-126r-50,0r-21,-53r147,-185v22,-33,42,-43,41,-48v-35,4,-145,3,-196,3v-31,0,-20,40,-22,67r-92,0r0,-89v0,-45,16,-64,61,-64r372,0r0,63r-186,224v92,10,200,71,200,207v0,118,-95,224,-242,224v-147,0,-233,-99,-233,-99","w":541},"4":{"d":"17,-187r0,-64r318,-455r114,0r0,433r110,0r0,86r-110,0r0,187r-100,0r0,-187r-332,0xm350,-273r0,-243v0,-32,4,-72,4,-72v-6,-1,-19,32,-38,59r-154,212v-18,28,-38,42,-37,47v50,-5,162,-3,225,-3","w":575},"5":{"d":"51,-87r54,-73v0,0,57,78,165,78v89,0,152,-62,152,-141v0,-88,-76,-144,-168,-144v-78,0,-134,36,-134,36r-41,-19r28,-292v4,-45,19,-64,64,-64r246,0v45,0,64,19,64,64r0,89r-91,0v-2,-28,9,-67,-22,-67r-148,0v-14,0,-20,7,-22,22r-19,166v5,1,36,-21,93,-21v152,0,252,103,252,232v0,124,-100,233,-254,233v-146,0,-219,-99,-219,-99","w":582},"6":{"d":"302,12v-150,0,-264,-128,-264,-325v0,-184,99,-405,318,-405v84,0,137,29,137,29r-32,85v0,0,-45,-23,-101,-23v-129,0,-197,121,-212,242r2,0v29,-43,94,-69,156,-69v134,0,223,101,223,230v0,139,-95,236,-227,236xm143,-271v0,90,68,192,158,192v82,0,130,-63,130,-145v0,-85,-54,-146,-145,-146v-79,0,-143,48,-143,99","w":567},"7":{"d":"63,0r300,-556v22,-43,42,-62,41,-67v-66,6,-187,3,-264,3v-31,0,-20,40,-22,67r-92,0r0,-89v0,-45,16,-64,61,-64r429,0r0,68r-342,638r-111,0","w":525},"8":{"d":"42,-202v0,-116,116,-181,116,-181r0,-2v0,0,-87,-46,-87,-144v0,-98,78,-189,220,-189v135,0,221,81,221,191v0,104,-85,168,-85,168r0,2v64,37,105,86,105,162v0,110,-100,207,-244,207v-133,0,-246,-83,-246,-214xm285,-416v14,6,43,17,55,17v24,0,75,-59,75,-122v0,-65,-52,-106,-124,-106v-77,0,-122,44,-122,100v0,62,53,86,116,111xm143,-207v0,79,68,128,145,128v74,0,143,-49,143,-119v0,-62,-53,-89,-119,-116v-27,-11,-65,-26,-73,-26v-25,0,-96,58,-96,133","w":576},"9":{"d":"74,-17r32,-86v0,0,45,24,101,24v129,0,197,-122,212,-243r-2,0v-29,44,-94,69,-156,69v-134,0,-223,-100,-223,-229v0,-139,95,-236,227,-236v150,0,264,128,264,325v0,184,-99,405,-318,405v-84,0,-137,-29,-137,-29xm281,-336v79,0,143,-48,143,-99v0,-91,-68,-192,-158,-192v-82,0,-130,63,-130,145v0,84,54,146,145,146","w":567},":":{"d":"98,-403r0,-103r99,0r0,103r-99,0xm98,0r0,-103r99,0r0,103r-99,0","w":294},";":{"d":"98,-403r0,-103r99,0r0,103r-99,0xm45,101r51,-206r97,0r-73,206r-75,0","w":294},"<":{"d":"67,-252r0,-66r466,-208r0,89r-358,151r0,2r358,151r0,89"},"=":{"d":"68,-340r0,-78r477,0r0,78r-477,0xm68,-151r0,-78r477,0r0,78r-477,0"},">":{"d":"74,-44r0,-89r357,-151r0,-2r-357,-151r0,-89r466,208r0,66"},"?":{"d":"149,-194r0,-47v0,-152,170,-174,170,-289v0,-56,-48,-99,-114,-99v-63,0,-114,42,-114,42r-54,-69v0,0,66,-64,175,-64v113,0,209,72,209,183v0,165,-177,182,-177,302r0,41r-95,0xm147,0r0,-97r99,0r0,97r-99,0","w":453},"@":{"d":"40,-241v0,-206,161,-370,365,-370v193,0,260,97,260,203r0,283r72,0r0,73r-273,0v-125,0,-207,-88,-207,-189v0,-99,81,-187,207,-187r108,0v-2,-57,-59,-103,-162,-103v-155,0,-273,134,-273,290v0,158,114,287,284,287r0,79v-224,0,-381,-162,-381,-366xm355,-242v0,65,48,117,116,117r101,0r0,-236r-99,0v-70,0,-118,54,-118,119","w":762},"A":{"d":"12,0r0,-86v25,0,39,0,47,-22r221,-598r105,0r221,598v7,23,23,22,48,22r0,86r-56,0v-50,0,-66,-12,-82,-58r-53,-145r-260,0r-53,145v-17,46,-33,58,-83,58r-55,0xm227,-287r211,0r-77,-215v-13,-37,-28,-99,-28,-99r-2,0v0,0,-14,62,-27,99","w":665},"B":{"d":"102,-64r0,-556r-65,0r0,-86r302,0v119,0,205,66,205,180v0,77,-41,129,-88,152r0,2v75,22,116,92,116,171v0,133,-102,201,-227,201r-179,0v-45,0,-64,-19,-64,-64xm202,-409r138,0v62,0,102,-45,102,-107v0,-62,-38,-104,-104,-104r-136,0r0,211xm202,-108v0,14,8,22,22,22r126,0v75,0,119,-48,119,-120v0,-72,-47,-121,-119,-121r-148,0r0,219","w":617},"C":{"d":"34,-359v0,-204,152,-359,354,-359v95,0,265,40,265,153r0,69r-92,0r0,-40v0,-59,-100,-89,-171,-89v-142,0,-252,107,-252,266v0,154,111,277,255,277v140,0,223,-96,223,-96r54,72v0,0,-100,118,-278,118v-211,0,-358,-163,-358,-371","w":701},"D":{"d":"103,-64r0,-556r-65,0r0,-86r286,0v215,0,357,129,357,352v0,224,-142,354,-357,354r-157,0v-45,0,-64,-19,-64,-64xm203,-108v0,14,8,22,22,22r92,0v157,0,260,-94,260,-268v0,-173,-104,-266,-260,-266r-114,0r0,512","w":715},"E":{"d":"103,-64r0,-556r-65,0r0,-86r415,0v45,0,64,19,64,64r0,89r-91,0v-2,-28,9,-67,-22,-67r-201,0r0,221r247,0r0,86r-247,0r0,205v0,14,8,22,22,22r206,0v31,1,20,-39,22,-67r92,0r0,89v0,45,-19,64,-64,64r-314,0v-45,0,-64,-19,-64,-64","w":568},"F":{"d":"103,0r0,-620r-65,0r0,-86r389,0v45,0,64,19,64,64r0,89r-91,0v-2,-28,9,-67,-22,-67r-175,0r0,232r241,0r0,86r-241,0r0,302r-100,0","w":513},"G":{"d":"35,-356v0,-203,154,-362,356,-362v169,0,252,87,252,87r-57,73v0,0,-76,-68,-193,-68v-141,0,-254,113,-254,270v0,164,113,274,256,274v126,0,201,-88,201,-88r0,-71v1,-30,-38,-21,-65,-22r0,-86r93,0v45,0,64,19,64,64r0,285r-88,0r1,-74v-6,-1,-77,86,-222,86v-188,0,-344,-148,-344,-368","w":736},"H":{"d":"103,0r0,-598v1,-31,-38,-20,-65,-22r0,-86r101,0v45,0,64,19,64,64r0,247r359,0r0,-247v0,-45,19,-64,64,-64r101,0r0,86v-27,2,-65,-9,-65,22r0,598r-100,0r0,-310r-359,0r0,310r-100,0","w":765},"I":{"d":"42,0r0,-86r69,0r0,-534r-69,0r0,-86r233,0r0,86r-69,0r0,534r69,0r0,86r-233,0","w":317},"J":{"d":"22,-203r0,-35r100,0r0,27v0,98,56,129,111,129v56,0,110,-33,110,-125r0,-391v0,-15,-8,-22,-22,-22r-173,0r0,-86r231,0v45,0,64,19,64,64r0,439v0,153,-107,215,-211,215v-104,0,-210,-63,-210,-215","w":522},"K":{"d":"103,0r0,-598v1,-31,-38,-20,-65,-22r0,-86r101,0v45,0,64,19,64,64r0,233v49,-3,105,11,125,-24r157,-273r112,0r-171,293v-20,38,-41,42,-40,48v0,0,20,5,40,44r106,212v12,26,36,23,69,23r0,86r-55,0v-55,0,-75,-7,-98,-53r-122,-245v-18,-38,-73,-23,-123,-26r0,324r-100,0","w":611},"L":{"d":"103,-64r0,-534v1,-31,-38,-20,-65,-22r0,-86r101,0v45,0,64,19,64,64r0,534v0,14,8,22,22,22r195,0v31,1,20,-39,22,-67r91,0r0,89v0,45,-19,64,-64,64r-302,0v-45,0,-64,-19,-64,-64","w":543},"M":{"d":"20,0r0,-86v26,0,54,5,56,-22r48,-598r103,0r166,374v17,38,35,89,35,89r2,0v0,0,18,-51,35,-89r166,-374r103,0r48,598v0,27,29,22,55,22r0,86r-89,0v-45,0,-61,-19,-64,-64r-29,-373v-3,-42,-2,-104,-2,-104r-2,0v0,0,-20,66,-37,104r-143,310r-84,0r-143,-310v-17,-37,-38,-105,-38,-105r-2,0v0,145,-21,332,-30,478v-3,45,-19,64,-65,64r-89,0","w":857},"N":{"d":"38,0r0,-86v27,-2,65,8,65,-22r0,-598r91,0r314,447v26,38,59,96,59,96r2,0v0,0,-7,-56,-7,-96r0,-383v0,-45,19,-64,65,-64r100,0r0,86v-27,2,-65,-9,-65,22r0,598r-90,0r-315,-447v-26,-38,-58,-96,-58,-96r-2,0v0,0,6,57,6,96r0,383v0,45,-19,64,-64,64r-101,0","w":765},"O":{"d":"34,-358v0,-203,158,-360,362,-360v204,0,363,157,363,360v0,208,-159,370,-363,370v-204,0,-362,-162,-362,-370xm138,-358v0,156,115,276,258,276v143,0,259,-120,259,-276v0,-151,-116,-267,-259,-267v-143,0,-258,116,-258,267","w":793},"P":{"d":"103,0r0,-620r-65,0r0,-86r311,0v129,0,221,87,221,221v0,134,-92,224,-221,224r-146,0r0,261r-100,0xm203,-347r130,0v83,0,134,-53,134,-138v0,-85,-51,-135,-133,-135r-131,0r0,273","w":592},"Q":{"d":"34,-357v0,-204,157,-361,361,-361v206,0,364,157,364,361v0,88,-32,170,-83,232r81,79r-60,64r-81,-81v-61,49,-138,75,-221,75v-204,0,-361,-163,-361,-369xm138,-357v0,155,113,275,257,275v93,0,149,-49,149,-49r-78,-76r60,-65r77,79v32,-44,52,-103,52,-164v0,-153,-114,-267,-260,-267v-144,0,-257,114,-257,267","w":793},"R":{"d":"103,0r0,-620r-65,0r0,-86r308,0v124,0,211,78,211,207v0,118,-77,176,-127,187v-1,6,18,8,30,34r85,169v11,25,33,23,63,23r0,86r-49,0v-55,0,-75,-7,-98,-53r-96,-190v-18,-33,-31,-38,-70,-38r-92,0r0,281r-100,0xm203,-367r130,0v76,0,121,-49,121,-128v0,-79,-45,-125,-119,-125r-132,0r0,253","w":618},"S":{"d":"34,-93r59,-71v0,0,72,85,177,85v66,0,121,-40,121,-105v0,-148,-341,-125,-341,-345v0,-106,93,-189,226,-189v75,0,201,34,201,130r0,58r-92,0r0,-33v0,-37,-53,-64,-109,-64v-76,0,-124,42,-124,95v0,143,340,111,340,343v0,108,-84,201,-224,201v-150,0,-234,-105,-234,-105","w":533},"T":{"d":"268,0r0,-620r-142,0v-31,-2,-20,40,-22,67r-89,0r0,-93v0,-45,15,-60,60,-60r486,0v45,0,60,15,60,60r0,93r-89,0v-2,-28,9,-67,-22,-67r-142,0r0,620r-100,0","w":636},"U":{"d":"95,-247r0,-351v1,-31,-38,-20,-65,-22r0,-86r101,0v45,0,64,19,64,64r0,391v0,106,67,169,169,169v102,0,169,-63,169,-170r0,-390v0,-45,20,-64,65,-64r100,0r0,86v-27,2,-65,-9,-65,22r0,351v0,154,-107,259,-268,259v-162,0,-270,-105,-270,-259","w":728},"V":{"d":"281,0r-222,-598v-7,-23,-22,-22,-47,-22r0,-86r56,0v50,0,67,11,83,58r155,435v13,38,27,97,27,97r2,0v0,0,13,-59,27,-97r155,-435v17,-47,33,-58,83,-58r56,0r0,86v-25,0,-39,0,-47,22r-222,598r-106,0","w":668},"W":{"d":"221,0r-155,-598v-6,-23,-24,-22,-49,-22r0,-86r57,0v50,0,75,10,87,58r109,454v9,38,14,75,14,75r2,0v0,0,6,-36,17,-75r142,-510r90,0r132,510v10,39,15,75,15,75r2,0v0,0,4,-37,13,-75r111,-454v12,-48,36,-58,86,-58r57,0r0,86v-25,0,-43,-1,-49,22r-155,598r-116,0r-120,-446v-12,-46,-20,-97,-20,-97r-2,0v0,0,-10,51,-23,96r-128,447r-117,0","w":968},"X":{"d":"10,0r222,-364r-142,-231v-18,-31,-36,-24,-72,-25r0,-86r59,0v48,0,68,9,94,54r79,134r45,83v6,1,21,-42,45,-83r80,-134v26,-45,46,-54,95,-54r58,0r0,86v-36,1,-53,-5,-72,25r-143,231r223,364r-113,0r-128,-215r-45,-80v-6,-1,-21,40,-45,81r-127,214r-113,0","w":591},"Y":{"d":"252,0r0,-308r-179,-287v-16,-27,-30,-25,-63,-25r0,-86v73,1,105,-6,141,54r107,178v26,40,39,80,45,79v30,-62,110,-187,149,-257v35,-61,68,-53,141,-54r0,86v-33,0,-47,-2,-63,25r-178,287r0,308r-100,0","w":603},"Z":{"d":"18,0r0,-66r348,-490v28,-42,54,-62,53,-67v-72,6,-197,3,-280,3v-31,0,-20,40,-22,67r-91,0r0,-89v0,-45,19,-64,64,-64r453,0r0,65r-349,491v-27,42,-53,61,-52,66v0,0,19,-2,52,-2r249,0v31,1,20,-39,22,-67r92,0r0,89v0,45,-19,64,-64,64r-475,0","w":582},"[":{"d":"97,31r0,-702v0,-45,19,-64,64,-64r101,0r0,73v-31,4,-80,-13,-80,22r0,639v-1,35,50,18,80,22r0,74r-101,0v-45,0,-64,-19,-64,-64","w":327},"\\":{"d":"259,42r-254,-786r86,0r254,786r-86,0","w":340},"]":{"d":"65,21v31,-4,80,13,80,-22r0,-639v1,-35,-50,-18,-80,-22r0,-73r101,0v46,0,65,19,65,64r0,702v0,45,-19,64,-65,64r-101,0r0,-74","w":327},"^":{"d":"69,-247r200,-459r63,0r199,459r-87,0r-144,-352r-143,352r-88,0"},"_":{"d":"5,0r538,0r0,78r-538,0r0,-78","w":548},"`":{"d":"178,-755r-95,-127r98,0r73,127r-76,0","w":379},"a":{"d":"37,-142v0,-163,220,-173,305,-173r22,0v1,-91,-31,-127,-112,-126v-24,0,-83,6,-83,39r0,29r-91,0r0,-50v0,-83,126,-95,175,-95v164,0,208,86,208,198r0,215v-2,31,36,20,63,22r0,83r-91,0v-58,4,-68,-43,-61,-88r-2,0v0,0,-40,100,-161,100v-87,0,-172,-53,-172,-154xm135,-147v0,41,31,81,95,81v87,0,140,-89,135,-178r-25,0v-73,0,-205,4,-205,97","w":544},"b":{"d":"81,0r0,-601v2,-31,-36,-20,-63,-22r0,-83r96,0v45,0,64,19,64,64r0,165v2,25,-6,43,0,42v0,0,44,-83,163,-83v136,0,222,108,222,265v0,161,-97,265,-230,265v-113,0,-159,-85,-159,-85r-2,0v1,3,3,57,2,73r-93,0xm176,-251v0,90,47,180,143,180v80,0,146,-66,146,-181v0,-110,-59,-181,-144,-181v-75,0,-145,53,-145,182","w":600},"c":{"d":"36,-253v0,-149,109,-265,272,-265v61,0,182,25,182,111r0,52r-88,0r0,-28v0,-36,-57,-52,-94,-52v-99,0,-173,74,-173,181v0,115,84,180,178,180v95,0,157,-70,157,-70r42,69v0,0,-72,87,-206,87v-159,0,-270,-113,-270,-265","w":533},"d":{"d":"37,-253v0,-161,95,-265,229,-265v117,0,156,78,156,78r2,0v-4,-41,-2,-113,-2,-161v0,-31,-36,-20,-63,-22r0,-83r96,0v45,0,64,19,64,64r0,537v-2,31,36,20,63,22r0,83r-93,0v-55,3,-67,-36,-61,-80r-2,0v0,0,-42,92,-166,92v-137,0,-223,-108,-223,-265xm279,-72v75,0,146,-53,146,-182v0,-90,-47,-180,-144,-180v-79,0,-145,66,-145,181v0,110,59,181,143,181","w":605},"e":{"d":"36,-253v0,-161,110,-265,254,-265v155,0,233,124,215,277r-369,0v6,108,84,169,174,169v87,0,148,-59,148,-59r42,69v0,0,-75,74,-195,74v-160,0,-269,-115,-269,-265xm140,-312r268,0v-3,-84,-56,-129,-119,-129v-74,0,-134,45,-149,129","w":552},"f":{"d":"85,0r0,-428r-63,0r0,-78r63,0r0,-17v0,-167,127,-188,191,-188v22,0,37,3,37,3r0,83v0,0,-10,-2,-25,-2v-38,0,-106,12,-106,106r0,15r120,0r0,78r-120,0r0,428r-97,0","w":325},"g":{"d":"37,-265v0,-145,81,-253,222,-253v126,0,162,79,162,79r2,0v-3,-42,9,-67,56,-67r94,0r0,83v-26,1,-62,-8,-62,20r0,382v-1,239,-258,273,-428,189r33,-78v0,0,62,34,138,34v88,0,160,-39,160,-141v0,-17,0,-59,2,-66r-2,0v-30,49,-77,77,-151,77v-140,0,-226,-113,-226,-259xm282,-90v70,0,135,-42,135,-174v0,-132,-65,-170,-143,-170v-88,0,-138,64,-138,167v0,105,55,177,146,177","w":595},"h":{"d":"347,-429v-98,0,-169,79,-169,192r0,237r-97,0r0,-601v2,-31,-36,-20,-63,-22r0,-83r96,0v45,0,64,19,64,62r0,197v2,25,-6,43,0,42v22,-49,87,-113,188,-113v119,0,173,65,173,194r0,219v-2,31,36,20,63,22r0,83r-95,0v-45,0,-64,-19,-64,-64r0,-238v0,-71,-15,-127,-96,-127","w":622},"i":{"d":"92,-605r0,-101r87,0r0,101r-87,0xm90,-64r0,-337v2,-31,-36,-20,-63,-22r0,-83r95,0v45,0,64,19,64,64r0,337v-2,31,36,20,63,22r0,83r-95,0v-45,0,-64,-19,-64,-64","w":275},"j":{"d":"112,-605r0,-101r88,0r0,101r-88,0xm-20,121v0,0,9,1,22,1v37,0,108,-12,108,-111r0,-412v2,-31,-36,-20,-63,-22r0,-83r96,0v45,0,64,19,64,64r0,459v0,169,-130,189,-194,189v-20,0,-33,-2,-33,-2r0,-83","w":286},"k":{"d":"81,0r0,-601v2,-31,-36,-20,-63,-22r0,-83r96,0v45,0,64,13,64,58r0,328v42,-1,77,7,98,-22r117,-164r111,0r-137,188v-24,34,-39,34,-38,40v0,0,17,6,34,38r75,137v8,24,42,20,74,20r0,83r-70,0v-47,0,-62,-8,-84,-47r-92,-170v-20,-29,-50,-19,-88,-21r0,238r-97,0","w":525},"l":{"d":"83,-64r0,-537v2,-31,-36,-20,-63,-22r0,-83r96,0v45,0,64,19,64,64r0,537v-2,31,36,20,63,22r0,83r-96,0v-45,0,-64,-19,-64,-64","w":268},"m":{"d":"334,-430v-93,0,-152,90,-152,199r0,231r-97,0r0,-401v2,-31,-36,-20,-63,-22r0,-83r93,0v64,-4,69,46,63,104r2,0v24,-59,94,-116,173,-116v86,0,135,39,152,115r2,0v28,-61,98,-115,180,-115v114,0,167,65,167,194r0,219v-2,31,36,20,63,22r0,83r-96,0v-45,0,-64,-19,-64,-64r0,-239v0,-71,-14,-127,-89,-127v-91,0,-150,90,-150,199r0,231r-97,0r0,-303v0,-66,-10,-127,-87,-127","w":937},"n":{"d":"351,-429v-100,0,-169,78,-169,192r0,237r-97,0r0,-401v2,-31,-36,-20,-63,-22r0,-83r93,0v51,0,64,25,64,75v0,17,-5,30,0,29v20,-44,80,-116,190,-116v120,0,174,65,174,194r0,219v-2,31,36,20,63,22r0,83r-96,0v-45,0,-64,-19,-64,-64r0,-238v0,-71,-14,-127,-95,-127","w":626},"o":{"d":"36,-254v0,-153,121,-264,272,-264v151,0,273,111,273,264v0,154,-122,266,-273,266v-151,0,-272,-112,-272,-266xm135,-254v0,106,78,182,173,182v96,0,174,-76,174,-182v0,-105,-78,-180,-174,-180v-95,0,-173,75,-173,180","w":617},"p":{"d":"85,200r0,-601v2,-31,-36,-20,-63,-22r0,-83r91,0v57,-3,66,34,61,78r2,0v0,0,42,-90,168,-90v136,0,223,108,223,265v0,161,-98,265,-230,265v-112,0,-155,-81,-155,-81r-2,0v0,0,2,18,2,44r0,225r-97,0xm179,-251v0,90,49,180,143,180v80,0,146,-66,146,-181v0,-110,-59,-181,-143,-181v-75,0,-146,53,-146,182","w":604},"q":{"d":"38,-253v0,-161,95,-265,228,-265v120,0,163,86,163,86r2,0v0,0,-1,-11,-1,-26v0,-30,19,-48,62,-48r91,0r0,83v-27,2,-63,-9,-63,22r0,601r-97,0r0,-229v-2,-27,6,-45,0,-44v0,0,-43,85,-163,85v-136,0,-222,-108,-222,-265xm280,-72v75,0,145,-53,145,-182v0,-90,-47,-180,-143,-180v-80,0,-146,66,-146,181v0,110,59,181,144,181","w":604},"r":{"d":"85,0r0,-401v2,-31,-36,-20,-63,-22r0,-83r92,0v57,-2,65,34,65,91v0,21,-6,36,0,35v28,-81,89,-143,186,-130r0,96v-109,-22,-183,79,-183,207r0,207r-97,0","w":387},"s":{"d":"27,-77r50,-65v0,0,60,75,153,75v47,0,88,-21,88,-65v0,-91,-276,-81,-276,-244v0,-97,85,-142,188,-142v61,0,166,21,166,98r0,48r-87,0r0,-25v0,-30,-45,-43,-76,-43v-57,0,-94,20,-94,60v0,96,276,75,276,244v0,90,-80,148,-186,148v-135,0,-202,-89,-202,-89","w":454},"t":{"d":"89,-185r0,-243r-66,0r0,-78r68,0r0,-139r95,0r0,139r121,0r0,78r-121,0r0,232v0,101,70,114,107,114v14,0,23,-2,23,-2r0,86v0,0,-13,2,-34,2v-64,0,-193,-20,-193,-189","w":352},"u":{"d":"83,-182r0,-219v2,-31,-36,-20,-63,-22r0,-83r95,0v46,0,65,19,65,62r0,240v0,70,14,126,94,126v104,0,165,-91,165,-191r0,-237r97,0r0,401v-2,31,36,20,63,22r0,83r-93,0v-51,0,-64,-26,-64,-75v0,-17,4,-30,-1,-29v-21,50,-86,116,-186,116v-114,0,-172,-60,-172,-194","w":621},"v":{"d":"210,0r-156,-403v-7,-18,-19,-21,-41,-20r0,-83r50,0v45,0,62,11,77,51r109,291v10,28,18,66,18,66r2,0v0,0,8,-38,18,-66r108,-291v16,-56,59,-52,124,-51r0,83v-22,-1,-36,2,-43,20r-154,403r-112,0","w":532},"w":{"d":"188,0r-133,-403v-6,-21,-22,-20,-45,-20r0,-83r61,0v45,0,62,11,75,54r90,301v8,26,12,54,12,54v6,1,7,-26,16,-54r109,-353r89,0r110,353v10,27,9,56,15,54v0,0,4,-28,12,-54r89,-301v13,-43,31,-54,76,-54r60,0r0,83v-23,0,-39,-1,-45,20r-133,403r-109,0r-105,-325v-10,-27,-10,-57,-16,-55v-31,122,-81,259,-118,380r-110,0","w":834},"x":{"d":"15,0r171,-260r-97,-144v-14,-23,-39,-18,-71,-19r0,-83r62,0v47,0,61,9,88,51r62,98v9,14,13,33,18,32v19,-38,55,-92,78,-130v26,-43,41,-51,88,-51r63,0r0,83v-31,1,-58,-3,-72,18r-97,145r171,260r-109,0r-107,-165r-15,-27v-5,-1,-9,13,-18,27r-105,165r-110,0","w":494},"y":{"d":"45,90v0,1,31,36,74,36v39,0,70,-28,89,-73r23,-55r-173,-401v-8,-20,-21,-21,-44,-20r0,-83r57,0v41,0,56,11,72,51r115,285v10,26,18,61,18,61v6,2,9,-33,19,-61r105,-285v15,-40,33,-51,74,-51r58,0r0,83v-24,0,-37,0,-45,20r-200,494v-31,78,-92,119,-163,119v-75,0,-119,-50,-119,-50","w":546},"z":{"d":"33,0r0,-56r259,-320v23,-30,43,-44,42,-49v-40,3,-136,2,-187,2v-27,0,-22,31,-22,56r-89,0r0,-75v0,-45,19,-64,64,-64r362,0r0,56r-260,321v-22,28,-43,43,-42,48v48,-4,152,-2,211,-2v27,0,22,-31,22,-56r88,0r0,75v0,45,-19,64,-64,64r-384,0","w":505},"{":{"d":"114,-77r0,-96v0,-102,-85,-109,-85,-109r0,-86v0,0,85,-7,85,-111r0,-84v0,-158,114,-174,162,-174v14,0,23,1,23,1r0,74r-14,0v-25,0,-86,9,-86,105r0,103v0,99,-81,127,-81,127r0,2v0,0,81,24,81,127r0,115v0,96,61,105,86,105r14,0r0,74v0,0,-9,2,-23,2v-48,0,-162,-16,-162,-175","w":339},"|":{"d":"107,159r0,-951r85,0r0,951r-85,0","w":299},"}":{"d":"40,22r14,0v25,0,86,-9,86,-105r0,-115v0,-103,81,-127,81,-127r0,-2v0,0,-81,-28,-81,-127r0,-103v0,-96,-61,-105,-86,-105r-14,0r0,-74v0,0,9,-1,23,-1v48,0,162,16,162,174r0,84v0,104,85,111,85,111r0,86v0,0,-85,7,-85,109r0,96v0,159,-114,175,-162,175v-14,0,-23,-2,-23,-2r0,-74","w":339},"~":{"d":"62,-204v0,-116,53,-169,140,-169v105,0,116,98,191,98v53,0,67,-52,67,-94r79,0v0,117,-53,169,-139,169v-105,0,-116,-97,-192,-97v-52,0,-67,52,-67,93r-79,0"},"\u00a1":{"d":"107,-409r0,-97r99,0r0,97r-99,0xm107,200r7,-512r87,0r6,512r-100,0","w":314},"\u00a2":{"d":"259,38r0,-111v-128,-18,-204,-136,-204,-280v0,-145,76,-263,204,-281r0,-110r73,0r0,110v86,13,148,72,181,155r-88,34v-23,-56,-64,-99,-126,-99v-93,0,-145,83,-145,191v0,111,50,190,145,190v62,0,103,-42,126,-99r88,35v-30,74,-90,144,-181,154r0,111r-73,0","w":565},"\u00a3":{"d":"50,0r0,-86r61,0r0,-233r-44,0r0,-70r44,0r0,-136v0,-111,91,-193,217,-193v101,0,167,64,167,64r-57,69v0,0,-48,-43,-109,-43v-74,0,-118,48,-118,107r0,132r184,0r0,70r-184,0r0,233r216,0v31,1,20,-39,22,-67r92,0r0,89v0,45,-19,64,-65,64r-426,0","w":584},"\u00a5":{"d":"96,-204r0,-63r161,0r0,-41r-28,-44r-135,0r0,-63r94,0r0,-2r-112,-181v-14,-24,-31,-22,-61,-22r0,-86v0,0,106,-4,141,54r107,178v26,40,39,79,45,78v31,-61,109,-187,149,-256v35,-60,68,-54,142,-54r0,86v-30,0,-48,-2,-62,22r-111,181r0,2r91,0r0,63r-133,0r-27,44r0,41r160,0r0,63r-160,0r0,204r-100,0r0,-204r-161,0","w":614},"\u00a7":{"d":"152,-111r-70,-390v-28,-123,49,-216,183,-217v86,0,141,51,141,51r-46,64v0,0,-40,-34,-95,-34v-60,0,-107,33,-107,101v0,12,3,25,6,40r68,385r-80,0xm61,11r44,-67v0,0,41,37,97,37v59,0,106,-35,106,-105v0,-13,-3,-28,-6,-45r-66,-376r79,0r70,390v25,126,-50,217,-183,217v-87,0,-141,-51,-141,-51","w":459},"\u00a8":{"d":"307,-781r0,-101r73,0r0,101r-73,0xm142,-781r0,-101r74,0r0,101r-74,0","w":501},"\u00a9":{"d":"37,-353v0,-203,158,-365,355,-365v199,0,358,162,358,365v0,203,-159,365,-358,365v-197,0,-355,-162,-355,-365xm110,-353v0,167,123,297,282,297v161,0,285,-130,285,-297v0,-167,-124,-297,-285,-297v-159,0,-282,130,-282,297xm202,-352v0,-105,76,-200,197,-200v115,0,163,99,163,99r-61,33v0,0,-34,-63,-99,-63v-79,0,-124,62,-124,131v0,71,43,131,124,131v66,0,99,-63,99,-63r61,33v0,0,-48,99,-163,99v-121,0,-197,-94,-197,-200","w":787},"\u00aa":{"d":"164,-383v-56,0,-109,-34,-109,-99v0,-99,127,-107,184,-107r14,0v-2,-50,-18,-66,-61,-66v-11,0,-42,1,-42,17r0,19r-70,0r0,-40v0,-49,82,-57,113,-57v160,0,132,118,132,252v0,17,23,9,38,11r0,64v-51,-1,-106,12,-105,-47v-6,-1,-24,53,-94,53xm179,-442v46,0,72,-46,74,-96v-47,0,-124,0,-124,53v0,22,16,43,50,43xm54,-265r0,-57r312,0r0,57r-312,0","w":415},"\u00ab":{"d":"243,-282r164,-206r97,0r-164,206r164,205r-97,0xm206,-77r-164,-205r164,-206r97,0r-164,206r164,205r-97,0","w":567},"\u00ac":{"d":"68,-340r0,-78r477,0r0,267r-81,0r0,-189r-396,0"},"\u00ae":{"d":"37,-353v0,-203,158,-365,355,-365v199,0,358,162,358,365v0,203,-159,365,-358,365v-197,0,-355,-162,-355,-365xm110,-353v0,167,123,297,282,297v161,0,285,-130,285,-297v0,-167,-124,-297,-285,-297v-159,0,-282,130,-282,297xm270,-166r0,-323r-34,0r0,-54r179,0v71,0,119,45,119,115v0,58,-38,92,-69,100v-1,6,11,2,21,22r39,75v10,16,18,13,35,13r0,52v-43,-2,-74,7,-92,-28r-52,-99v-13,-29,-42,-16,-75,-19r0,146r-71,0xm341,-364r60,0v37,0,61,-24,61,-64v0,-39,-24,-61,-61,-61r-60,0r0,125","w":787},"\u00af":{"d":"108,-784r0,-68r254,0r0,68r-254,0","w":464},"\u02c9":{"d":"108,-784r0,-68r254,0r0,68r-254,0","w":464},"\u00b0":{"d":"198,-422v-84,0,-151,-66,-151,-148v0,-81,67,-148,151,-148v84,0,152,67,152,148v0,82,-68,148,-152,148xm198,-496v42,0,74,-33,74,-74v0,-41,-32,-75,-74,-75v-42,0,-74,34,-74,75v0,41,32,74,74,74","w":397},"\u00b1":{"d":"42,-246r0,-78r224,0r0,-246r82,0r0,246r223,0r0,78r-223,0r0,246r-82,0r0,-246r-224,0xm58,95r497,0r0,78r-497,0r0,-78"},"\u00b2":{"d":"99,-266v-35,0,-48,-11,-48,-59v0,-86,65,-125,124,-158v48,-27,92,-53,92,-102v0,-34,-25,-59,-66,-59v-34,0,-58,17,-58,35r0,24r-71,0r0,-44v0,-61,83,-86,130,-86v83,0,142,52,142,130v0,86,-70,124,-130,157v-44,25,-85,49,-85,89v0,5,4,6,9,6r149,0v4,0,6,-2,6,-7r0,-33r70,0r0,61v0,32,-14,46,-46,46r-218,0","w":423},"\u00b3":{"d":"208,-258v-94,0,-156,-80,-156,-80r53,-49v0,0,43,58,103,58v41,0,76,-30,76,-72v-1,-54,-53,-73,-115,-67r-12,-44r84,-106v9,-14,23,-20,22,-25v-23,3,-80,2,-110,2v-15,0,-7,23,-9,36r-71,0r0,-53v0,-36,11,-48,48,-48r232,0r0,51r-104,127v58,8,112,58,112,128v0,85,-72,142,-153,142","w":423},"\u00b4":{"d":"119,-755r73,-127r98,0r-95,127r-76,0","w":388},"\u00b5":{"d":"20,-423r0,-83r95,0v46,0,65,19,65,62r0,240v0,70,14,126,94,126v104,0,165,-91,165,-191r0,-237r97,0r0,401v-2,31,36,20,63,22r0,83r-93,0v-64,3,-69,-46,-63,-104r-2,0v0,0,-47,116,-186,116v-70,0,-88,-32,-93,-31v8,42,8,158,7,219r-86,0r0,-601v2,-31,-36,-20,-63,-22","w":621},"\u03bc":{"d":"20,-423r0,-83r95,0v46,0,65,19,65,62r0,240v0,70,14,126,94,126v104,0,165,-91,165,-191r0,-237r97,0r0,401v-2,31,36,20,63,22r0,83r-93,0v-64,3,-69,-46,-63,-104r-2,0v0,0,-47,116,-186,116v-70,0,-88,-32,-93,-31v8,42,8,158,7,219r-86,0r0,-601v2,-31,-36,-20,-63,-22","w":621},"\u00b6":{"d":"278,50r0,-291v-129,0,-237,-102,-237,-233v0,-131,107,-232,236,-232r272,0r0,86r-196,0r0,670r-75,0xm415,50r0,-613r74,0r0,613r-74,0","w":599},"\u00b7":{"d":"70,-239r0,-103r99,0r0,103r-99,0","w":240},"\u2219":{"d":"70,-239r0,-103r99,0r0,103r-99,0","w":240},"\u00b8":{"d":"160,-23r49,10v-1,24,-8,42,-11,63v40,5,71,30,71,73v0,62,-50,84,-102,84v-31,0,-55,-7,-55,-7r0,-58v0,0,20,7,43,7v25,0,47,-8,47,-31v0,-26,-40,-34,-70,-30","w":416},"\u00b9":{"d":"76,-266r0,-67r93,0r1,-274v-5,-1,-5,8,-14,17r-40,38r-46,-49r109,-105r66,0r0,373r92,0r0,67r-261,0","w":423},"\u00ba":{"d":"228,-384v-95,0,-171,-70,-171,-168v0,-95,76,-165,170,-165v95,0,172,70,172,165v0,98,-77,168,-171,168xm228,-448v54,0,98,-43,98,-104v0,-59,-44,-101,-98,-101v-55,0,-99,42,-99,101v0,61,44,104,99,104xm73,-265r0,-57r312,0r0,57r-312,0","w":456},"\u00bb":{"d":"264,-77r164,-205r-164,-206r97,0r164,206r-164,205r-97,0xm62,-77r164,-205r-164,-206r97,0r164,206r-164,205r-97,0","w":567},"\u00bc":{"d":"284,0r287,-706r80,0r-286,706r-81,0xm78,-266r0,-67r93,0r1,-274v-5,-1,-5,9,-14,17r-40,38r-46,-49r108,-105r67,0r0,373r89,0r0,67r-258,0xm517,-113r0,-46r191,-282r87,0r0,261r66,0r0,67r-66,0r0,113r-76,0r0,-113r-202,0xm599,-179r121,-1r1,-173v-6,-1,-7,12,-17,27r-91,129v-6,10,-15,14,-14,18","w":916},"\u00bd":{"d":"273,0r287,-706r80,0r-287,706r-80,0xm78,-266r0,-67r93,0r1,-274v-5,-1,-5,9,-14,17r-40,38r-46,-49r108,-105r67,0r0,373r89,0r0,67r-258,0xm543,-59v0,-86,65,-125,124,-159v47,-26,92,-52,92,-101v0,-35,-26,-60,-67,-60v-33,0,-57,17,-57,35r0,24r-71,0r0,-43v0,-61,83,-86,130,-86v83,0,142,52,142,129v0,87,-71,125,-130,158v-45,25,-86,49,-86,89v0,5,4,6,10,6r148,0v4,0,6,-2,6,-7r0,-34r71,0r0,61v0,33,-14,47,-47,47r-218,0v-35,0,-47,-12,-47,-59","w":916},"\u00be":{"d":"282,0r287,-706r80,0r-286,706r-81,0xm216,-258v-94,0,-156,-80,-156,-80r52,-49v0,0,44,58,104,58v41,0,76,-30,76,-72v-1,-54,-53,-73,-116,-67r-12,-44r85,-106v9,-14,22,-20,21,-25v-22,3,-79,2,-109,2v-15,0,-7,23,-9,36r-71,0r0,-53v0,-36,10,-48,47,-48r233,0r0,51r-105,127v59,8,113,58,113,128v0,85,-72,142,-153,142xm517,-113r0,-46r191,-282r87,0r0,261r66,0r0,67r-66,0r0,113r-76,0r0,-113r-202,0xm599,-179r121,-1r1,-173v-6,-1,-7,12,-17,27r-91,129v-6,10,-15,14,-14,18","w":916},"\u00bf":{"d":"207,-409r0,-97r99,0r0,97r-99,0xm32,28v0,-165,177,-182,177,-303r0,-37r94,0r0,43v0,152,-169,175,-169,289v0,56,48,100,114,100v63,0,114,-43,114,-43r53,69v0,0,-65,64,-174,64v-113,0,-209,-71,-209,-182","w":453},"\u00c0":{"d":"12,0r0,-86v25,0,39,0,47,-22r221,-598r105,0r221,598v7,23,23,22,48,22r0,86r-56,0v-50,0,-66,-12,-82,-58r-53,-145r-260,0r-53,145v-17,46,-33,58,-83,58r-55,0xm227,-287r211,0r-77,-215v-13,-37,-28,-99,-28,-99r-2,0v0,0,-14,62,-27,99xm294,-755r-95,-127r98,0r73,127r-76,0","w":665},"\u00c1":{"d":"12,0r0,-86v25,0,39,0,47,-22r221,-598r105,0r221,598v7,23,23,22,48,22r0,86r-56,0v-50,0,-66,-12,-82,-58r-53,-145r-260,0r-53,145v-17,46,-33,58,-83,58r-55,0xm227,-287r211,0r-77,-215v-13,-37,-28,-99,-28,-99r-2,0v0,0,-14,62,-27,99xm294,-755r73,-127r98,0r-95,127r-76,0","w":665},"\u00c2":{"d":"12,0r0,-86v25,0,39,0,47,-22r221,-598r105,0r221,598v7,23,23,22,48,22r0,86r-56,0v-50,0,-66,-12,-82,-58r-53,-145r-260,0r-53,145v-17,46,-33,58,-83,58r-55,0xm227,-287r211,0r-77,-215v-13,-37,-28,-99,-28,-99r-2,0v0,0,-14,62,-27,99xm201,-755r87,-127r89,0r88,127r-79,0r-52,-80r-2,0r-53,80r-78,0","w":665},"\u00c3":{"d":"12,0r0,-86v25,0,39,0,47,-22r221,-598r105,0r221,598v7,23,23,22,48,22r0,86r-56,0v-50,0,-66,-12,-82,-58r-53,-145r-260,0r-53,145v-17,46,-33,58,-83,58r-55,0xm227,-287r211,0r-77,-215v-13,-37,-28,-99,-28,-99r-2,0v0,0,-14,62,-27,99xm163,-756v0,-84,35,-127,103,-127v69,0,84,68,128,68v30,0,40,-36,40,-65r66,0v0,83,-35,127,-103,127v-68,0,-84,-68,-128,-68v-30,0,-40,35,-40,65r-66,0","w":665},"\u00c4":{"d":"12,0r0,-86v25,0,39,0,47,-22r221,-598r105,0r221,598v7,23,23,22,48,22r0,86r-56,0v-50,0,-66,-12,-82,-58r-53,-145r-260,0r-53,145v-17,46,-33,58,-83,58r-55,0xm227,-287r211,0r-77,-215v-13,-37,-28,-99,-28,-99r-2,0v0,0,-14,62,-27,99xm379,-781r0,-101r73,0r0,101r-73,0xm214,-781r0,-101r74,0r0,101r-74,0","w":665},"\u00c5":{"d":"12,0r0,-86v25,0,39,0,47,-22r221,-598r105,0r221,598v7,23,23,22,48,22r0,86r-56,0v-50,0,-66,-12,-82,-58r-53,-145r-260,0r-53,145v-17,46,-33,58,-83,58r-55,0xm227,-287r211,0r-77,-215v-13,-37,-28,-99,-28,-99r-2,0v0,0,-14,62,-27,99xm333,-743v-43,0,-81,-28,-81,-74v0,-47,38,-75,81,-75v42,0,81,28,81,75v0,46,-39,74,-81,74xm333,-784v20,0,34,-14,34,-33v0,-21,-14,-35,-34,-35v-20,0,-34,14,-34,35v0,19,14,33,34,33","w":665},"\u00c6":{"d":"12,0r0,-86v24,1,37,0,45,-22r237,-598r448,0v45,0,64,19,64,64r0,89r-91,0v-2,-28,9,-67,-22,-67r-195,0r0,221r241,0r0,86r-241,0r0,205v0,17,9,22,26,22r196,0v31,1,20,-39,22,-67r92,0r0,89v0,45,-19,64,-65,64r-301,0v-50,0,-71,-14,-71,-64r0,-249r-159,0r-95,255v-17,46,-33,58,-83,58r-48,0xm271,-399r126,0r0,-221r-44,0","w":857},"\u00c7":{"d":"34,-359v0,-204,152,-359,354,-359v95,0,265,40,265,153r0,69r-92,0r0,-40v0,-59,-100,-89,-171,-89v-142,0,-252,107,-252,266v0,154,108,277,252,277v141,0,226,-95,226,-95r54,71v0,0,-95,113,-270,118r-8,38v41,5,72,30,72,73v0,62,-51,84,-102,84v-32,0,-56,-7,-56,-7r0,-58v0,0,20,7,43,7v25,0,47,-8,47,-31v0,-26,-40,-34,-70,-30r20,-78v-188,-20,-312,-175,-312,-369","w":701},"\u00c8":{"d":"103,-64r0,-556r-65,0r0,-86r415,0v45,0,64,19,64,64r0,89r-91,0v-2,-28,9,-67,-22,-67r-201,0r0,221r247,0r0,86r-247,0r0,205v0,14,8,22,22,22r206,0v31,1,20,-39,22,-67r92,0r0,89v0,45,-19,64,-64,64r-314,0v-45,0,-64,-19,-64,-64xm256,-755r-95,-127r98,0r73,127r-76,0","w":568},"\u00c9":{"d":"103,-64r0,-556r-65,0r0,-86r415,0v45,0,64,19,64,64r0,89r-91,0v-2,-28,9,-67,-22,-67r-201,0r0,221r247,0r0,86r-247,0r0,205v0,14,8,22,22,22r206,0v31,1,20,-39,22,-67r92,0r0,89v0,45,-19,64,-64,64r-314,0v-45,0,-64,-19,-64,-64xm256,-755r73,-127r98,0r-95,127r-76,0","w":568},"\u00ca":{"d":"103,-64r0,-556r-65,0r0,-86r415,0v45,0,64,19,64,64r0,89r-91,0v-2,-28,9,-67,-22,-67r-201,0r0,221r247,0r0,86r-247,0r0,205v0,14,8,22,22,22r206,0v31,1,20,-39,22,-67r92,0r0,89v0,45,-19,64,-64,64r-314,0v-45,0,-64,-19,-64,-64xm164,-755r87,-127r89,0r88,127r-79,0r-52,-80r-2,0r-53,80r-78,0","w":568},"\u00cb":{"d":"103,-64r0,-556r-65,0r0,-86r415,0v45,0,64,19,64,64r0,89r-91,0v-2,-28,9,-67,-22,-67r-201,0r0,221r247,0r0,86r-247,0r0,205v0,14,8,22,22,22r206,0v31,1,20,-39,22,-67r92,0r0,89v0,45,-19,64,-64,64r-314,0v-45,0,-64,-19,-64,-64xm342,-781r0,-101r73,0r0,101r-73,0xm177,-781r0,-101r74,0r0,101r-74,0","w":568},"\u00cc":{"d":"42,0r0,-86r69,0r0,-534r-69,0r0,-86r233,0r0,86r-69,0r0,534r69,0r0,86r-233,0xm119,-755r-95,-127r98,0r73,127r-76,0","w":317},"\u00cd":{"d":"42,0r0,-86r69,0r0,-534r-69,0r0,-86r233,0r0,86r-69,0r0,534r69,0r0,86r-233,0xm119,-755r73,-127r98,0r-95,127r-76,0","w":317},"\u00ce":{"d":"42,0r0,-86r69,0r0,-534r-69,0r0,-86r233,0r0,86r-69,0r0,534r69,0r0,86r-233,0xm26,-755r87,-127r89,0r88,127r-79,0r-52,-80r-2,0r-53,80r-78,0","w":317},"\u00cf":{"d":"42,0r0,-86r69,0r0,-534r-69,0r0,-86r233,0r0,86r-69,0r0,534r69,0r0,86r-233,0xm204,-781r0,-101r73,0r0,101r-73,0xm39,-781r0,-101r74,0r0,101r-74,0","w":317},"\u00d0":{"d":"103,-64r0,-248r-49,0r0,-82r49,0r0,-226r-65,0r0,-86r286,0v215,0,357,129,357,352v0,224,-142,354,-357,354r-157,0v-45,0,-64,-19,-64,-64xm203,-108v0,14,8,22,22,22r92,0v157,0,260,-94,260,-268v0,-173,-104,-266,-260,-266r-114,0r0,226r144,0r0,82r-144,0r0,204","w":715},"\u00d1":{"d":"38,0r0,-86v27,-2,65,8,65,-22r0,-598r91,0r314,447v26,38,59,96,59,96r2,0v0,0,-7,-56,-7,-96r0,-383v0,-45,19,-64,65,-64r100,0r0,86v-27,2,-65,-9,-65,22r0,598r-90,0r-315,-447v-26,-38,-58,-96,-58,-96r-2,0v0,0,6,57,6,96r0,383v0,45,-19,64,-64,64r-101,0xm223,-756v0,-84,35,-127,103,-127v69,0,84,68,128,68v30,0,40,-36,40,-65r66,0v0,83,-35,127,-103,127v-68,0,-84,-68,-128,-68v-30,0,-40,35,-40,65r-66,0","w":765},"\u00d2":{"d":"34,-358v0,-203,158,-360,362,-360v204,0,363,157,363,360v0,208,-159,370,-363,370v-204,0,-362,-162,-362,-370xm138,-358v0,156,115,276,258,276v143,0,259,-120,259,-276v0,-151,-116,-267,-259,-267v-143,0,-258,116,-258,267xm354,-755r-95,-127r98,0r73,127r-76,0","w":793},"\u00d3":{"d":"34,-358v0,-203,158,-360,362,-360v204,0,363,157,363,360v0,208,-159,370,-363,370v-204,0,-362,-162,-362,-370xm138,-358v0,156,115,276,258,276v143,0,259,-120,259,-276v0,-151,-116,-267,-259,-267v-143,0,-258,116,-258,267xm355,-755r73,-127r98,0r-95,127r-76,0","w":793},"\u00d4":{"d":"34,-358v0,-203,158,-360,362,-360v204,0,363,157,363,360v0,208,-159,370,-363,370v-204,0,-362,-162,-362,-370xm138,-358v0,156,115,276,258,276v143,0,259,-120,259,-276v0,-151,-116,-267,-259,-267v-143,0,-258,116,-258,267xm262,-755r87,-127r89,0r88,127r-79,0r-52,-80r-2,0r-53,80r-78,0","w":793},"\u00d5":{"d":"34,-358v0,-203,158,-360,362,-360v204,0,363,157,363,360v0,208,-159,370,-363,370v-204,0,-362,-162,-362,-370xm138,-358v0,156,115,276,258,276v143,0,259,-120,259,-276v0,-151,-116,-267,-259,-267v-143,0,-258,116,-258,267xm224,-756v0,-84,35,-127,103,-127v69,0,84,68,128,68v30,0,40,-36,40,-65r66,0v0,83,-35,127,-103,127v-68,0,-84,-68,-128,-68v-30,0,-40,35,-40,65r-66,0","w":793},"\u00d6":{"d":"34,-358v0,-203,158,-360,362,-360v204,0,363,157,363,360v0,208,-159,370,-363,370v-204,0,-362,-162,-362,-370xm138,-358v0,156,115,276,258,276v143,0,259,-120,259,-276v0,-151,-116,-267,-259,-267v-143,0,-258,116,-258,267xm440,-781r0,-101r73,0r0,101r-73,0xm275,-781r0,-101r74,0r0,101r-74,0","w":793},"\u00d7":{"d":"47,-55r206,-230r-206,-230r55,-55r204,228r205,-228r55,55r-207,230r207,230r-55,55r-205,-227r-204,227"},"\u00d8":{"d":"112,-9r48,-66v-77,-68,-125,-168,-125,-283v0,-203,159,-360,362,-360v70,0,134,19,188,51r47,-65r49,34r-46,65v76,66,125,164,125,275v0,208,-159,370,-363,370v-69,0,-134,-19,-188,-53r-47,66xm219,-157r310,-431v-39,-23,-84,-37,-132,-37v-143,0,-258,116,-258,267v0,81,31,151,80,201xm265,-119v39,24,84,37,132,37v143,0,259,-120,259,-276v0,-77,-32,-145,-81,-192","w":795},"\u00d9":{"d":"95,-247r0,-351v1,-31,-38,-20,-65,-22r0,-86r101,0v45,0,64,19,64,64r0,391v0,106,67,169,169,169v102,0,169,-63,169,-170r0,-390v0,-45,20,-64,65,-64r100,0r0,86v-27,2,-65,-9,-65,22r0,351v0,154,-107,259,-268,259v-162,0,-270,-105,-270,-259xm326,-755r-95,-127r98,0r73,127r-76,0","w":728},"\u00da":{"d":"95,-247r0,-351v1,-31,-38,-20,-65,-22r0,-86r101,0v45,0,64,19,64,64r0,391v0,106,67,169,169,169v102,0,169,-63,169,-170r0,-390v0,-45,20,-64,65,-64r100,0r0,86v-27,2,-65,-9,-65,22r0,351v0,154,-107,259,-268,259v-162,0,-270,-105,-270,-259xm326,-755r73,-127r98,0r-95,127r-76,0","w":728},"\u00db":{"d":"95,-247r0,-351v1,-31,-38,-20,-65,-22r0,-86r101,0v45,0,64,19,64,64r0,391v0,106,67,169,169,169v102,0,169,-63,169,-170r0,-390v0,-45,20,-64,65,-64r100,0r0,86v-27,2,-65,-9,-65,22r0,351v0,154,-107,259,-268,259v-162,0,-270,-105,-270,-259xm233,-755r87,-127r89,0r88,127r-79,0r-52,-80r-2,0r-53,80r-78,0","w":728},"\u00dc":{"d":"95,-247r0,-351v1,-31,-38,-20,-65,-22r0,-86r101,0v45,0,64,19,64,64r0,391v0,106,67,169,169,169v102,0,169,-63,169,-170r0,-390v0,-45,20,-64,65,-64r100,0r0,86v-27,2,-65,-9,-65,22r0,351v0,154,-107,259,-268,259v-162,0,-270,-105,-270,-259xm411,-781r0,-101r73,0r0,101r-73,0xm246,-781r0,-101r74,0r0,101r-74,0","w":728},"\u00dd":{"d":"252,0r0,-308r-179,-287v-16,-27,-30,-25,-63,-25r0,-86v73,1,105,-6,141,54r107,178v26,40,39,80,45,79v30,-62,110,-187,149,-257v35,-61,68,-53,141,-54r0,86v-33,0,-47,-2,-63,25r-178,287r0,308r-100,0xm263,-755r73,-127r98,0r-95,127r-76,0","w":603},"\u00de":{"d":"103,0r0,-598v1,-31,-38,-20,-65,-22r0,-86r101,0v45,0,64,19,64,64r0,56r146,0v129,0,221,87,221,221v0,134,-92,224,-222,224r-145,0r0,141r-100,0xm203,-227r130,0v83,0,134,-53,134,-138v0,-85,-51,-135,-133,-135r-131,0r0,273","w":596},"\u00df":{"d":"19,0r0,-83v26,-1,60,8,60,-22r0,-425v0,-123,107,-188,216,-188v111,0,190,72,190,161v0,94,-100,122,-100,181v0,67,179,103,179,236v0,102,-83,152,-171,152v-97,0,-152,-50,-152,-50r27,-75v0,0,51,41,113,41v44,0,84,-20,84,-72v0,-85,-179,-118,-179,-229v0,-81,101,-112,101,-183v0,-39,-32,-78,-95,-78v-59,0,-116,36,-116,111r0,459v0,45,-19,64,-65,64r-92,0","w":578},"\u00e0":{"d":"37,-142v0,-163,220,-173,305,-173r22,0v1,-91,-31,-127,-112,-126v-24,0,-83,6,-83,39r0,29r-91,0r0,-50v0,-83,126,-95,175,-95v164,0,208,86,208,198r0,215v-2,31,36,20,63,22r0,83r-91,0v-58,4,-68,-43,-61,-88r-2,0v0,0,-40,100,-161,100v-87,0,-172,-53,-172,-154xm135,-147v0,41,31,81,95,81v87,0,140,-89,135,-178r-25,0v-73,0,-205,4,-205,97xm226,-579r-95,-127r98,0r73,127r-76,0","w":544},"\u00e1":{"d":"37,-142v0,-163,220,-173,305,-173r22,0v1,-91,-31,-127,-112,-126v-24,0,-83,6,-83,39r0,29r-91,0r0,-50v0,-83,126,-95,175,-95v164,0,208,86,208,198r0,215v-2,31,36,20,63,22r0,83r-91,0v-58,4,-68,-43,-61,-88r-2,0v0,0,-40,100,-161,100v-87,0,-172,-53,-172,-154xm135,-147v0,41,31,81,95,81v87,0,140,-89,135,-178r-25,0v-73,0,-205,4,-205,97xm226,-579r73,-127r98,0r-95,127r-76,0","w":544},"\u00e2":{"d":"37,-142v0,-163,220,-173,305,-173r22,0v1,-91,-31,-127,-112,-126v-24,0,-83,6,-83,39r0,29r-91,0r0,-50v0,-83,126,-95,175,-95v164,0,208,86,208,198r0,215v-2,31,36,20,63,22r0,83r-91,0v-58,4,-68,-43,-61,-88r-2,0v0,0,-40,100,-161,100v-87,0,-172,-53,-172,-154xm135,-147v0,41,31,81,95,81v87,0,140,-89,135,-178r-25,0v-73,0,-205,4,-205,97xm134,-579r87,-127r89,0r88,127r-79,0r-52,-80r-2,0r-53,80r-78,0","w":544},"\u00e3":{"d":"37,-142v0,-163,220,-173,305,-173r22,0v1,-91,-31,-127,-112,-126v-24,0,-83,6,-83,39r0,29r-91,0r0,-50v0,-83,126,-95,175,-95v164,0,208,86,208,198r0,215v-2,31,36,20,63,22r0,83r-91,0v-58,4,-68,-43,-61,-88r-2,0v0,0,-40,100,-161,100v-87,0,-172,-53,-172,-154xm135,-147v0,41,31,81,95,81v87,0,140,-89,135,-178r-25,0v-73,0,-205,4,-205,97xm96,-580v0,-84,35,-127,103,-127v69,0,84,68,128,68v30,0,40,-36,40,-65r66,0v0,83,-35,127,-103,127v-68,0,-84,-68,-128,-68v-30,0,-40,35,-40,65r-66,0","w":544},"\u00e4":{"d":"37,-142v0,-163,220,-173,305,-173r22,0v1,-91,-31,-127,-112,-126v-24,0,-83,6,-83,39r0,29r-91,0r0,-50v0,-83,126,-95,175,-95v164,0,208,86,208,198r0,215v-2,31,36,20,63,22r0,83r-91,0v-58,4,-68,-43,-61,-88r-2,0v0,0,-40,100,-161,100v-87,0,-172,-53,-172,-154xm135,-147v0,41,31,81,95,81v87,0,140,-89,135,-178r-25,0v-73,0,-205,4,-205,97xm312,-605r0,-101r73,0r0,101r-73,0xm147,-605r0,-101r74,0r0,101r-74,0","w":544},"\u00e5":{"d":"37,-142v0,-163,220,-173,305,-173r22,0v1,-91,-31,-127,-112,-126v-24,0,-83,6,-83,39r0,29r-91,0r0,-50v0,-83,126,-95,175,-95v164,0,208,86,208,198r0,215v-2,31,36,20,63,22r0,83r-91,0v-58,4,-68,-43,-61,-88r-2,0v0,0,-40,100,-161,100v-87,0,-172,-53,-172,-154xm135,-147v0,41,31,81,95,81v87,0,140,-89,135,-178r-25,0v-73,0,-205,4,-205,97xm266,-567v-43,0,-81,-28,-81,-74v0,-47,38,-75,81,-75v42,0,81,28,81,75v0,46,-39,74,-81,74xm266,-608v20,0,34,-14,34,-33v0,-21,-14,-35,-34,-35v-20,0,-34,14,-34,35v0,19,14,33,34,33","w":544},"\u00e6":{"d":"37,-142v0,-161,198,-170,302,-170r25,0v2,-93,-33,-131,-112,-129v-25,0,-83,6,-83,39r0,29r-91,0r0,-50v0,-73,100,-95,175,-95v100,0,148,34,172,89r2,0v40,-59,103,-89,180,-89v153,0,230,122,213,277r-362,0v6,111,77,169,168,169v87,0,148,-59,148,-59r42,69v0,0,-75,74,-195,74v-102,0,-178,-48,-218,-127r-2,0v-9,26,-60,127,-191,127v-93,0,-173,-56,-173,-154xm462,-312r262,0v-3,-84,-57,-129,-119,-129v-74,0,-129,46,-143,129xm136,-147v0,42,31,81,95,81v87,0,138,-89,134,-175r-47,0v-76,0,-182,10,-182,94","w":868},"\u00e7":{"d":"36,-253v0,-149,109,-265,272,-265v61,0,182,25,182,111r0,52r-88,0r0,-28v0,-36,-57,-52,-94,-52v-99,0,-173,74,-173,181v0,115,84,180,178,180v95,0,157,-70,157,-70r42,69v0,0,-71,86,-205,87r-8,38v41,5,72,30,72,73v0,62,-51,84,-102,84v-32,0,-56,-7,-56,-7r0,-58v0,0,20,7,43,7v25,0,47,-8,47,-31v0,-26,-40,-34,-70,-30r20,-81v-129,-21,-217,-125,-217,-260","w":533},"\u00e8":{"d":"36,-253v0,-161,110,-265,254,-265v155,0,233,124,215,277r-369,0v6,108,84,169,174,169v87,0,148,-59,148,-59r42,69v0,0,-75,74,-195,74v-160,0,-269,-115,-269,-265xm140,-312r268,0v-3,-84,-56,-129,-119,-129v-74,0,-134,45,-149,129xm247,-579r-95,-127r98,0r73,127r-76,0","w":552},"\u00e9":{"d":"36,-253v0,-161,110,-265,254,-265v155,0,233,124,215,277r-369,0v6,108,84,169,174,169v87,0,148,-59,148,-59r42,69v0,0,-75,74,-195,74v-160,0,-269,-115,-269,-265xm140,-312r268,0v-3,-84,-56,-129,-119,-129v-74,0,-134,45,-149,129xm248,-579r73,-127r98,0r-95,127r-76,0","w":552},"\u00ea":{"d":"36,-253v0,-161,110,-265,254,-265v155,0,233,124,215,277r-369,0v6,108,84,169,174,169v87,0,148,-59,148,-59r42,69v0,0,-75,74,-195,74v-160,0,-269,-115,-269,-265xm140,-312r268,0v-3,-84,-56,-129,-119,-129v-74,0,-134,45,-149,129xm155,-579r87,-127r89,0r88,127r-79,0r-52,-80r-2,0r-53,80r-78,0","w":552},"\u00eb":{"d":"36,-253v0,-161,110,-265,254,-265v155,0,233,124,215,277r-369,0v6,108,84,169,174,169v87,0,148,-59,148,-59r42,69v0,0,-75,74,-195,74v-160,0,-269,-115,-269,-265xm140,-312r268,0v-3,-84,-56,-129,-119,-129v-74,0,-134,45,-149,129xm333,-605r0,-101r73,0r0,101r-73,0xm168,-605r0,-101r74,0r0,101r-74,0","w":552},"\u00ec":{"d":"90,-64r0,-337v2,-31,-36,-20,-63,-22r0,-83r96,0v45,0,64,19,64,64r0,337v-2,31,36,20,63,22r0,83r-95,0v-46,0,-65,-19,-65,-64xm92,-579r-95,-127r98,0r73,127r-76,0","w":277},"\u00ed":{"d":"90,-64r0,-337v2,-31,-36,-20,-63,-22r0,-83r96,0v45,0,64,19,64,64r0,337v-2,31,36,20,63,22r0,83r-95,0v-46,0,-65,-19,-65,-64xm92,-579r73,-127r98,0r-95,127r-76,0","w":277},"\u00ee":{"d":"90,-64r0,-337v2,-31,-36,-20,-63,-22r0,-83r96,0v45,0,64,19,64,64r0,337v-2,31,36,20,63,22r0,83r-95,0v-46,0,-65,-19,-65,-64xm-1,-579r88,-127r89,0r88,127r-80,0r-52,-81r-2,0r-52,81r-79,0","w":277},"\u00ef":{"d":"90,-64r0,-337v2,-31,-36,-20,-63,-22r0,-83r96,0v45,0,64,19,64,64r0,337v-2,31,36,20,63,22r0,83r-95,0v-46,0,-65,-19,-65,-64xm162,-605r0,-101r74,0r0,101r-74,0xm23,-605r0,-101r73,0r0,101r-73,0","w":277},"\u00f0":{"d":"38,-235v0,-118,83,-231,237,-231v83,0,120,43,125,42v-21,-56,-60,-100,-109,-133r-181,80r-10,-62r124,-55v-40,-20,-85,-36,-129,-46r27,-79v71,16,143,42,207,80r139,-61r9,61r-92,42v84,70,144,176,144,322v0,135,-72,287,-254,287v-152,0,-237,-122,-237,-247xm136,-233v0,82,48,161,141,161v109,0,153,-100,153,-186v0,-75,-55,-130,-141,-130v-104,0,-153,77,-153,155","w":575},"\u00f1":{"d":"351,-429v-100,0,-169,78,-169,192r0,237r-97,0r0,-401v2,-31,-36,-20,-63,-22r0,-83r93,0v51,0,64,25,64,75v0,17,-5,30,0,29v20,-44,80,-116,190,-116v120,0,174,65,174,194r0,219v-2,31,36,20,63,22r0,83r-96,0v-45,0,-64,-19,-64,-64r0,-238v0,-71,-14,-127,-95,-127xm153,-580v0,-84,35,-127,103,-127v69,0,84,68,128,68v30,0,40,-36,40,-65r66,0v0,83,-35,127,-103,127v-68,0,-84,-68,-128,-68v-30,0,-40,35,-40,65r-66,0","w":626},"\u00f2":{"d":"36,-254v0,-153,121,-264,272,-264v151,0,273,111,273,264v0,154,-122,266,-273,266v-151,0,-272,-112,-272,-266xm135,-254v0,106,78,182,173,182v96,0,174,-76,174,-182v0,-105,-78,-180,-174,-180v-95,0,-173,75,-173,180xm269,-579r-95,-127r98,0r73,127r-76,0","w":617},"\u00f3":{"d":"36,-254v0,-153,121,-264,272,-264v151,0,273,111,273,264v0,154,-122,266,-273,266v-151,0,-272,-112,-272,-266xm135,-254v0,106,78,182,173,182v96,0,174,-76,174,-182v0,-105,-78,-180,-174,-180v-95,0,-173,75,-173,180xm269,-579r73,-127r98,0r-95,127r-76,0","w":617},"\u00f4":{"d":"36,-254v0,-153,121,-264,272,-264v151,0,273,111,273,264v0,154,-122,266,-273,266v-151,0,-272,-112,-272,-266xm135,-254v0,106,78,182,173,182v96,0,174,-76,174,-182v0,-105,-78,-180,-174,-180v-95,0,-173,75,-173,180xm177,-579r87,-127r89,0r88,127r-79,0r-52,-80r-2,0r-53,80r-78,0","w":617},"\u00f5":{"d":"36,-254v0,-153,121,-264,272,-264v151,0,273,111,273,264v0,154,-122,266,-273,266v-151,0,-272,-112,-272,-266xm135,-254v0,106,78,182,173,182v96,0,174,-76,174,-182v0,-105,-78,-180,-174,-180v-95,0,-173,75,-173,180xm139,-580v0,-84,35,-127,103,-127v69,0,84,68,128,68v30,0,40,-36,40,-65r66,0v0,83,-35,127,-103,127v-68,0,-84,-68,-128,-68v-30,0,-40,35,-40,65r-66,0","w":617},"\u00f6":{"d":"36,-254v0,-153,121,-264,272,-264v151,0,273,111,273,264v0,154,-122,266,-273,266v-151,0,-272,-112,-272,-266xm135,-254v0,106,78,182,173,182v96,0,174,-76,174,-182v0,-105,-78,-180,-174,-180v-95,0,-173,75,-173,180xm355,-605r0,-101r73,0r0,101r-73,0xm190,-605r0,-101r74,0r0,101r-74,0","w":617},"\u00f7":{"d":"253,-435r0,-91r94,0r0,91r-94,0xm48,-246r0,-78r505,0r0,78r-505,0xm253,-44r0,-91r94,0r0,91r-94,0"},"\u00f8":{"d":"94,3r38,-52v-59,-47,-96,-120,-96,-205v0,-153,121,-264,272,-264v49,0,96,12,136,34r40,-56r47,34r-39,54v54,48,89,117,89,198v0,154,-122,266,-273,266v-46,0,-89,-10,-127,-30r-39,56xm186,-124r206,-288v-117,-64,-257,21,-257,158v0,53,19,97,51,130xm233,-90v120,58,252,-31,249,-164v0,-48,-17,-90,-46,-120","w":617},"\u00f9":{"d":"83,-182r0,-219v2,-31,-36,-20,-63,-22r0,-83r95,0v46,0,65,19,65,62r0,240v0,70,14,126,94,126v104,0,165,-91,165,-191r0,-237r97,0r0,401v-2,31,36,20,63,22r0,83r-93,0v-51,0,-64,-26,-64,-75v0,-17,4,-30,-1,-29v-21,50,-86,116,-186,116v-114,0,-172,-60,-172,-194xm265,-579r-95,-127r98,0r73,127r-76,0","w":621},"\u00fa":{"d":"83,-182r0,-219v2,-31,-36,-20,-63,-22r0,-83r95,0v46,0,65,19,65,62r0,240v0,70,14,126,94,126v104,0,165,-91,165,-191r0,-237r97,0r0,401v-2,31,36,20,63,22r0,83r-93,0v-51,0,-64,-26,-64,-75v0,-17,4,-30,-1,-29v-21,50,-86,116,-186,116v-114,0,-172,-60,-172,-194xm265,-579r73,-127r98,0r-95,127r-76,0","w":621},"\u00fb":{"d":"83,-182r0,-219v2,-31,-36,-20,-63,-22r0,-83r95,0v46,0,65,19,65,62r0,240v0,70,14,126,94,126v104,0,165,-91,165,-191r0,-237r97,0r0,401v-2,31,36,20,63,22r0,83r-93,0v-51,0,-64,-26,-64,-75v0,-17,4,-30,-1,-29v-21,50,-86,116,-186,116v-114,0,-172,-60,-172,-194xm172,-579r87,-127r89,0r88,127r-79,0r-52,-80r-2,0r-53,80r-78,0","w":621},"\u00fc":{"d":"83,-182r0,-219v2,-31,-36,-20,-63,-22r0,-83r95,0v46,0,65,19,65,62r0,240v0,70,14,126,94,126v104,0,165,-91,165,-191r0,-237r97,0r0,401v-2,31,36,20,63,22r0,83r-93,0v-51,0,-64,-26,-64,-75v0,-17,4,-30,-1,-29v-21,50,-86,116,-186,116v-114,0,-172,-60,-172,-194xm350,-605r0,-101r73,0r0,101r-73,0xm185,-605r0,-101r74,0r0,101r-74,0","w":621},"\u00fd":{"d":"45,90v0,1,31,36,74,36v39,0,70,-28,89,-73r23,-55r-173,-401v-8,-20,-21,-21,-44,-20r0,-83r57,0v41,0,56,11,72,51r115,285v10,26,18,61,18,61v6,2,9,-33,19,-61r105,-285v15,-40,33,-51,74,-51r58,0r0,83v-24,0,-37,0,-45,20r-200,494v-31,78,-92,119,-163,119v-75,0,-119,-50,-119,-50xm234,-579r73,-127r98,0r-95,127r-76,0","w":546},"\u00fe":{"d":"82,200r0,-801v2,-31,-36,-20,-63,-22r0,-83r96,0v45,0,64,19,64,64r0,163v2,27,-6,45,0,44v30,-52,80,-83,159,-83v139,0,226,110,226,265v0,154,-87,265,-226,265v-119,0,-159,-81,-159,-81r-2,0v0,0,2,18,2,44r0,225r-97,0xm176,-253v0,133,71,181,147,181v86,0,142,-74,142,-181v0,-107,-56,-181,-142,-181v-79,0,-147,48,-147,181","w":601},"\u00ff":{"d":"45,90v0,1,31,36,74,36v39,0,70,-28,89,-73r23,-55r-173,-401v-8,-20,-21,-21,-44,-20r0,-83r57,0v41,0,56,11,72,51r115,285v10,26,18,61,18,61v6,2,9,-33,19,-61r105,-285v15,-40,33,-51,74,-51r58,0r0,83v-24,0,-37,0,-45,20r-200,494v-31,78,-92,119,-163,119v-75,0,-119,-50,-119,-50xm319,-605r0,-101r73,0r0,101r-73,0xm154,-605r0,-101r74,0r0,101r-74,0","w":546},"\u0100":{"d":"12,0r0,-86v25,0,39,0,47,-22r221,-598r105,0r221,598v7,23,23,22,48,22r0,86r-56,0v-50,0,-66,-12,-82,-58r-53,-145r-260,0r-53,145v-17,46,-33,58,-83,58r-55,0xm227,-287r211,0r-77,-215v-13,-37,-28,-99,-28,-99r-2,0v0,0,-14,62,-27,99xm206,-784r0,-68r254,0r0,68r-254,0","w":665},"\u0101":{"d":"37,-142v0,-163,220,-173,305,-173r22,0v1,-91,-31,-127,-112,-126v-24,0,-83,6,-83,39r0,29r-91,0r0,-50v0,-83,126,-95,175,-95v164,0,208,86,208,198r0,215v-2,31,36,20,63,22r0,83r-91,0v-58,4,-68,-43,-61,-88r-2,0v0,0,-40,100,-161,100v-87,0,-172,-53,-172,-154xm135,-147v0,41,31,81,95,81v87,0,140,-89,135,-178r-25,0v-73,0,-205,4,-205,97xm139,-608r0,-68r254,0r0,68r-254,0","w":544},"\u0102":{"d":"12,0r0,-86v25,0,39,0,47,-22r221,-598r105,0r221,598v7,23,23,22,48,22r0,86r-56,0v-50,0,-66,-12,-82,-58r-53,-145r-260,0r-53,145v-17,46,-33,58,-83,58r-55,0xm227,-287r211,0r-77,-215v-13,-37,-28,-99,-28,-99r-2,0v0,0,-14,62,-27,99xm461,-868v0,155,-255,156,-256,0r0,-14r67,0v-5,49,26,73,61,73v35,0,67,-24,62,-73r66,0r0,14","w":665},"\u0103":{"d":"37,-142v0,-163,220,-173,305,-173r22,0v1,-91,-31,-127,-112,-126v-24,0,-83,6,-83,39r0,29r-91,0r0,-50v0,-83,126,-95,175,-95v164,0,208,86,208,198r0,215v-2,31,36,20,63,22r0,83r-91,0v-58,4,-68,-43,-61,-88r-2,0v0,0,-40,100,-161,100v-87,0,-172,-53,-172,-154xm135,-147v0,41,31,81,95,81v87,0,140,-89,135,-178r-25,0v-73,0,-205,4,-205,97xm393,-692v0,155,-255,156,-256,0r0,-14r67,0v-5,49,26,73,61,73v35,0,67,-24,62,-73r66,0r0,14","w":544},"\u0104":{"d":"12,0r0,-86v25,0,39,0,47,-22r221,-598r105,0r221,598v7,23,23,22,48,22r0,86v-21,17,-64,54,-64,89v0,38,55,43,55,43r-23,75v0,0,-116,-9,-116,-95v0,-53,40,-92,68,-113r0,-2v-33,-4,-45,-18,-58,-55r-53,-145r-260,0r-53,145v-17,46,-33,58,-83,58r-55,0xm227,-287r211,0r-77,-215v-13,-37,-28,-99,-28,-99r-2,0v0,0,-14,62,-27,99","w":665},"\u0105":{"d":"37,-142v0,-163,220,-173,306,-173r21,0v1,-91,-31,-127,-112,-126v-25,0,-83,7,-83,39r0,29r-91,0r0,-50v0,-82,126,-95,175,-95v164,0,208,86,208,198r0,215v-2,31,36,20,63,22r0,83v-20,17,-64,54,-64,89v0,38,55,43,55,43r-22,75v0,0,-117,-9,-117,-95v0,-50,38,-88,66,-110r0,-2r-17,0v-57,0,-58,-47,-53,-88r-2,0v0,0,-38,100,-164,100v-91,0,-169,-61,-169,-154xm135,-147v0,41,31,81,95,81v87,0,140,-89,135,-178r-25,0v-73,0,-205,4,-205,97","w":544},"\u0106":{"d":"34,-359v0,-204,152,-359,354,-359v95,0,265,40,265,153r0,69r-92,0r0,-40v0,-59,-100,-89,-171,-89v-142,0,-252,107,-252,266v0,154,111,277,255,277v140,0,223,-96,223,-96r54,72v0,0,-100,118,-278,118v-211,0,-358,-163,-358,-371xm345,-755r73,-127r98,0r-95,127r-76,0","w":701},"\u0107":{"d":"36,-253v0,-149,109,-265,272,-265v61,0,182,25,182,111r0,52r-88,0r0,-28v0,-36,-57,-52,-94,-52v-99,0,-173,74,-173,181v0,115,84,180,178,180v95,0,157,-70,157,-70r42,69v0,0,-72,87,-206,87v-159,0,-270,-113,-270,-265xm252,-579r73,-127r98,0r-95,127r-76,0","w":533},"\u0108":{"d":"34,-359v0,-204,152,-359,354,-359v95,0,265,40,265,153r0,69r-92,0r0,-40v0,-59,-100,-89,-171,-89v-142,0,-252,107,-252,266v0,154,111,277,255,277v140,0,223,-96,223,-96r54,72v0,0,-100,118,-278,118v-211,0,-358,-163,-358,-371xm253,-755r87,-127r89,0r88,127r-79,0r-52,-80r-2,0r-53,80r-78,0","w":701},"\u0109":{"d":"36,-253v0,-149,109,-265,272,-265v61,0,182,25,182,111r0,52r-88,0r0,-28v0,-36,-57,-52,-94,-52v-99,0,-173,74,-173,181v0,115,84,180,178,180v95,0,157,-70,157,-70r42,69v0,0,-72,87,-206,87v-159,0,-270,-113,-270,-265xm160,-579r87,-127r89,0r88,127r-79,0r-52,-80r-2,0r-53,80r-78,0","w":533},"\u010a":{"d":"34,-359v0,-204,152,-359,354,-359v95,0,265,40,265,153r0,69r-92,0r0,-40v0,-59,-100,-89,-171,-89v-142,0,-252,107,-252,266v0,154,111,277,255,277v140,0,223,-96,223,-96r54,72v0,0,-100,118,-278,118v-211,0,-358,-163,-358,-371xm341,-781r0,-101r87,0r0,101r-87,0","w":701},"\u010b":{"d":"36,-253v0,-149,109,-265,272,-265v61,0,182,25,182,111r0,52r-88,0r0,-28v0,-36,-57,-52,-94,-52v-99,0,-173,74,-173,181v0,115,84,180,178,180v95,0,157,-70,157,-70r42,69v0,0,-72,87,-206,87v-159,0,-270,-113,-270,-265xm248,-605r0,-101r87,0r0,101r-87,0","w":533},"\u010c":{"d":"34,-359v0,-204,152,-359,354,-359v95,0,265,40,265,153r0,69r-92,0r0,-40v0,-59,-100,-89,-171,-89v-142,0,-252,107,-252,266v0,154,111,277,255,277v140,0,223,-96,223,-96r54,72v0,0,-100,118,-278,118v-211,0,-358,-163,-358,-371xm340,-755r-88,-127r79,0r52,81r2,0r52,-81r80,0r-88,127r-89,0","w":701},"\u010d":{"d":"36,-253v0,-149,109,-265,272,-265v61,0,182,25,182,111r0,52r-88,0r0,-28v0,-36,-57,-52,-94,-52v-99,0,-173,74,-173,181v0,115,84,180,178,180v95,0,157,-70,157,-70r42,69v0,0,-72,87,-206,87v-159,0,-270,-113,-270,-265xm247,-579r-88,-127r79,0r52,81r2,0r52,-81r80,0r-88,127r-89,0","w":533},"\u010e":{"d":"103,-64r0,-556r-65,0r0,-86r286,0v215,0,357,129,357,352v0,224,-142,354,-357,354r-157,0v-45,0,-64,-19,-64,-64xm203,-108v0,14,8,22,22,22r92,0v157,0,260,-94,260,-268v0,-173,-104,-266,-260,-266r-114,0r0,512xm298,-755r-88,-127r79,0r52,81r2,0r52,-81r80,0r-88,127r-89,0","w":715},"\u010f":{"d":"37,-253v0,-161,95,-265,229,-265v117,0,156,78,156,78r2,0v-4,-41,-2,-113,-2,-161v0,-31,-36,-20,-63,-22r0,-83r96,0v45,0,64,19,64,64r0,537v-2,31,36,20,63,22r0,83r-93,0v-55,3,-67,-36,-61,-80r-2,0v0,0,-42,92,-166,92v-137,0,-223,-108,-223,-265xm279,-72v75,0,146,-53,146,-182v0,-90,-47,-180,-144,-180v-79,0,-145,66,-145,181v0,110,59,181,143,181xm574,-706r79,0v12,56,5,91,-18,141r-69,0v20,-53,27,-87,8,-141","w":691},"\u0110":{"d":"103,-64r0,-248r-49,0r0,-82r49,0r0,-226r-65,0r0,-86r286,0v215,0,357,129,357,352v0,224,-142,354,-357,354r-157,0v-45,0,-64,-19,-64,-64xm203,-108v0,14,8,22,22,22r92,0v157,0,260,-94,260,-268v0,-173,-104,-266,-260,-266r-114,0r0,226r144,0r0,82r-144,0r0,204","w":715},"\u0111":{"d":"260,12v-137,0,-223,-108,-223,-265v0,-161,95,-265,229,-265v117,0,156,78,156,78r2,0v-3,-26,-2,-89,-2,-123r-129,0r0,-63r129,0r0,-80r97,0r0,80r77,0r0,63r-77,0r0,458v-2,31,36,20,63,22r0,83r-93,0v-55,3,-67,-36,-61,-80r-2,0v0,0,-42,92,-166,92xm279,-72v75,0,146,-53,146,-182v0,-90,-47,-180,-144,-180v-79,0,-145,66,-145,181v0,110,59,181,143,181","w":606},"\u0112":{"d":"103,-64r0,-556r-65,0r0,-86r415,0v45,0,64,19,64,64r0,89r-91,0v-2,-28,9,-67,-22,-67r-201,0r0,221r247,0r0,86r-247,0r0,205v0,14,8,22,22,22r206,0v31,1,20,-39,22,-67r92,0r0,89v0,45,-19,64,-64,64r-314,0v-45,0,-64,-19,-64,-64xm169,-784r0,-68r254,0r0,68r-254,0","w":568},"\u0113":{"d":"36,-253v0,-161,110,-265,254,-265v155,0,233,124,215,277r-369,0v6,108,84,169,174,169v87,0,148,-59,148,-59r42,69v0,0,-75,74,-195,74v-160,0,-269,-115,-269,-265xm140,-312r268,0v-3,-84,-56,-129,-119,-129v-74,0,-134,45,-149,129xm160,-608r0,-68r254,0r0,68r-254,0","w":552},"\u0114":{"d":"103,-64r0,-556r-65,0r0,-86r415,0v45,0,64,19,64,64r0,89r-91,0v-2,-28,9,-67,-22,-67r-201,0r0,221r247,0r0,86r-247,0r0,205v0,14,8,22,22,22r206,0v31,1,20,-39,22,-67r92,0r0,89v0,45,-19,64,-64,64r-314,0v-45,0,-64,-19,-64,-64xm423,-868v0,155,-255,156,-256,0r0,-14r67,0v-5,49,26,73,61,73v35,0,67,-24,62,-73r66,0r0,14","w":568},"\u0115":{"d":"36,-253v0,-161,110,-265,254,-265v155,0,233,124,215,277r-369,0v6,108,84,169,174,169v87,0,148,-59,148,-59r42,69v0,0,-75,74,-195,74v-160,0,-269,-115,-269,-265xm140,-312r268,0v-3,-84,-56,-129,-119,-129v-74,0,-134,45,-149,129xm415,-692v0,155,-255,156,-256,0r0,-14r67,0v-5,49,26,73,61,73v35,0,67,-24,62,-73r66,0r0,14","w":552},"\u0116":{"d":"103,-64r0,-556r-65,0r0,-86r415,0v45,0,64,19,64,64r0,89r-91,0v-2,-28,9,-67,-22,-67r-201,0r0,221r247,0r0,86r-247,0r0,205v0,14,8,22,22,22r206,0v31,1,20,-39,22,-67r92,0r0,89v0,45,-19,64,-64,64r-314,0v-45,0,-64,-19,-64,-64xm252,-781r0,-101r87,0r0,101r-87,0","w":568},"\u0117":{"d":"36,-253v0,-161,110,-265,254,-265v155,0,233,124,215,277r-369,0v6,108,84,169,174,169v87,0,148,-59,148,-59r42,69v0,0,-75,74,-195,74v-160,0,-269,-115,-269,-265xm140,-312r268,0v-3,-84,-56,-129,-119,-129v-74,0,-134,45,-149,129xm243,-605r0,-101r87,0r0,101r-87,0","w":552},"\u0118":{"d":"103,-64r0,-556r-65,0r0,-86r415,0v45,0,64,19,64,64r0,89r-91,0v-2,-28,9,-67,-22,-67r-201,0r0,221r247,0r0,86r-247,0r0,205v0,14,8,22,22,22r206,0v31,1,20,-39,22,-67r92,0v-3,54,11,119,-23,145v-32,24,-75,58,-75,97v0,38,55,43,55,43r-22,75v0,0,-117,-9,-117,-95v0,-50,36,-87,65,-110r0,-2r-261,0v-45,0,-64,-19,-64,-64","w":568},"\u0119":{"d":"36,-253v0,-161,110,-265,254,-265v155,0,233,124,215,277r-369,0v6,108,84,169,174,169v87,0,148,-59,148,-59r42,69v-38,37,-134,84,-134,151v0,38,56,43,56,43r-23,75v0,0,-116,-9,-116,-95v0,-44,29,-77,56,-101r0,-2v-178,21,-303,-103,-303,-262xm140,-312r268,0v-4,-84,-55,-129,-119,-129v-74,0,-134,45,-149,129","w":552},"\u011a":{"d":"103,-64r0,-556r-65,0r0,-86r415,0v45,0,64,19,64,64r0,89r-91,0v-2,-28,9,-67,-22,-67r-201,0r0,221r247,0r0,86r-247,0r0,205v0,14,8,22,22,22r206,0v31,1,20,-39,22,-67r92,0r0,89v0,45,-19,64,-64,64r-314,0v-45,0,-64,-19,-64,-64xm251,-755r-88,-127r79,0r52,81r2,0r52,-81r80,0r-88,127r-89,0","w":568},"\u011b":{"d":"36,-253v0,-161,110,-265,254,-265v155,0,233,124,215,277r-369,0v6,108,84,169,174,169v87,0,148,-59,148,-59r42,69v0,0,-75,74,-195,74v-160,0,-269,-115,-269,-265xm140,-312r268,0v-3,-84,-56,-129,-119,-129v-74,0,-134,45,-149,129xm242,-579r-88,-127r79,0r52,81r2,0r52,-81r80,0r-88,127r-89,0","w":552},"\u011c":{"d":"35,-356v0,-203,154,-362,356,-362v169,0,252,87,252,87r-57,73v0,0,-76,-68,-193,-68v-141,0,-254,113,-254,270v0,164,113,274,256,274v126,0,201,-88,201,-88r0,-71v1,-30,-38,-21,-65,-22r0,-86r93,0v45,0,64,19,64,64r0,285r-88,0r1,-74v-6,-1,-77,86,-222,86v-188,0,-344,-148,-344,-368xm256,-755r87,-127r89,0r88,127r-79,0r-52,-80r-2,0r-53,80r-78,0","w":736},"\u011d":{"d":"37,-265v0,-145,81,-253,222,-253v126,0,162,79,162,79r2,0v-3,-42,9,-67,56,-67r94,0r0,83v-26,1,-62,-8,-62,20r0,382v-1,239,-258,273,-428,189r33,-78v0,0,62,34,138,34v88,0,160,-39,160,-141v0,-17,0,-59,2,-66r-2,0v-30,49,-77,77,-151,77v-140,0,-226,-113,-226,-259xm282,-90v70,0,135,-42,135,-174v0,-132,-65,-170,-143,-170v-88,0,-138,64,-138,167v0,105,55,177,146,177xm169,-579r87,-127r89,0r88,127r-79,0r-52,-80r-2,0r-53,80r-78,0","w":595},"\u011e":{"d":"35,-356v0,-203,154,-362,356,-362v169,0,252,87,252,87r-57,73v0,0,-76,-68,-193,-68v-141,0,-254,113,-254,270v0,164,113,274,256,274v126,0,201,-88,201,-88r0,-71v1,-30,-38,-21,-65,-22r0,-86r93,0v45,0,64,19,64,64r0,285r-88,0r1,-74v-6,-1,-77,86,-222,86v-188,0,-344,-148,-344,-368xm516,-868v0,155,-255,156,-256,0r0,-14r67,0v-5,49,26,73,61,73v35,0,67,-24,62,-73r66,0r0,14","w":736},"\u011f":{"d":"37,-265v0,-145,81,-253,222,-253v126,0,162,79,162,79r2,0v-3,-42,9,-67,56,-67r94,0r0,83v-26,1,-62,-8,-62,20r0,382v-1,239,-258,273,-428,189r33,-78v0,0,62,34,138,34v88,0,160,-39,160,-141v0,-17,0,-59,2,-66r-2,0v-30,49,-77,77,-151,77v-140,0,-226,-113,-226,-259xm282,-90v70,0,135,-42,135,-174v0,-132,-65,-170,-143,-170v-88,0,-138,64,-138,167v0,105,55,177,146,177xm428,-692v0,155,-255,156,-256,0r0,-14r67,0v-5,49,26,73,61,73v35,0,67,-24,62,-73r66,0r0,14","w":595},"\u0120":{"d":"35,-356v0,-203,154,-362,356,-362v169,0,252,87,252,87r-57,73v0,0,-76,-68,-193,-68v-141,0,-254,113,-254,270v0,164,113,274,256,274v126,0,201,-88,201,-88r0,-71v1,-30,-38,-21,-65,-22r0,-86r93,0v45,0,64,19,64,64r0,285r-88,0r1,-74v-6,-1,-77,86,-222,86v-188,0,-344,-148,-344,-368xm344,-781r0,-101r87,0r0,101r-87,0","w":736},"\u0121":{"d":"37,-265v0,-145,81,-253,222,-253v126,0,162,79,162,79r2,0v-3,-42,9,-67,56,-67r94,0r0,83v-26,1,-62,-8,-62,20r0,382v-1,239,-258,273,-428,189r33,-78v0,0,62,34,138,34v88,0,160,-39,160,-141v0,-17,0,-59,2,-66r-2,0v-30,49,-77,77,-151,77v-140,0,-226,-113,-226,-259xm282,-90v70,0,135,-42,135,-174v0,-132,-65,-170,-143,-170v-88,0,-138,64,-138,167v0,105,55,177,146,177xm257,-605r0,-101r87,0r0,101r-87,0","w":595},"\u0122":{"d":"35,-356v0,-203,154,-362,356,-362v169,0,252,87,252,87r-57,73v0,0,-76,-68,-193,-68v-141,0,-254,113,-254,270v0,164,113,274,256,274v126,0,201,-88,201,-88r0,-71v1,-30,-38,-21,-65,-22r0,-86r93,0v45,0,64,19,64,64r0,285r-88,0r1,-74v-6,-1,-77,86,-222,86v-188,0,-344,-148,-344,-368xm341,59r79,0v12,56,5,91,-18,141r-69,0v20,-53,27,-87,8,-141","w":736},"\u0123":{"d":"37,-265v0,-145,81,-253,222,-253v126,0,162,79,162,79r2,0v-3,-42,9,-67,56,-67r94,0r0,83v-26,1,-62,-8,-62,20r0,382v-1,239,-258,273,-428,189r33,-78v0,0,62,34,138,34v88,0,160,-39,160,-141v0,-17,0,-59,2,-66r-2,0v-30,49,-77,77,-151,77v-140,0,-226,-113,-226,-259xm282,-90v70,0,135,-42,135,-174v0,-132,-65,-170,-143,-170v-88,0,-138,64,-138,167v0,105,55,177,146,177xm327,-565r-79,0v-12,-56,-5,-91,18,-141r69,0v-20,53,-27,87,-8,141","w":595},"\u0124":{"d":"103,0r0,-598v1,-31,-38,-20,-65,-22r0,-86r101,0v45,0,64,19,64,64r0,247r359,0r0,-247v0,-45,19,-64,64,-64r101,0r0,86v-27,2,-65,-9,-65,22r0,598r-100,0r0,-310r-359,0r0,310r-100,0xm251,-755r87,-127r89,0r88,127r-79,0r-52,-80r-2,0r-53,80r-78,0","w":765},"\u0125":{"d":"347,-429v-98,0,-169,79,-169,192r0,237r-97,0r0,-601v2,-31,-36,-20,-63,-22r0,-83r96,0v45,0,64,19,64,62r0,197v2,25,-6,43,0,42v22,-49,87,-113,188,-113v119,0,173,65,173,194r0,219v-2,31,36,20,63,22r0,83r-95,0v-45,0,-64,-19,-64,-64r0,-238v0,-71,-15,-127,-96,-127xm191,-755r87,-127r89,0r88,127r-79,0r-52,-80r-2,0r-53,80r-78,0","w":622},"\u0126":{"d":"103,0r0,-514r-66,0r0,-68r66,0r0,-124r100,0r0,124r359,0r0,-124r100,0r0,124r65,0r0,68r-65,0r0,514r-100,0r0,-310r-359,0r0,310r-100,0xm203,-395r359,0r0,-119r-359,0r0,119","w":765},"\u0127":{"d":"81,0r0,-563r-76,0r0,-63r76,0r0,-80r97,0r0,80r129,0r0,63r-129,0r0,116v2,25,-6,43,0,42v10,-27,67,-113,188,-113v119,0,173,65,173,194r0,219v-2,31,36,20,63,22r0,83r-95,0v-45,0,-64,-19,-64,-64r0,-238v0,-69,-15,-127,-96,-127v-102,0,-169,85,-169,192r0,237r-97,0","w":622},"\u0128":{"d":"42,0r0,-86r69,0r0,-534r-69,0r0,-86r233,0r0,86r-69,0r0,534r69,0r0,86r-233,0xm-12,-756v0,-84,35,-127,103,-127v69,0,84,68,128,68v30,0,40,-36,40,-65r66,0v0,83,-35,127,-103,127v-68,0,-84,-68,-128,-68v-30,0,-40,35,-40,65r-66,0","w":317},"\u0129":{"d":"90,-64r0,-337v2,-31,-36,-20,-63,-22r0,-83r96,0v45,0,64,19,64,64r0,337v-2,31,36,20,63,22r0,83r-95,0v-46,0,-65,-19,-65,-64xm-17,-581v0,-83,27,-127,92,-127v57,0,74,66,104,66v27,0,33,-33,33,-63r65,0v0,84,-27,127,-92,127v-58,0,-75,-65,-104,-65v-27,0,-33,33,-33,62r-65,0","w":277},"\u012a":{"d":"42,0r0,-86r69,0r0,-534r-69,0r0,-86r233,0r0,86r-69,0r0,534r69,0r0,86r-233,0xm31,-784r0,-68r254,0r0,68r-254,0","w":317},"\u012b":{"d":"90,-64r0,-337v2,-31,-36,-20,-63,-22r0,-83r96,0v45,0,64,19,64,64r0,337v-2,31,36,20,63,22r0,83r-95,0v-46,0,-65,-19,-65,-64xm16,-609r0,-68r231,0r0,68r-231,0","w":277},"\u012c":{"d":"42,0r0,-86r69,0r0,-534r-69,0r0,-86r233,0r0,86r-69,0r0,534r69,0r0,86r-233,0xm286,-868v0,155,-255,156,-256,0r0,-14r67,0v-5,49,26,73,61,73v35,0,67,-24,62,-73r66,0r0,14","w":317},"\u012d":{"d":"90,-64r0,-337v2,-31,-36,-20,-63,-22r0,-83r96,0v45,0,64,19,64,64r0,337v-2,31,36,20,63,22r0,83r-95,0v-46,0,-65,-19,-65,-64xm259,-693v0,157,-255,157,-256,0r0,-13r67,0v-4,49,26,73,61,73v35,0,67,-24,62,-73r66,0r0,13","w":277},"\u012e":{"d":"42,0r0,-86r69,0r0,-534r-69,0r0,-86r233,0r0,86r-69,0r0,534r69,0r0,86v-20,17,-64,54,-64,89v0,38,55,43,55,43r-22,75v0,0,-117,-9,-117,-95v0,-50,36,-87,65,-110r0,-2r-150,0","w":317},"\u012f":{"d":"92,-605r0,-101r87,0r0,101r-87,0xm102,112v0,-50,35,-88,64,-110r0,-2v-57,5,-76,-21,-76,-81r0,-320v2,-31,-36,-20,-63,-22r0,-83r68,0v81,0,91,31,91,98r0,303v-2,31,36,20,63,22r0,83v-20,17,-64,54,-64,89v0,38,56,43,56,43r-23,75v0,0,-116,-9,-116,-95","w":275},"\u0130":{"d":"42,0r0,-86r69,0r0,-534r-69,0r0,-86r233,0r0,86r-69,0r0,534r69,0r0,86r-233,0xm114,-781r0,-101r87,0r0,101r-87,0","w":317},"\u0131":{"d":"90,-64r0,-337v2,-31,-36,-20,-63,-22r0,-83r96,0v45,0,64,19,64,64r0,337v-2,31,36,20,63,22r0,83r-95,0v-46,0,-65,-19,-65,-64","w":277},"\u0132":{"d":"364,5r0,-91v57,0,138,-23,138,-154r0,-358v0,-15,-8,-22,-22,-22r-112,0r0,-86r170,0v45,0,64,19,64,64r0,403v0,204,-130,244,-238,244xm42,0r0,-86r69,0r0,-534r-69,0r0,-86r233,0r0,86r-69,0r0,534r69,0r0,86r-233,0","w":681},"\u0133":{"d":"92,-605r0,-101r87,0r0,101r-87,0xm90,-64r0,-337v2,-31,-36,-20,-63,-22r0,-83r95,0v45,0,64,19,64,64r0,337v-2,31,36,20,63,22r0,83r-95,0v-45,0,-64,-19,-64,-64xm377,-605r0,-101r87,0r0,101r-87,0xm245,121v0,0,9,1,22,1v37,0,108,-12,108,-111r0,-412v2,-31,-36,-20,-63,-22r0,-83r96,0v45,0,64,19,64,64r0,459v0,169,-131,189,-194,189v-20,0,-33,-2,-33,-2r0,-83","w":551},"\u0134":{"d":"22,-203r0,-35r100,0r0,27v0,98,56,129,111,129v56,0,110,-33,110,-125r0,-391v0,-15,-8,-22,-22,-22r-173,0r0,-86r231,0v45,0,64,19,64,64r0,439v0,153,-107,215,-211,215v-104,0,-210,-63,-210,-215xm157,-755r87,-127r89,0r88,127r-79,0r-52,-80r-2,0r-53,80r-78,0","w":522},"\u0135":{"d":"-1,-579r88,-127r89,0r87,127r-78,0r-54,-82r-53,82r-79,0xm-20,123v0,0,9,1,22,1v37,0,108,-13,108,-112r0,-416v2,-31,-36,-20,-63,-22r0,-80r94,0v45,0,64,13,64,58r0,465v0,169,-128,189,-192,189v-20,0,-33,-2,-33,-2r0,-81","w":284},"\u0136":{"d":"103,0r0,-598v1,-31,-38,-20,-65,-22r0,-86r101,0v45,0,64,19,64,64r0,233v49,-3,105,11,125,-24r157,-273r112,0r-171,293v-20,38,-41,42,-40,48v0,0,20,5,40,44r106,212v12,26,36,23,69,23r0,86r-55,0v-55,0,-75,-7,-98,-53r-122,-245v-18,-38,-73,-23,-123,-26r0,324r-100,0xm285,59r79,0v12,56,5,91,-18,141r-69,0v20,-53,27,-87,8,-141","w":611},"\u0137":{"d":"81,0r0,-601v2,-31,-36,-20,-63,-22r0,-83r96,0v45,0,64,13,64,58r0,328v42,-1,77,7,98,-22r117,-164r111,0r-137,188v-24,34,-39,34,-38,40v0,0,17,6,34,38r75,137v8,24,42,20,74,20r0,83r-70,0v-47,0,-62,-8,-84,-47r-92,-170v-20,-29,-50,-19,-88,-21r0,238r-97,0xm239,59r79,0v12,56,5,91,-18,141r-69,0v20,-53,27,-87,8,-141","w":525},"\u0138":{"d":"81,0r0,-401v2,-31,-36,-20,-63,-22r0,-83r96,0v45,0,64,13,64,58r0,148v42,-2,77,10,98,-21r123,-185r110,0r-143,207v-23,35,-37,33,-36,39v0,0,14,6,32,39r65,118v8,25,46,19,79,20r0,83r-75,0v-47,0,-62,-8,-84,-47r-81,-150v-20,-30,-51,-17,-88,-20r0,217r-97,0","w":525},"\u0139":{"d":"103,-64r0,-534v1,-31,-38,-20,-65,-22r0,-86r101,0v45,0,64,19,64,64r0,534v0,14,8,22,22,22r195,0v31,1,20,-39,22,-67r91,0r0,89v0,45,-19,64,-64,64r-302,0v-45,0,-64,-19,-64,-64xm122,-755r73,-127r98,0r-95,127r-76,0","w":543},"\u013a":{"d":"83,-64r0,-537v2,-31,-36,-20,-63,-22r0,-83r96,0v45,0,64,19,64,64r0,537v-2,31,36,20,63,22r0,83r-96,0v-45,0,-64,-19,-64,-64xm73,-755r73,-127r98,0r-95,127r-76,0","w":268},"\u013b":{"d":"103,-64r0,-534v1,-31,-38,-20,-65,-22r0,-86r101,0v45,0,64,19,64,64r0,534v0,14,8,22,22,22r195,0v31,1,20,-39,22,-67r91,0r0,89v0,45,-19,64,-64,64r-302,0v-45,0,-64,-19,-64,-64xm275,59r79,0v12,56,5,91,-18,141r-69,0v20,-53,27,-87,8,-141","w":543},"\u013c":{"d":"83,-64r0,-537v2,-31,-36,-20,-63,-22r0,-83r96,0v45,0,64,19,64,64r0,537v-2,31,36,20,63,22r0,83r-96,0v-45,0,-64,-19,-64,-64xm104,59r79,0v12,56,5,91,-18,141r-69,0v20,-53,27,-87,8,-141","w":268},"\u013d":{"d":"103,-64r0,-534v1,-31,-38,-20,-65,-22r0,-86r101,0v45,0,64,19,64,64r0,534v0,14,8,22,22,22r195,0v31,1,20,-39,22,-67r91,0r0,89v0,45,-19,64,-64,64r-302,0v-45,0,-64,-19,-64,-64xm288,-706r79,0v12,56,5,91,-18,141r-69,0v20,-53,27,-87,8,-141","w":543},"\u013e":{"d":"83,-64r0,-537v2,-31,-36,-20,-63,-22r0,-83r96,0v45,0,64,19,64,64r0,537v-2,31,36,20,63,22r0,83r-96,0v-45,0,-64,-19,-64,-64xm236,-706r79,0v12,56,5,91,-18,141r-69,0v20,-53,27,-87,8,-141","w":354},"\u013f":{"d":"103,-64r0,-534v1,-31,-38,-20,-65,-22r0,-86r101,0v45,0,64,19,64,64r0,534v0,14,8,22,22,22r195,0v31,1,20,-39,22,-67r91,0r0,89v0,45,-19,64,-64,64r-302,0v-45,0,-64,-19,-64,-64xm315,-328r0,-103r99,0r0,103r-99,0","w":543},"\u0140":{"d":"83,-64r0,-537v2,-31,-36,-20,-63,-22r0,-83r96,0v45,0,64,19,64,64r0,537v-2,31,36,20,63,22r0,83r-96,0v-45,0,-64,-19,-64,-64xm251,-328r0,-103r99,0r0,103r-99,0","w":356},"\u0141":{"d":"103,-64r0,-239r-63,36r0,-97r63,-36r0,-198v1,-31,-38,-20,-65,-22r0,-86r101,0v45,0,64,19,64,64r0,185r104,-60r0,97r-104,60r0,252v0,14,8,22,22,22r195,0v31,1,20,-39,22,-67r91,0r0,89v0,45,-19,64,-64,64r-302,0v-45,0,-64,-19,-64,-64","w":543},"\u0142":{"d":"94,-64r0,-257r-75,43r0,-97r75,-44r0,-182v2,-30,-35,-20,-62,-22r0,-83r95,0v45,0,64,19,64,64r0,168r78,-45r0,97r-78,46r0,271v-2,31,36,20,63,22r0,83r-95,0v-45,0,-65,-19,-65,-64","w":285},"\u0143":{"d":"38,0r0,-86v27,-2,65,8,65,-22r0,-598r91,0r314,447v26,38,59,96,59,96r2,0v0,0,-7,-56,-7,-96r0,-383v0,-45,19,-64,65,-64r100,0r0,86v-27,2,-65,-9,-65,22r0,598r-90,0r-315,-447v-26,-38,-58,-96,-58,-96r-2,0v0,0,6,57,6,96r0,383v0,45,-19,64,-64,64r-101,0xm353,-755r73,-127r98,0r-95,127r-76,0","w":765},"\u0144":{"d":"351,-429v-100,0,-169,78,-169,192r0,237r-97,0r0,-401v2,-31,-36,-20,-63,-22r0,-83r93,0v51,0,64,25,64,75v0,17,-5,30,0,29v20,-44,80,-116,190,-116v120,0,174,65,174,194r0,219v-2,31,36,20,63,22r0,83r-96,0v-45,0,-64,-19,-64,-64r0,-238v0,-71,-14,-127,-95,-127xm284,-579r73,-127r98,0r-95,127r-76,0","w":626},"\u0145":{"d":"38,0r0,-86v27,-2,65,8,65,-22r0,-598r91,0r314,447v26,38,59,96,59,96r2,0v0,0,-7,-56,-7,-96r0,-383v0,-45,19,-64,65,-64r100,0r0,86v-27,2,-65,-9,-65,22r0,598r-90,0r-315,-447v-26,-38,-58,-96,-58,-96r-2,0v0,0,6,57,6,96r0,383v0,45,-19,64,-64,64r-101,0xm339,59r79,0v12,56,5,91,-18,141r-69,0v20,-53,27,-87,8,-141","w":765},"\u0146":{"d":"351,-429v-100,0,-169,78,-169,192r0,237r-97,0r0,-401v2,-31,-36,-20,-63,-22r0,-83r93,0v51,0,64,25,64,75v0,17,-5,30,0,29v20,-44,80,-116,190,-116v120,0,174,65,174,194r0,219v-2,31,36,20,63,22r0,83r-96,0v-45,0,-64,-19,-64,-64r0,-238v0,-71,-14,-127,-95,-127xm284,59r79,0v12,56,5,91,-18,141r-69,0v20,-53,27,-87,8,-141","w":626},"\u0147":{"d":"38,0r0,-86v27,-2,65,8,65,-22r0,-598r91,0r314,447v26,38,59,96,59,96r2,0v0,0,-7,-56,-7,-96r0,-383v0,-45,19,-64,65,-64r100,0r0,86v-27,2,-65,-9,-65,22r0,598r-90,0r-315,-447v-26,-38,-58,-96,-58,-96r-2,0v0,0,6,57,6,96r0,383v0,45,-19,64,-64,64r-101,0xm348,-755r-88,-127r79,0r52,81r2,0r52,-81r80,0r-88,127r-89,0","w":765},"\u0148":{"d":"351,-429v-100,0,-169,78,-169,192r0,237r-97,0r0,-401v2,-31,-36,-20,-63,-22r0,-83r93,0v51,0,64,25,64,75v0,17,-5,30,0,29v20,-44,80,-116,190,-116v120,0,174,65,174,194r0,219v-2,31,36,20,63,22r0,83r-96,0v-45,0,-64,-19,-64,-64r0,-238v0,-71,-14,-127,-95,-127xm278,-579r-88,-127r79,0r52,81r2,0r52,-81r80,0r-88,127r-89,0","w":626},"\u0149":{"d":"379,-429v-100,0,-169,78,-169,192r0,237r-97,0r0,-401v2,-31,-36,-20,-63,-22r0,-83r93,0v51,0,64,25,64,75v0,17,-5,30,0,29v20,-44,80,-116,190,-116v120,0,174,65,174,194r0,219v-2,31,36,20,63,22r0,83r-96,0v-45,0,-64,-19,-64,-64r0,-238v0,-71,-14,-127,-95,-127xm-6,-706r79,0v12,56,5,91,-18,141r-69,0v20,-53,27,-87,8,-141","w":654},"\u014a":{"d":"38,0r0,-86v27,-2,65,8,65,-22r0,-598r91,0r314,447v26,38,59,96,59,96r2,0v0,0,-7,-56,-7,-96r0,-383v0,-45,19,-64,65,-64r100,0r0,86v-27,2,-65,-9,-65,22r0,571v0,182,-124,232,-232,232r0,-91v56,1,136,-35,132,-130r-305,-431v-26,-38,-58,-96,-58,-96r-2,0v0,0,6,57,6,96r0,383v0,45,-19,64,-64,64r-101,0","w":765},"\u014b":{"d":"351,-429v-97,0,-169,77,-169,192r0,237r-97,0r0,-401v2,-31,-36,-20,-63,-22r0,-83r93,0v51,0,64,25,64,75v0,17,-5,30,0,29v20,-44,80,-116,190,-116v120,0,174,65,174,194r0,344v0,169,-131,189,-194,189v-20,0,-34,-2,-34,-2r0,-83v0,0,9,1,22,1v38,0,109,-12,109,-112r0,-315v0,-71,-14,-127,-95,-127","w":621},"\u014c":{"d":"34,-358v0,-203,158,-360,362,-360v204,0,363,157,363,360v0,208,-159,370,-363,370v-204,0,-362,-162,-362,-370xm138,-358v0,156,115,276,258,276v143,0,259,-120,259,-276v0,-151,-116,-267,-259,-267v-143,0,-258,116,-258,267xm267,-784r0,-68r254,0r0,68r-254,0","w":793},"\u014d":{"d":"36,-254v0,-153,121,-264,272,-264v151,0,273,111,273,264v0,154,-122,266,-273,266v-151,0,-272,-112,-272,-266xm135,-254v0,106,78,182,173,182v96,0,174,-76,174,-182v0,-105,-78,-180,-174,-180v-95,0,-173,75,-173,180xm182,-608r0,-68r254,0r0,68r-254,0","w":617},"\u014e":{"d":"34,-358v0,-203,158,-360,362,-360v204,0,363,157,363,360v0,208,-159,370,-363,370v-204,0,-362,-162,-362,-370xm138,-358v0,156,115,276,258,276v143,0,259,-120,259,-276v0,-151,-116,-267,-259,-267v-143,0,-258,116,-258,267xm522,-868v0,155,-255,156,-256,0r0,-14r67,0v-5,49,26,73,61,73v35,0,67,-24,62,-73r66,0r0,14","w":793},"\u014f":{"d":"36,-254v0,-153,121,-264,272,-264v151,0,273,111,273,264v0,154,-122,266,-273,266v-151,0,-272,-112,-272,-266xm135,-254v0,106,78,182,173,182v96,0,174,-76,174,-182v0,-105,-78,-180,-174,-180v-95,0,-173,75,-173,180xm436,-692v0,155,-255,156,-256,0r0,-14r67,0v-5,49,26,73,61,73v35,0,67,-24,62,-73r66,0r0,14","w":617},"\u0150":{"d":"34,-358v0,-203,158,-360,362,-360v204,0,363,157,363,360v0,208,-159,370,-363,370v-204,0,-362,-162,-362,-370xm138,-358v0,156,115,276,258,276v143,0,259,-120,259,-276v0,-151,-116,-267,-259,-267v-143,0,-258,116,-258,267xm428,-755r72,-127r99,0r-96,127r-75,0xm275,-755r69,-127r84,0r-70,127r-83,0","w":793},"\u0151":{"d":"36,-254v0,-153,121,-264,272,-264v151,0,273,111,273,264v0,154,-122,266,-273,266v-151,0,-272,-112,-272,-266xm135,-254v0,106,78,182,173,182v96,0,174,-76,174,-182v0,-105,-78,-180,-174,-180v-95,0,-173,75,-173,180xm343,-579r72,-127r99,0r-96,127r-75,0xm190,-579r69,-127r84,0r-70,127r-83,0","w":617},"\u0152":{"d":"34,-354v0,-203,149,-361,347,-361v55,0,103,9,144,9r289,0v46,0,65,19,65,64r0,89r-92,0v-2,-28,9,-67,-22,-67r-195,0r0,221r242,0r0,86r-242,0r0,227r223,0v31,1,20,-39,22,-67r91,0r0,89v0,45,-19,64,-61,64r-320,0v-40,0,-89,9,-144,9v-198,0,-347,-159,-347,-363xm138,-354v0,154,99,270,243,270v35,0,68,-3,89,-8r0,-522v-22,-5,-54,-8,-89,-8v-144,0,-243,115,-243,268","w":929},"\u0153":{"d":"36,-252v0,-160,123,-266,271,-266v102,0,178,47,222,120r2,0v40,-75,111,-120,208,-120v156,1,234,124,216,277r-369,0v8,111,86,169,174,169v87,0,148,-59,148,-59r42,69v0,0,-75,74,-196,74v-105,0,-180,-49,-221,-123r-2,0v-44,75,-121,123,-223,123v-149,0,-272,-104,-272,-264xm590,-312r268,0v-4,-84,-54,-129,-119,-129v-75,0,-134,45,-149,129xm135,-252v0,110,78,180,173,180v94,0,174,-70,174,-183v0,-109,-82,-179,-174,-179v-95,0,-173,72,-173,182","w":1002},"\u0154":{"d":"103,0r0,-620r-65,0r0,-86r308,0v124,0,211,78,211,207v0,118,-77,176,-127,187v-1,6,18,8,30,34r85,169v11,25,33,23,63,23r0,86r-49,0v-55,0,-75,-7,-98,-53r-96,-190v-18,-33,-31,-38,-70,-38r-92,0r0,281r-100,0xm203,-367r130,0v76,0,121,-49,121,-128v0,-79,-45,-125,-119,-125r-132,0r0,253xm248,-755r73,-127r98,0r-95,127r-76,0","w":618},"\u0155":{"d":"85,0r0,-401v2,-31,-36,-20,-63,-22r0,-83r92,0v57,-2,65,34,65,91v0,21,-6,36,0,35v28,-81,89,-143,186,-130r0,96v-109,-22,-183,79,-183,207r0,207r-97,0xm160,-579r73,-127r98,0r-95,127r-76,0","w":384},"\u0156":{"d":"103,0r0,-620r-65,0r0,-86r308,0v124,0,211,78,211,207v0,118,-77,176,-127,187v-1,6,18,8,30,34r85,169v11,25,33,23,63,23r0,86r-49,0v-55,0,-75,-7,-98,-53r-96,-190v-18,-33,-31,-38,-70,-38r-92,0r0,281r-100,0xm203,-367r130,0v76,0,121,-49,121,-128v0,-79,-45,-125,-119,-125r-132,0r0,253xm301,59r79,0v12,56,5,91,-18,141r-69,0v20,-53,27,-87,8,-141","w":618},"\u0157":{"d":"85,0r0,-401v2,-31,-36,-20,-63,-22r0,-83r92,0v57,-2,65,34,65,91v0,21,-6,36,0,35v28,-81,89,-143,186,-130r0,96v-109,-22,-183,79,-183,207r0,207r-97,0xm98,59r79,0v12,56,5,91,-18,141r-69,0v20,-53,27,-87,8,-141","w":384},"\u0158":{"d":"103,0r0,-620r-65,0r0,-86r308,0v124,0,211,78,211,207v0,118,-77,176,-127,187v-1,6,18,8,30,34r85,169v11,25,33,23,63,23r0,86r-49,0v-55,0,-75,-7,-98,-53r-96,-190v-18,-33,-31,-38,-70,-38r-92,0r0,281r-100,0xm203,-367r130,0v76,0,121,-49,121,-128v0,-79,-45,-125,-119,-125r-132,0r0,253xm243,-755r-88,-127r79,0r52,81r2,0r52,-81r80,0r-88,127r-89,0","w":618},"\u0159":{"d":"85,0r0,-401v2,-31,-36,-20,-63,-22r0,-83r92,0v57,-2,65,34,65,91v0,21,-6,36,0,35v28,-81,89,-143,186,-130r0,96v-109,-22,-183,79,-183,207r0,207r-97,0xm155,-579r-88,-127r79,0r52,81r2,0r52,-81r80,0r-88,127r-89,0","w":384},"\u015a":{"d":"34,-93r59,-71v0,0,72,85,177,85v66,0,121,-40,121,-105v0,-148,-341,-125,-341,-345v0,-106,93,-189,226,-189v75,0,201,34,201,130r0,58r-92,0r0,-33v0,-37,-53,-64,-109,-64v-76,0,-124,42,-124,95v0,143,340,111,340,343v0,108,-84,201,-224,201v-150,0,-234,-105,-234,-105xm234,-755r73,-127r98,0r-95,127r-76,0","w":533},"\u015b":{"d":"27,-77r50,-65v0,0,60,75,153,75v47,0,88,-21,88,-65v0,-91,-276,-81,-276,-244v0,-97,85,-142,188,-142v61,0,166,21,166,98r0,48r-87,0r0,-25v0,-30,-45,-43,-76,-43v-57,0,-94,20,-94,60v0,96,276,75,276,244v0,90,-80,148,-186,148v-135,0,-202,-89,-202,-89xm186,-579r73,-127r98,0r-95,127r-76,0","w":454},"\u015c":{"d":"34,-93r59,-71v0,0,72,85,177,85v66,0,121,-40,121,-105v0,-148,-341,-125,-341,-345v0,-106,93,-189,226,-189v75,0,201,34,201,130r0,58r-92,0r0,-33v0,-37,-53,-64,-109,-64v-76,0,-124,42,-124,95v0,143,340,111,340,343v0,108,-84,201,-224,201v-150,0,-234,-105,-234,-105xm142,-755r87,-127r89,0r88,127r-79,0r-52,-80r-2,0r-53,80r-78,0","w":533},"\u015d":{"d":"27,-77r50,-65v0,0,60,75,153,75v47,0,88,-21,88,-65v0,-91,-276,-81,-276,-244v0,-97,85,-142,188,-142v61,0,166,21,166,98r0,48r-87,0r0,-25v0,-30,-45,-43,-76,-43v-57,0,-94,20,-94,60v0,96,276,75,276,244v0,90,-80,148,-186,148v-135,0,-202,-89,-202,-89xm94,-579r87,-127r89,0r88,127r-79,0r-52,-80r-2,0r-53,80r-78,0","w":454},"\u015e":{"d":"34,-93r59,-71v0,0,72,85,177,85v66,0,121,-40,121,-105v0,-148,-341,-125,-341,-345v0,-106,93,-189,226,-189v75,0,201,34,201,130r0,58r-92,0r0,-33v0,-37,-53,-64,-109,-64v-76,0,-124,42,-124,95v0,143,340,111,340,343v0,103,-76,192,-203,200r-8,39v41,5,72,30,72,73v0,62,-51,84,-102,84v-32,0,-56,-7,-56,-7r0,-58v0,0,21,7,43,7v25,0,47,-8,47,-31v0,-26,-40,-34,-70,-30r19,-78v-129,-14,-200,-103,-200,-103","w":533},"\u015f":{"d":"27,-77r50,-65v0,0,60,75,153,75v47,0,88,-21,88,-65v0,-91,-276,-81,-276,-244v0,-97,85,-142,188,-142v61,0,166,21,166,98r0,48r-87,0r0,-25v0,-30,-45,-43,-76,-43v-57,0,-94,20,-94,60v0,96,276,75,276,244v0,87,-75,143,-174,148r-8,38v41,5,71,30,71,73v0,62,-50,84,-101,84v-32,0,-56,-7,-56,-7r0,-58v0,0,20,7,43,7v25,0,47,-8,47,-31v0,-26,-40,-34,-70,-30r20,-79v-107,-15,-160,-86,-160,-86","w":454},"\u0160":{"d":"34,-93r59,-71v0,0,72,85,177,85v66,0,121,-40,121,-105v0,-148,-341,-125,-341,-345v0,-106,93,-189,226,-189v75,0,201,34,201,130r0,58r-92,0r0,-33v0,-37,-53,-64,-109,-64v-76,0,-124,42,-124,95v0,143,340,111,340,343v0,108,-84,201,-224,201v-150,0,-234,-105,-234,-105xm229,-755r-88,-127r79,0r52,81r2,0r52,-81r80,0r-88,127r-89,0","w":533},"\u0161":{"d":"27,-77r50,-65v0,0,60,75,153,75v47,0,88,-21,88,-65v0,-91,-276,-81,-276,-244v0,-97,85,-142,188,-142v61,0,166,21,166,98r0,48r-87,0r0,-25v0,-30,-45,-43,-76,-43v-57,0,-94,20,-94,60v0,96,276,75,276,244v0,90,-80,148,-186,148v-135,0,-202,-89,-202,-89xm181,-579r-88,-127r79,0r52,81r2,0r52,-81r80,0r-88,127r-89,0","w":454},"\u0162":{"d":"510,-620r-142,0r0,620r-24,0r-10,50v40,5,71,30,71,73v0,61,-50,84,-102,84v-31,0,-55,-7,-55,-7r0,-58v0,0,20,7,43,7v25,0,47,-8,47,-31v0,-26,-40,-34,-70,-30r22,-88r-22,0r0,-620r-142,0v-31,-2,-20,40,-22,67r-89,0r0,-93v0,-45,15,-60,60,-60r486,0v45,0,60,15,60,60r0,93r-89,0v-2,-28,9,-67,-22,-67","w":636},"\u0163":{"d":"89,-185r0,-243r-66,0r0,-78r68,0r0,-139r95,0r0,139r121,0r0,78r-121,0r0,232v0,101,70,114,107,114v14,0,23,-2,23,-2r0,86v-14,2,-64,4,-86,-3r-10,51v41,5,71,30,71,73v0,62,-50,84,-101,84v-32,0,-56,-7,-56,-7r0,-58v0,0,20,7,43,7v25,0,47,-8,47,-31v0,-26,-40,-34,-70,-30r27,-104v-49,-23,-92,-70,-92,-169","w":352},"\u0164":{"d":"268,0r0,-620r-142,0v-31,-2,-20,40,-22,67r-89,0r0,-93v0,-45,15,-60,60,-60r486,0v45,0,60,15,60,60r0,93r-89,0v-2,-28,9,-67,-22,-67r-142,0r0,620r-100,0xm274,-755r-88,-127r79,0r52,81r2,0r52,-81r80,0r-88,127r-89,0","w":636},"\u0165":{"d":"91,-185r0,-243r-66,0r0,-78r68,0r0,-139r95,0r0,139r121,0r0,78r-121,0r0,232v0,101,70,114,107,114v14,0,23,-2,23,-2r0,86v0,0,-13,2,-34,2v-64,0,-193,-20,-193,-189xm251,-706r79,0v12,56,5,91,-18,141r-69,0v20,-53,27,-87,8,-141","w":380},"\u0166":{"d":"268,0r0,-310r-154,0r0,-76r154,0r0,-234r-142,0v-31,-2,-20,40,-22,67r-89,0r0,-93v0,-45,15,-60,60,-60r486,0v45,0,60,15,60,60r0,93r-89,0v-2,-28,9,-67,-22,-67r-142,0r0,234r161,0r0,76r-161,0r0,310r-100,0","w":636},"\u0167":{"d":"89,-185r0,-74r-66,0r0,-68r66,0r0,-101r-66,0r0,-78r68,0r0,-139r95,0r0,139r121,0r0,78r-121,0r0,101r121,0r0,68r-121,0r0,66v0,97,70,111,107,111v14,0,23,-2,23,-2r0,86v0,0,-13,2,-34,2v-64,0,-193,-20,-193,-189","w":352},"\u0168":{"d":"95,-247r0,-351v1,-31,-38,-20,-65,-22r0,-86r101,0v45,0,64,19,64,64r0,391v0,106,67,169,169,169v102,0,169,-63,169,-170r0,-390v0,-45,20,-64,65,-64r100,0r0,86v-27,2,-65,-9,-65,22r0,351v0,154,-107,259,-268,259v-162,0,-270,-105,-270,-259xm195,-756v0,-84,35,-127,103,-127v69,0,84,68,128,68v30,0,40,-36,40,-65r66,0v0,83,-35,127,-103,127v-68,0,-84,-68,-128,-68v-30,0,-40,35,-40,65r-66,0","w":728},"\u0169":{"d":"83,-182r0,-219v2,-31,-36,-20,-63,-22r0,-83r95,0v46,0,65,19,65,62r0,240v0,70,14,126,94,126v104,0,165,-91,165,-191r0,-237r97,0r0,401v-2,31,36,20,63,22r0,83r-93,0v-51,0,-64,-26,-64,-75v0,-17,4,-30,-1,-29v-21,50,-86,116,-186,116v-114,0,-172,-60,-172,-194xm134,-580v0,-84,35,-127,103,-127v69,0,84,68,128,68v30,0,40,-36,40,-65r66,0v0,83,-35,127,-103,127v-68,0,-84,-68,-128,-68v-30,0,-40,35,-40,65r-66,0","w":621},"\u016a":{"d":"95,-247r0,-351v1,-31,-38,-20,-65,-22r0,-86r101,0v45,0,64,19,64,64r0,391v0,106,67,169,169,169v102,0,169,-63,169,-170r0,-390v0,-45,20,-64,65,-64r100,0r0,86v-27,2,-65,-9,-65,22r0,351v0,154,-107,259,-268,259v-162,0,-270,-105,-270,-259xm238,-784r0,-68r254,0r0,68r-254,0","w":728},"\u016b":{"d":"83,-182r0,-219v2,-31,-36,-20,-63,-22r0,-83r95,0v46,0,65,19,65,62r0,240v0,70,14,126,94,126v104,0,165,-91,165,-191r0,-237r97,0r0,401v-2,31,36,20,63,22r0,83r-93,0v-51,0,-64,-26,-64,-75v0,-17,4,-30,-1,-29v-21,50,-86,116,-186,116v-114,0,-172,-60,-172,-194xm177,-608r0,-68r254,0r0,68r-254,0","w":621},"\u016c":{"d":"95,-247r0,-351v1,-31,-38,-20,-65,-22r0,-86r101,0v45,0,64,19,64,64r0,391v0,106,67,169,169,169v102,0,169,-63,169,-170r0,-390v0,-45,20,-64,65,-64r100,0r0,86v-27,2,-65,-9,-65,22r0,351v0,154,-107,259,-268,259v-162,0,-270,-105,-270,-259xm493,-868v0,155,-255,156,-256,0r0,-14r67,0v-5,49,26,73,61,73v35,0,67,-24,62,-73r66,0r0,14","w":728},"\u016d":{"d":"83,-182r0,-219v2,-31,-36,-20,-63,-22r0,-83r95,0v46,0,65,19,65,62r0,240v0,70,14,126,94,126v104,0,165,-91,165,-191r0,-237r97,0r0,401v-2,31,36,20,63,22r0,83r-93,0v-51,0,-64,-26,-64,-75v0,-17,4,-30,-1,-29v-21,50,-86,116,-186,116v-114,0,-172,-60,-172,-194xm432,-692v0,155,-255,156,-256,0r0,-14r67,0v-5,49,26,73,61,73v35,0,67,-24,62,-73r66,0r0,14","w":621},"\u016e":{"d":"95,-247r0,-351v1,-31,-38,-20,-65,-22r0,-86r101,0v45,0,64,19,64,64r0,391v0,106,67,169,169,169v102,0,169,-63,169,-170r0,-390v0,-45,20,-64,65,-64r100,0r0,86v-27,2,-65,-9,-65,22r0,351v0,154,-107,259,-268,259v-162,0,-270,-105,-270,-259xm365,-743v-43,0,-81,-28,-81,-74v0,-47,38,-75,81,-75v42,0,81,28,81,75v0,46,-39,74,-81,74xm365,-784v20,0,34,-14,34,-33v0,-21,-14,-35,-34,-35v-20,0,-34,14,-34,35v0,19,14,33,34,33","w":728},"\u016f":{"d":"83,-182r0,-219v2,-31,-36,-20,-63,-22r0,-83r95,0v46,0,65,19,65,62r0,240v0,70,14,126,94,126v104,0,165,-91,165,-191r0,-237r97,0r0,401v-2,31,36,20,63,22r0,83r-93,0v-51,0,-64,-26,-64,-75v0,-17,4,-30,-1,-29v-21,50,-86,116,-186,116v-114,0,-172,-60,-172,-194xm304,-567v-43,0,-81,-28,-81,-74v0,-47,38,-75,81,-75v42,0,81,28,81,75v0,46,-39,74,-81,74xm304,-608v20,0,34,-14,34,-33v0,-21,-14,-35,-34,-35v-20,0,-34,14,-34,35v0,19,14,33,34,33","w":621},"\u0170":{"d":"95,-247r0,-351v1,-31,-38,-20,-65,-22r0,-86r101,0v45,0,64,19,64,64r0,391v0,106,67,169,169,169v102,0,169,-63,169,-170r0,-390v0,-45,20,-64,65,-64r100,0r0,86v-27,2,-65,-9,-65,22r0,351v0,154,-107,259,-268,259v-162,0,-270,-105,-270,-259xm400,-755r72,-127r99,0r-96,127r-75,0xm247,-755r69,-127r84,0r-70,127r-83,0","w":728},"\u0171":{"d":"83,-182r0,-219v2,-31,-36,-20,-63,-22r0,-83r95,0v46,0,65,19,65,62r0,240v0,70,14,126,94,126v104,0,165,-91,165,-191r0,-237r97,0r0,401v-2,31,36,20,63,22r0,83r-93,0v-51,0,-64,-26,-64,-75v0,-17,4,-30,-1,-29v-21,50,-86,116,-186,116v-114,0,-172,-60,-172,-194xm339,-579r72,-127r99,0r-96,127r-75,0xm186,-579r69,-127r84,0r-70,127r-83,0","w":621},"\u0172":{"d":"95,-247r0,-351v1,-31,-38,-20,-65,-22r0,-86r101,0v45,0,64,19,64,64r0,391v0,106,67,169,169,169v102,0,169,-63,169,-170r0,-390v0,-45,20,-64,65,-64r100,0r0,86v-27,2,-65,-9,-65,22r0,355v0,121,-69,189,-140,230v-39,22,-86,61,-86,102v0,38,56,43,56,43r-23,75v0,0,-116,-9,-116,-95v0,-42,26,-78,52,-100r0,-2v-166,10,-281,-100,-281,-257","w":728},"\u0173":{"d":"255,12v-114,0,-172,-60,-172,-194r0,-219v2,-31,-36,-20,-63,-22r0,-83r95,0v55,0,65,25,65,83r0,219v0,70,14,126,94,126v104,0,165,-91,165,-191r0,-237r97,0r0,401v-2,31,36,20,63,22r0,83v-21,17,-64,54,-64,89v0,38,55,43,55,43r-23,75v0,0,-116,-9,-116,-95v0,-50,38,-89,67,-111r0,-2v-54,4,-82,-18,-76,-74v-1,-16,4,-31,-1,-29v0,0,-47,116,-186,116","w":621},"\u0174":{"d":"221,0r-155,-598v-6,-23,-24,-22,-49,-22r0,-86r57,0v50,0,75,10,87,58r109,454v9,38,14,75,14,75r2,0v0,0,6,-36,17,-75r142,-510r90,0r132,510v10,39,15,75,15,75r2,0v0,0,4,-37,13,-75r111,-454v12,-48,36,-58,86,-58r57,0r0,86v-25,0,-43,-1,-49,22r-155,598r-116,0r-120,-446v-12,-46,-20,-97,-20,-97r-2,0v0,0,-10,51,-23,96r-128,447r-117,0xm358,-755r87,-127r89,0r88,127r-79,0r-52,-80r-2,0r-53,80r-78,0","w":968},"\u0175":{"d":"188,0r-133,-403v-6,-21,-22,-20,-45,-20r0,-83r61,0v45,0,62,11,75,54r90,301v8,26,12,54,12,54v6,1,7,-26,16,-54r109,-353r89,0r110,353v10,27,9,56,15,54v0,0,4,-28,12,-54r89,-301v13,-43,31,-54,76,-54r60,0r0,83v-23,0,-39,-1,-45,20r-133,403r-109,0r-105,-325v-10,-27,-10,-57,-16,-55v-31,122,-81,259,-118,380r-110,0xm286,-579r87,-127r89,0r88,127r-79,0r-52,-80r-2,0r-53,80r-78,0","w":834},"\u0176":{"d":"252,0r0,-308r-179,-287v-16,-27,-30,-25,-63,-25r0,-86v73,1,105,-6,141,54r107,178v26,40,39,80,45,79v30,-62,110,-187,149,-257v35,-61,68,-53,141,-54r0,86v-33,0,-47,-2,-63,25r-178,287r0,308r-100,0xm171,-755r87,-127r89,0r88,127r-79,0r-52,-80r-2,0r-53,80r-78,0","w":603},"\u0177":{"d":"45,90v0,1,31,36,74,36v39,0,70,-28,89,-73r23,-55r-173,-401v-8,-20,-21,-21,-44,-20r0,-83r57,0v41,0,56,11,72,51r115,285v10,26,18,61,18,61v6,2,9,-33,19,-61r105,-285v15,-40,33,-51,74,-51r58,0r0,83v-24,0,-37,0,-45,20r-200,494v-31,78,-92,119,-163,119v-75,0,-119,-50,-119,-50xm141,-579r87,-127r89,0r88,127r-79,0r-52,-80r-2,0r-53,80r-78,0","w":546},"\u0178":{"d":"252,0r0,-308r-179,-287v-16,-27,-30,-25,-63,-25r0,-86v73,1,105,-6,141,54r107,178v26,40,39,80,45,79v30,-62,110,-187,149,-257v35,-61,68,-53,141,-54r0,86v-33,0,-47,-2,-63,25r-178,287r0,308r-100,0xm349,-781r0,-101r73,0r0,101r-73,0xm184,-781r0,-101r74,0r0,101r-74,0","w":603},"\u0179":{"d":"18,0r0,-66r348,-490v28,-42,54,-62,53,-67v-72,6,-197,3,-280,3v-31,0,-20,40,-22,67r-91,0r0,-89v0,-45,19,-64,64,-64r453,0r0,65r-349,491v-27,42,-53,61,-52,66v0,0,19,-2,52,-2r249,0v31,1,20,-39,22,-67r92,0r0,89v0,45,-19,64,-64,64r-475,0xm257,-755r73,-127r98,0r-95,127r-76,0","w":582},"\u017a":{"d":"33,0r0,-56r259,-320v23,-30,43,-44,42,-49v-40,3,-136,2,-187,2v-27,0,-22,31,-22,56r-89,0r0,-75v0,-45,19,-64,64,-64r362,0r0,56r-260,321v-22,28,-43,43,-42,48v48,-4,152,-2,211,-2v27,0,22,-31,22,-56r88,0r0,75v0,45,-19,64,-64,64r-384,0xm221,-579r73,-127r98,0r-95,127r-76,0","w":505},"\u017b":{"d":"18,0r0,-66r348,-490v28,-42,54,-62,53,-67v-72,6,-197,3,-280,3v-31,0,-20,40,-22,67r-91,0r0,-89v0,-45,19,-64,64,-64r453,0r0,65r-349,491v-27,42,-53,61,-52,66v0,0,19,-2,52,-2r249,0v31,1,20,-39,22,-67r92,0r0,89v0,45,-19,64,-64,64r-475,0xm253,-781r0,-101r87,0r0,101r-87,0","w":582},"\u017c":{"d":"33,0r0,-56r259,-320v23,-30,43,-44,42,-49v-40,3,-136,2,-187,2v-27,0,-22,31,-22,56r-89,0r0,-75v0,-45,19,-64,64,-64r362,0r0,56r-260,321v-22,28,-43,43,-42,48v48,-4,152,-2,211,-2v27,0,22,-31,22,-56r88,0r0,75v0,45,-19,64,-64,64r-384,0xm217,-605r0,-101r87,0r0,101r-87,0","w":505},"\u017d":{"d":"18,0r0,-66r348,-490v28,-42,54,-62,53,-67v-72,6,-197,3,-280,3v-31,0,-20,40,-22,67r-91,0r0,-89v0,-45,19,-64,64,-64r453,0r0,65r-349,491v-27,42,-53,61,-52,66v0,0,19,-2,52,-2r249,0v31,1,20,-39,22,-67r92,0r0,89v0,45,-19,64,-64,64r-475,0xm252,-755r-88,-127r79,0r52,81r2,0r52,-81r80,0r-88,127r-89,0","w":582},"\u017e":{"d":"33,0r0,-56r259,-320v23,-30,43,-44,42,-49v-40,3,-136,2,-187,2v-27,0,-22,31,-22,56r-89,0r0,-75v0,-45,19,-64,64,-64r362,0r0,56r-260,321v-22,28,-43,43,-42,48v48,-4,152,-2,211,-2v27,0,22,-31,22,-56r88,0r0,75v0,45,-19,64,-64,64r-384,0xm216,-579r-88,-127r79,0r52,81r2,0r52,-81r80,0r-88,127r-89,0","w":505},"\u017f":{"d":"85,0r0,-428r-63,0r0,-78r63,0r0,-17v0,-167,127,-188,191,-188v22,0,37,3,37,3r0,83v0,0,-10,-2,-25,-2v-38,0,-106,13,-106,107r0,520r-97,0","w":325},"\u0192":{"d":"-17,56v-21,0,-36,-2,-36,-2r8,-84v0,0,10,2,24,2v37,0,106,-13,115,-111r18,-211r-75,0r0,-78r82,0r9,-95v15,-167,142,-188,206,-188v23,0,37,3,37,3r-8,83v0,0,-9,-2,-24,-2v-38,0,-106,13,-115,111r-9,88r106,0r0,78r-112,0r-19,218v-15,167,-143,188,-207,188","w":360},"\u0218":{"d":"34,-93r59,-71v0,0,72,85,177,85v66,0,121,-40,121,-105v0,-148,-341,-125,-341,-345v0,-106,93,-189,226,-189v75,0,201,34,201,130r0,58r-92,0r0,-33v0,-37,-53,-64,-109,-64v-76,0,-124,42,-124,95v0,143,340,111,340,343v0,108,-84,201,-224,201v-150,0,-234,-105,-234,-105xm228,59r79,0v12,56,5,91,-18,141r-69,0v20,-53,27,-87,8,-141","w":533},"\u0219":{"d":"27,-77r50,-65v0,0,60,75,153,75v47,0,88,-21,88,-65v0,-91,-276,-81,-276,-244v0,-97,85,-142,188,-142v61,0,166,21,166,98r0,48r-87,0r0,-25v0,-30,-45,-43,-76,-43v-57,0,-94,20,-94,60v0,96,276,75,276,244v0,90,-80,148,-186,148v-135,0,-202,-89,-202,-89xm185,59r79,0v12,56,5,91,-18,141r-69,0v20,-53,27,-87,8,-141","w":454},"\u021a":{"d":"268,0r0,-620r-142,0v-31,-2,-20,40,-22,67r-89,0r0,-93v0,-45,15,-60,60,-60r486,0v45,0,60,15,60,60r0,93r-89,0v-2,-28,9,-67,-22,-67r-142,0r0,620r-100,0xm275,59r79,0v12,56,5,91,-18,141r-69,0v20,-53,27,-87,8,-141","w":636},"\u021b":{"d":"89,-185r0,-243r-66,0r0,-78r68,0r0,-139r95,0r0,139r121,0r0,78r-121,0r0,232v0,101,70,114,107,114v14,0,23,-2,23,-2r0,86v0,0,-13,2,-34,2v-64,0,-193,-20,-193,-189xm158,59r79,0v12,56,5,91,-18,141r-69,0v20,-53,27,-87,8,-141","w":352},"\u02c6":{"d":"111,-755r87,-127r89,0r88,127r-79,0r-52,-80r-2,0r-53,80r-78,0","w":485},"\u02c7":{"d":"198,-755r-88,-127r79,0r52,81r2,0r52,-81r80,0r-88,127r-89,0","w":488},"\u02d8":{"d":"371,-868v0,155,-255,156,-256,0r0,-14r67,0v-5,49,26,73,61,73v35,0,67,-24,62,-73r66,0r0,14","w":501},"\u02d9":{"d":"84,-781r0,-101r87,0r0,101r-87,0","w":256},"\u02da":{"d":"190,-743v-43,0,-81,-28,-81,-74v0,-47,38,-75,81,-75v42,0,81,28,81,75v0,46,-39,74,-81,74xm190,-784v20,0,34,-14,34,-33v0,-21,-14,-35,-34,-35v-20,0,-34,14,-34,35v0,19,14,33,34,33","w":380},"\u02db":{"d":"108,112v0,-76,91,-129,91,-129r69,7v0,0,-77,54,-77,99v0,38,56,43,56,43r-23,75v0,0,-116,-9,-116,-95","w":361},"\u02dc":{"d":"92,-756v0,-84,35,-127,103,-127v69,0,84,68,128,68v30,0,40,-36,40,-65r66,0v0,83,-35,127,-103,127v-68,0,-84,-68,-128,-68v-30,0,-40,35,-40,65r-66,0","w":519},"\u02dd":{"d":"252,-755r72,-127r99,0r-96,127r-75,0xm99,-755r69,-127r84,0r-70,127r-83,0","w":535},"\u1e9e":{"d":"30,0r0,-86v27,-2,65,8,65,-22r0,-398v0,-116,85,-200,203,-200r272,0r0,67r-139,203v-15,24,-25,30,-24,35v119,-5,193,97,193,196v0,114,-94,205,-209,205r-95,0r0,-86r88,0v69,0,114,-56,114,-119v0,-63,-44,-117,-113,-117r-87,0r0,-69r113,-169v30,-45,44,-61,44,-61r0,-2v-24,5,-116,3,-154,3v-62,0,-106,49,-106,112r0,444v0,45,-19,64,-64,64r-101,0","w":640},"\u2013":{"d":"63,-246r0,-78r526,0r0,78r-526,0","w":652},"\u2014":{"d":"63,-246r0,-78r726,0r0,78r-726,0","w":852},"\u2018":{"d":"47,-522r65,-195r69,0r-43,195r-91,0","w":228},"\u2019":{"d":"47,-523r43,-195r91,0r-65,195r-69,0","w":228},"\u201a":{"d":"90,-105r91,0r-65,195r-69,0","w":228},"\u201c":{"d":"185,-522r65,-195r70,0r-43,195r-92,0xm47,-522r65,-195r69,0r-43,195r-91,0","w":367},"\u201d":{"d":"185,-523r43,-195r92,0r-65,195r-70,0xm47,-523r43,-195r91,0r-65,195r-69,0","w":367},"\u201e":{"d":"185,90r43,-195r92,0r-65,195r-70,0xm90,-105r91,0r-65,195r-69,0","w":367},"\u2020":{"d":"149,50r0,-479r-121,0r0,-77r121,0r0,-200r93,0r0,200r124,0r0,77r-124,0r0,479r-93,0","w":394},"\u2021":{"d":"149,50r0,-221r-121,0r0,-78r121,0r0,-180r-121,0r0,-77r121,0r0,-200r93,0r0,200r124,0r0,77r-124,0r0,180r124,0r0,78r-124,0r0,221r-93,0","w":394},"\u2022":{"d":"227,-136v-86,0,-155,-69,-155,-155v0,-86,69,-155,155,-155v85,0,154,69,154,155v0,86,-69,155,-154,155","w":454},"\u2026":{"d":"662,0r0,-103r99,0r0,103r-99,0xm402,0r0,-103r100,0r0,103r-100,0xm143,0r0,-103r99,0r0,103r-99,0","w":904},"\u2030":{"d":"210,-422v-84,0,-151,-66,-151,-148v0,-81,67,-148,151,-148v84,0,152,67,152,148v0,82,-68,148,-152,148xm74,0r540,-706r94,0r-540,706r-94,0xm210,-496v42,0,74,-32,74,-74v0,-41,-32,-75,-74,-75v-42,0,-74,34,-74,75v0,42,32,74,74,74xm776,-136v0,-81,67,-148,151,-148v84,0,152,67,152,148v0,82,-68,148,-152,148v-84,0,-151,-66,-151,-148xm421,-136v0,-81,67,-148,152,-148v83,0,152,67,152,148v0,82,-69,148,-152,148v-85,0,-152,-66,-152,-148xm853,-136v0,42,32,74,74,74v42,0,74,-32,74,-74v0,-41,-32,-75,-74,-75v-42,0,-74,34,-74,75xm499,-136v0,42,32,74,74,74v41,0,74,-32,74,-74v0,-41,-33,-75,-74,-75v-42,0,-74,34,-74,75","w":1113},"\u2039":{"d":"206,-77r-164,-205r164,-206r97,0r-164,206r164,205r-97,0","w":367},"\u203a":{"d":"62,-77r164,-205r-164,-206r97,0r164,206r-164,205r-97,0","w":367},"\u2044":{"d":"26,0r287,-706r80,0r-287,706r-80,0","w":418},"\u20ac":{"d":"39,-258r0,-63r59,0v-2,-4,-2,-69,0,-72r-59,0r0,-64r70,0v45,-179,229,-299,435,-249r-24,91v0,0,-35,-11,-74,-11v-112,0,-198,67,-231,169r277,0r-14,64r-278,0v-2,0,-2,68,0,72r265,0r-12,63r-236,0v31,105,120,176,232,176v52,0,93,-14,93,-14r20,91v0,0,-49,17,-114,17v-171,0,-302,-111,-340,-270r-69,0","w":601},"\u2122":{"d":"423,-266r0,-67v13,-2,33,5,34,-9r29,-364r69,0r104,230v10,19,11,44,16,42v0,0,5,-24,13,-42r104,-230r70,0r29,364v-1,15,21,7,34,9r0,67r-59,0v-36,0,-46,-9,-49,-45r-17,-218v-3,-16,5,-32,-1,-30r-95,212r-61,0r-95,-212r-2,0v0,0,2,15,1,30r-17,218v-3,36,-13,45,-49,45r-58,0xm191,-266r0,-373r-76,0v-17,0,-6,25,-9,39r-67,0r0,-61v0,-35,10,-45,47,-45r286,0v36,0,47,10,47,45r0,61r-66,0v-3,-14,7,-39,-9,-39r-77,0r0,373r-76,0","w":983},"\u2212":{"d":"48,-246r0,-78r517,0r0,78r-517,0"},"\u221e":{"d":"254,-167v-100,0,-182,-82,-182,-182v0,-101,82,-181,182,-181v101,0,182,80,182,181v0,100,-81,182,-182,182","w":508},"\u2248":{"d":"98,-321r-41,-59v34,-36,90,-73,151,-73v94,0,127,70,198,70v41,0,83,-26,110,-55r41,59v-34,35,-90,72,-151,72v-94,0,-127,-70,-198,-70v-42,0,-83,28,-110,56xm98,-133r-41,-58v34,-36,90,-73,151,-73v94,0,127,70,198,70v41,0,83,-26,110,-55r41,59v-34,35,-90,72,-151,72v-94,0,-127,-70,-198,-70v-42,0,-83,27,-110,55"},"\u2260":{"d":"122,-73r56,-78r-110,0r0,-78r162,0r80,-111r-242,0r0,-78r294,0r82,-115r51,35r-58,80r108,0r0,78r-160,0r-79,111r239,0r0,78r-292,0r-79,112"},"\u2264":{"d":"67,-252r0,-66r466,-208r0,89r-358,151r0,2r358,151r0,89xm68,95r465,0r0,78r-465,0r0,-78"},"\u2265":{"d":"80,-44r0,-89r358,-151r0,-2r-358,-151r0,-89r467,208r0,66xm80,95r465,0r0,78r-465,0r0,-78"}}});
