/*!
 * The following copyright notice may not be removed under any circumstances.
 * 
 * Copyright:
 * Copyright (c) 2008 by Jos Buivenga/exljbris. All rights reserved.
 * 
 * Trademark:
 * Museo is a trademark of Jos Buivenga/exljbris.
 * 
 * Description:
 * Copyright (c) 2008 by Jos Buivenga/exljbris. All rights reserved.
 * 
 * Manufacturer:
 * Jos Buivenga
 * 
 * Designer:
 * Jos Buivenga
 * 
 * Vendor URL:
 * http://www.josbuivenga.demon.nl
 */
Cufon.registerFont({"w":619,"face":{"font-family":"Museo 700","font-weight":600,"font-stretch":"normal","units-per-em":"1000","panose-1":"2 0 0 0 0 0 0 0 0 0","ascent":"750","descent":"-250","x-height":"12","bbox":"-53 -902 1143 210","underline-thickness":"50","underline-position":"-50","stemh":"111","stemv":"127","unicode-range":"U+0020-U+FB04"},"glyphs":{" ":{"w":265},"\u00a0":{"w":265},"!":{"d":"111,-205r-11,-505r132,0r-10,505r-111,0xm105,0r0,-118r123,0r0,118r-123,0","w":332},"\"":{"d":"217,-514r0,-209r94,0r0,209r-94,0xm57,-514r0,-209r94,0r0,209r-94,0","w":369},"#":{"d":"119,0r32,-187r-119,0r15,-91r119,0r25,-140r-117,0r15,-92r118,0r35,-200r102,0r-35,200r136,0r35,-200r102,0r-35,200r121,0r-16,92r-120,0r-25,140r119,0r-15,91r-120,0r-32,187r-102,0r33,-187r-137,0r-32,187r-102,0xm268,-278r137,0r25,-140r-137,0","w":700},"$":{"d":"38,-131r91,-76v0,0,58,101,163,101v58,0,102,-31,102,-84v0,-124,-334,-109,-334,-339v0,-100,79,-172,188,-189r0,-93r89,0r0,93v76,10,166,50,166,136r0,66r-118,0r0,-32v0,-33,-42,-55,-89,-55v-60,0,-104,30,-104,72v0,127,334,96,334,337v0,99,-74,185,-189,202r0,93r-89,0r0,-92v-146,-20,-210,-140,-210,-140","w":560},"%":{"d":"218,-406v-90,0,-163,-70,-163,-158v0,-86,73,-158,163,-158v90,0,164,72,164,158v0,88,-74,158,-164,158xm80,0r545,-710r117,0r-545,710r-117,0xm218,-498v37,0,67,-29,67,-66v0,-36,-30,-66,-67,-66v-37,0,-66,30,-66,66v0,37,29,66,66,66xm443,-145v0,-86,72,-158,163,-158v90,0,163,72,163,158v0,87,-73,157,-163,157v-91,0,-163,-70,-163,-157xm540,-146v0,37,29,66,66,66v37,0,67,-29,67,-66v0,-36,-30,-66,-67,-66v-37,0,-66,30,-66,66","w":825},"&":{"d":"42,-208v0,-68,41,-147,118,-170r0,-2v0,0,-87,-35,-87,-155v0,-114,92,-187,216,-187v56,0,98,12,98,12r-31,102v0,0,-25,-6,-48,-6v-64,0,-105,42,-105,95v0,40,22,94,108,94r107,0r0,-85r127,0r0,85r85,0r0,112r-85,0r0,84v0,145,-93,241,-249,241v-150,0,-254,-96,-254,-220xm174,-209v0,55,46,103,122,103v76,0,122,-44,122,-130r0,-77r-107,0v-83,0,-137,35,-137,104","w":651},"'":{"d":"57,-514r0,-209r96,0r0,209r-96,0","w":210},"(":{"d":"201,95v-157,-231,-162,-602,-3,-836r108,0v-156,257,-144,576,3,836r-108,0","w":351},")":{"d":"42,95v147,-260,158,-579,3,-836r108,0v159,234,156,605,-2,836r-109,0","w":351},"*":{"d":"171,-321r-91,-66r83,-100r0,-2r-126,-31r34,-108r121,49r-9,-131r115,0r-9,131r121,-49r36,107r-128,32r0,2r84,99r-91,67r-69,-110r-2,0","w":483},"+":{"d":"42,-236r0,-99r216,0r0,-237r103,0r0,237r216,0r0,99r-216,0r0,236r-103,0r0,-236r-216,0"},",":{"d":"89,-129r122,0r-96,234r-93,0","w":265},"-":{"d":"65,-230r0,-111r301,0r0,111r-301,0","w":431},"\u00ad":{"d":"65,-230r0,-111r301,0r0,111r-301,0","w":431},".":{"d":"71,0r0,-127r123,0r0,127r-123,0","w":265},"\/":{"d":"-1,42r254,-788r109,0r-255,788r-108,0","w":367},"0":{"d":"306,12v-194,0,-257,-164,-257,-368v0,-204,63,-366,257,-366v194,0,257,162,257,366v0,204,-63,368,-257,368xm306,-106v97,0,125,-110,125,-250v0,-138,-28,-247,-125,-247v-97,0,-125,109,-125,247v0,140,28,250,125,250","w":612},"1":{"d":"64,0r0,-111r153,0r1,-442v-6,-1,-7,16,-33,40r-57,54r-76,-80r178,-171r118,0r0,599r153,0r0,111r-437,0","w":533},"2":{"d":"33,-94v0,-257,347,-243,347,-416v0,-56,-42,-92,-103,-92v-56,0,-93,29,-93,56r0,31r-118,0r0,-70v0,-94,124,-137,216,-137v124,0,230,78,230,210v0,240,-343,254,-343,383v0,13,8,18,27,18r208,0v30,1,21,-38,22,-65r118,0r0,108v0,48,-20,68,-68,68r-370,0v-62,0,-73,-27,-73,-94","w":581},"3":{"d":"26,-88r66,-98v0,0,69,76,174,76v70,0,121,-44,121,-106v0,-63,-58,-104,-134,-104r-50,0r-26,-65r120,-161v25,-39,48,-51,47,-56v-13,3,-118,4,-152,3v-30,-1,-21,38,-22,65r-118,0r0,-108v0,-47,14,-68,62,-68r386,0r0,81r-163,204v96,15,183,87,183,207v0,118,-92,230,-253,230v-154,0,-241,-100,-241,-100","w":556},"4":{"d":"18,-179r0,-83r294,-448r154,0r0,420r109,0r0,111r-109,0r0,179r-131,0r0,-179r-317,0xm337,-290r0,-197v0,-35,5,-77,5,-77v-6,-1,-21,36,-40,64r-111,164v-19,30,-37,44,-36,49v32,-4,135,-3,182,-3","w":589},"5":{"d":"47,-86r66,-99v0,0,61,75,165,75v79,0,130,-53,130,-118v0,-79,-72,-121,-153,-121v-78,0,-134,32,-134,32r-46,-23r26,-302v4,-47,20,-68,67,-68r262,0v47,0,68,21,68,68r0,108r-119,0v-2,-27,8,-65,-22,-65r-117,0v-14,0,-21,8,-22,22r-9,98v0,20,-9,34,-3,33v0,0,33,-13,75,-13v163,0,260,103,260,233v0,124,-97,239,-263,239v-150,0,-231,-99,-231,-99","w":595},"6":{"d":"308,12v-148,0,-275,-120,-275,-330v0,-189,107,-404,327,-404v90,0,146,30,146,30r-38,111v0,0,-46,-22,-100,-22v-111,0,-171,93,-188,193r2,0v24,-31,81,-52,132,-52v140,0,227,109,227,236v0,132,-93,238,-233,238xm168,-279v0,89,65,173,139,173v67,0,107,-53,107,-120v0,-71,-45,-130,-130,-130v-63,0,-116,34,-116,77","w":575},"7":{"d":"47,0r293,-534v24,-47,44,-62,43,-67v-49,4,-160,2,-220,2v-30,0,-21,38,-22,65r-119,0r0,-108v0,-47,15,-68,62,-68r444,0r0,90r-338,620r-143,0","w":538},"8":{"d":"36,-205v0,-111,109,-177,109,-177r0,-2v0,0,-79,-46,-79,-142v0,-101,81,-196,228,-196v138,0,228,85,228,197v0,103,-78,158,-77,163v62,39,98,93,98,163v0,109,-99,211,-253,211v-142,0,-254,-89,-254,-217xm289,-430v12,5,36,15,47,15v22,0,60,-49,60,-101v0,-54,-42,-87,-102,-87v-64,0,-101,36,-101,80v0,49,42,72,96,93xm168,-213v0,65,54,107,122,107v66,0,121,-41,121,-99v0,-50,-45,-74,-102,-98v-29,-13,-56,-24,-64,-24v-24,0,-77,52,-77,114","w":583},"9":{"d":"68,-18r38,-111v0,0,46,23,100,23v111,0,171,-94,188,-194r-2,0v-23,31,-81,52,-132,52v-140,0,-227,-109,-227,-236v0,-131,93,-238,234,-238v147,0,274,120,274,330v0,189,-107,404,-327,404v-90,0,-146,-30,-146,-30xm291,-354v62,0,115,-33,115,-77v0,-89,-65,-172,-139,-172v-67,0,-107,52,-107,119v0,71,45,130,131,130","w":575},":":{"d":"92,-383r0,-127r122,0r0,127r-122,0xm92,0r0,-127r122,0r0,127r-122,0","w":306},";":{"d":"93,-383r0,-127r122,0r0,127r-122,0xm35,105r55,-234r121,0r-82,234r-94,0","w":306},"<":{"d":"64,-245r0,-82r481,-214r0,111r-347,143r0,2r347,143r0,111"},"=":{"d":"66,-339r0,-98r488,0r0,98r-488,0xm66,-134r0,-98r488,0r0,98r-488,0"},">":{"d":"71,-31r0,-111r347,-143r0,-2r-347,-143r0,-111r481,214r0,82"},"?":{"d":"145,-205r0,-48v0,-145,165,-168,165,-271v0,-47,-42,-83,-97,-83v-57,0,-107,42,-107,42r-70,-87v0,0,69,-72,188,-72v113,0,218,70,218,188v0,165,-174,184,-174,292r0,39r-123,0xm145,0r0,-118r123,0r0,118r-123,0","w":476},"@":{"d":"38,-240v0,-208,164,-373,376,-373v204,0,275,103,275,218r0,250r73,0r0,91r-277,0v-135,0,-215,-90,-215,-186v0,-95,78,-183,215,-183r85,0v-2,-52,-65,-88,-152,-88v-145,0,-255,129,-255,271v0,146,104,268,271,268r0,99v-238,0,-396,-162,-396,-367xm396,-243v0,54,39,98,97,98r77,0r0,-196r-75,0v-60,0,-99,45,-99,98","w":785},"A":{"d":"11,0r0,-111v25,0,39,1,47,-22r211,-577r137,0r210,577v7,24,22,22,47,22r0,111r-78,0v-50,0,-68,-13,-84,-58r-44,-124r-240,0r-44,124v-16,45,-33,58,-83,58r-79,0xm247,-290r180,0r-61,-178v-13,-39,-28,-106,-28,-106r-2,0v-14,69,-63,210,-89,284","w":674},"B":{"d":"98,-68r0,-531r-65,0r0,-111r307,0v128,0,220,66,220,183v0,79,-43,130,-86,152r0,2v77,23,114,95,114,167v0,142,-113,206,-245,206r-177,0v-47,0,-68,-20,-68,-68xm229,-420r112,0v55,0,86,-40,86,-91v0,-51,-30,-88,-88,-88r-110,0r0,179xm229,-133v0,14,8,22,22,22r102,0v64,0,100,-43,100,-103v0,-59,-37,-102,-100,-102r-124,0r0,183","w":629},"C":{"d":"30,-361v0,-205,154,-361,360,-361v91,0,269,38,269,159r0,79r-119,0r0,-40v0,-52,-85,-76,-147,-76v-127,0,-227,91,-227,239v0,139,102,251,231,251v134,0,215,-94,215,-94r69,94v0,0,-103,122,-286,122v-217,0,-365,-163,-365,-373","w":709},"D":{"d":"99,-68r0,-531r-65,0r0,-111r289,0v219,0,362,130,362,354v0,224,-143,356,-362,356r-156,0v-48,0,-68,-20,-68,-68xm230,-133v0,36,54,22,86,22v142,0,233,-85,233,-245v0,-158,-93,-243,-233,-243r-86,0r0,466","w":715},"E":{"d":"99,-68r0,-531r-65,0r0,-111r429,0v47,0,68,21,68,68r0,108r-119,0v-2,-27,8,-65,-22,-65r-160,0r0,186r230,0r0,111r-230,0r0,169v0,14,8,22,22,22r164,0v30,1,21,-38,22,-65r119,0r0,108v0,48,-21,68,-68,68r-322,0v-48,0,-68,-20,-68,-68","w":578},"F":{"d":"99,0r0,-599r-65,0r0,-111r405,0v48,0,68,21,68,68r0,108r-118,0v-2,-27,8,-65,-22,-65r-137,0r0,201r227,0r0,111r-227,0r0,287r-131,0","w":526},"G":{"d":"31,-359v0,-204,155,-363,361,-363v174,0,259,90,259,90r-74,94v0,0,-74,-63,-182,-63v-123,0,-228,97,-228,241v0,155,106,250,233,250v113,0,180,-74,180,-74v-3,-29,11,-75,-22,-75r-43,0r0,-111r115,0v48,0,68,20,68,67r0,303r-112,0r1,-64v-6,-1,-74,76,-211,76v-186,0,-345,-142,-345,-371","w":742},"H":{"d":"99,0r0,-577v1,-30,-38,-21,-65,-22r0,-111r128,0v48,0,68,21,68,68r0,233r313,0r0,-233v0,-47,21,-68,68,-68r128,0r0,111v-27,2,-65,-8,-65,22r0,577r-131,0r0,-298r-313,0r0,298r-131,0","w":773},"I":{"d":"38,0r0,-111r71,0r0,-488r-71,0r0,-111r266,0r0,111r-71,0r0,488r71,0r0,111r-266,0","w":342},"J":{"d":"20,-210r0,-41r131,0r0,29v0,85,46,112,93,112v48,0,92,-29,92,-106r0,-361v0,-14,-8,-22,-22,-22r-172,0r0,-111r257,0v47,0,68,21,68,68r0,432v0,155,-113,222,-224,222v-111,0,-223,-69,-223,-222","w":539},"K":{"d":"99,0r0,-577v1,-30,-38,-21,-65,-22r0,-111r128,0v48,0,68,21,68,68r0,221v44,-2,90,10,107,-23r143,-266r144,0r-160,292v-22,43,-46,48,-45,54v0,0,24,6,46,49r90,181v12,26,37,23,69,23r0,111r-75,0v-53,0,-76,-7,-99,-53r-116,-233v-17,-33,-61,-22,-104,-24r0,310r-131,0","w":634},"L":{"d":"99,-68r0,-509v1,-30,-38,-21,-65,-22r0,-111r128,0v48,0,68,21,68,68r0,509v0,14,8,22,22,22r155,0v30,1,21,-38,22,-65r119,0r0,108v0,48,-20,68,-68,68r-313,0v-48,0,-68,-20,-68,-68","w":558},"M":{"d":"18,0r0,-111v25,0,51,4,53,-22r46,-577r136,0r146,338v17,41,35,95,35,95r2,0v45,-131,126,-302,181,-433r136,0r46,577v0,26,28,22,53,22r0,111r-113,0v-47,0,-63,-20,-67,-68r-24,-316v-4,-47,-1,-110,-1,-110r-2,0v0,0,-21,70,-39,110r-118,262r-106,0r-118,-262v-18,-40,-39,-111,-39,-111r-2,0v0,0,3,64,-1,111r-23,316v-4,48,-21,68,-68,68r-113,0","w":870},"N":{"d":"34,0r0,-111v27,-2,65,8,65,-22r0,-577r118,0r269,393v28,41,59,100,59,100r2,0v0,0,-7,-59,-7,-100r0,-325v0,-47,20,-68,68,-68r128,0r0,111v-27,2,-65,-8,-65,22r0,577r-117,0r-270,-392v-28,-40,-59,-100,-59,-100r-2,0v0,0,7,59,7,100r0,324v0,48,-20,68,-68,68r-128,0","w":770},"O":{"d":"30,-360v0,-203,158,-362,367,-362v209,0,367,159,367,362v0,209,-158,372,-367,372v-209,0,-367,-163,-367,-372xm166,-360v0,142,103,250,231,250v128,0,231,-108,231,-250v0,-136,-103,-240,-231,-240v-128,0,-231,104,-231,240","w":794},"P":{"d":"99,0r0,-599r-65,0r0,-111r325,0v133,0,226,93,226,231v0,138,-93,234,-226,234r-129,0r0,245r-131,0xm230,-357r105,0v74,0,116,-48,116,-122v0,-73,-42,-120,-114,-120r-107,0r0,242","w":605},"Q":{"d":"30,-359v0,-204,158,-362,366,-362v210,0,368,158,368,362v0,84,-31,162,-78,224r77,70r-78,85r-77,-76v-60,46,-133,68,-212,68v-208,0,-366,-164,-366,-371xm166,-359v0,141,102,249,230,249v75,0,117,-34,117,-34r-72,-67r77,-85r72,72v24,-38,38,-85,38,-135v0,-137,-102,-240,-232,-240v-128,0,-230,103,-230,240","w":794},"R":{"d":"99,0r0,-599r-65,0r0,-111r318,0v130,0,221,80,221,214v0,128,-88,181,-118,187v-1,6,21,9,35,38r69,137v13,25,33,23,63,23r0,111r-69,0v-53,0,-76,-8,-99,-53r-91,-179v-15,-28,-30,-33,-67,-33r-66,0r0,265r-131,0xm230,-377r104,0v66,0,105,-41,105,-112v0,-70,-39,-110,-103,-110r-106,0r0,222","w":632},"S":{"d":"32,-98r74,-92v0,0,73,84,172,84v54,0,102,-29,102,-84v0,-121,-334,-111,-334,-332v0,-115,100,-200,237,-200v83,0,211,39,211,140r0,66r-118,0r0,-32v0,-33,-47,-55,-94,-55v-60,0,-104,31,-104,76v0,121,334,97,334,330v0,113,-87,209,-236,209v-157,0,-244,-110,-244,-110","w":549},"T":{"d":"261,0r0,-599r-109,0v-30,-1,-21,38,-22,65r-115,0r0,-112v0,-47,16,-64,64,-64r495,0v48,0,64,17,64,64r0,112r-115,0v-2,-27,8,-65,-22,-65r-109,0r0,599r-131,0","w":653},"U":{"d":"91,-253r0,-324v1,-30,-38,-21,-65,-22r0,-111r128,0v48,0,68,21,68,68r0,385v0,93,59,147,148,147v89,0,148,-54,148,-148r0,-384v0,-47,20,-68,68,-68r128,0r0,111v-27,2,-65,-8,-65,22r0,324v0,157,-111,265,-278,265v-169,0,-280,-108,-280,-265","w":740},"V":{"d":"273,0r-213,-577v-7,-23,-23,-23,-49,-22r0,-111r83,0v50,0,68,13,84,58r136,396v14,40,27,104,27,104r2,0v0,0,13,-64,27,-104r136,-396v16,-45,33,-58,83,-58r84,0r0,111v-26,0,-41,-1,-50,22r-212,577r-138,0","w":684},"W":{"d":"214,0r-147,-577v-5,-24,-25,-22,-51,-22r0,-111r85,0v50,0,77,12,88,58r97,423v9,40,12,75,12,75r2,0v0,0,4,-34,15,-75r129,-479r111,0r122,479v11,41,14,75,14,75r2,0v0,0,3,-35,12,-75r98,-423v10,-46,37,-58,87,-58r86,0r0,111v-26,0,-45,-1,-51,22r-148,577r-151,0r-108,-402v-12,-45,-18,-88,-18,-88r-2,0v0,0,-6,42,-19,88r-113,402r-152,0","w":992},"X":{"d":"5,0r220,-360r-132,-215v-15,-32,-36,-22,-73,-24r0,-111r82,0v48,0,67,11,91,52r68,118v26,42,41,87,47,86v14,-37,84,-156,112,-204v25,-42,44,-52,92,-52r81,0r0,111v-36,1,-55,-5,-73,24r-133,215r221,360r-147,0r-110,-187v-27,-43,-41,-84,-47,-83v-30,66,-110,198,-152,270r-147,0","w":613},"Y":{"d":"242,0r0,-310r-168,-265v-15,-27,-30,-24,-64,-24r0,-111r67,0v46,0,66,7,93,52r94,156v28,42,39,81,45,80v23,-50,101,-177,136,-236v26,-45,47,-52,93,-52r67,0r0,111v-34,0,-47,-2,-64,24r-168,265r0,310r-131,0","w":615},"Z":{"d":"17,0r0,-83r319,-452v30,-43,55,-61,54,-66v-53,3,-162,2,-226,2v-30,0,-21,38,-22,65r-119,0r0,-108v0,-47,20,-68,68,-68r461,0r0,82r-319,453v-30,44,-55,61,-54,66v0,0,21,-2,54,-2r194,0v30,1,21,-38,22,-65r118,0r0,108v0,48,-20,68,-68,68r-482,0","w":588},"[":{"d":"92,27r0,-700v0,-48,20,-68,68,-68r129,0r0,92r-67,0v-14,0,-22,7,-22,22r0,608v0,15,8,22,22,22r67,0r0,92r-129,0v-48,0,-68,-20,-68,-68","w":352},"\\":{"d":"260,42r-255,-788r109,0r255,788r-109,0","w":364},"]":{"d":"63,3r66,0v14,0,22,-7,22,-22r0,-608v0,-15,-8,-22,-22,-22r-66,0r0,-92r129,0v48,0,68,20,68,68r0,700v0,48,-20,68,-68,68r-129,0r0,-92","w":352},"^":{"d":"65,-245r201,-465r80,0r201,465r-110,0r-131,-331r-131,331r-110,0"},"_":{"d":"5,0r561,0r0,98r-561,0r0,-98","w":571},"`":{"d":"176,-757r-104,-136r122,0r76,136r-94,0","w":399},"a":{"d":"33,-147v0,-160,220,-173,303,-173r16,0v1,-75,-28,-105,-94,-104v-23,0,-68,6,-68,34r0,27r-118,0r0,-54v0,-95,134,-105,187,-105v170,0,220,89,220,203r0,190v-2,29,35,21,62,22r0,107r-114,0v-56,-1,-70,-34,-64,-78r-2,0v0,0,-39,90,-154,90v-91,0,-174,-57,-174,-159xm161,-153v0,34,25,66,77,66v72,0,120,-74,116,-146v-78,-1,-193,2,-193,80","w":560},"b":{"d":"79,0r0,-580v2,-30,-35,-20,-62,-22r0,-108r121,0v47,0,68,21,68,68r0,148v2,26,-6,44,0,43v0,0,45,-71,153,-71v138,0,226,109,226,267v0,162,-99,267,-234,267v-106,0,-152,-72,-152,-72r-2,0v1,1,3,46,2,60r-120,0xm202,-252v0,79,42,157,127,157v69,0,128,-57,128,-158v0,-97,-52,-160,-127,-160v-66,0,-128,48,-128,161","w":618},"c":{"d":"32,-255v0,-144,104,-267,279,-267v66,0,185,27,185,115r0,60r-112,0r0,-28v0,-28,-42,-40,-73,-40v-88,0,-151,67,-151,159v0,104,77,157,159,157v87,0,151,-69,151,-69r53,88v0,0,-76,92,-215,92v-168,0,-276,-119,-276,-267","w":538},"d":{"d":"32,-255v0,-162,97,-267,232,-267v111,0,147,62,147,62r2,0v-2,-28,-1,-86,-1,-120v0,-30,-35,-20,-62,-22r0,-108r121,0v47,0,68,21,68,68r0,513v-2,29,34,21,61,22r0,107r-117,0v-54,-2,-66,-26,-63,-71r-2,0v0,0,-42,83,-159,83v-138,0,-227,-109,-227,-267xm287,-95v66,0,128,-48,128,-161v0,-79,-41,-157,-126,-157v-70,0,-128,57,-128,158v0,97,51,160,126,160","w":622},"e":{"d":"32,-255v0,-157,106,-267,259,-267v161,0,243,127,223,289r-352,0v10,90,76,137,153,137v82,0,143,-57,143,-57r53,88v0,0,-78,77,-205,77v-169,0,-274,-122,-274,-267xm166,-321r221,0v-2,-61,-44,-103,-96,-103v-65,0,-111,39,-125,103","w":557},"f":{"d":"83,0r0,-409r-63,0r0,-101r63,0r0,-15v0,-167,137,-189,208,-189v26,0,43,3,43,3r0,108v-55,-8,-128,2,-124,93r109,0r0,101r-109,0r0,409r-127,0","w":345},"g":{"d":"32,-268v0,-140,79,-254,226,-254v118,0,157,72,157,72r2,0v-3,-36,10,-60,56,-60r118,0r0,108v-26,1,-61,-7,-61,20r0,351v-1,250,-274,285,-450,197r39,-100v0,0,63,34,141,34v85,0,153,-42,144,-149v-1,-13,4,-29,-1,-27v-30,43,-74,66,-142,66v-146,0,-229,-118,-229,-258xm288,-117v61,0,119,-35,119,-150v0,-116,-58,-147,-127,-147v-77,0,-119,56,-119,142v0,89,45,155,127,155","w":612},"h":{"d":"352,-406v-88,0,-146,70,-146,172r0,234r-127,0r0,-580v2,-30,-35,-20,-62,-22r0,-108r121,0v47,0,68,21,68,67r0,179v2,26,-6,44,0,43v24,-49,87,-101,175,-101v114,0,178,59,178,194r0,199v-2,29,35,21,62,22r0,107r-121,0v-47,0,-67,-20,-67,-68r0,-234v0,-62,-17,-104,-81,-104","w":640},"i":{"d":"93,-593r0,-117r110,0r0,117r-110,0xm87,-68r0,-312v2,-30,-35,-20,-62,-22r0,-108r121,0v47,0,67,21,67,68r0,313v-2,29,35,21,62,22r0,107r-121,0v-47,0,-67,-20,-67,-68","w":299},"j":{"d":"110,-593r0,-117r111,0r0,117r-111,0xm-19,97v0,0,9,2,22,2v36,0,102,-11,102,-94r0,-385v2,-30,-35,-20,-62,-22r0,-108r121,0v48,0,68,21,68,68r0,457v0,171,-143,192,-213,192v-23,0,-38,-3,-38,-3r0,-107","w":305},"k":{"d":"79,0r0,-580v2,-30,-35,-20,-62,-22r0,-108r121,0v47,0,68,11,68,58r0,322v37,-1,69,8,86,-19r104,-161r141,0r-129,192v-23,35,-39,36,-38,42v0,0,18,7,36,40r58,110v8,24,44,18,76,19r0,107r-94,0v-43,0,-60,-7,-80,-44r-85,-160v-17,-25,-43,-18,-75,-19r0,223r-127,0","w":553},"l":{"d":"80,-68r0,-512v2,-30,-35,-20,-62,-22r0,-108r121,0v47,0,68,21,68,68r0,513v-2,29,34,21,61,22r0,107r-120,0v-48,0,-68,-20,-68,-68","w":291},"m":{"d":"340,-406v-83,0,-131,86,-131,182r0,224r-126,0r0,-380v2,-30,-35,-20,-62,-22r0,-108r117,0v61,-2,73,38,66,94r2,0v24,-50,85,-106,165,-106v77,0,127,36,149,105r2,0v27,-55,93,-105,174,-105v106,0,167,60,167,194r0,199v-2,29,34,21,61,22r0,107r-120,0v-48,0,-68,-20,-68,-68r0,-236v0,-58,-11,-102,-70,-102v-83,0,-130,85,-130,182r0,224r-127,0r0,-304v0,-55,-8,-102,-69,-102","w":943},"n":{"d":"356,-406v-91,1,-147,72,-147,172r0,234r-126,0r0,-380v2,-30,-35,-20,-62,-22r0,-108r117,0v61,-2,74,40,65,94r2,0v22,-43,77,-106,180,-106v113,0,178,59,178,194r0,199v-2,29,35,21,62,22r0,107r-121,0v-48,0,-68,-20,-68,-68r0,-234v0,-62,-16,-104,-80,-104","w":643},"o":{"d":"32,-255v0,-156,124,-267,279,-267v156,0,280,111,280,267v0,157,-124,267,-280,267v-155,0,-279,-110,-279,-267xm160,-255v0,95,69,159,151,159v83,0,152,-64,152,-159v0,-94,-69,-159,-152,-159v-82,0,-151,65,-151,159","w":623},"p":{"d":"83,200r0,-580v2,-30,-35,-20,-62,-22r0,-108r113,0v56,2,67,24,64,69r2,0v0,0,43,-81,162,-81v138,0,227,109,227,267v0,162,-100,267,-234,267v-104,0,-142,-68,-148,-67v4,69,1,178,2,255r-126,0xm206,-252v0,79,42,157,126,157v70,0,129,-57,129,-158v0,-97,-52,-160,-127,-160v-66,0,-128,48,-128,161","w":621},"q":{"d":"33,-255v0,-162,96,-267,231,-267v116,0,158,75,158,75r2,0v-3,-43,10,-63,65,-63r112,0r0,108v-27,2,-62,-8,-62,22r0,580r-127,0r0,-216v-2,-27,6,-45,0,-44v0,0,-43,72,-153,72v-138,0,-226,-109,-226,-267xm288,-95v66,0,128,-48,128,-161v0,-79,-42,-157,-127,-157v-69,0,-128,57,-128,158v0,97,52,160,127,160","w":622},"r":{"d":"83,0r0,-380v2,-30,-35,-20,-62,-22r0,-108r116,0v57,-2,68,33,68,92v0,20,-6,33,0,32v27,-79,91,-142,185,-129r0,125v-77,-10,-144,18,-170,105v-24,78,-7,189,-11,285r-126,0","w":412},"s":{"d":"25,-79r60,-83v0,0,65,75,152,75v39,0,69,-16,69,-50v0,-72,-269,-71,-269,-236v0,-102,92,-149,198,-149v69,0,179,23,179,106r0,53r-112,0r0,-25v0,-24,-36,-36,-64,-36v-45,0,-76,16,-76,46v0,80,271,64,271,234v0,96,-85,156,-196,156v-140,0,-212,-91,-212,-91","w":468},"t":{"d":"85,-187r0,-222r-66,0r0,-101r69,0r0,-139r124,0r0,139r116,0r0,101r-116,0r0,206v0,84,66,96,101,96v14,0,23,-2,23,-2r0,111v0,0,-16,3,-39,3v-71,0,-212,-21,-212,-192","w":370},"u":{"d":"81,-182r0,-198v2,-30,-35,-20,-62,-22r0,-108r121,0v47,0,67,21,67,67r0,235v0,62,16,104,79,104v92,0,143,-81,143,-172r0,-234r127,0r0,381v-2,29,35,21,62,22r0,107r-117,0v-59,2,-73,-38,-66,-94r-2,0v-24,53,-88,106,-176,106v-109,0,-176,-55,-176,-194","w":638},"v":{"d":"197,0r-146,-384v-6,-17,-19,-19,-39,-18r0,-108r73,0v42,0,62,13,75,48r96,268v11,30,19,73,19,73r2,0v0,0,8,-43,18,-73r96,-268v13,-35,34,-48,75,-48r68,0r0,108v-21,-1,-34,1,-40,18r-146,384r-151,0","w":545},"w":{"d":"174,0r-122,-384v-6,-20,-20,-18,-42,-18r0,-108r87,0v42,0,62,13,72,52r75,283v7,27,10,54,10,54v6,1,6,-25,14,-54r94,-333r112,0r95,333v8,27,11,54,11,54r2,0v0,0,3,-27,10,-54r74,-283v10,-39,30,-52,72,-52r87,0r0,108v-22,0,-35,-2,-42,18r-122,384r-143,0r-87,-291v-8,-27,-12,-55,-12,-55v-6,-1,-7,26,-15,55r-86,291r-144,0","w":835},"x":{"d":"11,0r166,-258r-84,-127v-12,-24,-44,-15,-76,-17r0,-108r89,0v42,0,60,9,83,48r50,84v9,14,13,34,18,33v15,-34,46,-83,66,-117v23,-39,40,-48,83,-48r88,0r0,108v-32,2,-60,-5,-75,17r-85,127r167,258r-141,0r-89,-142v-9,-11,-11,-28,-16,-27v0,0,-8,16,-15,27r-88,142r-141,0","w":512},"y":{"d":"50,68v0,0,31,35,73,35v35,0,66,-21,84,-65r17,-39r-170,-383v-7,-20,-20,-18,-42,-18r0,-108r84,0v36,0,54,13,67,48r100,255v10,26,18,68,18,68r2,0v0,0,8,-42,17,-68r87,-255v12,-35,33,-48,68,-48r86,0r0,108v-22,0,-37,-2,-44,18r-183,461v-36,92,-108,133,-184,133v-80,0,-129,-52,-129,-52","w":553},"z":{"d":"27,0r0,-68r235,-287v24,-32,44,-44,43,-49v-20,3,-106,3,-139,2v-26,-1,-22,27,-22,51r-115,0r0,-91v0,-47,20,-68,68,-68r374,0r0,69r-235,287v-24,31,-44,44,-43,49v27,-4,119,-3,160,-3v25,0,22,-26,22,-50r115,0r0,90v0,48,-20,68,-67,68r-396,0","w":511},"{":{"d":"109,-71r0,-97v0,-100,-85,-104,-85,-104r0,-111v0,0,85,-4,85,-106r0,-86v0,-152,120,-169,177,-169v18,0,31,1,31,1r0,94v0,0,-8,-1,-18,-1v-27,0,-82,9,-82,85r0,109v0,100,-82,127,-82,127r0,2v0,0,82,23,82,126r0,120v0,77,55,85,82,85v10,0,18,-1,18,-1r0,94v0,0,-13,2,-31,2v-57,0,-177,-17,-177,-170","w":352},"|":{"d":"102,161r0,-957r108,0r0,957r-108,0","w":312},"}":{"d":"35,3v0,0,8,1,18,1v27,0,81,-8,81,-85r0,-120v0,-103,83,-126,83,-126r0,-2v0,0,-83,-27,-83,-127r0,-109v0,-76,-54,-85,-81,-85v-10,0,-18,1,-18,1r0,-94v0,0,13,-1,31,-1v57,0,177,17,177,169r0,86v0,102,85,106,85,106r0,111v0,0,-85,4,-85,104r0,97v0,153,-120,170,-177,170v-18,0,-31,-2,-31,-2r0,-94","w":352},"~":{"d":"56,-199v0,-123,56,-182,154,-182v100,0,117,91,184,91v44,0,62,-42,62,-87r100,0v0,123,-55,182,-153,182v-100,0,-117,-90,-184,-90v-44,0,-62,41,-62,86r-101,0"},"\u00a1":{"d":"105,-391r0,-118r122,0r0,118r-122,0xm100,200r11,-504r111,0r10,504r-132,0","w":332},"\u00a2":{"d":"262,37r0,-111v-124,-21,-207,-137,-207,-281v0,-144,83,-260,207,-282r0,-109r89,0r0,109v87,16,154,77,185,162r-114,44v-19,-49,-56,-89,-112,-89v-75,0,-127,69,-127,165v0,100,49,165,127,165v55,0,93,-39,112,-89r114,44v-28,72,-89,149,-185,161r0,111r-89,0","w":585},"\u00a3":{"d":"47,0r0,-111r58,0r0,-200r-44,0r0,-87r44,0r0,-121v0,-118,96,-203,228,-203v107,0,178,72,178,72r-73,88v0,0,-47,-43,-103,-43v-59,0,-99,39,-99,90r0,117r177,0r0,87r-177,0r0,200r168,0v30,1,21,-38,22,-65r118,0r0,108v0,48,-20,68,-67,68r-430,0","w":586},"\u00a5":{"d":"85,-194r0,-76r160,0r0,-40r-27,-42r-134,0r0,-76r84,0r0,-2r-92,-147v-14,-27,-31,-21,-63,-22r0,-111r65,0v46,0,69,8,96,52r93,156v28,43,39,79,45,78v24,-48,103,-174,136,-234v35,-63,81,-50,160,-52r0,111v-32,1,-47,-3,-63,22r-92,147r0,2r82,0r0,76r-132,0r-27,42r0,40r159,0r0,76r-159,0r0,194r-131,0r0,-194r-160,0","w":621},"\u00a7":{"d":"160,-138r-73,-344v-31,-137,45,-240,198,-240v105,0,167,62,167,62r-57,81v0,0,-46,-39,-109,-39v-58,0,-103,27,-103,94v0,14,3,31,7,50r69,336r-99,0xm61,1r54,-86v0,0,49,44,113,44v56,0,103,-31,103,-101v0,-16,-4,-35,-9,-57r-67,-323r100,0r71,344v31,138,-45,240,-198,240v-105,0,-167,-61,-167,-61","w":503},"\u00a8":{"d":"306,-777r0,-116r89,0r0,116r-89,0xm127,-777r0,-116r88,0r0,116r-88,0","w":509},"\u00a9":{"d":"32,-355v0,-203,160,-366,357,-366v200,0,360,163,360,366v0,203,-160,367,-360,367v-197,0,-357,-164,-357,-367xm121,-355v0,160,117,286,268,286v154,0,272,-126,272,-286v0,-159,-118,-285,-272,-285v-151,0,-268,126,-268,285xm207,-353v0,-106,77,-195,187,-195v121,0,162,105,162,105r-76,36v0,0,-26,-58,-83,-58v-60,0,-98,50,-98,112v0,64,36,112,98,112v58,0,83,-58,83,-58r76,35v0,0,-41,106,-162,106v-110,0,-187,-89,-187,-195","w":781},"\u00aa":{"d":"370,-389v-54,-2,-118,14,-120,-44v-6,-1,-26,50,-92,50v-56,0,-109,-36,-109,-102v0,-94,120,-106,179,-106r14,0v-2,-42,-15,-55,-49,-55v-11,0,-34,2,-34,15r0,15r-86,0r0,-42v0,-53,87,-62,120,-62v108,0,140,59,140,131r0,108v-2,18,22,11,37,12r0,80xm180,-455v38,0,59,-36,63,-77v-40,0,-101,2,-101,43v0,18,11,34,38,34xm50,-266r0,-68r322,0r0,68r-322,0","w":416},"\u00ab":{"d":"270,-282r164,-206r121,0r-164,206r164,205r-121,0xm210,-77r-164,-205r164,-206r121,0r-164,206r164,205r-121,0","w":614},"\u00ac":{"d":"66,-339r0,-98r488,0r0,294r-102,0r0,-196r-386,0"},"\u00ae":{"d":"32,-355v0,-203,160,-366,357,-366v200,0,360,163,360,366v0,203,-160,367,-360,367v-197,0,-357,-164,-357,-367xm121,-355v0,160,117,286,268,286v154,0,272,-126,272,-286v0,-159,-118,-285,-272,-285v-151,0,-268,126,-268,285xm264,-174r0,-304r-32,0r0,-62r184,0v72,0,120,46,120,116v0,57,-39,88,-65,95v-1,6,12,2,23,22r32,60v10,16,17,11,33,12r0,61v-44,-2,-82,7,-100,-27r-49,-92v-12,-23,-34,-14,-61,-16r0,135r-85,0xm349,-369r47,0v33,0,53,-21,53,-55v0,-35,-20,-54,-52,-54r-48,0r0,109","w":781},"\u00af":{"d":"104,-783r0,-84r262,0r0,84r-262,0","w":467},"\u02c9":{"d":"104,-783r0,-84r262,0r0,84r-262,0","w":467},"\u00b0":{"d":"205,-408v-91,0,-163,-69,-163,-157v0,-86,72,-158,163,-158v90,0,163,72,163,158v0,88,-73,157,-163,157xm205,-499v37,0,67,-29,67,-66v0,-36,-30,-66,-67,-66v-37,0,-66,30,-66,66v0,37,29,66,66,66","w":410},"\u00b1":{"d":"42,-236r0,-99r216,0r0,-237r103,0r0,237r216,0r0,99r-216,0r0,236r-103,0r0,-236r-216,0xm56,85r508,0r0,98r-508,0r0,-98"},"\u00b2":{"d":"102,-267v-38,0,-50,-11,-50,-68v0,-86,65,-125,122,-158v45,-25,85,-50,85,-91v0,-29,-21,-47,-52,-47v-40,0,-52,16,-48,52r-88,0r0,-50v0,-63,86,-89,137,-89v80,0,148,48,148,132v0,90,-74,129,-132,161v-40,21,-74,41,-74,69v0,5,5,6,11,6r120,0v4,0,6,-2,6,-6r0,-33r88,0r0,73v0,34,-15,49,-49,49r-224,0","w":437},"\u00b3":{"d":"219,-259v-100,0,-165,-89,-165,-89r66,-59v0,0,42,59,98,59v36,0,64,-24,64,-57v1,-44,-49,-58,-103,-53r-13,-53v29,-37,60,-86,92,-118r0,-2v-15,2,-64,2,-87,2v-14,0,-7,21,-9,33r-88,0r0,-65v0,-36,11,-49,48,-49r246,0r0,65r-92,114v63,13,103,69,103,128v0,89,-77,144,-160,144","w":437},"\u00b4":{"d":"123,-757r76,-136r122,0r-105,136r-93,0","w":404},"\u00b5":{"d":"19,-402r0,-108r121,0v47,0,67,21,67,67r0,235v0,62,16,104,79,104v92,0,143,-81,143,-172r0,-234r127,0r0,381v-2,29,35,21,62,22r0,107r-117,0v-61,2,-73,-38,-66,-94r-3,0v0,0,-44,106,-175,106v-54,0,-69,-22,-74,-21v7,35,8,152,7,209r-109,0r0,-580v2,-30,-35,-20,-62,-22","w":638},"\u03bc":{"d":"19,-402r0,-108r121,0v47,0,67,21,67,67r0,235v0,62,16,104,79,104v92,0,143,-81,143,-172r0,-234r127,0r0,381v-2,29,35,21,62,22r0,107r-117,0v-61,2,-73,-38,-66,-94r-3,0v0,0,-44,106,-175,106v-54,0,-69,-22,-74,-21v7,35,8,152,7,209r-109,0r0,-580v2,-30,-35,-20,-62,-22","w":638},"\u00b6":{"d":"274,50r0,-291v-129,0,-235,-103,-235,-235v0,-132,106,-234,235,-234r305,0r0,111r-213,0r0,649r-92,0xm428,50r0,-594r93,0r0,594r-93,0","w":625},"\u00b7":{"d":"71,-229r0,-126r123,0r0,126r-123,0","w":265},"\u2219":{"d":"71,-229r0,-126r123,0r0,126r-123,0","w":265},"\u00b8":{"d":"162,-25r58,13v-1,21,-7,37,-10,56v40,5,73,29,73,76v0,66,-55,88,-108,88v-34,0,-62,-7,-62,-7r0,-70v0,0,21,8,44,8v24,0,43,-7,43,-28v0,-26,-45,-30,-69,-25","w":420},"\u00b9":{"d":"72,-267r0,-83r92,0r1,-236v-5,-1,-5,7,-13,15r-34,32r-56,-61r115,-110r83,0r0,360r91,0r0,83r-279,0","w":437},"\u00ba":{"d":"227,-384v-96,0,-175,-70,-175,-169v0,-98,79,-167,175,-167v97,0,176,69,176,167v0,99,-79,169,-176,169xm227,-464v47,0,85,-36,85,-89v0,-52,-38,-88,-85,-88v-46,0,-84,36,-84,88v0,53,38,89,84,89xm67,-266r0,-68r322,0r0,68r-322,0","w":455},"\u00bb":{"d":"283,-77r164,-205r-164,-206r121,0r164,206r-164,205r-121,0xm58,-77r164,-205r-164,-206r121,0r164,206r-164,205r-121,0","w":614},"\u00bc":{"d":"300,0r277,-710r99,0r-277,710r-99,0xm77,-267r0,-83r92,0r1,-236v-5,-1,-5,7,-13,15r-34,32r-56,-61r114,-110r83,0r0,360r87,0r0,83r-274,0xm538,-108r0,-56r175,-280r115,0r0,252r65,0r0,84r-65,0r0,108r-96,0r0,-108r-194,0xm635,-191v28,-2,68,-1,99,-1r1,-153v-6,-1,-7,14,-16,28r-70,107v-6,11,-15,15,-14,19","w":943},"\u00bd":{"d":"288,0r277,-710r98,0r-277,710r-98,0xm77,-267r0,-83r92,0r1,-236v-5,-1,-5,7,-13,15r-34,32r-56,-61r114,-110r83,0r0,360r87,0r0,83r-274,0xm567,-69v0,-85,65,-125,123,-158v44,-25,85,-49,85,-91v0,-28,-21,-46,-53,-46v-40,0,-51,16,-47,52r-88,0r0,-50v0,-63,86,-90,137,-90v80,0,148,49,148,133v0,90,-74,128,-133,160v-39,21,-73,42,-73,70v0,5,4,6,11,6r119,0v4,0,6,-2,6,-7r0,-32r89,0r0,73v0,34,-16,49,-50,49r-223,0v-38,0,-51,-11,-51,-69","w":943},"\u00be":{"d":"297,0r277,-710r98,0r-276,710r-99,0xm222,-259v-100,0,-164,-89,-164,-89r65,-59v0,0,42,59,98,59v36,0,64,-24,64,-57v1,-44,-49,-58,-103,-53r-13,-53v29,-37,60,-86,92,-118r0,-2v-15,2,-64,2,-87,2v-14,0,-7,21,-9,33r-88,0r0,-65v0,-36,11,-49,48,-49r246,0r0,65r-92,114v63,13,103,69,103,128v0,89,-77,144,-160,144xm538,-108r0,-56r175,-280r115,0r0,252r65,0r0,84r-65,0r0,108r-96,0r0,-108r-194,0xm635,-191v28,-2,68,-1,99,-1r1,-153v-6,-1,-7,14,-16,28r-70,107v-6,11,-15,15,-14,19","w":943},"\u00bf":{"d":"208,-392r0,-118r122,0r0,118r-122,0xm33,22v0,-164,175,-184,175,-292r0,-35r122,0r0,44v0,145,-164,169,-164,271v0,47,42,84,97,84v57,0,106,-43,106,-43r71,88v0,0,-70,71,-188,71v-113,0,-219,-69,-219,-188","w":476},"\u00c0":{"d":"11,0r0,-111v25,0,39,1,47,-22r211,-577r137,0r210,577v7,24,22,22,47,22r0,111r-78,0v-50,0,-68,-13,-84,-58r-44,-124r-240,0r-44,124v-16,45,-33,58,-83,58r-79,0xm247,-290r180,0r-61,-178v-13,-39,-28,-106,-28,-106r-2,0v-14,69,-63,210,-89,284xm288,-757r-104,-136r122,0r76,136r-94,0","w":674},"\u00c1":{"d":"11,0r0,-111v25,0,39,1,47,-22r211,-577r137,0r210,577v7,24,22,22,47,22r0,111r-78,0v-50,0,-68,-13,-84,-58r-44,-124r-240,0r-44,124v-16,45,-33,58,-83,58r-79,0xm247,-290r180,0r-61,-178v-13,-39,-28,-106,-28,-106r-2,0v-14,69,-63,210,-89,284xm288,-757r76,-136r122,0r-105,136r-93,0","w":674},"\u00c2":{"d":"11,0r0,-111v25,0,39,1,47,-22r211,-577r137,0r210,577v7,24,22,22,47,22r0,111r-78,0v-50,0,-68,-13,-84,-58r-44,-124r-240,0r-44,124v-16,45,-33,58,-83,58r-79,0xm247,-290r180,0r-61,-178v-13,-39,-28,-106,-28,-106r-2,0v-14,69,-63,210,-89,284xm192,-757r91,-136r109,0r92,136r-95,0r-50,-81r-2,0r-51,81r-94,0","w":674},"\u00c3":{"d":"11,0r0,-111v25,0,39,1,47,-22r211,-577r137,0r210,577v7,24,22,22,47,22r0,111r-78,0v-50,0,-68,-13,-84,-58r-44,-124r-240,0r-44,124v-16,45,-33,58,-83,58r-79,0xm247,-290r180,0r-61,-178v-13,-39,-28,-106,-28,-106r-2,0v-14,69,-63,210,-89,284xm156,-758v0,-91,38,-137,114,-137v69,0,86,65,128,65v28,0,41,-30,41,-62r79,0v0,90,-38,137,-114,137v-69,0,-86,-65,-128,-65v-28,0,-41,29,-41,62r-79,0","w":674},"\u00c4":{"d":"11,0r0,-111v25,0,39,1,47,-22r211,-577r137,0r210,577v7,24,22,22,47,22r0,111r-78,0v-50,0,-68,-13,-84,-58r-44,-124r-240,0r-44,124v-16,45,-33,58,-83,58r-79,0xm247,-290r180,0r-61,-178v-13,-39,-28,-106,-28,-106r-2,0v-14,69,-63,210,-89,284xm383,-777r0,-116r89,0r0,116r-89,0xm204,-777r0,-116r88,0r0,116r-88,0","w":674},"\u00c5":{"d":"11,0r0,-111v25,0,39,1,47,-22r211,-577r137,0r210,577v7,24,22,22,47,22r0,111r-78,0v-50,0,-68,-13,-84,-58r-44,-124r-240,0r-44,124v-16,45,-33,58,-83,58r-79,0xm247,-290r180,0r-61,-178v-13,-39,-28,-106,-28,-106r-2,0v-14,69,-63,210,-89,284xm337,-745v-45,0,-89,-27,-89,-78v0,-52,44,-79,89,-79v45,0,89,27,89,79v0,51,-44,78,-89,78xm337,-789v20,0,35,-14,35,-34v0,-21,-15,-35,-35,-35v-20,0,-35,14,-35,35v0,20,15,34,35,34","w":674},"\u00c6":{"d":"11,0r0,-111v25,0,36,0,45,-22r237,-577r483,0v48,0,68,21,68,68r0,108r-119,0v-2,-27,8,-65,-22,-65r-156,0r0,186r227,0r0,111r-227,0r0,169v0,16,8,22,25,22r158,0v30,1,21,-38,22,-65r118,0r0,108v0,48,-20,68,-68,68r-315,0v-51,0,-72,-17,-72,-68r0,-234r-159,0r-91,244v-17,44,-34,58,-84,58r-70,0xm298,-413r117,0r0,-186r-47,0","w":891},"\u00c7":{"d":"30,-361v0,-205,154,-361,360,-361v91,0,269,38,269,159r0,79r-119,0r0,-40v0,-52,-85,-76,-147,-76v-127,0,-227,91,-227,239v0,139,99,251,228,251v135,0,218,-93,218,-93r69,93v0,0,-96,115,-275,121r-7,33v40,5,73,29,73,76v0,66,-54,88,-108,88v-34,0,-61,-7,-61,-7r0,-70v0,0,21,8,43,8v24,0,44,-7,44,-28v0,-26,-45,-30,-69,-25r21,-77v-190,-22,-312,-176,-312,-370","w":709},"\u00c8":{"d":"99,-68r0,-531r-65,0r0,-111r429,0v47,0,68,21,68,68r0,108r-119,0v-2,-27,8,-65,-22,-65r-160,0r0,186r230,0r0,111r-230,0r0,169v0,14,8,22,22,22r164,0v30,1,21,-38,22,-65r119,0r0,108v0,48,-21,68,-68,68r-322,0v-48,0,-68,-20,-68,-68xm248,-757r-104,-136r122,0r76,136r-94,0","w":578},"\u00c9":{"d":"99,-68r0,-531r-65,0r0,-111r429,0v47,0,68,21,68,68r0,108r-119,0v-2,-27,8,-65,-22,-65r-160,0r0,186r230,0r0,111r-230,0r0,169v0,14,8,22,22,22r164,0v30,1,21,-38,22,-65r119,0r0,108v0,48,-21,68,-68,68r-322,0v-48,0,-68,-20,-68,-68xm248,-757r76,-136r122,0r-105,136r-93,0","w":578},"\u00ca":{"d":"99,-68r0,-531r-65,0r0,-111r429,0v47,0,68,21,68,68r0,108r-119,0v-2,-27,8,-65,-22,-65r-160,0r0,186r230,0r0,111r-230,0r0,169v0,14,8,22,22,22r164,0v30,1,21,-38,22,-65r119,0r0,108v0,48,-21,68,-68,68r-322,0v-48,0,-68,-20,-68,-68xm151,-757r91,-136r109,0r92,136r-95,0r-50,-81r-2,0r-51,81r-94,0","w":578},"\u00cb":{"d":"99,-68r0,-531r-65,0r0,-111r429,0v47,0,68,21,68,68r0,108r-119,0v-2,-27,8,-65,-22,-65r-160,0r0,186r230,0r0,111r-230,0r0,169v0,14,8,22,22,22r164,0v30,1,21,-38,22,-65r119,0r0,108v0,48,-21,68,-68,68r-322,0v-48,0,-68,-20,-68,-68xm343,-777r0,-116r89,0r0,116r-89,0xm164,-777r0,-116r88,0r0,116r-88,0","w":578},"\u00cc":{"d":"38,0r0,-111r71,0r0,-488r-71,0r0,-111r266,0r0,111r-71,0r0,488r71,0r0,111r-266,0xm122,-757r-104,-136r122,0r76,136r-94,0","w":342},"\u00cd":{"d":"38,0r0,-111r71,0r0,-488r-71,0r0,-111r266,0r0,111r-71,0r0,488r71,0r0,111r-266,0xm122,-757r76,-136r122,0r-105,136r-93,0","w":342},"\u00ce":{"d":"38,0r0,-111r71,0r0,-488r-71,0r0,-111r266,0r0,111r-71,0r0,488r71,0r0,111r-266,0xm25,-757r91,-136r109,0r92,136r-95,0r-50,-81r-2,0r-51,81r-94,0","w":342},"\u00cf":{"d":"38,0r0,-111r71,0r0,-488r-71,0r0,-111r266,0r0,111r-71,0r0,488r71,0r0,111r-266,0xm216,-777r0,-116r89,0r0,116r-89,0xm37,-777r0,-116r88,0r0,116r-88,0","w":342},"\u00d0":{"d":"99,-68r0,-233r-48,0r0,-105r48,0r0,-193r-65,0r0,-111r289,0v219,0,362,130,362,354v0,224,-143,356,-362,356r-156,0v-48,0,-68,-20,-68,-68xm230,-133v0,36,54,22,86,22v142,0,233,-85,233,-245v0,-158,-93,-243,-233,-243r-86,0r0,193r123,0r0,105r-123,0r0,168","w":715},"\u00d1":{"d":"34,0r0,-111v27,-2,65,8,65,-22r0,-577r118,0r269,393v28,41,59,100,59,100r2,0v0,0,-7,-59,-7,-100r0,-325v0,-47,20,-68,68,-68r128,0r0,111v-27,2,-65,-8,-65,22r0,577r-117,0r-270,-392v-28,-40,-59,-100,-59,-100r-2,0v0,0,7,59,7,100r0,324v0,48,-20,68,-68,68r-128,0xm212,-758v0,-91,38,-137,114,-137v69,0,86,65,128,65v28,0,41,-30,41,-62r79,0v0,90,-38,137,-114,137v-69,0,-86,-65,-128,-65v-28,0,-41,29,-41,62r-79,0","w":770},"\u00d2":{"d":"30,-360v0,-203,158,-362,367,-362v209,0,367,159,367,362v0,209,-158,372,-367,372v-209,0,-367,-163,-367,-372xm166,-360v0,142,103,250,231,250v128,0,231,-108,231,-250v0,-136,-103,-240,-231,-240v-128,0,-231,104,-231,240xm346,-757r-104,-136r122,0r76,136r-94,0","w":794},"\u00d3":{"d":"30,-360v0,-203,158,-362,367,-362v209,0,367,159,367,362v0,209,-158,372,-367,372v-209,0,-367,-163,-367,-372xm166,-360v0,142,103,250,231,250v128,0,231,-108,231,-250v0,-136,-103,-240,-231,-240v-128,0,-231,104,-231,240xm346,-757r76,-136r122,0r-105,136r-93,0","w":794},"\u00d4":{"d":"30,-360v0,-203,158,-362,367,-362v209,0,367,159,367,362v0,209,-158,372,-367,372v-209,0,-367,-163,-367,-372xm166,-360v0,142,103,250,231,250v128,0,231,-108,231,-250v0,-136,-103,-240,-231,-240v-128,0,-231,104,-231,240xm249,-757r91,-136r109,0r92,136r-95,0r-50,-81r-2,0r-51,81r-94,0","w":794},"\u00d5":{"d":"30,-360v0,-203,158,-362,367,-362v209,0,367,159,367,362v0,209,-158,372,-367,372v-209,0,-367,-163,-367,-372xm166,-360v0,142,103,250,231,250v128,0,231,-108,231,-250v0,-136,-103,-240,-231,-240v-128,0,-231,104,-231,240xm213,-758v0,-91,38,-137,114,-137v69,0,86,65,128,65v28,0,41,-30,41,-62r79,0v0,90,-38,137,-114,137v-69,0,-86,-65,-128,-65v-28,0,-41,29,-41,62r-79,0","w":794},"\u00d6":{"d":"30,-360v0,-203,158,-362,367,-362v209,0,367,159,367,362v0,209,-158,372,-367,372v-209,0,-367,-163,-367,-372xm166,-360v0,142,103,250,231,250v128,0,231,-108,231,-250v0,-136,-103,-240,-231,-240v-128,0,-231,104,-231,240xm440,-777r0,-116r89,0r0,116r-89,0xm261,-777r0,-116r88,0r0,116r-88,0","w":794},"\u00d7":{"d":"46,-69r197,-217r-197,-216r69,-70r195,214r195,-214r69,70r-198,216r198,217r-69,69r-195,-214r-195,214"},"\u00d8":{"d":"109,-13r45,-64v-76,-68,-123,-168,-123,-283v0,-203,158,-362,367,-362v68,0,132,18,186,49r46,-63r57,39r-46,63v76,67,124,164,124,274v0,209,-159,372,-367,372v-69,0,-133,-18,-186,-49r-46,63xm233,-185r277,-385v-33,-19,-71,-30,-112,-30v-128,0,-231,104,-231,240v0,70,25,131,66,175xm286,-140v33,20,71,30,112,30v127,0,230,-108,230,-250v0,-65,-25,-123,-65,-165","w":795},"\u00d9":{"d":"91,-253r0,-324v1,-30,-38,-21,-65,-22r0,-111r128,0v48,0,68,21,68,68r0,385v0,93,59,147,148,147v89,0,148,-54,148,-148r0,-384v0,-47,20,-68,68,-68r128,0r0,111v-27,2,-65,-8,-65,22r0,324v0,157,-111,265,-278,265v-169,0,-280,-108,-280,-265xm322,-757r-104,-136r122,0r76,136r-94,0","w":740},"\u00da":{"d":"91,-253r0,-324v1,-30,-38,-21,-65,-22r0,-111r128,0v48,0,68,21,68,68r0,385v0,93,59,147,148,147v89,0,148,-54,148,-148r0,-384v0,-47,20,-68,68,-68r128,0r0,111v-27,2,-65,-8,-65,22r0,324v0,157,-111,265,-278,265v-169,0,-280,-108,-280,-265xm322,-757r76,-136r122,0r-105,136r-93,0","w":740},"\u00db":{"d":"91,-253r0,-324v1,-30,-38,-21,-65,-22r0,-111r128,0v48,0,68,21,68,68r0,385v0,93,59,147,148,147v89,0,148,-54,148,-148r0,-384v0,-47,20,-68,68,-68r128,0r0,111v-27,2,-65,-8,-65,22r0,324v0,157,-111,265,-278,265v-169,0,-280,-108,-280,-265xm225,-757r91,-136r109,0r92,136r-95,0r-50,-81r-2,0r-51,81r-94,0","w":740},"\u00dc":{"d":"91,-253r0,-324v1,-30,-38,-21,-65,-22r0,-111r128,0v48,0,68,21,68,68r0,385v0,93,59,147,148,147v89,0,148,-54,148,-148r0,-384v0,-47,20,-68,68,-68r128,0r0,111v-27,2,-65,-8,-65,22r0,324v0,157,-111,265,-278,265v-169,0,-280,-108,-280,-265xm416,-777r0,-116r89,0r0,116r-89,0xm237,-777r0,-116r88,0r0,116r-88,0","w":740},"\u00dd":{"d":"242,0r0,-310r-168,-265v-15,-27,-30,-24,-64,-24r0,-111r67,0v46,0,66,7,93,52r94,156v28,42,39,81,45,80v23,-50,101,-177,136,-236v26,-45,47,-52,93,-52r67,0r0,111v-34,0,-47,-2,-64,24r-168,265r0,310r-131,0xm259,-757r76,-136r122,0r-105,136r-93,0","w":615},"\u00de":{"d":"99,0r0,-577v1,-30,-38,-21,-65,-22r0,-111r128,0v48,0,68,21,68,68r0,47r129,0v133,0,226,93,226,231v0,138,-93,233,-227,233r-128,0r0,131r-131,0xm230,-242r105,0v74,0,116,-48,116,-122v0,-74,-42,-120,-114,-120r-107,0r0,242","w":610},"\u00df":{"d":"18,0r0,-107v26,-1,57,6,57,-22r0,-400v0,-126,114,-193,231,-193v115,0,207,74,207,174v0,89,-90,115,-90,173v0,60,162,94,162,226v0,108,-86,161,-180,161v-97,0,-148,-42,-148,-42r29,-98v0,0,46,32,100,32v37,0,71,-15,71,-60v0,-70,-162,-104,-162,-216v0,-78,90,-110,90,-174v0,-35,-29,-68,-83,-68v-51,0,-100,28,-100,94r0,452v0,48,-20,68,-68,68r-116,0","w":598},"\u00e0":{"d":"33,-147v0,-160,220,-173,303,-173r16,0v1,-75,-28,-105,-94,-104v-23,0,-68,6,-68,34r0,27r-118,0r0,-54v0,-95,134,-105,187,-105v170,0,220,89,220,203r0,190v-2,29,35,21,62,22r0,107r-114,0v-56,-1,-70,-34,-64,-78r-2,0v0,0,-39,90,-154,90v-91,0,-174,-57,-174,-159xm161,-153v0,34,25,66,77,66v72,0,120,-74,116,-146v-78,-1,-193,2,-193,80xm222,-573r-104,-136r122,0r76,136r-94,0","w":560},"\u00e1":{"d":"33,-147v0,-160,220,-173,303,-173r16,0v1,-75,-28,-105,-94,-104v-23,0,-68,6,-68,34r0,27r-118,0r0,-54v0,-95,134,-105,187,-105v170,0,220,89,220,203r0,190v-2,29,35,21,62,22r0,107r-114,0v-56,-1,-70,-34,-64,-78r-2,0v0,0,-39,90,-154,90v-91,0,-174,-57,-174,-159xm161,-153v0,34,25,66,77,66v72,0,120,-74,116,-146v-78,-1,-193,2,-193,80xm222,-573r76,-136r122,0r-105,136r-93,0","w":560},"\u00e2":{"d":"33,-147v0,-160,220,-173,303,-173r16,0v1,-75,-28,-105,-94,-104v-23,0,-68,6,-68,34r0,27r-118,0r0,-54v0,-95,134,-105,187,-105v170,0,220,89,220,203r0,190v-2,29,35,21,62,22r0,107r-114,0v-56,-1,-70,-34,-64,-78r-2,0v0,0,-39,90,-154,90v-91,0,-174,-57,-174,-159xm161,-153v0,34,25,66,77,66v72,0,120,-74,116,-146v-78,-1,-193,2,-193,80xm126,-573r91,-136r109,0r92,136r-95,0r-50,-81r-2,0r-51,81r-94,0","w":560},"\u00e3":{"d":"33,-147v0,-160,220,-173,303,-173r16,0v1,-75,-28,-105,-94,-104v-23,0,-68,6,-68,34r0,27r-118,0r0,-54v0,-95,134,-105,187,-105v170,0,220,89,220,203r0,190v-2,29,35,21,62,22r0,107r-114,0v-56,-1,-70,-34,-64,-78r-2,0v0,0,-39,90,-154,90v-91,0,-174,-57,-174,-159xm161,-153v0,34,25,66,77,66v72,0,120,-74,116,-146v-78,-1,-193,2,-193,80xm90,-574v0,-91,38,-137,114,-137v69,0,86,65,128,65v28,0,41,-30,41,-62r79,0v0,90,-38,137,-114,137v-69,0,-86,-65,-128,-65v-28,0,-41,29,-41,62r-79,0","w":560},"\u00e4":{"d":"33,-147v0,-160,220,-173,303,-173r16,0v1,-75,-28,-105,-94,-104v-23,0,-68,6,-68,34r0,27r-118,0r0,-54v0,-95,134,-105,187,-105v170,0,220,89,220,203r0,190v-2,29,35,21,62,22r0,107r-114,0v-56,-1,-70,-34,-64,-78r-2,0v0,0,-39,90,-154,90v-91,0,-174,-57,-174,-159xm161,-153v0,34,25,66,77,66v72,0,120,-74,116,-146v-78,-1,-193,2,-193,80xm317,-593r0,-116r89,0r0,116r-89,0xm138,-593r0,-116r88,0r0,116r-88,0","w":560},"\u00e5":{"d":"33,-147v0,-160,220,-173,303,-173r16,0v1,-75,-28,-105,-94,-104v-23,0,-68,6,-68,34r0,27r-118,0r0,-54v0,-95,134,-105,187,-105v170,0,220,89,220,203r0,190v-2,29,35,21,62,22r0,107r-114,0v-56,-1,-70,-34,-64,-78r-2,0v0,0,-39,90,-154,90v-91,0,-174,-57,-174,-159xm161,-153v0,34,25,66,77,66v72,0,120,-74,116,-146v-78,-1,-193,2,-193,80xm271,-561v-45,0,-89,-27,-89,-78v0,-52,44,-79,89,-79v45,0,89,27,89,79v0,51,-44,78,-89,78xm271,-605v20,0,35,-14,35,-34v0,-21,-15,-35,-35,-35v-20,0,-35,14,-35,35v0,20,15,34,35,34","w":560},"\u00e6":{"d":"34,-147v0,-158,206,-172,302,-172r17,0v2,-77,-32,-106,-95,-105v-24,0,-68,6,-68,34r0,27r-118,0r0,-54v0,-84,107,-105,187,-105v92,0,141,29,170,75r2,0v40,-49,97,-75,170,-75v162,0,237,130,222,291r-349,0v11,91,73,135,150,135v82,0,143,-57,143,-57r53,88v0,0,-78,77,-205,77v-101,0,-172,-43,-214,-112r-2,0v-10,24,-64,111,-191,111v-94,0,-174,-58,-174,-158xm479,-319r217,0v-2,-62,-44,-104,-97,-104v-64,0,-107,41,-120,104xm162,-153v0,35,25,66,78,66v72,0,118,-73,115,-144v-84,-2,-193,2,-193,78","w":866},"\u00e7":{"d":"32,-255v0,-144,104,-267,279,-267v66,0,185,27,185,115r0,60r-112,0r0,-28v0,-28,-42,-40,-73,-40v-88,0,-151,67,-151,159v0,104,77,157,159,157v87,0,151,-69,151,-69r53,88v0,0,-74,90,-211,92r-7,32v40,5,72,29,72,76v0,66,-54,88,-107,88v-35,0,-62,-7,-62,-7r0,-70v0,0,21,8,44,8v23,0,43,-7,43,-28v0,-26,-45,-30,-69,-25r22,-80v-133,-24,-216,-130,-216,-261","w":538},"\u00e8":{"d":"32,-255v0,-157,106,-267,259,-267v161,0,243,127,223,289r-352,0v10,90,76,137,153,137v82,0,143,-57,143,-57r53,88v0,0,-78,77,-205,77v-169,0,-274,-122,-274,-267xm166,-321r221,0v-2,-61,-44,-103,-96,-103v-65,0,-111,39,-125,103xm239,-573r-104,-136r122,0r76,136r-94,0","w":557},"\u00e9":{"d":"32,-255v0,-157,106,-267,259,-267v161,0,243,127,223,289r-352,0v10,90,76,137,153,137v82,0,143,-57,143,-57r53,88v0,0,-78,77,-205,77v-169,0,-274,-122,-274,-267xm166,-321r221,0v-2,-61,-44,-103,-96,-103v-65,0,-111,39,-125,103xm239,-573r76,-136r122,0r-105,136r-93,0","w":557},"\u00ea":{"d":"32,-255v0,-157,106,-267,259,-267v161,0,243,127,223,289r-352,0v10,90,76,137,153,137v82,0,143,-57,143,-57r53,88v0,0,-78,77,-205,77v-169,0,-274,-122,-274,-267xm166,-321r221,0v-2,-61,-44,-103,-96,-103v-65,0,-111,39,-125,103xm142,-573r91,-136r109,0r92,136r-95,0r-50,-81r-2,0r-51,81r-94,0","w":557},"\u00eb":{"d":"32,-255v0,-157,106,-267,259,-267v161,0,243,127,223,289r-352,0v10,90,76,137,153,137v82,0,143,-57,143,-57r53,88v0,0,-78,77,-205,77v-169,0,-274,-122,-274,-267xm166,-321r221,0v-2,-61,-44,-103,-96,-103v-65,0,-111,39,-125,103xm333,-593r0,-116r89,0r0,116r-89,0xm154,-593r0,-116r88,0r0,116r-88,0","w":557},"\u00ec":{"d":"88,-68r0,-312v2,-30,-35,-20,-62,-22r0,-108r121,0v47,0,68,21,68,68r0,313v-2,29,34,21,61,22r0,107r-120,0v-48,0,-68,-20,-68,-68xm95,-573r-104,-137r121,0r76,137r-93,0","w":302},"\u00ed":{"d":"88,-68r0,-312v2,-30,-35,-20,-62,-22r0,-108r121,0v47,0,68,21,68,68r0,313v-2,29,34,21,61,22r0,107r-120,0v-48,0,-68,-20,-68,-68xm95,-573r76,-137r121,0r-104,137r-93,0","w":302},"\u00ee":{"d":"88,-68r0,-312v2,-30,-35,-20,-62,-22r0,-108r121,0v47,0,68,21,68,68r0,313v-2,29,34,21,61,22r0,107r-120,0v-48,0,-68,-20,-68,-68xm-3,-573r92,-137r109,0r92,137r-96,0r-50,-82r-2,0r-50,82r-95,0","w":302},"\u00ef":{"d":"88,-68r0,-312v2,-30,-35,-20,-62,-22r0,-108r121,0v47,0,68,21,68,68r0,313v-2,29,34,21,61,22r0,107r-120,0v-48,0,-68,-20,-68,-68xm174,-593r0,-117r89,0r0,117r-89,0xm20,-593r0,-117r88,0r0,117r-88,0","w":302},"\u00f0":{"d":"38,-237v0,-118,85,-228,235,-228v67,0,99,30,104,29v-19,-42,-52,-79,-94,-106r-185,80r-6,-75r111,-49v-37,-18,-78,-31,-115,-40r35,-100v76,17,152,44,216,83r148,-63r6,74r-88,39v82,72,137,176,137,315v0,136,-71,290,-260,290v-156,0,-244,-122,-244,-249xm166,-234v0,70,38,139,119,139v93,0,129,-85,129,-160v0,-64,-45,-111,-118,-111v-88,0,-130,65,-130,132","w":585},"\u00f1":{"d":"356,-406v-91,1,-147,72,-147,172r0,234r-126,0r0,-380v2,-30,-35,-20,-62,-22r0,-108r117,0v61,-2,74,40,65,94r2,0v22,-43,77,-106,180,-106v113,0,178,59,178,194r0,199v-2,29,35,21,62,22r0,107r-121,0v-48,0,-68,-20,-68,-68r0,-234v0,-62,-16,-104,-80,-104xm147,-574v0,-91,38,-137,114,-137v69,0,86,65,128,65v28,0,41,-30,41,-62r79,0v0,90,-38,137,-114,137v-69,0,-86,-65,-128,-65v-28,0,-41,29,-41,62r-79,0","w":643},"\u00f2":{"d":"32,-255v0,-156,124,-267,279,-267v156,0,280,111,280,267v0,157,-124,267,-280,267v-155,0,-279,-110,-279,-267xm160,-255v0,95,69,159,151,159v83,0,152,-64,152,-159v0,-94,-69,-159,-152,-159v-82,0,-151,65,-151,159xm262,-573r-104,-136r122,0r76,136r-94,0","w":623},"\u00f3":{"d":"32,-255v0,-156,124,-267,279,-267v156,0,280,111,280,267v0,157,-124,267,-280,267v-155,0,-279,-110,-279,-267xm160,-255v0,95,69,159,151,159v83,0,152,-64,152,-159v0,-94,-69,-159,-152,-159v-82,0,-151,65,-151,159xm263,-573r76,-136r122,0r-105,136r-93,0","w":623},"\u00f4":{"d":"32,-255v0,-156,124,-267,279,-267v156,0,280,111,280,267v0,157,-124,267,-280,267v-155,0,-279,-110,-279,-267xm160,-255v0,95,69,159,151,159v83,0,152,-64,152,-159v0,-94,-69,-159,-152,-159v-82,0,-151,65,-151,159xm166,-573r91,-136r109,0r92,136r-95,0r-50,-81r-2,0r-51,81r-94,0","w":623},"\u00f5":{"d":"32,-255v0,-156,124,-267,279,-267v156,0,280,111,280,267v0,157,-124,267,-280,267v-155,0,-279,-110,-279,-267xm160,-255v0,95,69,159,151,159v83,0,152,-64,152,-159v0,-94,-69,-159,-152,-159v-82,0,-151,65,-151,159xm130,-574v0,-91,38,-137,114,-137v69,0,86,65,128,65v28,0,41,-30,41,-62r79,0v0,90,-38,137,-114,137v-69,0,-86,-65,-128,-65v-28,0,-41,29,-41,62r-79,0","w":623},"\u00f6":{"d":"32,-255v0,-156,124,-267,279,-267v156,0,280,111,280,267v0,157,-124,267,-280,267v-155,0,-279,-110,-279,-267xm160,-255v0,95,69,159,151,159v83,0,152,-64,152,-159v0,-94,-69,-159,-152,-159v-82,0,-151,65,-151,159xm357,-593r0,-116r89,0r0,116r-89,0xm178,-593r0,-116r88,0r0,116r-88,0","w":623},"\u00f7":{"d":"249,-437r0,-108r114,0r0,108r-114,0xm46,-236r0,-99r521,0r0,99r-521,0xm249,-27r0,-108r114,0r0,108r-114,0"},"\u00f8":{"d":"90,4r38,-53v-59,-48,-96,-120,-96,-206v0,-156,124,-267,279,-267v48,0,95,12,134,32r41,-57r55,38r-40,55v55,48,90,117,90,199v0,157,-124,267,-280,267v-45,0,-88,-9,-125,-27r-41,58xm199,-147r179,-251v-104,-50,-220,24,-218,143v0,44,15,80,39,108xm253,-108v106,42,211,-32,210,-147v0,-39,-13,-73,-34,-98","w":623},"\u00f9":{"d":"81,-182r0,-198v2,-30,-35,-20,-62,-22r0,-108r121,0v47,0,67,21,67,67r0,235v0,62,16,104,79,104v92,0,143,-81,143,-172r0,-234r127,0r0,381v-2,29,35,21,62,22r0,107r-117,0v-59,2,-73,-38,-66,-94r-2,0v-24,53,-88,106,-176,106v-109,0,-176,-55,-176,-194xm264,-573r-104,-136r122,0r76,136r-94,0","w":638},"\u00fa":{"d":"81,-182r0,-198v2,-30,-35,-20,-62,-22r0,-108r121,0v47,0,67,21,67,67r0,235v0,62,16,104,79,104v92,0,143,-81,143,-172r0,-234r127,0r0,381v-2,29,35,21,62,22r0,107r-117,0v-59,2,-73,-38,-66,-94r-2,0v-24,53,-88,106,-176,106v-109,0,-176,-55,-176,-194xm264,-573r76,-136r122,0r-105,136r-93,0","w":638},"\u00fb":{"d":"81,-182r0,-198v2,-30,-35,-20,-62,-22r0,-108r121,0v47,0,67,21,67,67r0,235v0,62,16,104,79,104v92,0,143,-81,143,-172r0,-234r127,0r0,381v-2,29,35,21,62,22r0,107r-117,0v-59,2,-73,-38,-66,-94r-2,0v-24,53,-88,106,-176,106v-109,0,-176,-55,-176,-194xm167,-573r91,-136r109,0r92,136r-95,0r-50,-81r-2,0r-51,81r-94,0","w":638},"\u00fc":{"d":"81,-182r0,-198v2,-30,-35,-20,-62,-22r0,-108r121,0v47,0,67,21,67,67r0,235v0,62,16,104,79,104v92,0,143,-81,143,-172r0,-234r127,0r0,381v-2,29,35,21,62,22r0,107r-117,0v-59,2,-73,-38,-66,-94r-2,0v-24,53,-88,106,-176,106v-109,0,-176,-55,-176,-194xm359,-593r0,-116r89,0r0,116r-89,0xm180,-593r0,-116r88,0r0,116r-88,0","w":638},"\u00fd":{"d":"50,68v0,0,31,35,73,35v35,0,66,-21,84,-65r17,-39r-170,-383v-7,-20,-20,-18,-42,-18r0,-108r84,0v36,0,54,13,67,48r100,255v10,26,18,68,18,68r2,0v0,0,8,-42,17,-68r87,-255v12,-35,33,-48,68,-48r86,0r0,108v-22,0,-37,-2,-44,18r-183,461v-36,92,-108,133,-184,133v-80,0,-129,-52,-129,-52xm230,-573r76,-136r122,0r-105,136r-93,0","w":553},"\u00fe":{"d":"80,200r0,-780v2,-30,-35,-20,-62,-22r0,-108r121,0v48,0,68,21,68,68r0,145v2,27,-6,45,0,44v30,-43,77,-69,149,-69v140,0,230,113,230,267v0,153,-90,267,-230,267v-110,0,-149,-68,-149,-68r-2,0v4,69,1,179,2,256r-127,0xm203,-255v0,119,61,159,130,159v76,0,125,-68,125,-159v0,-92,-49,-159,-125,-159v-71,0,-130,41,-130,159","w":618},"\u00ff":{"d":"50,68v0,0,31,35,73,35v35,0,66,-21,84,-65r17,-39r-170,-383v-7,-20,-20,-18,-42,-18r0,-108r84,0v36,0,54,13,67,48r100,255v10,26,18,68,18,68r2,0v0,0,8,-42,17,-68r87,-255v12,-35,33,-48,68,-48r86,0r0,108v-22,0,-37,-2,-44,18r-183,461v-36,92,-108,133,-184,133v-80,0,-129,-52,-129,-52xm324,-593r0,-116r89,0r0,116r-89,0xm145,-593r0,-116r88,0r0,116r-88,0","w":553},"\u0100":{"d":"11,0r0,-111v25,0,39,1,47,-22r211,-577r137,0r210,577v7,24,22,22,47,22r0,111r-78,0v-50,0,-68,-13,-84,-58r-44,-124r-240,0r-44,124v-16,45,-33,58,-83,58r-79,0xm247,-290r180,0r-61,-178v-13,-39,-28,-106,-28,-106r-2,0v-14,69,-63,210,-89,284xm207,-783r0,-84r262,0r0,84r-262,0","w":674},"\u0101":{"d":"33,-147v0,-160,220,-173,303,-173r16,0v1,-75,-28,-105,-94,-104v-23,0,-68,6,-68,34r0,27r-118,0r0,-54v0,-95,134,-105,187,-105v170,0,220,89,220,203r0,190v-2,29,35,21,62,22r0,107r-114,0v-56,-1,-70,-34,-64,-78r-2,0v0,0,-39,90,-154,90v-91,0,-174,-57,-174,-159xm161,-153v0,34,25,66,77,66v72,0,120,-74,116,-146v-78,-1,-193,2,-193,80xm141,-599r0,-84r262,0r0,84r-262,0","w":560},"\u0102":{"d":"11,0r0,-111v25,0,39,1,47,-22r211,-577r137,0r210,577v7,24,22,22,47,22r0,111r-78,0v-50,0,-68,-13,-84,-58r-44,-124r-240,0r-44,124v-16,45,-33,58,-83,58r-79,0xm247,-290r180,0r-61,-178v-13,-39,-28,-106,-28,-106r-2,0v-14,69,-63,210,-89,284xm480,-881v-2,169,-284,170,-286,0r0,-12r81,0v-5,48,28,71,62,71v33,0,67,-23,62,-71r81,0r0,12","w":674},"\u0103":{"d":"33,-147v0,-160,220,-173,303,-173r16,0v1,-75,-28,-105,-94,-104v-23,0,-68,6,-68,34r0,27r-118,0r0,-54v0,-95,134,-105,187,-105v170,0,220,89,220,203r0,190v-2,29,35,21,62,22r0,107r-114,0v-56,-1,-70,-34,-64,-78r-2,0v0,0,-39,90,-154,90v-91,0,-174,-57,-174,-159xm161,-153v0,34,25,66,77,66v72,0,120,-74,116,-146v-78,-1,-193,2,-193,80xm414,-697v-2,169,-284,170,-286,0r0,-12r81,0v-5,48,28,71,62,71v33,0,67,-23,62,-71r81,0r0,12","w":560},"\u0104":{"d":"11,0r0,-111v25,0,39,1,47,-22r211,-577r137,0r210,577v7,24,22,22,47,22r0,111v-19,16,-55,49,-55,78v0,32,48,36,48,36r-30,94v0,0,-123,-11,-123,-96v0,-52,38,-90,67,-112r0,-2v-40,-3,-55,-17,-69,-56r-44,-124r-240,0r-44,124v-16,45,-33,58,-83,58r-79,0xm247,-290r180,0r-61,-178v-13,-39,-28,-106,-28,-106r-2,0v-14,69,-63,210,-89,284","w":674},"\u0105":{"d":"33,-147v0,-161,220,-173,305,-173r14,0v1,-75,-28,-105,-94,-104v-23,0,-68,6,-68,34r0,27r-118,0r0,-54v0,-94,134,-105,187,-105v170,0,220,89,220,203r0,190v-2,29,35,21,62,22r0,107v-19,16,-56,49,-56,78v0,32,49,36,49,36r-30,94v0,0,-123,-11,-123,-96v0,-51,37,-87,66,-110r0,-2r-25,0v-56,-3,-66,-37,-59,-78r-2,0v0,0,-37,90,-156,90v-93,0,-172,-60,-172,-159xm161,-153v0,34,25,66,77,66v72,0,120,-74,116,-146v-78,-1,-193,4,-193,80","w":560},"\u0106":{"d":"30,-361v0,-205,154,-361,360,-361v91,0,269,38,269,159r0,79r-119,0r0,-40v0,-52,-85,-76,-147,-76v-127,0,-227,91,-227,239v0,139,102,251,231,251v134,0,215,-94,215,-94r69,94v0,0,-103,122,-286,122v-217,0,-365,-163,-365,-373xm337,-757r76,-136r122,0r-105,136r-93,0","w":709},"\u0107":{"d":"32,-255v0,-144,104,-267,279,-267v66,0,185,27,185,115r0,60r-112,0r0,-28v0,-28,-42,-40,-73,-40v-88,0,-151,67,-151,159v0,104,77,157,159,157v87,0,151,-69,151,-69r53,88v0,0,-76,92,-215,92v-168,0,-276,-119,-276,-267xm243,-573r76,-136r122,0r-105,136r-93,0","w":538},"\u0108":{"d":"30,-361v0,-205,154,-361,360,-361v91,0,269,38,269,159r0,79r-119,0r0,-40v0,-52,-85,-76,-147,-76v-127,0,-227,91,-227,239v0,139,102,251,231,251v134,0,215,-94,215,-94r69,94v0,0,-103,122,-286,122v-217,0,-365,-163,-365,-373xm241,-757r91,-136r109,0r92,136r-95,0r-50,-81r-2,0r-51,81r-94,0","w":709},"\u0109":{"d":"32,-255v0,-144,104,-267,279,-267v66,0,185,27,185,115r0,60r-112,0r0,-28v0,-28,-42,-40,-73,-40v-88,0,-151,67,-151,159v0,104,77,157,159,157v87,0,151,-69,151,-69r53,88v0,0,-76,92,-215,92v-168,0,-276,-119,-276,-267xm146,-573r91,-136r109,0r92,136r-95,0r-50,-81r-2,0r-51,81r-94,0","w":538},"\u010a":{"d":"30,-361v0,-205,154,-361,360,-361v91,0,269,38,269,159r0,79r-119,0r0,-40v0,-52,-85,-76,-147,-76v-127,0,-227,91,-227,239v0,139,102,251,231,251v134,0,215,-94,215,-94r69,94v0,0,-103,122,-286,122v-217,0,-365,-163,-365,-373xm332,-777r0,-116r110,0r0,116r-110,0","w":709},"\u010b":{"d":"32,-255v0,-144,104,-267,279,-267v66,0,185,27,185,115r0,60r-112,0r0,-28v0,-28,-42,-40,-73,-40v-88,0,-151,67,-151,159v0,104,77,157,159,157v87,0,151,-69,151,-69r53,88v0,0,-76,92,-215,92v-168,0,-276,-119,-276,-267xm237,-593r0,-116r110,0r0,116r-110,0","w":538},"\u010c":{"d":"30,-361v0,-205,154,-361,360,-361v91,0,269,38,269,159r0,79r-119,0r0,-40v0,-52,-85,-76,-147,-76v-127,0,-227,91,-227,239v0,139,102,251,231,251v134,0,215,-94,215,-94r69,94v0,0,-103,122,-286,122v-217,0,-365,-163,-365,-373xm332,-757r-92,-136r95,0r50,81r2,0r50,-81r96,0r-93,136r-108,0","w":709},"\u010d":{"d":"32,-255v0,-144,104,-267,279,-267v66,0,185,27,185,115r0,60r-112,0r0,-28v0,-28,-42,-40,-73,-40v-88,0,-151,67,-151,159v0,104,77,157,159,157v87,0,151,-69,151,-69r53,88v0,0,-76,92,-215,92v-168,0,-276,-119,-276,-267xm238,-573r-92,-136r95,0r50,81r2,0r50,-81r96,0r-93,136r-108,0","w":538},"\u010e":{"d":"99,-68r0,-531r-65,0r0,-111r289,0v219,0,362,130,362,354v0,224,-143,356,-362,356r-156,0v-48,0,-68,-20,-68,-68xm230,-133v0,36,54,22,86,22v142,0,233,-85,233,-245v0,-158,-93,-243,-233,-243r-86,0r0,466xm281,-757r-92,-136r95,0r50,81r2,0r50,-81r96,0r-93,136r-108,0","w":715},"\u010f":{"d":"32,-255v0,-162,97,-267,232,-267v111,0,147,62,147,62r2,0v-2,-28,-1,-86,-1,-120v0,-30,-35,-20,-62,-22r0,-108r121,0v47,0,68,21,68,68r0,513v-2,29,34,21,61,22r0,107r-117,0v-54,-2,-66,-26,-63,-71r-2,0v0,0,-42,83,-159,83v-138,0,-227,-109,-227,-267xm287,-95v66,0,128,-48,128,-161v0,-79,-41,-157,-126,-157v-70,0,-128,57,-128,158v0,97,51,160,126,160xm586,-710r95,0v15,57,6,93,-19,145r-84,0v20,-55,27,-89,8,-145","w":719},"\u0110":{"d":"99,-68r0,-233r-48,0r0,-105r48,0r0,-193r-65,0r0,-111r289,0v219,0,362,130,362,354v0,224,-143,356,-362,356r-156,0v-48,0,-68,-20,-68,-68xm230,-133v0,36,54,22,86,22v142,0,233,-85,233,-245v0,-158,-93,-243,-233,-243r-86,0r0,193r123,0r0,105r-123,0r0,168","w":715},"\u0111":{"d":"259,12v-138,0,-227,-109,-227,-267v0,-162,97,-267,232,-267v111,0,147,62,147,62r2,0v-1,-20,-1,-73,-1,-99r-127,0r0,-76r127,0r0,-75r127,0r0,75r74,0r0,76r-74,0r0,430v-2,29,34,21,61,22r0,107r-117,0v-54,-2,-66,-26,-63,-71r-2,0v0,0,-42,83,-159,83xm287,-95v66,0,128,-48,128,-161v0,-79,-41,-157,-126,-157v-70,0,-128,57,-128,158v0,97,51,160,126,160","w":623},"\u0112":{"d":"99,-68r0,-531r-65,0r0,-111r429,0v47,0,68,21,68,68r0,108r-119,0v-2,-27,8,-65,-22,-65r-160,0r0,186r230,0r0,111r-230,0r0,169v0,14,8,22,22,22r164,0v30,1,21,-38,22,-65r119,0r0,108v0,48,-21,68,-68,68r-322,0v-48,0,-68,-20,-68,-68xm167,-783r0,-84r262,0r0,84r-262,0","w":578},"\u0113":{"d":"32,-255v0,-157,106,-267,259,-267v161,0,243,127,223,289r-352,0v10,90,76,137,153,137v82,0,143,-57,143,-57r53,88v0,0,-78,77,-205,77v-169,0,-274,-122,-274,-267xm166,-321r221,0v-2,-61,-44,-103,-96,-103v-65,0,-111,39,-125,103xm157,-599r0,-84r262,0r0,84r-262,0","w":557},"\u0114":{"d":"99,-68r0,-531r-65,0r0,-111r429,0v47,0,68,21,68,68r0,108r-119,0v-2,-27,8,-65,-22,-65r-160,0r0,186r230,0r0,111r-230,0r0,169v0,14,8,22,22,22r164,0v30,1,21,-38,22,-65r119,0r0,108v0,48,-21,68,-68,68r-322,0v-48,0,-68,-20,-68,-68xm440,-881v-2,169,-284,170,-286,0r0,-12r81,0v-5,48,28,71,62,71v33,0,67,-23,62,-71r81,0r0,12","w":578},"\u0115":{"d":"32,-255v0,-157,106,-267,259,-267v161,0,243,127,223,289r-352,0v10,90,76,137,153,137v82,0,143,-57,143,-57r53,88v0,0,-78,77,-205,77v-169,0,-274,-122,-274,-267xm166,-321r221,0v-2,-61,-44,-103,-96,-103v-65,0,-111,39,-125,103xm431,-697v-2,169,-284,170,-286,0r0,-12r81,0v-5,48,28,71,62,71v33,0,67,-23,62,-71r81,0r0,12","w":557},"\u0116":{"d":"99,-68r0,-531r-65,0r0,-111r429,0v47,0,68,21,68,68r0,108r-119,0v-2,-27,8,-65,-22,-65r-160,0r0,186r230,0r0,111r-230,0r0,169v0,14,8,22,22,22r164,0v30,1,21,-38,22,-65r119,0r0,108v0,48,-21,68,-68,68r-322,0v-48,0,-68,-20,-68,-68xm242,-777r0,-116r110,0r0,116r-110,0","w":578},"\u0117":{"d":"32,-255v0,-157,106,-267,259,-267v161,0,243,127,223,289r-352,0v10,90,76,137,153,137v82,0,143,-57,143,-57r53,88v0,0,-78,77,-205,77v-169,0,-274,-122,-274,-267xm166,-321r221,0v-2,-61,-44,-103,-96,-103v-65,0,-111,39,-125,103xm233,-593r0,-116r110,0r0,116r-110,0","w":557},"\u0118":{"d":"99,-68r0,-531r-65,0r0,-111r429,0v47,0,68,21,68,68r0,108r-119,0v-2,-27,8,-65,-22,-65r-160,0r0,186r230,0r0,111r-230,0r0,169v0,14,8,22,22,22r164,0v30,1,21,-38,22,-65r119,0r0,108v0,28,-6,45,-25,61v-27,24,-65,54,-65,85v0,32,48,36,48,36r-30,94v0,0,-123,-11,-123,-96v0,-51,35,-87,64,-110r0,-2r-259,0v-48,0,-68,-20,-68,-68","w":578},"\u0119":{"d":"32,-255v0,-157,106,-267,259,-267v161,0,243,127,223,289r-352,0v10,89,76,137,153,137v82,0,143,-57,143,-57r53,88v-36,35,-123,81,-123,143v0,32,49,36,49,36r-31,94v0,0,-122,-11,-122,-96v0,-44,30,-77,58,-101r0,-2v-186,22,-310,-110,-310,-264xm166,-321r221,0v-3,-62,-43,-103,-96,-103v-65,0,-111,39,-125,103","w":557},"\u011a":{"d":"99,-68r0,-531r-65,0r0,-111r429,0v47,0,68,21,68,68r0,108r-119,0v-2,-27,8,-65,-22,-65r-160,0r0,186r230,0r0,111r-230,0r0,169v0,14,8,22,22,22r164,0v30,1,21,-38,22,-65r119,0r0,108v0,48,-21,68,-68,68r-322,0v-48,0,-68,-20,-68,-68xm243,-757r-92,-136r95,0r50,81r2,0r50,-81r96,0r-93,136r-108,0","w":578},"\u011b":{"d":"32,-255v0,-157,106,-267,259,-267v161,0,243,127,223,289r-352,0v10,90,76,137,153,137v82,0,143,-57,143,-57r53,88v0,0,-78,77,-205,77v-169,0,-274,-122,-274,-267xm166,-321r221,0v-2,-61,-44,-103,-96,-103v-65,0,-111,39,-125,103xm234,-573r-92,-136r95,0r50,81r2,0r50,-81r96,0r-93,136r-108,0","w":557},"\u011c":{"d":"31,-359v0,-204,155,-363,361,-363v174,0,259,90,259,90r-74,94v0,0,-74,-63,-182,-63v-123,0,-228,97,-228,241v0,155,106,250,233,250v113,0,180,-74,180,-74v-3,-29,11,-75,-22,-75r-43,0r0,-111r115,0v48,0,68,20,68,67r0,303r-112,0r1,-64v-6,-1,-74,76,-211,76v-186,0,-345,-142,-345,-371xm243,-757r91,-136r109,0r92,136r-95,0r-50,-81r-2,0r-51,81r-94,0","w":742},"\u011d":{"d":"32,-268v0,-140,79,-254,226,-254v118,0,157,72,157,72r2,0v-3,-36,10,-60,56,-60r118,0r0,108v-26,1,-61,-7,-61,20r0,351v-1,250,-274,285,-450,197r39,-100v0,0,63,34,141,34v85,0,153,-42,144,-149v-1,-13,4,-29,-1,-27v-30,43,-74,66,-142,66v-146,0,-229,-118,-229,-258xm288,-117v61,0,119,-35,119,-150v0,-116,-58,-147,-127,-147v-77,0,-119,56,-119,142v0,89,45,155,127,155xm166,-573r91,-136r109,0r92,136r-95,0r-50,-81r-2,0r-51,81r-94,0","w":612},"\u011e":{"d":"31,-359v0,-204,155,-363,361,-363v174,0,259,90,259,90r-74,94v0,0,-74,-63,-182,-63v-123,0,-228,97,-228,241v0,155,106,250,233,250v113,0,180,-74,180,-74v-3,-29,11,-75,-22,-75r-43,0r0,-111r115,0v48,0,68,20,68,67r0,303r-112,0r1,-64v-6,-1,-74,76,-211,76v-186,0,-345,-142,-345,-371xm531,-881v-2,169,-284,170,-286,0r0,-12r81,0v-5,48,28,71,62,71v33,0,67,-23,62,-71r81,0r0,12","w":742},"\u011f":{"d":"32,-268v0,-140,79,-254,226,-254v118,0,157,72,157,72r2,0v-3,-36,10,-60,56,-60r118,0r0,108v-26,1,-61,-7,-61,20r0,351v-1,250,-274,285,-450,197r39,-100v0,0,63,34,141,34v85,0,153,-42,144,-149v-1,-13,4,-29,-1,-27v-30,43,-74,66,-142,66v-146,0,-229,-118,-229,-258xm288,-117v61,0,119,-35,119,-150v0,-116,-58,-147,-127,-147v-77,0,-119,56,-119,142v0,89,45,155,127,155xm455,-697v-2,169,-284,170,-286,0r0,-12r81,0v-5,48,28,71,62,71v33,0,67,-23,62,-71r81,0r0,12","w":612},"\u0120":{"d":"31,-359v0,-204,155,-363,361,-363v174,0,259,90,259,90r-74,94v0,0,-74,-63,-182,-63v-123,0,-228,97,-228,241v0,155,106,250,233,250v113,0,180,-74,180,-74v-3,-29,11,-75,-22,-75r-43,0r0,-111r115,0v48,0,68,20,68,67r0,303r-112,0r1,-64v-6,-1,-74,76,-211,76v-186,0,-345,-142,-345,-371xm334,-777r0,-116r110,0r0,116r-110,0","w":742},"\u0121":{"d":"32,-268v0,-140,79,-254,226,-254v118,0,157,72,157,72r2,0v-3,-36,10,-60,56,-60r118,0r0,108v-26,1,-61,-7,-61,20r0,351v-1,250,-274,285,-450,197r39,-100v0,0,63,34,141,34v85,0,153,-42,144,-149v-1,-13,4,-29,-1,-27v-30,43,-74,66,-142,66v-146,0,-229,-118,-229,-258xm288,-117v61,0,119,-35,119,-150v0,-116,-58,-147,-127,-147v-77,0,-119,56,-119,142v0,89,45,155,127,155xm257,-593r0,-116r110,0r0,116r-110,0","w":612},"\u0122":{"d":"31,-359v0,-204,155,-363,361,-363v174,0,259,90,259,90r-74,94v0,0,-74,-63,-182,-63v-123,0,-228,97,-228,241v0,155,106,250,233,250v113,0,180,-74,180,-74v-3,-29,11,-75,-22,-75r-43,0r0,-111r115,0v48,0,68,20,68,67r0,303r-112,0r1,-64v-6,-1,-74,76,-211,76v-186,0,-345,-142,-345,-371xm335,55r95,0v15,57,6,93,-19,145r-84,0v20,-55,27,-89,8,-145","w":742},"\u0123":{"d":"32,-268v0,-140,79,-254,226,-254v118,0,157,72,157,72r2,0v-3,-36,10,-60,56,-60r118,0r0,108v-26,1,-61,-7,-61,20r0,351v-1,250,-274,285,-450,197r39,-100v0,0,63,34,141,34v85,0,153,-42,144,-149v-1,-13,4,-29,-1,-27v-30,43,-74,66,-142,66v-146,0,-229,-118,-229,-258xm288,-117v61,0,119,-35,119,-150v0,-116,-58,-147,-127,-147v-77,0,-119,56,-119,142v0,89,45,155,127,155xm344,-565r-95,0v-15,-57,-6,-93,19,-145r84,0v-20,55,-27,89,-8,145","w":612},"\u0124":{"d":"99,0r0,-577v1,-30,-38,-21,-65,-22r0,-111r128,0v48,0,68,21,68,68r0,233r313,0r0,-233v0,-47,21,-68,68,-68r128,0r0,111v-27,2,-65,-8,-65,22r0,577r-131,0r0,-298r-313,0r0,298r-131,0xm242,-757r91,-136r109,0r92,136r-95,0r-50,-81r-2,0r-51,81r-94,0","w":773},"\u0125":{"d":"352,-406v-88,0,-146,70,-146,172r0,234r-127,0r0,-580v2,-30,-35,-20,-62,-22r0,-108r121,0v47,0,68,21,68,67r0,179v2,26,-6,44,0,43v24,-49,87,-101,175,-101v114,0,178,59,178,194r0,199v-2,29,35,21,62,22r0,107r-121,0v-47,0,-67,-20,-67,-68r0,-234v0,-62,-17,-104,-81,-104xm182,-757r91,-136r109,0r92,136r-95,0r-50,-81r-2,0r-51,81r-94,0","w":640},"\u0126":{"d":"99,0r0,-515r-66,0r0,-83r66,0r0,-112r131,0r0,112r313,0r0,-112r131,0r0,112r65,0r0,83r-65,0r0,515r-131,0r0,-298r-313,0r0,298r-131,0xm230,-409r313,0r0,-106r-313,0r0,106","w":773},"\u0127":{"d":"79,0r0,-559r-73,0r0,-76r73,0r0,-75r127,0r0,75r126,0r0,76r-126,0r0,95v2,26,-6,44,0,43v6,-16,56,-101,175,-101v114,0,178,59,178,194r0,199v-2,29,35,21,62,22r0,107r-121,0v-47,0,-67,-20,-67,-68r0,-234v0,-61,-17,-104,-81,-104v-92,0,-146,77,-146,172r0,234r-127,0","w":640},"\u0128":{"d":"38,0r0,-111r71,0r0,-488r-71,0r0,-111r266,0r0,111r-71,0r0,488r71,0r0,111r-266,0xm-11,-758v0,-91,38,-137,114,-137v69,0,86,65,128,65v28,0,41,-30,41,-62r79,0v0,90,-38,137,-114,137v-69,0,-86,-65,-128,-65v-28,0,-41,29,-41,62r-79,0","w":342},"\u0129":{"d":"88,-68r0,-312v2,-30,-35,-20,-62,-22r0,-108r121,0v47,0,68,21,68,68r0,313v-2,29,34,21,61,22r0,107r-120,0v-48,0,-68,-20,-68,-68xm-18,-575v0,-90,30,-137,102,-137v58,0,78,61,107,61v25,0,33,-25,33,-58r79,0v0,91,-30,137,-102,137v-58,0,-78,-61,-106,-61v-25,0,-34,26,-34,58r-79,0","w":302},"\u012a":{"d":"38,0r0,-111r71,0r0,-488r-71,0r0,-111r266,0r0,111r-71,0r0,488r71,0r0,111r-266,0xm40,-783r0,-84r262,0r0,84r-262,0","w":342},"\u012b":{"d":"88,-68r0,-312v2,-30,-35,-20,-62,-22r0,-108r121,0v47,0,68,21,68,68r0,313v-2,29,34,21,61,22r0,107r-120,0v-48,0,-68,-20,-68,-68xm20,-600r0,-83r248,0r0,83r-248,0","w":302},"\u012c":{"d":"38,0r0,-111r71,0r0,-488r-71,0r0,-111r266,0r0,111r-71,0r0,488r71,0r0,111r-266,0xm314,-881v-2,169,-284,170,-286,0r0,-12r81,0v-5,48,28,71,62,71v33,0,67,-23,62,-71r81,0r0,12","w":342},"\u012d":{"d":"88,-68r0,-312v2,-30,-35,-20,-62,-22r0,-108r121,0v47,0,68,21,68,68r0,313v-2,29,34,21,61,22r0,107r-120,0v-48,0,-68,-20,-68,-68xm286,-698v-1,171,-285,171,-286,0r0,-12r82,0v-5,48,27,72,61,72v34,0,67,-23,62,-72r81,0r0,12","w":302},"\u012e":{"d":"38,0r0,-111r71,0r0,-488r-71,0r0,-111r266,0r0,111r-71,0r0,488r71,0r0,111v-19,16,-55,49,-55,78v0,32,49,36,49,36r-31,94v0,0,-122,-11,-122,-96v0,-51,34,-87,64,-110r0,-2r-171,0","w":342},"\u012f":{"d":"93,-593r0,-117r110,0r0,117r-110,0xm25,-510r121,0v47,0,67,21,67,68r0,313v-2,29,35,21,62,22r0,107v-19,16,-55,49,-55,78v0,32,48,36,48,36r-30,94v0,0,-123,-11,-123,-96v0,-51,35,-87,65,-110r0,-2v-62,5,-93,-14,-93,-78r0,-302v2,-30,-35,-20,-62,-22r0,-108","w":299},"\u0130":{"d":"38,0r0,-111r71,0r0,-488r-71,0r0,-111r266,0r0,111r-71,0r0,488r71,0r0,111r-266,0xm115,-777r0,-116r110,0r0,116r-110,0","w":342},"\u0131":{"d":"88,-68r0,-312v2,-30,-35,-20,-62,-22r0,-108r121,0v47,0,68,21,68,68r0,313v-2,29,34,21,61,22r0,107r-120,0v-48,0,-68,-20,-68,-68","w":302},"\u0132":{"d":"387,4r0,-117v52,0,129,-23,129,-139r0,-325v0,-14,-8,-22,-22,-22r-105,0r0,-111r191,0v47,0,67,21,67,68r0,392v0,213,-142,254,-260,254xm38,0r0,-111r71,0r0,-488r-71,0r0,-111r266,0r0,111r-71,0r0,488r71,0r0,111r-266,0","w":720},"\u0133":{"d":"93,-593r0,-117r110,0r0,117r-110,0xm87,-68r0,-312v2,-30,-35,-20,-62,-22r0,-108r121,0v47,0,67,21,67,68r0,313v-2,29,35,21,62,22r0,107r-121,0v-47,0,-67,-20,-67,-68xm400,-593r0,-117r110,0r0,117r-110,0xm270,97v0,0,9,2,22,2v36,0,102,-11,102,-94r0,-385v2,-30,-34,-21,-61,-22r0,-108r120,0v48,0,68,21,68,68r0,457v0,171,-143,192,-213,192v-23,0,-38,-3,-38,-3r0,-107","w":594},"\u0134":{"d":"20,-210r0,-41r131,0r0,29v0,85,46,112,93,112v48,0,92,-29,92,-106r0,-361v0,-14,-8,-22,-22,-22r-172,0r0,-111r257,0v47,0,68,21,68,68r0,432v0,155,-113,222,-224,222v-111,0,-223,-69,-223,-222xm152,-757r91,-136r109,0r92,136r-95,0r-50,-81r-2,0r-51,81r-94,0","w":539},"\u0135":{"d":"-8,-573r92,-137r109,0r92,137r-95,0r-51,-83r-51,83r-96,0xm-19,100v0,0,9,1,22,1v36,0,102,-11,102,-94r0,-391v2,-31,-35,-20,-62,-22r0,-104r118,0v47,0,68,11,68,58r0,467v0,171,-140,192,-210,192v-23,0,-38,-3,-38,-3r0,-104","w":302},"\u0136":{"d":"99,0r0,-577v1,-30,-38,-21,-65,-22r0,-111r128,0v48,0,68,21,68,68r0,221v44,-2,90,10,107,-23r143,-266r144,0r-160,292v-22,43,-46,48,-45,54v0,0,24,6,46,49r90,181v12,26,37,23,69,23r0,111r-75,0v-53,0,-76,-7,-99,-53r-116,-233v-17,-33,-61,-22,-104,-24r0,310r-131,0xm290,55r95,0v15,57,6,93,-19,145r-84,0v20,-55,27,-89,8,-145","w":634},"\u0137":{"d":"79,0r0,-580v2,-30,-35,-20,-62,-22r0,-108r121,0v47,0,68,11,68,58r0,322v37,-1,69,8,86,-19r104,-161r141,0r-129,192v-23,35,-39,36,-38,42v0,0,18,7,36,40r58,110v8,24,44,18,76,19r0,107r-94,0v-43,0,-60,-7,-80,-44r-85,-160v-17,-25,-43,-18,-75,-19r0,223r-127,0xm248,55r95,0v15,57,6,93,-19,145r-84,0v20,-55,27,-89,8,-145","w":553},"\u0138":{"d":"79,0r0,-380v2,-30,-35,-20,-62,-22r0,-108r121,0v47,0,68,11,68,58r0,140v37,-2,68,11,86,-19r107,-179r140,0r-133,208v-22,35,-38,35,-37,41v0,0,17,7,35,41r50,94v9,25,48,18,81,19r0,107r-99,0v-43,0,-60,-7,-80,-44r-75,-142v-17,-26,-43,-17,-75,-19r0,205r-127,0","w":553},"\u0139":{"d":"99,-68r0,-509v1,-30,-38,-21,-65,-22r0,-111r128,0v48,0,68,21,68,68r0,509v0,14,8,22,22,22r155,0v30,1,21,-38,22,-65r119,0r0,108v0,48,-20,68,-68,68r-313,0v-48,0,-68,-20,-68,-68xm129,-757r76,-136r122,0r-105,136r-93,0","w":558},"\u013a":{"d":"80,-68r0,-512v2,-30,-35,-20,-62,-22r0,-108r121,0v47,0,68,21,68,68r0,513v-2,29,34,21,61,22r0,107r-120,0v-48,0,-68,-20,-68,-68xm77,-757r76,-136r122,0r-105,136r-93,0","w":291},"\u013b":{"d":"99,-68r0,-509v1,-30,-38,-21,-65,-22r0,-111r128,0v48,0,68,21,68,68r0,509v0,14,8,22,22,22r155,0v30,1,21,-38,22,-65r119,0r0,108v0,48,-20,68,-68,68r-313,0v-48,0,-68,-20,-68,-68xm271,55r95,0v15,57,6,93,-19,145r-84,0v20,-55,27,-89,8,-145","w":558},"\u013c":{"d":"80,-68r0,-512v2,-30,-35,-20,-62,-22r0,-108r121,0v47,0,68,21,68,68r0,513v-2,29,34,21,61,22r0,107r-120,0v-48,0,-68,-20,-68,-68xm106,55r95,0v15,57,6,93,-19,145r-84,0v20,-55,27,-89,8,-145","w":291},"\u013d":{"d":"99,-68r0,-509v1,-30,-38,-21,-65,-22r0,-111r128,0v48,0,68,21,68,68r0,509v0,14,8,22,22,22r155,0v30,1,21,-38,22,-65r119,0r0,108v0,48,-20,68,-68,68r-313,0v-48,0,-68,-20,-68,-68xm308,-710r95,0v15,57,6,93,-19,145r-84,0v20,-55,27,-89,8,-145","w":558},"\u013e":{"d":"80,-68r0,-512v2,-30,-35,-20,-62,-22r0,-108r121,0v47,0,68,21,68,68r0,513v-2,29,34,21,61,22r0,107r-120,0v-48,0,-68,-20,-68,-68xm258,-710r95,0v15,57,6,93,-19,145r-84,0v20,-55,27,-89,8,-145","w":391},"\u013f":{"d":"99,-68r0,-509v1,-30,-38,-21,-65,-22r0,-111r128,0v48,0,68,21,68,68r0,509v0,14,8,22,22,22r155,0v30,1,21,-38,22,-65r119,0r0,108v0,48,-20,68,-68,68r-313,0v-48,0,-68,-20,-68,-68xm329,-323r0,-126r123,0r0,126r-123,0","w":558},"\u0140":{"d":"80,-68r0,-512v2,-30,-35,-20,-62,-22r0,-108r121,0v47,0,68,21,68,68r0,513v-2,29,34,21,61,22r0,107r-120,0v-48,0,-68,-20,-68,-68xm280,-323r0,-126r123,0r0,126r-123,0","w":408},"\u0141":{"d":"99,-68r0,-198r-62,35r0,-124r62,-35r0,-187v1,-30,-38,-21,-65,-22r0,-111r128,0v48,0,68,21,68,68r0,177r98,-57r0,124r-98,57r0,208v0,14,8,22,22,22r155,0v30,1,21,-38,22,-65r119,0r0,108v0,48,-20,68,-68,68r-313,0v-48,0,-68,-20,-68,-68","w":558},"\u0142":{"d":"88,-68r0,-217r-66,37r0,-125r66,-38r0,-169v2,-30,-35,-20,-62,-22r0,-108r121,0v47,0,67,21,67,68r0,159r73,-41r0,124r-73,42r0,229v-2,29,35,21,62,22r0,107r-121,0v-47,0,-67,-20,-67,-68","w":303},"\u0143":{"d":"34,0r0,-111v27,-2,65,8,65,-22r0,-577r118,0r269,393v28,41,59,100,59,100r2,0v0,0,-7,-59,-7,-100r0,-325v0,-47,20,-68,68,-68r128,0r0,111v-27,2,-65,-8,-65,22r0,577r-117,0r-270,-392v-28,-40,-59,-100,-59,-100r-2,0v0,0,7,59,7,100r0,324v0,48,-20,68,-68,68r-128,0xm345,-757r76,-136r122,0r-105,136r-93,0","w":770},"\u0144":{"d":"356,-406v-91,1,-147,72,-147,172r0,234r-126,0r0,-380v2,-30,-35,-20,-62,-22r0,-108r117,0v61,-2,74,40,65,94r2,0v22,-43,77,-106,180,-106v113,0,178,59,178,194r0,199v-2,29,35,21,62,22r0,107r-121,0v-48,0,-68,-20,-68,-68r0,-234v0,-62,-16,-104,-80,-104xm280,-573r76,-136r122,0r-105,136r-93,0","w":643},"\u0145":{"d":"34,0r0,-111v27,-2,65,8,65,-22r0,-577r118,0r269,393v28,41,59,100,59,100r2,0v0,0,-7,-59,-7,-100r0,-325v0,-47,20,-68,68,-68r128,0r0,111v-27,2,-65,-8,-65,22r0,577r-117,0r-270,-392v-28,-40,-59,-100,-59,-100r-2,0v0,0,7,59,7,100r0,324v0,48,-20,68,-68,68r-128,0xm335,55r95,0v15,57,6,93,-19,145r-84,0v20,-55,27,-89,8,-145","w":770},"\u0146":{"d":"356,-406v-91,1,-147,72,-147,172r0,234r-126,0r0,-380v2,-30,-35,-20,-62,-22r0,-108r117,0v61,-2,74,40,65,94r2,0v22,-43,77,-106,180,-106v113,0,178,59,178,194r0,199v-2,29,35,21,62,22r0,107r-121,0v-48,0,-68,-20,-68,-68r0,-234v0,-62,-16,-104,-80,-104xm281,55r95,0v15,57,6,93,-19,145r-84,0v20,-55,27,-89,8,-145","w":643},"\u0147":{"d":"34,0r0,-111v27,-2,65,8,65,-22r0,-577r118,0r269,393v28,41,59,100,59,100r2,0v0,0,-7,-59,-7,-100r0,-325v0,-47,20,-68,68,-68r128,0r0,111v-27,2,-65,-8,-65,22r0,577r-117,0r-270,-392v-28,-40,-59,-100,-59,-100r-2,0v0,0,7,59,7,100r0,324v0,48,-20,68,-68,68r-128,0xm340,-757r-92,-136r95,0r50,81r2,0r50,-81r96,0r-93,136r-108,0","w":770},"\u0148":{"d":"356,-406v-91,1,-147,72,-147,172r0,234r-126,0r0,-380v2,-30,-35,-20,-62,-22r0,-108r117,0v61,-2,74,40,65,94r2,0v22,-43,77,-106,180,-106v113,0,178,59,178,194r0,199v-2,29,35,21,62,22r0,107r-121,0v-48,0,-68,-20,-68,-68r0,-234v0,-62,-16,-104,-80,-104xm275,-573r-92,-136r95,0r50,81r2,0r50,-81r96,0r-93,136r-108,0","w":643},"\u0149":{"d":"388,-406v-91,1,-147,72,-147,172r0,234r-126,0r0,-380v2,-30,-35,-20,-62,-22r0,-108r117,0v61,-2,74,40,65,94r2,0v22,-43,77,-106,180,-106v113,0,178,59,178,194r0,199v-2,29,35,21,62,22r0,107r-121,0v-48,0,-68,-20,-68,-68r0,-234v0,-62,-16,-104,-80,-104xm-10,-710r95,0v15,57,6,93,-19,145r-84,0v20,-55,27,-89,8,-145","w":676},"\u014a":{"d":"34,0r0,-111v27,-2,65,8,65,-22r0,-577r118,0r269,393v28,41,59,100,59,100r2,0v0,0,-7,-59,-7,-100r0,-325v0,-47,20,-68,68,-68r128,0r0,111v-27,2,-65,-8,-65,22r0,534v0,200,-139,248,-257,248r0,-117v47,0,131,-31,126,-111r-256,-369v-28,-40,-59,-100,-59,-100r-2,0v0,0,7,59,7,100r0,324v0,48,-20,68,-68,68r-128,0","w":770},"\u014b":{"d":"356,-406v-90,0,-147,71,-147,172r0,234r-126,0r0,-380v2,-30,-35,-20,-62,-22r0,-108r117,0v61,-2,74,40,65,94r2,0v22,-43,77,-106,180,-106v113,0,178,59,178,194r0,345v0,171,-143,192,-213,192v-23,0,-38,-3,-38,-3r0,-107v0,0,9,1,22,1v36,0,102,-10,102,-93r0,-309v0,-62,-16,-104,-80,-104","w":638},"\u014c":{"d":"30,-360v0,-203,158,-362,367,-362v209,0,367,159,367,362v0,209,-158,372,-367,372v-209,0,-367,-163,-367,-372xm166,-360v0,142,103,250,231,250v128,0,231,-108,231,-250v0,-136,-103,-240,-231,-240v-128,0,-231,104,-231,240xm264,-783r0,-84r262,0r0,84r-262,0","w":794},"\u014d":{"d":"32,-255v0,-156,124,-267,279,-267v156,0,280,111,280,267v0,157,-124,267,-280,267v-155,0,-279,-110,-279,-267xm160,-255v0,95,69,159,151,159v83,0,152,-64,152,-159v0,-94,-69,-159,-152,-159v-82,0,-151,65,-151,159xm181,-599r0,-84r262,0r0,84r-262,0","w":623},"\u014e":{"d":"30,-360v0,-203,158,-362,367,-362v209,0,367,159,367,362v0,209,-158,372,-367,372v-209,0,-367,-163,-367,-372xm166,-360v0,142,103,250,231,250v128,0,231,-108,231,-250v0,-136,-103,-240,-231,-240v-128,0,-231,104,-231,240xm538,-881v-2,169,-284,170,-286,0r0,-12r81,0v-5,48,28,71,62,71v33,0,67,-23,62,-71r81,0r0,12","w":794},"\u014f":{"d":"32,-255v0,-156,124,-267,279,-267v156,0,280,111,280,267v0,157,-124,267,-280,267v-155,0,-279,-110,-279,-267xm160,-255v0,95,69,159,151,159v83,0,152,-64,152,-159v0,-94,-69,-159,-152,-159v-82,0,-151,65,-151,159xm454,-697v-2,169,-284,170,-286,0r0,-12r81,0v-5,48,28,71,62,71v33,0,67,-23,62,-71r81,0r0,12","w":623},"\u0150":{"d":"30,-360v0,-203,158,-362,367,-362v209,0,367,159,367,362v0,209,-158,372,-367,372v-209,0,-367,-163,-367,-372xm166,-360v0,142,103,250,231,250v128,0,231,-108,231,-250v0,-136,-103,-240,-231,-240v-128,0,-231,104,-231,240xm428,-757r77,-136r121,0r-104,136r-94,0xm256,-757r72,-136r104,0r-74,136r-102,0","w":794},"\u0151":{"d":"32,-255v0,-156,124,-267,279,-267v156,0,280,111,280,267v0,157,-124,267,-280,267v-155,0,-279,-110,-279,-267xm160,-255v0,95,69,159,151,159v83,0,152,-64,152,-159v0,-94,-69,-159,-152,-159v-82,0,-151,65,-151,159xm344,-573r77,-136r121,0r-104,136r-94,0xm172,-573r72,-136r104,0r-74,136r-102,0","w":623},"\u0152":{"d":"30,-356v0,-204,156,-362,356,-362v64,0,100,8,145,8r303,0v48,0,68,21,68,68r0,108r-118,0v-2,-27,8,-65,-22,-65r-157,0r0,186r227,0r0,111r-227,0r0,191r183,0v30,1,21,-38,22,-65r118,0r0,108v0,48,-20,68,-65,68r-332,0v-44,0,-81,9,-145,9v-200,0,-356,-161,-356,-365xm166,-356v0,140,91,243,220,243v41,0,68,-2,88,-7r0,-469v-22,-5,-47,-8,-88,-8v-129,0,-220,103,-220,241","w":950},"\u0153":{"d":"32,-254v0,-160,125,-268,278,-268v101,0,169,42,215,105r2,0v40,-64,103,-105,201,-105v163,0,242,127,223,289r-352,0v12,91,78,137,153,137v82,0,144,-57,144,-57r52,88v0,0,-78,77,-205,77v-106,0,-172,-45,-213,-108r-2,0v-46,64,-115,108,-217,108v-154,0,-279,-105,-279,-266xm603,-321r221,0v-3,-61,-41,-103,-96,-103v-65,0,-111,39,-125,103xm160,-254v0,97,69,158,151,158v82,0,152,-61,152,-159v0,-97,-71,-159,-152,-159v-82,0,-151,63,-151,160","w":994},"\u0154":{"d":"99,0r0,-599r-65,0r0,-111r318,0v130,0,221,80,221,214v0,128,-88,181,-118,187v-1,6,21,9,35,38r69,137v13,25,33,23,63,23r0,111r-69,0v-53,0,-76,-8,-99,-53r-91,-179v-15,-28,-30,-33,-67,-33r-66,0r0,265r-131,0xm230,-377r104,0v66,0,105,-41,105,-112v0,-70,-39,-110,-103,-110r-106,0r0,222xm242,-757r76,-136r122,0r-105,136r-93,0","w":632},"\u0155":{"d":"83,0r0,-380v2,-30,-35,-20,-62,-22r0,-108r116,0v57,-2,68,33,68,92v0,20,-6,33,0,32v27,-79,91,-142,185,-129r0,125v-77,-10,-144,18,-170,105v-24,78,-7,189,-11,285r-126,0xm164,-573r76,-136r122,0r-105,136r-93,0","w":407},"\u0156":{"d":"99,0r0,-599r-65,0r0,-111r318,0v130,0,221,80,221,214v0,128,-88,181,-118,187v-1,6,21,9,35,38r69,137v13,25,33,23,63,23r0,111r-69,0v-53,0,-76,-8,-99,-53r-91,-179v-15,-28,-30,-33,-67,-33r-66,0r0,265r-131,0xm230,-377r104,0v66,0,105,-41,105,-112v0,-70,-39,-110,-103,-110r-106,0r0,222xm303,55r95,0v15,57,6,93,-19,145r-84,0v20,-55,27,-89,8,-145","w":632},"\u0157":{"d":"83,0r0,-380v2,-30,-35,-20,-62,-22r0,-108r116,0v57,-2,68,33,68,92v0,20,-6,33,0,32v27,-79,91,-142,185,-129r0,125v-77,-10,-144,18,-170,105v-24,78,-7,189,-11,285r-126,0xm103,55r95,0v15,57,6,93,-19,145r-84,0v20,-55,27,-89,8,-145","w":407},"\u0158":{"d":"99,0r0,-599r-65,0r0,-111r318,0v130,0,221,80,221,214v0,128,-88,181,-118,187v-1,6,21,9,35,38r69,137v13,25,33,23,63,23r0,111r-69,0v-53,0,-76,-8,-99,-53r-91,-179v-15,-28,-30,-33,-67,-33r-66,0r0,265r-131,0xm230,-377r104,0v66,0,105,-41,105,-112v0,-70,-39,-110,-103,-110r-106,0r0,222xm237,-757r-92,-136r95,0r50,81r2,0r50,-81r96,0r-93,136r-108,0","w":632},"\u0159":{"d":"83,0r0,-380v2,-30,-35,-20,-62,-22r0,-108r116,0v57,-2,68,33,68,92v0,20,-6,33,0,32v27,-79,91,-142,185,-129r0,125v-77,-10,-144,18,-170,105v-24,78,-7,189,-11,285r-126,0xm159,-573r-92,-136r95,0r50,81r2,0r50,-81r96,0r-93,136r-108,0","w":407},"\u015a":{"d":"32,-98r74,-92v0,0,73,84,172,84v54,0,102,-29,102,-84v0,-121,-334,-111,-334,-332v0,-115,100,-200,237,-200v83,0,211,39,211,140r0,66r-118,0r0,-32v0,-33,-47,-55,-94,-55v-60,0,-104,31,-104,76v0,121,334,97,334,330v0,113,-87,209,-236,209v-157,0,-244,-110,-244,-110xm233,-757r76,-136r122,0r-105,136r-93,0","w":549},"\u015b":{"d":"25,-79r60,-83v0,0,65,75,152,75v39,0,69,-16,69,-50v0,-72,-269,-71,-269,-236v0,-102,92,-149,198,-149v69,0,179,23,179,106r0,53r-112,0r0,-25v0,-24,-36,-36,-64,-36v-45,0,-76,16,-76,46v0,80,271,64,271,234v0,96,-85,156,-196,156v-140,0,-212,-91,-212,-91xm183,-573r76,-136r122,0r-105,136r-93,0","w":468},"\u015c":{"d":"32,-98r74,-92v0,0,73,84,172,84v54,0,102,-29,102,-84v0,-121,-334,-111,-334,-332v0,-115,100,-200,237,-200v83,0,211,39,211,140r0,66r-118,0r0,-32v0,-33,-47,-55,-94,-55v-60,0,-104,31,-104,76v0,121,334,97,334,330v0,113,-87,209,-236,209v-157,0,-244,-110,-244,-110xm136,-757r91,-136r109,0r92,136r-95,0r-50,-81r-2,0r-51,81r-94,0","w":549},"\u015d":{"d":"25,-79r60,-83v0,0,65,75,152,75v39,0,69,-16,69,-50v0,-72,-269,-71,-269,-236v0,-102,92,-149,198,-149v69,0,179,23,179,106r0,53r-112,0r0,-25v0,-24,-36,-36,-64,-36v-45,0,-76,16,-76,46v0,80,271,64,271,234v0,96,-85,156,-196,156v-140,0,-212,-91,-212,-91xm86,-573r91,-136r109,0r92,136r-95,0r-50,-81r-2,0r-51,81r-94,0","w":468},"\u015e":{"d":"32,-98r74,-92v0,0,73,84,172,84v54,0,102,-29,102,-84v0,-121,-334,-111,-334,-332v0,-115,100,-200,237,-200v83,0,211,39,211,140r0,66r-118,0r0,-32v0,-33,-47,-55,-94,-55v-60,0,-104,31,-104,76v0,121,334,97,334,330v0,106,-78,198,-210,208r-7,33v40,5,73,29,73,76v0,66,-55,88,-108,88v-34,0,-62,-7,-62,-7r0,-70v0,0,22,8,44,8v24,0,44,-7,44,-28v0,-26,-46,-30,-69,-25r20,-77v-132,-15,-205,-107,-205,-107","w":549},"\u015f":{"d":"25,-79r60,-83v0,0,65,75,152,75v39,0,69,-16,69,-50v0,-72,-269,-71,-269,-236v0,-102,92,-149,198,-149v69,0,179,23,179,106r0,53r-112,0r0,-25v0,-24,-36,-36,-64,-36v-45,0,-76,16,-76,46v0,80,271,64,271,234v0,92,-78,150,-182,155r-7,33v41,5,73,29,73,76v0,66,-54,88,-108,88v-34,0,-61,-7,-61,-7r0,-70v0,0,21,8,44,8v23,0,43,-7,43,-28v0,-26,-45,-30,-69,-25r21,-78v-108,-17,-162,-87,-162,-87","w":468},"\u0160":{"d":"32,-98r74,-92v0,0,73,84,172,84v54,0,102,-29,102,-84v0,-121,-334,-111,-334,-332v0,-115,100,-200,237,-200v83,0,211,39,211,140r0,66r-118,0r0,-32v0,-33,-47,-55,-94,-55v-60,0,-104,31,-104,76v0,121,334,97,334,330v0,113,-87,209,-236,209v-157,0,-244,-110,-244,-110xm228,-757r-92,-136r95,0r50,81r2,0r50,-81r96,0r-93,136r-108,0","w":549},"\u0161":{"d":"25,-79r60,-83v0,0,65,75,152,75v39,0,69,-16,69,-50v0,-72,-269,-71,-269,-236v0,-102,92,-149,198,-149v69,0,179,23,179,106r0,53r-112,0r0,-25v0,-24,-36,-36,-64,-36v-45,0,-76,16,-76,46v0,80,271,64,271,234v0,96,-85,156,-196,156v-140,0,-212,-91,-212,-91xm177,-573r-92,-136r95,0r50,81r2,0r50,-81r96,0r-93,136r-108,0","w":468},"\u0162":{"d":"501,-599r-109,0r0,599r-35,0r-10,44v41,5,73,29,73,76v0,65,-54,88,-108,88v-34,0,-61,-7,-61,-7r0,-70v0,0,21,8,43,8v24,0,44,-7,44,-28v0,-26,-45,-30,-69,-25r24,-86r-32,0r0,-599r-109,0v-30,-1,-21,38,-22,65r-115,0r0,-112v0,-47,16,-64,64,-64r495,0v48,0,64,17,64,64r0,112r-115,0v-2,-27,8,-65,-22,-65","w":653},"\u0163":{"d":"85,-187r0,-222r-66,0r0,-101r69,0r0,-139r124,0r0,139r116,0r0,101r-116,0r0,206v0,84,66,96,101,96v14,0,23,-2,23,-2r0,111v-15,3,-70,5,-96,-2r-9,44v41,5,73,29,73,76v0,66,-54,88,-108,88v-34,0,-61,-7,-61,-7r0,-70v0,0,21,8,44,8v23,0,43,-7,43,-28v0,-26,-45,-30,-69,-25r29,-104v-52,-23,-97,-72,-97,-169","w":370},"\u0164":{"d":"261,0r0,-599r-109,0v-30,-1,-21,38,-22,65r-115,0r0,-112v0,-47,16,-64,64,-64r495,0v48,0,64,17,64,64r0,112r-115,0v-2,-27,8,-65,-22,-65r-109,0r0,599r-131,0xm273,-757r-92,-136r95,0r50,81r2,0r50,-81r96,0r-93,136r-108,0","w":653},"\u0165":{"d":"88,-187r0,-222r-66,0r0,-101r69,0r0,-139r124,0r0,139r116,0r0,101r-116,0r0,206v0,84,66,96,101,96v14,0,23,-2,23,-2r0,111v0,0,-16,3,-39,3v-71,0,-212,-21,-212,-192xm272,-710r95,0v15,57,6,93,-19,145r-84,0v20,-55,27,-89,8,-145","w":413},"\u0166":{"d":"261,0r0,-295r-148,0r0,-96r148,0r0,-208r-109,0v-30,-1,-21,38,-22,65r-115,0r0,-112v0,-47,16,-64,64,-64r495,0v48,0,64,17,64,64r0,112r-115,0v-2,-27,8,-65,-22,-65r-109,0r0,208r156,0r0,96r-156,0r0,295r-131,0","w":653},"\u0167":{"d":"85,-187r0,-52r-66,0r0,-84r66,0r0,-86r-66,0r0,-101r69,0r0,-139r124,0r0,139r116,0r0,101r-116,0r0,86r116,0r0,84r-116,0r0,41v0,78,66,91,101,91v14,0,23,-2,23,-2r0,111v0,0,-16,3,-39,3v-71,0,-212,-21,-212,-192","w":370},"\u0168":{"d":"91,-253r0,-324v1,-30,-38,-21,-65,-22r0,-111r128,0v48,0,68,21,68,68r0,385v0,93,59,147,148,147v89,0,148,-54,148,-148r0,-384v0,-47,20,-68,68,-68r128,0r0,111v-27,2,-65,-8,-65,22r0,324v0,157,-111,265,-278,265v-169,0,-280,-108,-280,-265xm189,-758v0,-91,38,-137,114,-137v69,0,86,65,128,65v28,0,41,-30,41,-62r79,0v0,90,-38,137,-114,137v-69,0,-86,-65,-128,-65v-28,0,-41,29,-41,62r-79,0","w":740},"\u0169":{"d":"81,-182r0,-198v2,-30,-35,-20,-62,-22r0,-108r121,0v47,0,67,21,67,67r0,235v0,62,16,104,79,104v92,0,143,-81,143,-172r0,-234r127,0r0,381v-2,29,35,21,62,22r0,107r-117,0v-59,2,-73,-38,-66,-94r-2,0v-24,53,-88,106,-176,106v-109,0,-176,-55,-176,-194xm131,-574v0,-91,38,-137,114,-137v69,0,86,65,128,65v28,0,41,-30,41,-62r79,0v0,90,-38,137,-114,137v-69,0,-86,-65,-128,-65v-28,0,-41,29,-41,62r-79,0","w":638},"\u016a":{"d":"91,-253r0,-324v1,-30,-38,-21,-65,-22r0,-111r128,0v48,0,68,21,68,68r0,385v0,93,59,147,148,147v89,0,148,-54,148,-148r0,-384v0,-47,20,-68,68,-68r128,0r0,111v-27,2,-65,-8,-65,22r0,324v0,157,-111,265,-278,265v-169,0,-280,-108,-280,-265xm240,-783r0,-84r262,0r0,84r-262,0","w":740},"\u016b":{"d":"81,-182r0,-198v2,-30,-35,-20,-62,-22r0,-108r121,0v47,0,67,21,67,67r0,235v0,62,16,104,79,104v92,0,143,-81,143,-172r0,-234r127,0r0,381v-2,29,35,21,62,22r0,107r-117,0v-59,2,-73,-38,-66,-94r-2,0v-24,53,-88,106,-176,106v-109,0,-176,-55,-176,-194xm183,-599r0,-84r262,0r0,84r-262,0","w":638},"\u016c":{"d":"91,-253r0,-324v1,-30,-38,-21,-65,-22r0,-111r128,0v48,0,68,21,68,68r0,385v0,93,59,147,148,147v89,0,148,-54,148,-148r0,-384v0,-47,20,-68,68,-68r128,0r0,111v-27,2,-65,-8,-65,22r0,324v0,157,-111,265,-278,265v-169,0,-280,-108,-280,-265xm513,-881v-2,169,-284,170,-286,0r0,-12r81,0v-5,48,28,71,62,71v33,0,67,-23,62,-71r81,0r0,12","w":740},"\u016d":{"d":"81,-182r0,-198v2,-30,-35,-20,-62,-22r0,-108r121,0v47,0,67,21,67,67r0,235v0,62,16,104,79,104v92,0,143,-81,143,-172r0,-234r127,0r0,381v-2,29,35,21,62,22r0,107r-117,0v-59,2,-73,-38,-66,-94r-2,0v-24,53,-88,106,-176,106v-109,0,-176,-55,-176,-194xm456,-697v-2,169,-284,170,-286,0r0,-12r81,0v-5,48,28,71,62,71v33,0,67,-23,62,-71r81,0r0,12","w":638},"\u016e":{"d":"91,-253r0,-324v1,-30,-38,-21,-65,-22r0,-111r128,0v48,0,68,21,68,68r0,385v0,93,59,147,148,147v89,0,148,-54,148,-148r0,-384v0,-47,20,-68,68,-68r128,0r0,111v-27,2,-65,-8,-65,22r0,324v0,157,-111,265,-278,265v-169,0,-280,-108,-280,-265xm371,-745v-45,0,-89,-27,-89,-78v0,-52,44,-79,89,-79v45,0,89,27,89,79v0,51,-44,78,-89,78xm371,-789v20,0,35,-14,35,-34v0,-21,-15,-35,-35,-35v-20,0,-35,14,-35,35v0,20,15,34,35,34","w":740},"\u016f":{"d":"81,-182r0,-198v2,-30,-35,-20,-62,-22r0,-108r121,0v47,0,67,21,67,67r0,235v0,62,16,104,79,104v92,0,143,-81,143,-172r0,-234r127,0r0,381v-2,29,35,21,62,22r0,107r-117,0v-59,2,-73,-38,-66,-94r-2,0v-24,53,-88,106,-176,106v-109,0,-176,-55,-176,-194xm313,-561v-45,0,-89,-27,-89,-78v0,-52,44,-79,89,-79v45,0,89,27,89,79v0,51,-44,78,-89,78xm313,-605v20,0,35,-14,35,-34v0,-21,-15,-35,-35,-35v-20,0,-35,14,-35,35v0,20,15,34,35,34","w":638},"\u0170":{"d":"91,-253r0,-324v1,-30,-38,-21,-65,-22r0,-111r128,0v48,0,68,21,68,68r0,385v0,93,59,147,148,147v89,0,148,-54,148,-148r0,-384v0,-47,20,-68,68,-68r128,0r0,111v-27,2,-65,-8,-65,22r0,324v0,157,-111,265,-278,265v-169,0,-280,-108,-280,-265xm403,-757r77,-136r121,0r-104,136r-94,0xm231,-757r72,-136r104,0r-74,136r-102,0","w":740},"\u0171":{"d":"81,-182r0,-198v2,-30,-35,-20,-62,-22r0,-108r121,0v47,0,67,21,67,67r0,235v0,62,16,104,79,104v92,0,143,-81,143,-172r0,-234r127,0r0,381v-2,29,35,21,62,22r0,107r-117,0v-59,2,-73,-38,-66,-94r-2,0v-24,53,-88,106,-176,106v-109,0,-176,-55,-176,-194xm346,-573r77,-136r121,0r-104,136r-94,0xm174,-573r72,-136r104,0r-74,136r-102,0","w":638},"\u0172":{"d":"91,-253r0,-324v1,-30,-38,-21,-65,-22r0,-111r128,0v48,0,68,21,68,68r0,385v0,93,59,147,148,147v89,0,148,-54,148,-148r0,-384v0,-47,20,-68,68,-68r128,0r0,111v-27,2,-65,-8,-65,22r0,326v0,118,-62,189,-144,237v-35,20,-76,59,-76,92v0,32,48,36,48,36r-30,94v0,0,-123,-11,-123,-96v0,-43,27,-79,54,-101r0,-2v-170,11,-287,-105,-287,-262","w":740},"\u0173":{"d":"257,12v-109,0,-176,-55,-176,-194r0,-198v2,-30,-35,-20,-62,-22r0,-108r121,0v53,0,67,24,67,79r0,223v0,62,16,104,79,104v92,0,143,-81,143,-172r0,-234r127,0r0,381v-2,29,35,21,62,22r0,107v-19,16,-56,49,-56,78v0,32,49,36,49,36r-30,94v0,0,-123,-11,-123,-96v0,-51,36,-88,66,-110r0,-2v-58,4,-97,-13,-90,-71v-2,-13,5,-24,-2,-22v0,0,-44,105,-175,105","w":638},"\u0174":{"d":"214,0r-147,-577v-5,-24,-25,-22,-51,-22r0,-111r85,0v50,0,77,12,88,58r97,423v9,40,12,75,12,75r2,0v0,0,4,-34,15,-75r129,-479r111,0r122,479v11,41,14,75,14,75r2,0v0,0,3,-35,12,-75r98,-423v10,-46,37,-58,87,-58r86,0r0,111v-26,0,-45,-1,-51,22r-148,577r-151,0r-108,-402v-12,-45,-18,-88,-18,-88r-2,0v0,0,-6,42,-19,88r-113,402r-152,0xm354,-757r91,-136r109,0r92,136r-95,0r-50,-81r-2,0r-51,81r-94,0","w":992},"\u0175":{"d":"174,0r-122,-384v-6,-20,-20,-18,-42,-18r0,-108r87,0v42,0,62,13,72,52r75,283v7,27,10,54,10,54v6,1,6,-25,14,-54r94,-333r112,0r95,333v8,27,11,54,11,54r2,0v0,0,3,-27,10,-54r74,-283v10,-39,30,-52,72,-52r87,0r0,108v-22,0,-35,-2,-42,18r-122,384r-143,0r-87,-291v-8,-27,-12,-55,-12,-55v-6,-1,-7,26,-15,55r-86,291r-144,0xm272,-573r91,-136r109,0r92,136r-95,0r-50,-81r-2,0r-51,81r-94,0","w":835},"\u0176":{"d":"242,0r0,-310r-168,-265v-15,-27,-30,-24,-64,-24r0,-111r67,0v46,0,66,7,93,52r94,156v28,42,39,81,45,80v23,-50,101,-177,136,-236v26,-45,47,-52,93,-52r67,0r0,111v-34,0,-47,-2,-64,24r-168,265r0,310r-131,0xm163,-757r91,-136r109,0r92,136r-95,0r-50,-81r-2,0r-51,81r-94,0","w":615},"\u0177":{"d":"50,68v0,0,31,35,73,35v35,0,66,-21,84,-65r17,-39r-170,-383v-7,-20,-20,-18,-42,-18r0,-108r84,0v36,0,54,13,67,48r100,255v10,26,18,68,18,68r2,0v0,0,8,-42,17,-68r87,-255v12,-35,33,-48,68,-48r86,0r0,108v-22,0,-37,-2,-44,18r-183,461v-36,92,-108,133,-184,133v-80,0,-129,-52,-129,-52xm133,-573r91,-136r109,0r92,136r-95,0r-50,-81r-2,0r-51,81r-94,0","w":553},"\u0178":{"d":"242,0r0,-310r-168,-265v-15,-27,-30,-24,-64,-24r0,-111r67,0v46,0,66,7,93,52r94,156v28,42,39,81,45,80v23,-50,101,-177,136,-236v26,-45,47,-52,93,-52r67,0r0,111v-34,0,-47,-2,-64,24r-168,265r0,310r-131,0xm354,-777r0,-116r89,0r0,116r-89,0xm175,-777r0,-116r88,0r0,116r-88,0","w":615},"\u0179":{"d":"17,0r0,-83r319,-452v30,-43,55,-61,54,-66v-53,3,-162,2,-226,2v-30,0,-21,38,-22,65r-119,0r0,-108v0,-47,20,-68,68,-68r461,0r0,82r-319,453v-30,44,-55,61,-54,66v0,0,21,-2,54,-2r194,0v30,1,21,-38,22,-65r118,0r0,108v0,48,-20,68,-68,68r-482,0xm251,-757r76,-136r122,0r-105,136r-93,0","w":588},"\u017a":{"d":"27,0r0,-68r235,-287v24,-32,44,-44,43,-49v-20,3,-106,3,-139,2v-26,-1,-22,27,-22,51r-115,0r0,-91v0,-47,20,-68,68,-68r374,0r0,69r-235,287v-24,31,-44,44,-43,49v27,-4,119,-3,160,-3v25,0,22,-26,22,-50r115,0r0,90v0,48,-20,68,-67,68r-396,0xm214,-573r76,-136r122,0r-105,136r-93,0","w":511},"\u017b":{"d":"17,0r0,-83r319,-452v30,-43,55,-61,54,-66v-53,3,-162,2,-226,2v-30,0,-21,38,-22,65r-119,0r0,-108v0,-47,20,-68,68,-68r461,0r0,82r-319,453v-30,44,-55,61,-54,66v0,0,21,-2,54,-2r194,0v30,1,21,-38,22,-65r118,0r0,108v0,48,-20,68,-68,68r-482,0xm245,-777r0,-116r110,0r0,116r-110,0","w":588},"\u017c":{"d":"27,0r0,-68r235,-287v24,-32,44,-44,43,-49v-20,3,-106,3,-139,2v-26,-1,-22,27,-22,51r-115,0r0,-91v0,-47,20,-68,68,-68r374,0r0,69r-235,287v-24,31,-44,44,-43,49v27,-4,119,-3,160,-3v25,0,22,-26,22,-50r115,0r0,90v0,48,-20,68,-67,68r-396,0xm208,-593r0,-116r110,0r0,116r-110,0","w":511},"\u017d":{"d":"17,0r0,-83r319,-452v30,-43,55,-61,54,-66v-53,3,-162,2,-226,2v-30,0,-21,38,-22,65r-119,0r0,-108v0,-47,20,-68,68,-68r461,0r0,82r-319,453v-30,44,-55,61,-54,66v0,0,21,-2,54,-2r194,0v30,1,21,-38,22,-65r118,0r0,108v0,48,-20,68,-68,68r-482,0xm246,-757r-92,-136r95,0r50,81r2,0r50,-81r96,0r-93,136r-108,0","w":588},"\u017e":{"d":"27,0r0,-68r235,-287v24,-32,44,-44,43,-49v-20,3,-106,3,-139,2v-26,-1,-22,27,-22,51r-115,0r0,-91v0,-47,20,-68,68,-68r374,0r0,69r-235,287v-24,31,-44,44,-43,49v27,-4,119,-3,160,-3v25,0,22,-26,22,-50r115,0r0,90v0,48,-20,68,-67,68r-396,0xm208,-573r-92,-136r95,0r50,81r2,0r50,-81r96,0r-93,136r-108,0","w":511},"\u017f":{"d":"83,0r0,-409r-63,0r0,-101r63,0r0,-15v0,-167,137,-189,208,-189v26,0,43,3,43,3r0,108v-52,-6,-124,-2,-124,83r0,520r-127,0","w":345},"\u0192":{"d":"-11,56v-25,0,-42,-3,-42,-3r10,-108v0,0,10,2,25,2v36,0,99,-11,106,-92r17,-189r-71,0r0,-101r80,0r8,-90v15,-167,151,-189,224,-189v26,0,43,3,43,3r-10,108v0,0,-10,-2,-26,-2v-36,0,-99,11,-106,92r-7,78r101,0r0,101r-110,0r-18,200v-15,168,-152,190,-224,190","w":374},"\u0218":{"d":"32,-98r74,-92v0,0,73,84,172,84v54,0,102,-29,102,-84v0,-121,-334,-111,-334,-332v0,-115,100,-200,237,-200v83,0,211,39,211,140r0,66r-118,0r0,-32v0,-33,-47,-55,-94,-55v-60,0,-104,31,-104,76v0,121,334,97,334,330v0,113,-87,209,-236,209v-157,0,-244,-110,-244,-110xm227,55r95,0v15,57,6,93,-19,145r-84,0v20,-55,27,-89,8,-145","w":549},"\u0219":{"d":"25,-79r60,-83v0,0,65,75,152,75v39,0,69,-16,69,-50v0,-72,-269,-71,-269,-236v0,-102,92,-149,198,-149v69,0,179,23,179,106r0,53r-112,0r0,-25v0,-24,-36,-36,-64,-36v-45,0,-76,16,-76,46v0,80,271,64,271,234v0,96,-85,156,-196,156v-140,0,-212,-91,-212,-91xm182,55r95,0v15,57,6,93,-19,145r-84,0v20,-55,27,-89,8,-145","w":468},"\u021a":{"d":"261,0r0,-599r-109,0v-30,-1,-21,38,-22,65r-115,0r0,-112v0,-47,16,-64,64,-64r495,0v48,0,64,17,64,64r0,112r-115,0v-2,-27,8,-65,-22,-65r-109,0r0,599r-131,0xm273,55r95,0v15,57,6,93,-19,145r-84,0v20,-55,27,-89,8,-145","w":653},"\u021b":{"d":"85,-187r0,-222r-66,0r0,-101r69,0r0,-139r124,0r0,139r116,0r0,101r-116,0r0,206v0,84,66,96,101,96v14,0,23,-2,23,-2r0,111v0,0,-16,3,-39,3v-71,0,-212,-21,-212,-192xm156,55r95,0v15,57,6,93,-19,145r-84,0v20,-55,27,-89,8,-145","w":370},"\u02c6":{"d":"105,-757r91,-136r109,0r92,136r-95,0r-50,-81r-2,0r-51,81r-94,0","w":501},"\u02c7":{"d":"196,-757r-92,-136r95,0r50,81r2,0r50,-81r96,0r-93,136r-108,0","w":502},"\u02d8":{"d":"397,-881v-2,169,-284,170,-286,0r0,-12r81,0v-5,48,28,71,62,71v33,0,67,-23,62,-71r81,0r0,12","w":518},"\u02d9":{"d":"90,-777r0,-116r110,0r0,116r-110,0","w":290},"\u02da":{"d":"192,-745v-45,0,-89,-27,-89,-78v0,-52,44,-79,89,-79v45,0,89,27,89,79v0,51,-44,78,-89,78xm192,-789v20,0,35,-14,35,-34v0,-21,-15,-35,-35,-35v-20,0,-35,14,-35,35v0,20,15,34,35,34","w":384},"\u02db":{"d":"111,112v0,-74,88,-128,88,-128r85,4v0,0,-68,53,-68,90v0,32,48,36,48,36r-30,94v0,0,-123,-11,-123,-96","w":379},"\u02dc":{"d":"96,-758v0,-91,38,-137,114,-137v69,0,86,65,128,65v28,0,41,-30,41,-62r79,0v0,90,-38,137,-114,137v-69,0,-86,-65,-128,-65v-28,0,-41,29,-41,62r-79,0","w":548},"\u02dd":{"d":"265,-757r77,-136r121,0r-104,136r-94,0xm93,-757r72,-136r104,0r-74,136r-102,0","w":556},"\u1e9e":{"d":"26,0r0,-111v27,-2,65,8,65,-22r0,-363v0,-125,90,-214,218,-214r282,0r0,89r-121,181v-12,21,-23,28,-22,33v111,3,172,102,172,197v0,118,-97,210,-217,210r-94,0r0,-111r85,0v59,0,94,-47,94,-99v0,-52,-35,-97,-94,-97r-84,0r0,-89r89,-141v29,-49,46,-58,45,-64v-16,3,-103,2,-133,2v-52,0,-89,44,-89,101r0,430v0,48,-20,68,-68,68r-128,0","w":659},"\u2013":{"d":"55,-236r0,-99r553,0r0,99r-553,0","w":663},"\u2014":{"d":"55,-236r0,-99r753,0r0,99r-753,0","w":863},"\u2018":{"d":"42,-504r75,-218r86,0r-47,218r-114,0","w":245},"\u2019":{"d":"42,-504r47,-219r114,0r-75,219r-86,0","w":245},"\u201a":{"d":"89,-129r114,0r-75,218r-86,0","w":245},"\u201c":{"d":"202,-504r74,-218r86,0r-47,218r-113,0xm42,-504r75,-218r86,0r-47,218r-114,0","w":404},"\u201d":{"d":"202,-504r47,-219r113,0r-74,219r-86,0xm42,-504r47,-219r114,0r-75,219r-86,0","w":404},"\u201e":{"d":"202,89r47,-218r113,0r-74,218r-86,0xm89,-129r114,0r-75,218r-86,0","w":404},"\u2020":{"d":"151,50r0,-461r-124,0r0,-99r124,0r0,-200r122,0r0,200r126,0r0,99r-126,0r0,461r-122,0","w":426},"\u2021":{"d":"151,50r0,-213r-124,0r0,-98r124,0r0,-150r-124,0r0,-99r124,0r0,-200r122,0r0,200r126,0r0,99r-126,0r0,150r126,0r0,98r-126,0r0,213r-122,0","w":426},"\u2022":{"d":"234,-124v-92,0,-167,-75,-167,-167v0,-92,75,-167,167,-167v93,0,167,75,167,167v0,92,-74,167,-167,167","w":469},"\u2026":{"d":"720,0r0,-127r123,0r0,127r-123,0xm435,0r0,-127r123,0r0,127r-123,0xm151,0r0,-127r122,0r0,127r-122,0","w":993},"\u2030":{"d":"218,-406v-90,0,-163,-70,-163,-158v0,-86,73,-158,163,-158v90,0,164,72,164,158v0,88,-74,158,-164,158xm80,0r545,-710r117,0r-545,710r-117,0xm218,-498v37,0,67,-29,67,-66v0,-36,-30,-66,-67,-66v-37,0,-66,30,-66,66v0,37,29,66,66,66xm816,-145v0,-86,72,-158,163,-158v90,0,164,72,164,158v0,87,-74,157,-164,157v-91,0,-163,-70,-163,-157xm443,-145v0,-86,72,-158,163,-158v90,0,163,72,163,158v0,87,-73,157,-163,157v-91,0,-163,-70,-163,-157xm913,-146v0,37,29,66,66,66v37,0,67,-29,67,-66v0,-36,-30,-66,-67,-66v-37,0,-66,30,-66,66xm540,-146v0,37,29,66,66,66v37,0,67,-29,67,-66v0,-36,-30,-66,-67,-66v-37,0,-66,30,-66,66","w":1171},"\u2039":{"d":"210,-77r-164,-205r164,-206r121,0r-164,206r164,205r-121,0","w":392},"\u203a":{"d":"58,-77r164,-205r-164,-206r121,0r164,206r-164,205r-121,0","w":392},"\u2044":{"d":"23,0r276,-710r99,0r-277,710r-98,0","w":420},"\u20ac":{"d":"38,-250r0,-76r62,0v-2,-3,-2,-58,0,-62r-62,0r0,-77r75,0v43,-150,177,-257,342,-257v53,0,99,13,99,13r-31,117v0,0,-34,-10,-71,-10v-95,0,-169,53,-201,137r249,0r-16,77r-251,0v-2,2,-2,59,1,62r238,0r-15,76r-200,0v31,85,108,140,200,140v52,0,96,-15,96,-15r23,118v0,0,-52,19,-121,19v-171,0,-301,-107,-342,-262r-75,0","w":612},"\u2122":{"d":"427,-267r0,-83v13,-1,31,5,32,-9r28,-351r89,0r91,209v9,18,11,44,16,42v0,0,6,-25,13,-42r92,-209r88,0r28,351v1,14,20,8,33,9r0,83r-75,0v-36,0,-48,-7,-51,-45r-13,-183v-3,-16,5,-33,-1,-31r-78,178r-75,0r-78,-178r-2,0v2,66,-8,146,-12,214v-2,38,-14,45,-50,45r-75,0xm182,-267r0,-359r-58,0v-14,1,-6,24,-8,37r-82,0r0,-76v0,-34,10,-45,48,-45r296,0v37,0,47,11,47,45r0,76r-80,0v-2,-13,6,-37,-7,-37r-60,0r0,359r-96,0","w":991},"\u2212":{"d":"46,-236r0,-99r528,0r0,99r-528,0"},"\u221e":{"d":"259,-157v-105,0,-192,-87,-192,-192v0,-106,87,-191,192,-191v106,0,190,85,190,191v0,105,-84,192,-190,192","w":517},"\u2248":{"d":"104,-322r-49,-74v37,-38,94,-76,156,-76v94,0,127,70,198,70v40,0,81,-26,107,-55r50,75v-37,37,-93,76,-157,76v-94,0,-127,-70,-198,-70v-40,0,-80,26,-107,54xm104,-117r-49,-75v37,-37,94,-75,156,-75v94,0,127,70,198,70v40,0,81,-26,107,-55r50,75v-37,36,-93,75,-157,75v-94,0,-127,-70,-198,-70v-40,0,-80,27,-107,55"},"\u2260":{"d":"118,-63r49,-71r-101,0r0,-98r165,0r74,-107r-239,0r0,-98r304,0r76,-112r61,40r-50,72r97,0r0,98r-161,0r-74,107r235,0r0,98r-299,0r-75,110"},"\u2264":{"d":"64,-245r0,-82r481,-214r0,111r-347,143r0,2r347,143r0,111xm66,85r479,0r0,98r-479,0r0,-98"},"\u2265":{"d":"75,-31r0,-111r347,-143r0,-2r-347,-143r0,-111r481,214r0,82xm75,85r480,0r0,98r-480,0r0,-98"}}});
