/*!
 * The following copyright notice may not be removed under any circumstances.
 * 
 * Copyright:
 * Copyright (c) 2007 by Jos Buivenga. All rights reserved.
 * 
 * Trademark:
 * Fontin Sans is a trademark of Jos Buivenga.
 * 
 * Full name:
 * Fontin Sans Rg Bold Italic
 * 
 * Description:
 * Copyright (c) 2007 by Jos Buivenga. All rights reserved.
 * 
 * Manufacturer:
 * Jos Buivenga
 */
Cufon.registerFont({"w":480,"face":{"font-family":"Fontin Sans Rg","font-weight":700,"font-style":"italic","font-stretch":"normal","units-per-em":"1000","panose-1":"2 0 0 0 0 0 0 0 0 0","ascent":"756","descent":"-244","x-height":"13","bbox":"-152 -879 1176 254","underline-thickness":"50","underline-position":"-50","stemh":"99","stemv":"128","unicode-range":"U+0020-U+FB04"},"glyphs":{" ":{"w":270},"!":{"d":"314,-766r-140,575r-89,-11r66,-451r4,-93xm179,-61v0,41,-31,74,-75,74v-44,0,-75,-33,-75,-74v0,-38,31,-75,75,-75v44,0,75,37,75,75","w":269},"\"":{"d":"191,-427r-97,0r25,-126r0,-100r114,-19xm351,-427r-97,0r25,-126r0,-100r114,-19","w":375},"#":{"d":"632,-174r-141,0r-52,174r-118,0r53,-174r-121,0r-52,174r-118,0r53,-174r-135,0r18,-94r145,0r48,-156r-135,0r18,-94r144,0r45,-150r117,0r-46,150r121,0r45,-150r118,0r-46,150r144,0r-29,94r-141,0r-48,156r143,0xm402,-268r48,-156r-121,0r-48,156r121,0","w":726},"$":{"d":"367,-756r-18,81v70,8,119,30,119,30r-45,98v0,1,-45,-22,-95,-31r-43,197v61,47,134,98,134,194v0,111,-98,194,-220,200r-17,81r-61,0r18,-85v-80,-11,-138,-51,-138,-51r16,-103v0,0,73,49,143,57r42,-193v-62,-48,-135,-104,-135,-198v0,-116,110,-194,222,-199r17,-78r61,0xm202,-498v0,28,12,51,32,72r33,-151v-38,10,-65,40,-65,79xm289,-176v0,-22,-14,-42,-35,-62r-31,144v34,-11,66,-37,66,-82","w":465},"%":{"d":"387,-507v0,89,-78,163,-166,163v-86,0,-163,-74,-163,-163v0,-89,77,-163,163,-163v88,0,166,74,166,163xm299,-508v0,-41,-38,-75,-77,-75v-41,0,-76,34,-76,75v0,38,32,80,76,80v49,0,77,-42,77,-80xm772,-647r-569,647r-127,0r601,-688xm802,-150v0,89,-78,163,-166,163v-86,0,-163,-74,-163,-163v0,-89,77,-163,163,-163v88,0,166,74,166,163xm714,-151v0,-41,-38,-75,-77,-75v-41,0,-76,34,-76,75v0,38,32,80,76,80v49,0,77,-42,77,-80","w":860},"&":{"d":"384,-299r36,-97v140,-3,224,-64,262,-103r21,105v0,0,-32,29,-69,44v0,221,-143,363,-334,363v-121,0,-259,-68,-259,-232v0,-94,55,-195,155,-235v-24,-27,-43,-79,-43,-119v0,-109,119,-194,268,-194v91,0,179,50,179,50r-34,108v0,0,-76,-59,-152,-59v-65,0,-126,50,-126,113v0,53,41,117,41,117r-2,15v-90,38,-150,118,-150,198v0,98,68,138,135,138v100,-1,206,-94,195,-223v-41,11,-83,16,-123,11","w":704},"'":{"d":"191,-427r-97,0r25,-126r0,-100r114,-19","w":215},"(":{"d":"327,-692r84,37v-159,111,-262,351,-262,561v0,192,88,309,88,305r-93,37v0,0,-113,-131,-113,-349v0,-207,106,-474,296,-591","w":318},")":{"d":"-25,248r-84,-37v159,-111,262,-351,262,-561v0,-192,-88,-309,-88,-305r93,-37v0,0,113,131,113,349v0,207,-106,474,-296,591","w":308},"*":{"d":"5,-539r40,-82r108,3r-81,-126r103,-7r45,87r61,-112r67,65r-61,93r148,-3r-40,82r-108,-3r81,126r-103,7r-45,-86r-61,110r-65,-65r59,-92","w":402},"+":{"d":"186,-60r0,-144r-143,0r0,-98r143,0r0,-154r110,30r0,124r151,0r-25,98r-126,0r0,144r-110,0","w":481},",":{"d":"20,138r-28,-43v46,-32,74,-79,74,-108v0,-28,-10,-37,-29,-46v-2,-37,25,-75,67,-75v37,0,71,25,71,77v0,48,-43,126,-155,195","w":250},"-":{"d":"16,-299r291,0r-28,104r-263,0r0,-104","w":312},".":{"d":"175,-61v0,41,-31,74,-75,74v-44,0,-75,-33,-75,-74v0,-38,31,-75,75,-75v44,0,75,37,75,75","w":237},"\/":{"d":"373,-657r-285,901r-110,0r282,-901r113,0","w":356},"0":{"d":"298,-600v130,0,178,95,178,200v0,211,-76,413,-272,413v-90,0,-179,-53,-179,-192v0,-218,97,-421,273,-421xm293,-510v-111,0,-143,235,-143,336v0,64,23,99,64,99v107,0,138,-216,138,-318v0,-58,-12,-117,-59,-117"},"1":{"d":"6,0r17,-96r95,0r63,-356r-107,32r-8,-99r268,-86r-92,509r120,0r-25,96r-331,0","w":380},"2":{"d":"101,-465r-16,-101v0,-1,95,-34,172,-34v105,0,173,64,173,155v0,159,-244,338,-244,338r218,-1r-27,108r-365,0r0,-59v82,-75,291,-258,291,-369v0,-40,-23,-72,-77,-72v-50,0,-125,35,-125,35"},"3":{"d":"3,101r-10,-93v7,1,16,1,26,1v87,0,256,-32,256,-166v0,-65,-63,-86,-127,-94r29,-74v57,-20,125,-66,125,-124v0,-35,-35,-52,-65,-52v-57,0,-131,37,-132,36r-18,-102v0,0,95,-33,174,-33v85,0,168,49,168,135v0,58,-47,125,-121,153v47,12,96,62,96,142v0,175,-192,271,-353,271r-48,0"},"4":{"d":"5,-166r359,-434r103,18r-67,379r96,0r-39,108r-76,0r-18,103r-4,92r-136,0r34,-195r-248,0xm278,-203r28,-156r21,-77r-49,74r-101,129r-28,30r129,0"},"5":{"d":"460,-585r-43,108r-176,0r-20,101v109,10,170,93,170,186v0,190,-159,304,-375,291r-10,-94v116,2,254,-31,254,-184v0,-70,-44,-112,-112,-112v-19,0,-65,4,-65,4r64,-300r313,0"},"6":{"d":"375,-580v-89,0,-150,78,-186,168v17,-7,52,-21,97,-21v87,0,164,58,164,184v0,155,-98,262,-249,262v-122,0,-173,-115,-173,-239v0,-210,138,-452,352,-452v70,0,139,27,139,27r-38,100v0,0,-54,-29,-106,-29xm250,-339v-38,0,-74,14,-88,20v-7,36,-11,70,-11,99v0,71,12,138,70,138v67,0,103,-81,103,-151v0,-74,-34,-106,-74,-106"},"7":{"d":"106,114r-104,-22r339,-569r-259,0r-20,-108r430,0r21,25"},"8":{"d":"202,13v-108,0,-188,-65,-188,-154v0,-103,67,-151,154,-210v-47,-47,-73,-95,-73,-151v0,-117,97,-176,195,-176v111,0,166,67,166,132v0,80,-69,142,-124,181v53,51,93,102,93,170v0,126,-111,208,-223,208xm300,-174v0,-62,-73,-119,-73,-119v0,0,-93,63,-93,132v0,44,31,78,77,78v54,0,89,-50,89,-91xm214,-525v0,46,30,74,56,101v41,-33,67,-64,67,-106v0,-36,-21,-64,-60,-64v-43,0,-63,37,-63,69"},"9":{"d":"320,-173v-17,7,-55,21,-100,21v-87,0,-164,-58,-164,-184v0,-155,98,-262,249,-262v122,0,173,115,173,239v0,204,-114,470,-357,470v-57,0,-136,-20,-134,-22r35,-97v30,13,70,22,107,22v105,0,160,-91,191,-187xm256,-246v38,0,74,-14,88,-20v7,-36,11,-70,11,-99v0,-71,-12,-138,-70,-138v-67,0,-103,81,-103,151v0,74,34,106,74,106"},":":{"d":"83,-323v0,-39,32,-70,70,-70v36,0,67,31,67,70v0,37,-31,67,-67,67v-38,0,-70,-30,-70,-67xm33,-54v0,-39,32,-70,70,-70v36,0,67,31,67,70v0,37,-31,67,-67,67v-38,0,-70,-30,-70,-67","w":258},";":{"d":"20,138r-28,-43v46,-32,74,-79,74,-108v0,-28,-10,-37,-29,-46v-2,-37,25,-75,67,-75v37,0,71,25,71,77v0,48,-43,126,-155,195xm84,-323v0,-39,32,-70,70,-70v36,0,67,31,67,70v0,37,-31,67,-67,67v-38,0,-70,-30,-70,-67","w":258},"<":{"d":"343,-401r-153,155r153,153r-45,90r-269,-244r269,-244","w":379},"=":{"d":"43,-201r398,0r-25,94r-373,0r0,-94xm43,-386r408,0r-25,94r-383,0r0,-94","w":490},">":{"d":"34,-93r153,-155r-153,-153r45,-90r269,244r-269,244","w":379},"?":{"d":"185,-185r-98,-40v0,0,-2,-5,-2,-12v0,-107,241,-243,241,-343v0,-47,-33,-72,-78,-72v-45,0,-108,38,-108,38r-15,-114v0,0,74,-32,149,-32v93,0,182,43,182,166v0,145,-273,283,-273,392v0,4,1,13,2,17xm204,-61v0,41,-31,74,-75,74v-44,0,-75,-33,-75,-74v0,-38,31,-75,75,-75v44,0,75,37,75,75","w":411},"@":{"d":"640,-406v0,0,-54,280,-54,309v0,24,7,43,7,43v99,-38,173,-178,173,-268v0,-135,-95,-258,-255,-258v-203,0,-381,187,-381,383v0,139,91,287,279,314r-70,89v-203,-49,-310,-211,-310,-380v0,-233,176,-494,507,-494v193,0,337,155,337,326v0,210,-162,374,-376,389v-25,-35,-33,-98,-33,-98v0,0,-47,60,-119,60v-90,0,-130,-73,-130,-158v0,-179,155,-357,352,-357v46,0,98,20,98,20xm465,-118r60,-300v-111,16,-180,142,-180,255v0,39,12,71,46,71v38,0,74,-26,74,-26","w":902},"A":{"d":"-83,0r379,-660r99,-20r96,555r32,125r-142,0r-26,-155r-225,0r-89,155r-124,0xm310,-491v-36,83,-82,155,-123,233r153,0r-29,-194","w":552},"B":{"d":"226,-310r-40,213r50,0v86,0,131,-59,131,-128v0,-47,-36,-85,-107,-85r-34,0xm516,-528v0,75,-59,133,-107,157v49,27,88,81,88,140v0,121,-103,231,-288,231r-174,0r110,-568r4,-100r183,-10v119,-7,184,68,184,150xm244,-404v39,0,62,-1,102,7v24,-31,44,-82,44,-119v0,-37,-26,-65,-73,-63r-39,2","w":543},"C":{"d":"630,-611r-62,90v0,1,-77,-60,-152,-60v-127,0,-240,135,-240,311v0,95,51,181,159,181v123,0,212,-110,212,-110r9,121v0,0,-93,91,-243,91v-162,0,-270,-114,-270,-273v0,-241,154,-418,381,-418v106,0,206,67,206,67","w":617},"D":{"d":"152,-668r266,0v135,0,230,105,230,262v0,219,-144,406,-374,406r-236,0r110,-566xm279,-571r-92,474r99,0v120,0,228,-131,228,-297v0,-88,-46,-177,-138,-177r-97,0","w":671},"E":{"d":"35,0r110,-566r4,-102r361,0r-17,99r-216,0r-36,177r202,0r-37,99r-184,0r-36,194r242,0r-39,99r-354,0","w":505},"F":{"d":"222,-293r-40,208r-4,85r-143,0r110,-566r4,-102r361,0r-18,99r-216,0r-34,177r202,0r-38,99r-184,0","w":485},"G":{"d":"540,-20v-74,6,-144,33,-225,33v-164,0,-272,-114,-272,-273v0,-241,154,-418,381,-418v106,0,206,67,206,67r-62,90v0,1,-77,-60,-152,-60v-127,0,-240,135,-240,311v0,95,51,181,159,181v32,0,64,-7,91,-19r26,-134r-3,-84r148,0","w":662},"H":{"d":"721,-668r-114,583r-4,85r-143,0r56,-282r-295,0r-39,197r-4,85r-143,0r111,-566r4,-102r146,0r-56,277r295,0r36,-175r4,-102r146,0","w":734},"I":{"d":"296,-668r-114,583r-4,85r-143,0r111,-568r4,-100r146,0","w":309},"J":{"d":"308,-668r-120,620v-23,118,-112,247,-261,247v-39,0,-79,-10,-79,-10r30,-111v0,0,27,11,57,11v57,0,108,-63,123,-141r99,-514r5,-102r146,0","w":332},"K":{"d":"185,-86r-5,86r-141,0r109,-565r6,-103r144,0r-59,307r207,-236r45,-71r167,0r-298,319r208,349r-148,0r-188,-326","w":606},"L":{"d":"38,0r110,-566r4,-102r146,0r-110,567r257,0r-45,101r-362,0","w":445},"M":{"d":"395,-61r-146,-267r-26,-85r-60,328r-4,85r-124,0r106,-566r-4,-102r92,0r205,410r333,-410r94,0r-114,583r-4,85r-141,0r80,-408r-53,83","w":875},"N":{"d":"736,-668r-112,583r-9,85r-82,0r-260,-376r-37,-80r-69,371r-4,85r-128,0r108,-565r-10,-103r108,0r257,390r37,77r65,-365r4,-102r132,0","w":738},"O":{"d":"382,-582v-91,0,-216,105,-216,321v0,107,52,177,130,177v125,0,217,-169,217,-317v0,-106,-47,-181,-131,-181xm33,-249v0,-231,132,-429,359,-429v194,0,254,154,254,258v0,255,-152,433,-363,433v-164,0,-250,-119,-250,-262","w":659},"P":{"d":"143,-668r206,0v103,0,194,72,194,178v0,161,-140,263,-339,254r-28,151r-4,85r-143,0r110,-566xm271,-571r-47,235r43,0v72,0,140,-47,140,-147v0,-51,-37,-88,-89,-88r-47,0","w":528},"Q":{"d":"38,-249v0,-231,132,-429,359,-429v194,0,254,154,254,258v0,238,-132,410,-324,431v73,25,153,65,209,65v88,0,142,-45,142,-45r9,120v0,0,-46,35,-148,35v-97,0,-215,-79,-293,-119r-16,-60v-126,-24,-192,-130,-192,-256xm387,-582v-91,0,-216,105,-216,321v0,107,52,177,130,177v125,0,217,-169,217,-317v0,-106,-47,-181,-131,-181","w":679},"R":{"d":"143,-668r206,0v103,0,194,72,194,178v0,111,-68,195,-174,233r164,257r-152,0r-136,-236r-41,0r-28,151r-4,85r-143,0r110,-566xm271,-571r-47,235r43,0v72,0,140,-47,140,-147v0,-51,-37,-88,-89,-88r-47,0","w":557},"S":{"d":"468,-645r-45,98v0,1,-67,-34,-129,-34v-51,0,-92,35,-92,83v0,115,217,144,217,311v0,115,-105,200,-233,200v-103,0,-185,-55,-185,-55r16,-103v0,0,87,58,163,58v45,0,109,-25,109,-89v0,-91,-222,-139,-222,-303v0,-120,117,-199,233,-199v96,0,168,33,168,33","w":465},"T":{"d":"40,-567r20,-101r529,0r-19,101r-189,0r-94,482r-4,85r-143,0r110,-567r-210,0","w":549},"U":{"d":"550,-668r131,0r-78,402v-32,164,-136,279,-298,279v-238,0,-253,-165,-224,-323r46,-256r5,-102r147,0r-67,365v-15,82,-29,219,99,219v87,0,157,-81,175,-175r59,-307","w":676},"V":{"d":"672,-668r-395,681r-95,-20r-92,-537r-40,-124r155,0r68,404r5,77r32,-74r230,-407r132,0","w":622},"W":{"d":"983,-668r-362,681r-104,-20r-52,-302r-187,322r-95,-20r-92,-537r-40,-124r155,0r68,404r5,77r35,-74r123,-212r-12,-71r-40,-124r155,0r68,404r5,77r32,-74r205,-407r133,0","w":937},"X":{"d":"326,0r-72,-200r-9,-36v-49,83,-108,157,-161,236r-137,0r256,-343r-92,-253r-49,-72r160,0r69,187r9,34v46,-78,101,-147,151,-221r135,0r-242,331r122,337r-140,0","w":543},"Y":{"d":"325,-291r-40,206r-4,85r-143,0r57,-290r-96,-291r-47,-87r151,0r75,222r8,42r28,-49r151,-215r135,0","w":535},"Z":{"d":"-27,0r0,-35r394,-478r52,-53r-338,0r51,-102r491,0r0,35r-395,477r-54,55r371,0r-21,101r-551,0","w":571},"[":{"d":"361,-734r-17,87r-86,0r-122,628r86,0r-18,88r-200,0r156,-803r201,0","w":288},"\\":{"d":"259,244r-265,-901r116,0r257,901r-108,0","w":356},"]":{"d":"97,-647r17,-87r201,0r-157,803r-200,0r18,-88r85,0r122,-628r-86,0","w":278},"^":{"d":"582,-320r-113,0r-154,-281r-155,281r-110,0r223,-388r86,0","w":634},"_":{"d":"514,65r-33,80r-481,0r0,-80r514,0","w":493},"`":{"d":"30,-724r149,0r103,136r-82,28","w":338},"a":{"d":"306,-165r50,-266v-16,-2,-37,-4,-45,-4v-76,0,-160,121,-160,267v0,37,10,82,41,82v49,0,114,-79,114,-79xm342,13v-32,-27,-42,-60,-37,-83v0,0,-70,83,-145,83v-71,0,-137,-53,-137,-166v0,-185,113,-367,281,-367v46,0,114,10,191,15r-67,346v-14,72,-6,108,38,155","w":521},"b":{"d":"155,-745r144,-15r-63,308v0,0,75,-68,137,-68v72,0,133,58,133,171v0,180,-91,362,-278,362v-72,0,-125,-34,-189,-62r113,-594xm217,-341r-46,249v11,6,32,16,63,16v85,0,144,-132,144,-259v0,-61,-23,-82,-46,-82v-35,0,-115,76,-115,76","w":530},"c":{"d":"411,-178r8,115v0,0,-79,76,-198,76v-136,0,-198,-99,-198,-212v0,-204,123,-321,260,-321v79,0,170,28,170,28r-31,100v0,0,-77,-35,-125,-35v-98,0,-148,110,-148,198v0,71,28,138,106,138v77,0,156,-87,156,-87","w":451},"d":{"d":"317,-169r49,-260v-22,-2,-49,-4,-68,-4v-101,0,-145,162,-145,258v0,62,21,90,41,90v44,0,123,-84,123,-84xm355,13v-32,-26,-42,-62,-37,-92v0,0,-76,92,-155,92v-71,0,-138,-61,-138,-174v0,-185,93,-359,290,-359v18,0,48,2,68,4r29,-130r0,-99r144,-15r-117,601v-14,72,-6,108,38,155","w":527},"e":{"d":"448,-398v0,135,-149,178,-295,183v0,69,38,123,100,123v84,0,165,-90,165,-90r8,118v0,0,-67,77,-199,77v-137,0,-198,-102,-198,-218v0,-169,107,-314,269,-314v102,0,150,52,150,121xm162,-293v50,-6,158,-12,158,-95v0,-30,-17,-43,-37,-43v-67,0,-104,75,-121,138","w":459},"f":{"d":"228,-413r-61,414v-21,141,-108,240,-243,241r-33,-93v80,0,138,-59,152,-152r61,-410r-63,0r14,-92r62,0r10,-61v24,-146,110,-198,197,-198v71,0,128,39,128,39r-54,98v0,0,-35,-30,-77,-30v-29,0,-59,22,-68,76r-12,76r129,0r-48,92r-94,0","w":316},"g":{"d":"321,-520v84,0,166,17,166,17r-65,326v-15,67,-3,151,-3,235v0,116,-119,185,-244,185v-161,0,-234,-111,-234,-111r83,-68v0,0,53,86,159,86v60,0,113,-34,113,-101v0,-15,-10,-85,-3,-112v0,0,-62,76,-132,76v-72,0,-133,-58,-133,-171v0,-185,96,-362,293,-362xm290,-434v-71,0,-129,135,-129,262v0,61,18,81,38,81v40,0,98,-76,98,-76r50,-263v-17,-2,-41,-4,-57,-4","w":505},"h":{"d":"299,-760r-53,268r-15,46v22,-21,90,-74,166,-74v102,0,126,77,109,164r-53,273r-6,83r-135,0r62,-327v3,-14,17,-85,-23,-85v-53,0,-135,76,-135,76r-49,251r-5,85r-135,0r125,-645r5,-100","w":547},"i":{"d":"252,-520r-85,434r-5,86r-135,0r78,-404r6,-101xm143,-653v0,-39,32,-70,70,-70v36,0,67,31,67,70v0,37,-31,67,-67,67v-38,0,-70,-30,-70,-67","w":282},"j":{"d":"260,-517r-103,530v-27,139,-124,229,-247,230r-30,-102v82,0,136,-36,154,-132r79,-410r5,-101xm153,-653v0,-39,32,-70,70,-70v36,0,67,31,67,70v0,37,-31,67,-67,67v-38,0,-70,-30,-70,-67","w":288},"k":{"d":"297,-760r-90,462r92,-69v27,-21,50,-39,50,-55v0,-18,-39,-30,-39,-30r103,-67v0,0,68,31,68,88v0,51,-32,88,-95,122r-65,35r151,258r-122,29r-150,-276r-35,178r-5,85r-135,0r125,-645r5,-100","w":490},"l":{"d":"297,-760r-132,675r-5,85r-135,0r125,-645r5,-100","w":265},"m":{"d":"448,0r-135,0r62,-327v3,-14,18,-85,-23,-85v-53,0,-135,76,-135,76r-49,251r-7,85r-134,0r79,-402r-9,-86r143,-31r-11,83v0,0,75,-84,169,-84v72,0,105,39,112,92v11,-12,86,-92,178,-92v102,0,126,77,109,164r-53,273r-6,83r-135,0r62,-327v3,-14,18,-85,-23,-85v-47,0,-120,62,-140,80r-48,249","w":841},"n":{"d":"448,0r-135,0r62,-327v3,-14,18,-85,-23,-85v-53,0,-135,76,-135,76r-49,251r-7,85r-134,0r79,-402r-9,-86r143,-31r-11,83v0,0,75,-84,169,-84v102,0,126,77,109,164r-53,273","w":553},"o":{"d":"222,-78v58,0,132,-73,132,-227v0,-71,-28,-125,-74,-125v-76,0,-132,120,-132,225v0,75,23,127,74,127xm305,-520v99,0,177,70,177,201v0,176,-104,332,-280,332v-145,0,-179,-120,-179,-200v0,-196,113,-333,282,-333","w":507},"p":{"d":"240,-520r-12,82v0,0,65,-82,146,-82v69,0,130,56,130,171v0,184,-88,362,-279,362v-23,0,-74,-12,-74,-12r-29,154r-5,85r-136,0r125,-645r-8,-84xm225,-79v94,0,151,-124,151,-256v0,-58,-19,-81,-42,-81v-40,0,-118,82,-118,82r-48,245v0,0,33,10,57,10","w":532},"q":{"d":"202,-86v42,0,121,-82,121,-82r50,-261v-21,-1,-55,-4,-81,-4v-70,0,-133,131,-133,258v0,62,21,89,43,89xm389,131r-5,109r-141,0r57,-290v0,0,-66,63,-130,63v-71,0,-139,-61,-139,-174v0,-185,95,-359,292,-359v61,0,121,12,190,13","w":534},"r":{"d":"164,0r-137,0r79,-402r-8,-90r141,-28r-16,107v0,0,60,-107,144,-107v39,0,67,15,67,15r-44,111v0,0,-28,-12,-53,-12v-57,0,-127,109,-143,192r-25,129","w":401},"s":{"d":"60,-371v0,-92,100,-149,197,-149v70,0,147,28,147,28r-35,95v0,1,-64,-34,-124,-34v-37,0,-61,23,-61,48v0,86,185,87,185,233v0,106,-99,163,-193,163v-98,0,-161,-59,-161,-59r8,-110v1,0,86,75,151,75v30,0,71,-19,71,-59v0,-81,-185,-84,-185,-231","w":405},"t":{"d":"284,-609r-30,104r153,0r-50,92r-122,0r-50,269v-6,34,14,44,28,44v49,0,128,-64,128,-64r0,116v0,0,-80,61,-163,61v-65,0,-125,-34,-125,-120v0,-14,57,-306,57,-306r-60,0r19,-92r59,0r18,-88","w":389},"u":{"d":"376,13v-32,-26,-42,-62,-37,-92v0,0,-75,92,-179,92v-99,0,-129,-72,-112,-162r52,-273r5,-83r136,0r-62,327v-3,14,-18,85,28,85v45,0,132,-86,132,-86r47,-241r7,-85r134,0r-67,346v-14,72,-6,108,38,155","w":557},"v":{"d":"233,13r-107,-20r-61,-400r-31,-94r139,-19r45,305r3,85r42,-85r78,-128v16,-26,23,-50,23,-75v0,-37,-27,-83,-27,-83r119,-19v0,0,23,45,23,87v0,40,-16,82,-49,134","w":474},"w":{"d":"239,13r-113,-20r-61,-400r-31,-94r139,-19r45,305r3,85r42,-85r78,-128v16,-26,23,-50,23,-75v0,-37,-27,-83,-27,-83r131,-19v0,0,17,34,22,70r35,235r3,85r42,-85r78,-128v16,-26,23,-50,23,-75v0,-37,-27,-83,-27,-83r131,-19v0,0,23,45,23,87v0,40,-16,82,-49,134r-203,312r-113,-20r-36,-236","w":781},"x":{"d":"-39,0r223,-254r-71,-160r-59,-87r140,-18r75,179v18,-28,43,-50,65,-74v33,-35,-3,-87,-3,-87r129,-18v0,0,44,75,-37,160r-107,111r116,248r-134,0r-61,-137r-8,-24r-16,25r-115,136r-137,0","w":490},"y":{"d":"121,-37r-56,-370r-31,-94r139,-19r45,305r3,85r42,-85r78,-128v16,-26,23,-50,23,-75v0,-37,-27,-83,-27,-83r131,-19v0,0,23,45,23,87v0,40,-16,82,-49,134r-251,399v-64,101,-155,143,-230,143v-21,0,-66,-12,-66,-12r-6,-110v0,0,39,15,73,15v40,0,83,-19,126,-81r45,-64","w":486},"z":{"d":"-17,0r0,-29r265,-344r36,-40r-246,0r45,-92r388,0r0,29r-265,345r-35,39r278,0r-18,92r-448,0","w":468},"{":{"d":"26,-263r14,-72v63,0,79,-57,81,-70r37,-191v22,-109,120,-159,228,-159r-12,82v-33,0,-82,9,-96,80r-36,187v-14,71,-77,107,-77,107v0,0,46,36,35,107r-43,272v-14,71,33,80,66,80r-12,82v-112,0,-189,-49,-172,-159r43,-276v3,-13,7,-70,-56,-70","w":301},"|":{"d":"174,-756r0,1010r-111,0r0,-1010r111,0","w":237},"}":{"d":"299,-335r-14,72v-63,0,-77,57,-80,70r-53,276v-22,109,-118,159,-229,159r12,-82v33,0,84,-9,98,-80r53,-272v14,-71,74,-107,74,-107v0,0,-49,-36,-35,-107r36,-187v14,-71,-33,-80,-66,-80r12,-82v112,0,194,50,172,159r-37,191v-2,13,-6,70,57,70","w":301},"~":{"d":"511,-348r45,89v-37,38,-97,67,-159,67v-84,0,-141,-56,-218,-56v-33,0,-74,12,-104,46r-41,-88v36,-31,89,-64,154,-64v93,0,147,56,213,56v32,0,67,-12,110,-50","w":588},"\u00a1":{"d":"-13,111r140,-575r89,11r-66,451r-4,93xm122,-594v0,-41,31,-74,75,-74v44,0,75,33,75,74v0,38,-31,75,-75,75v-44,0,-75,-37,-75,-75","w":264},"\u00a2":{"d":"371,-600r-17,86v54,8,99,22,99,22r-31,100v0,0,-44,-19,-86,-29r-63,329v71,-12,138,-86,138,-86r8,115v0,0,-66,63,-166,74r-19,98r-61,0r19,-98v-116,-12,-169,-105,-169,-210v0,-208,121,-325,271,-321r16,-80r61,0xm149,-229v0,57,18,111,64,130r63,-326v-84,14,-127,115,-127,196","w":451},"\u00a3":{"d":"465,102r-529,0v1,0,115,-177,148,-340r5,-25r-61,0r17,-88r61,0r38,-194v28,-145,144,-209,268,-209v115,0,184,64,184,64r-51,90v0,0,-61,-61,-140,-61v-59,0,-117,32,-132,108r-40,202r196,0r-41,88r-172,0v-8,104,-101,273,-100,271r385,0","w":549},"\u00a5":{"d":"82,-357r91,0r-71,-224r-48,-87r152,0r74,228r6,39r22,-39r162,-228r134,0r-234,311r113,0r-34,84r-126,0r-16,79r134,0r-34,84r-116,0v-8,32,-7,73,-10,110r-141,0r21,-110r-127,0r16,-84r127,0r16,-79r-127,0","w":535},"\u00a7":{"d":"339,-658r0,651v0,118,-106,186,-213,186v-114,0,-151,-76,-151,-76r19,-97v36,53,74,71,106,76r0,-668v0,-107,106,-169,212,-169v114,0,152,76,152,76r-19,97v-38,-55,-75,-71,-106,-76xm195,-586r0,657v0,0,49,-21,49,-61r0,-660v0,0,-49,24,-49,64","w":420},"\u00a8":{"d":"158,-637v0,34,-26,61,-56,61v-30,0,-56,-27,-56,-61v0,-34,26,-62,56,-62v30,0,56,28,56,62xm342,-637v0,34,-26,61,-56,61v-31,0,-56,-27,-56,-61v0,-34,25,-62,56,-62v30,0,56,28,56,62","w":384},"\u00a9":{"d":"540,-473r-37,72v0,0,-47,-43,-96,-43v-48,0,-83,47,-83,109v0,59,34,113,88,113v55,0,115,-49,115,-49r10,79v0,0,-54,52,-150,53v-109,1,-165,-91,-165,-185v0,-107,62,-200,187,-200v72,0,131,51,131,51xm750,-340v0,215,-139,353,-366,353v-192,0,-334,-145,-334,-335v0,-214,144,-346,375,-346v190,0,325,139,325,328xm658,-327v0,-160,-106,-265,-254,-265v-142,0,-260,96,-260,258v0,166,102,269,262,269v136,0,252,-101,252,-262","w":800},"\u00aa":{"d":"261,-411r38,-199v0,0,-16,-3,-28,-3v-54,0,-114,91,-114,200v0,27,8,60,27,60v41,0,77,-58,77,-58xm392,-290r-101,14v-20,-14,-30,-45,-31,-59v0,0,-45,58,-102,58v-57,0,-109,-39,-109,-125v0,-140,87,-276,217,-276v20,0,89,8,149,11v-53,276,-55,290,-55,302v0,30,10,51,32,75","w":420},"\u00ab":{"d":"371,-400r-193,155r129,151r-72,90r-210,-244r307,-244xm640,-400r-193,155r129,151r-72,90r-210,-244r307,-244","w":660},"\u00ae":{"d":"584,-156r-121,0r-89,-131v2,61,-5,63,7,131r-108,0r0,-298r-7,-64r124,0v73,0,142,39,142,118v0,38,-28,83,-70,102xm374,-335v35,1,68,-20,68,-65v0,-44,-33,-57,-68,-56r0,121xm750,-340v0,215,-139,353,-366,353v-192,0,-334,-145,-334,-335v0,-214,144,-346,375,-346v190,0,325,139,325,328xm658,-327v0,-160,-106,-265,-254,-265v-142,0,-260,96,-260,258v0,166,102,269,262,269v136,0,252,-101,252,-262","w":800},"\u00af":{"d":"42,-665r274,0r-35,98r-248,0","w":335},"\u00b0":{"d":"365,-576v0,91,-80,167,-170,167v-88,0,-167,-76,-167,-167v0,-91,79,-167,167,-167v90,0,170,76,170,167xm275,-577v0,-42,-39,-77,-79,-77v-42,0,-78,35,-78,77v0,39,33,82,78,82v50,0,79,-43,79,-82","w":409},"\u00b1":{"d":"186,-160r0,-114r-143,0r0,-98r143,0r0,-135r110,30r0,105r151,0r-25,98r-126,0r0,114r-110,0xm67,-104r352,0r-28,104r-324,0r0,-104","w":481},"\u00b2":{"d":"292,-286r-266,0r0,-47v33,-28,186,-151,186,-224v0,-23,-13,-31,-30,-31v-23,0,-54,15,-76,30r-28,-72v39,-31,90,-48,138,-48v60,0,113,30,113,94v0,80,-96,167,-154,215r140,0","w":342},"\u00b3":{"d":"334,-597v1,48,-36,72,-74,95v35,6,59,41,59,79v0,110,-135,142,-224,142v-22,0,-43,-2,-60,-5r-9,-70v73,11,184,2,184,-68v0,-28,-49,-35,-88,-35r15,-46v40,-16,84,-34,84,-76v0,-58,-119,-1,-115,2r-17,-61v0,0,54,-37,129,-37v61,0,116,28,116,80","w":351},"\u00b4":{"d":"182,-724r149,0r-200,164r-76,-28","w":338},"\u00b6":{"d":"47,-315v0,-186,180,-353,377,-353r75,0r-177,912r-95,0r61,-317v-141,-10,-241,-108,-241,-242xm659,-668r-177,912r-95,0r177,-912r95,0","w":662},"\u00b7":{"d":"201,-245v0,41,-31,74,-75,74v-44,0,-75,-33,-75,-74v0,-38,31,-75,75,-75v44,0,75,37,75,75","w":258},"\u00b8":{"d":"130,49r17,-52r61,0v28,40,107,65,107,122v0,84,-77,116,-145,116v-39,0,-80,-14,-113,-39r36,-69v21,24,61,31,82,31v20,0,39,-7,39,-27v0,-30,-66,-49,-84,-82","w":402},"\u00b9":{"d":"51,-285r13,-71r75,0r36,-204r-58,17r-15,-68r202,-61r-56,316r76,0r-23,71r-250,0","w":329},"\u00ba":{"d":"232,-347v40,0,93,-55,93,-169v0,-52,-19,-93,-50,-93v-54,0,-93,89,-93,168v0,55,15,94,50,94xm294,-678v77,0,139,52,139,151v0,133,-80,250,-216,250v-114,0,-141,-91,-141,-151v0,-148,87,-250,218,-250","w":457},"\u00bb":{"d":"289,-96r193,-155r-129,-151r72,-90r210,244r-307,244xm20,-96r193,-155r-129,-151r72,-90r210,244r-307,244","w":660},"\u00bc":{"d":"372,-79r232,-266r85,26r-37,210r70,0r-33,79r-51,0v-7,26,-6,58,-8,89r-115,0r16,-89r-157,0xm546,-109r13,-87r9,-37r-24,37r-61,71r-23,18v26,-3,57,-2,86,-2xm621,-559r-325,470r-102,0r345,-501xm33,-287r13,-71r75,0r36,-204r-58,17r-15,-68r202,-61r-56,316r76,0r-23,71r-250,0","w":750},"\u00bd":{"d":"611,-559r-325,470r-102,0r345,-501xm33,-285r13,-71r75,0r36,-204r-58,17r-15,-68r202,-61r-56,316r76,0r-23,71r-250,0xm683,59r-266,0r0,-47v33,-28,186,-151,186,-224v0,-23,-13,-31,-30,-31v-23,0,-54,15,-76,30r-28,-72v39,-31,90,-48,138,-48v60,0,113,30,113,94v0,80,-96,167,-154,215r140,0","w":740},"\u00be":{"d":"351,-79r232,-266r85,26r-37,210r70,0r-33,79r-51,0v-7,26,-6,58,-8,89r-115,0r16,-89r-157,0xm525,-109r13,-87r9,-37r-24,37r-61,71r-23,18v26,-3,57,-2,86,-2xm600,-559r-325,470r-102,0r345,-501xm334,-597v1,48,-36,72,-74,95v35,6,59,41,59,79v0,110,-135,142,-224,142v-22,0,-43,-2,-60,-5r-9,-70v73,11,184,2,184,-68v0,-28,-49,-35,-88,-35r15,-46v40,-16,84,-34,84,-76v0,-58,-119,-1,-115,2r-17,-61v0,0,54,-37,129,-37v61,0,116,28,116,80","w":729},"\u00bf":{"d":"274,-473r98,40v0,0,2,5,2,12v0,107,-241,243,-241,343v0,47,33,72,78,72v45,0,108,-38,108,-38r15,114v0,0,-74,32,-149,32v-93,0,-182,-43,-182,-166v0,-145,273,-283,273,-392v0,-4,-1,-13,-2,-17xm255,-597v0,-41,31,-74,75,-74v44,0,75,33,75,74v0,38,-31,75,-75,75v-44,0,-75,-37,-75,-75","w":415},"\u00c0":{"d":"-83,0r379,-660r99,-20r96,555r32,125r-142,0r-26,-155r-225,0r-89,155r-124,0xm310,-491v-36,83,-82,155,-123,233r153,0r-29,-194xm174,-875r149,0r103,136r-82,28","w":552},"\u00c1":{"d":"-83,0r379,-660r99,-20r96,555r32,125r-142,0r-26,-155r-225,0r-89,155r-124,0xm310,-491v-36,83,-82,155,-123,233r153,0r-29,-194xm378,-875r149,0r-200,164r-76,-28","w":552},"\u00c2":{"d":"-83,0r379,-660r99,-20r96,555r32,125r-142,0r-26,-155r-225,0r-89,155r-124,0xm310,-491v-36,83,-82,155,-123,233r153,0r-29,-194xm294,-875r102,0r102,133r-81,30r-79,-93r-95,93r-75,-30","w":552},"\u00c3":{"d":"-83,0r379,-660r99,-20r96,555r32,125r-142,0r-26,-155r-225,0r-89,155r-124,0xm310,-491v-36,83,-82,155,-123,233r153,0r-29,-194xm457,-831r54,39v0,0,-20,71,-111,71v-61,0,-93,-34,-121,-34v-45,0,-66,34,-66,34r-52,-37v0,0,28,-73,114,-73v52,0,86,35,117,35v16,0,49,-2,65,-35","w":552},"\u00c4":{"d":"-83,0r379,-660r99,-20r96,555r32,125r-142,0r-26,-155r-225,0r-89,155r-124,0xm310,-491v-36,83,-82,155,-123,233r153,0r-29,-194xm302,-788v0,34,-26,61,-56,61v-30,0,-56,-27,-56,-61v0,-34,26,-62,56,-62v30,0,56,28,56,62xm486,-788v0,34,-26,61,-56,61v-31,0,-56,-27,-56,-61v0,-34,25,-62,56,-62v30,0,56,28,56,62","w":552},"\u00c5":{"d":"-83,0r379,-660r99,-20r96,555r32,125r-142,0r-26,-155r-225,0r-89,155r-124,0xm310,-491v-36,83,-82,155,-123,233r153,0r-29,-194xm429,-791v0,48,-43,88,-91,88v-47,0,-89,-40,-89,-88v0,-48,42,-88,89,-88v48,0,91,40,91,88xm382,-792v0,-23,-21,-43,-43,-43v-24,0,-43,20,-43,43v0,22,18,47,43,47v28,0,43,-25,43,-47","w":552},"\u00c6":{"d":"294,0r31,-164r-172,0r-109,164r-123,0r454,-668r417,0r-19,99r-239,0r-34,177r211,0r-44,99r-186,0r-38,194r252,0r-44,99r-357,0xm216,-258r128,0r63,-294","w":787},"\u00c7":{"d":"261,49r13,-41v-132,-22,-216,-127,-216,-268v0,-241,154,-418,381,-418v106,0,206,67,206,67r-62,90v0,1,-77,-60,-152,-60v-127,0,-240,135,-240,311v0,95,51,181,159,181v123,0,212,-110,212,-110r9,121v0,0,-84,81,-219,90v34,32,94,57,94,107v0,84,-77,116,-145,116v-39,0,-80,-14,-113,-39r36,-69v21,24,61,31,82,31v20,0,39,-7,39,-27v0,-30,-66,-49,-84,-82","w":614},"\u00c8":{"d":"35,0r110,-566r4,-102r361,0r-17,99r-216,0r-36,177r202,0r-37,99r-184,0r-36,194r242,0r-39,99r-354,0xm145,-875r149,0r103,136r-82,28","w":505},"\u00c9":{"d":"35,0r110,-566r4,-102r361,0r-17,99r-216,0r-36,177r202,0r-37,99r-184,0r-36,194r242,0r-39,99r-354,0xm349,-875r149,0r-200,164r-76,-28","w":505},"\u00ca":{"d":"35,0r110,-566r4,-102r361,0r-17,99r-216,0r-36,177r202,0r-37,99r-184,0r-36,194r242,0r-39,99r-354,0xm265,-875r102,0r102,133r-81,30r-79,-93r-95,93r-75,-30","w":505},"\u00cb":{"d":"35,0r110,-566r4,-102r361,0r-17,99r-216,0r-36,177r202,0r-37,99r-184,0r-36,194r242,0r-39,99r-354,0xm273,-788v0,34,-26,61,-56,61v-30,0,-56,-27,-56,-61v0,-34,26,-62,56,-62v30,0,56,28,56,62xm457,-788v0,34,-26,61,-56,61v-31,0,-56,-27,-56,-61v0,-34,25,-62,56,-62v30,0,56,28,56,62","w":505},"\u00cc":{"d":"296,-668r-114,583r-4,85r-143,0r111,-568r4,-100r146,0xm51,-875r149,0r103,136r-82,28","w":309},"\u00cd":{"d":"296,-668r-114,583r-4,85r-143,0r111,-568r4,-100r146,0xm255,-875r149,0r-200,164r-76,-28","w":309},"\u00ce":{"d":"296,-668r-114,583r-4,85r-143,0r111,-568r4,-100r146,0xm171,-875r102,0r102,133r-81,30r-79,-93r-95,93r-75,-30","w":309},"\u00cf":{"d":"296,-668r-114,583r-4,85r-143,0r111,-568r4,-100r146,0xm179,-788v0,34,-26,61,-56,61v-30,0,-56,-27,-56,-61v0,-34,26,-62,56,-62v30,0,56,28,56,62xm363,-788v0,34,-26,61,-56,61v-31,0,-56,-27,-56,-61v0,-34,25,-62,56,-62v30,0,56,28,56,62","w":309},"\u00d0":{"d":"45,-392r69,0r34,-174r4,-102r266,0v135,0,230,105,230,262v0,219,-144,406,-374,406r-236,0r56,-288r-66,0xm279,-571r-35,179r110,0r-42,104r-88,0r-37,191r99,0v120,0,228,-131,228,-297v0,-88,-46,-177,-138,-177r-97,0","w":671},"\u00d1":{"d":"736,-668r-112,583r-9,85r-82,0r-260,-376r-37,-80r-69,371r-4,85r-128,0r108,-565r-10,-103r108,0r257,390r37,77r65,-365r4,-102r132,0xm557,-831r54,39v0,0,-20,71,-111,71v-61,0,-93,-34,-121,-34v-45,0,-66,34,-66,34r-52,-37v0,0,28,-73,114,-73v52,0,86,35,117,35v16,0,49,-2,65,-35","w":738},"\u00d2":{"d":"382,-582v-91,0,-216,105,-216,321v0,107,52,177,130,177v125,0,217,-169,217,-317v0,-106,-47,-181,-131,-181xm33,-249v0,-231,132,-429,359,-429v194,0,254,154,254,258v0,255,-152,433,-363,433v-164,0,-250,-119,-250,-262xm229,-875r149,0r103,136r-82,28","w":659},"\u00d3":{"d":"382,-582v-91,0,-216,105,-216,321v0,107,52,177,130,177v125,0,217,-169,217,-317v0,-106,-47,-181,-131,-181xm33,-249v0,-231,132,-429,359,-429v194,0,254,154,254,258v0,255,-152,433,-363,433v-164,0,-250,-119,-250,-262xm433,-875r149,0r-200,164r-76,-28","w":659},"\u00d4":{"d":"382,-582v-91,0,-216,105,-216,321v0,107,52,177,130,177v125,0,217,-169,217,-317v0,-106,-47,-181,-131,-181xm33,-249v0,-231,132,-429,359,-429v194,0,254,154,254,258v0,255,-152,433,-363,433v-164,0,-250,-119,-250,-262xm349,-875r102,0r102,133r-81,30r-79,-93r-95,93r-75,-30","w":659},"\u00d5":{"d":"382,-582v-91,0,-216,105,-216,321v0,107,52,177,130,177v125,0,217,-169,217,-317v0,-106,-47,-181,-131,-181xm33,-249v0,-231,132,-429,359,-429v194,0,254,154,254,258v0,255,-152,433,-363,433v-164,0,-250,-119,-250,-262xm512,-831r54,39v0,0,-20,71,-111,71v-61,0,-93,-34,-121,-34v-45,0,-66,34,-66,34r-52,-37v0,0,28,-73,114,-73v52,0,86,35,117,35v16,0,49,-2,65,-35","w":659},"\u00d6":{"d":"382,-582v-91,0,-216,105,-216,321v0,107,52,177,130,177v125,0,217,-169,217,-317v0,-106,-47,-181,-131,-181xm33,-249v0,-231,132,-429,359,-429v194,0,254,154,254,258v0,255,-152,433,-363,433v-164,0,-250,-119,-250,-262xm357,-788v0,34,-26,61,-56,61v-30,0,-56,-27,-56,-61v0,-34,26,-62,56,-62v30,0,56,28,56,62xm541,-788v0,34,-26,61,-56,61v-31,0,-56,-27,-56,-61v0,-34,25,-62,56,-62v30,0,56,28,56,62","w":659},"\u00d7":{"d":"337,-62r-118,-117r-115,115r-71,-72r115,-116r-124,-122r90,-51r102,104r125,-126r53,94r-104,103r117,118","w":439},"\u00d8":{"d":"33,-249v0,-231,132,-429,359,-429v41,0,76,7,105,19r38,-61r71,18r-49,78v65,55,89,139,89,204v0,255,-152,433,-363,433v-42,0,-79,-8,-110,-22r-45,72r-62,-23r51,-83v-55,-49,-84,-123,-84,-206xm513,-401v0,-44,-9,-83,-24,-113r-257,411v18,13,40,19,64,19v125,0,217,-169,217,-317xm382,-582v-91,0,-216,105,-216,321v0,41,7,77,21,105r253,-411v-17,-9,-36,-15,-58,-15","w":659},"\u00d9":{"d":"550,-668r131,0r-78,402v-32,164,-136,279,-298,279v-238,0,-253,-165,-224,-323r46,-256r5,-102r147,0r-67,365v-15,82,-29,219,99,219v87,0,157,-81,175,-175r59,-307xm232,-875r149,0r103,136r-82,28","w":676},"\u00da":{"d":"550,-668r131,0r-78,402v-32,164,-136,279,-298,279v-238,0,-253,-165,-224,-323r46,-256r5,-102r147,0r-67,365v-15,82,-29,219,99,219v87,0,157,-81,175,-175r59,-307xm436,-875r149,0r-200,164r-76,-28","w":676},"\u00db":{"d":"550,-668r131,0r-78,402v-32,164,-136,279,-298,279v-238,0,-253,-165,-224,-323r46,-256r5,-102r147,0r-67,365v-15,82,-29,219,99,219v87,0,157,-81,175,-175r59,-307xm352,-875r102,0r102,133r-81,30r-79,-93r-95,93r-75,-30","w":676},"\u00dc":{"d":"550,-668r131,0r-78,402v-32,164,-136,279,-298,279v-238,0,-253,-165,-224,-323r46,-256r5,-102r147,0r-67,365v-15,82,-29,219,99,219v87,0,157,-81,175,-175r59,-307xm360,-788v0,34,-26,61,-56,61v-30,0,-56,-27,-56,-61v0,-34,26,-62,56,-62v30,0,56,28,56,62xm544,-788v0,34,-26,61,-56,61v-31,0,-56,-27,-56,-61v0,-34,25,-62,56,-62v30,0,56,28,56,62","w":676},"\u00dd":{"d":"325,-291r-40,206r-4,85r-143,0r57,-290r-96,-291r-47,-87r151,0r75,222r8,42r28,-49r151,-215r135,0xm387,-875r149,0r-200,164r-76,-28","w":535},"\u00de":{"d":"29,0r124,-634r9,-112r145,-10r-29,148r59,0v103,0,194,72,194,178v0,161,-140,263,-339,254r-16,91r-4,85r-143,0xm259,-511r-47,235r43,0v72,0,140,-47,140,-147v0,-51,-37,-88,-89,-88r-47,0","w":516},"\u00df":{"d":"450,-620v0,-37,-37,-52,-70,-52v-67,0,-118,41,-126,91r-94,582v-23,141,-105,240,-239,241r-23,-93v72,0,126,-59,141,-152v22,-141,44,-268,65,-409r-63,0r14,-92r62,0r10,-62v23,-143,138,-199,249,-199v103,0,196,41,196,135v0,111,-163,179,-163,243v0,67,133,118,133,221v0,98,-89,179,-219,179v-70,0,-114,-39,-114,-39r31,-91v1,1,45,38,92,38v34,0,77,-22,77,-65v0,-85,-119,-119,-119,-210v0,-121,160,-186,160,-266","w":570},"\u00e0":{"d":"306,-165r50,-266v-16,-2,-37,-4,-45,-4v-76,0,-160,121,-160,267v0,37,10,82,41,82v49,0,114,-79,114,-79xm342,13v-32,-27,-42,-60,-37,-83v0,0,-70,83,-145,83v-71,0,-137,-53,-137,-166v0,-185,113,-367,281,-367v46,0,114,10,191,15r-67,346v-14,72,-6,108,38,155xm155,-724r149,0r103,136r-82,28","w":521},"\u00e1":{"d":"306,-165r50,-266v-16,-2,-37,-4,-45,-4v-76,0,-160,121,-160,267v0,37,10,82,41,82v49,0,114,-79,114,-79xm342,13v-32,-27,-42,-60,-37,-83v0,0,-70,83,-145,83v-71,0,-137,-53,-137,-166v0,-185,113,-367,281,-367v46,0,114,10,191,15r-67,346v-14,72,-6,108,38,155xm359,-724r149,0r-200,164r-76,-28","w":521},"\u00e2":{"d":"306,-165r50,-266v-16,-2,-37,-4,-45,-4v-76,0,-160,121,-160,267v0,37,10,82,41,82v49,0,114,-79,114,-79xm342,13v-32,-27,-42,-60,-37,-83v0,0,-70,83,-145,83v-71,0,-137,-53,-137,-166v0,-185,113,-367,281,-367v46,0,114,10,191,15r-67,346v-14,72,-6,108,38,155xm275,-724r102,0r102,133r-81,30r-79,-93r-95,93r-75,-30","w":521},"\u00e3":{"d":"306,-165r50,-266v-16,-2,-37,-4,-45,-4v-76,0,-160,121,-160,267v0,37,10,82,41,82v49,0,114,-79,114,-79xm342,13v-32,-27,-42,-60,-37,-83v0,0,-70,83,-145,83v-71,0,-137,-53,-137,-166v0,-185,113,-367,281,-367v46,0,114,10,191,15r-67,346v-14,72,-6,108,38,155xm438,-680r54,39v0,0,-20,71,-111,71v-61,0,-93,-34,-121,-34v-45,0,-66,34,-66,34r-52,-37v0,0,28,-73,114,-73v52,0,86,35,117,35v16,0,49,-2,65,-35","w":521},"\u00e4":{"d":"306,-165r50,-266v-16,-2,-37,-4,-45,-4v-76,0,-160,121,-160,267v0,37,10,82,41,82v49,0,114,-79,114,-79xm342,13v-32,-27,-42,-60,-37,-83v0,0,-70,83,-145,83v-71,0,-137,-53,-137,-166v0,-185,113,-367,281,-367v46,0,114,10,191,15r-67,346v-14,72,-6,108,38,155xm283,-637v0,34,-26,61,-56,61v-30,0,-56,-27,-56,-61v0,-34,26,-62,56,-62v30,0,56,28,56,62xm467,-637v0,34,-26,61,-56,61v-31,0,-56,-27,-56,-61v0,-34,25,-62,56,-62v30,0,56,28,56,62","w":521},"\u00e5":{"d":"306,-165r50,-266v-16,-2,-37,-4,-45,-4v-76,0,-160,121,-160,267v0,37,10,82,41,82v49,0,114,-79,114,-79xm342,13v-32,-27,-42,-60,-37,-83v0,0,-70,83,-145,83v-71,0,-137,-53,-137,-166v0,-185,113,-367,281,-367v46,0,114,10,191,15r-67,346v-14,72,-6,108,38,155xm410,-640v0,48,-43,88,-91,88v-47,0,-89,-40,-89,-88v0,-48,42,-88,89,-88v48,0,91,40,91,88xm363,-641v0,-23,-21,-43,-43,-43v-24,0,-43,20,-43,43v0,22,18,47,43,47v28,0,43,-25,43,-47","w":521},"\u00e6":{"d":"736,-398v0,135,-149,178,-295,183v0,69,38,123,100,123v84,0,165,-90,165,-90r8,118v0,0,-67,77,-199,77v-90,0,-147,-43,-176,-106v-41,50,-104,106,-179,106v-71,0,-137,-53,-137,-166v0,-185,113,-367,281,-367v39,0,98,17,162,17v40,0,78,-16,120,-16v102,0,150,52,150,121xm192,-86v49,0,114,-77,126,-92v-6,-101,22,-184,74,-249r-81,-8v-76,0,-160,121,-160,267v0,37,10,82,41,82xm450,-293v50,-6,158,-12,158,-95v0,-30,-17,-43,-37,-43v-67,0,-104,75,-121,138","w":747},"\u00e7":{"d":"174,49r12,-39v-112,-15,-163,-106,-163,-209v0,-204,123,-321,260,-321v79,0,170,28,170,28r-31,100v0,0,-77,-35,-125,-35v-98,0,-148,110,-148,198v0,71,28,138,106,138v77,0,156,-87,156,-87r8,115v0,0,-62,59,-156,73v33,33,96,58,96,109v0,84,-77,116,-145,116v-39,0,-80,-14,-113,-39r36,-69v21,24,61,31,82,31v20,0,39,-7,39,-27v0,-30,-66,-49,-84,-82","w":461},"\u00e8":{"d":"448,-398v0,135,-149,178,-295,183v0,69,38,123,100,123v84,0,165,-90,165,-90r8,118v0,0,-67,77,-199,77v-137,0,-198,-102,-198,-218v0,-169,107,-314,269,-314v102,0,150,52,150,121xm162,-293v50,-6,158,-12,158,-95v0,-30,-17,-43,-37,-43v-67,0,-104,75,-121,138xm116,-724r149,0r103,136r-82,28","w":459},"\u00e9":{"d":"448,-398v0,135,-149,178,-295,183v0,69,38,123,100,123v84,0,165,-90,165,-90r8,118v0,0,-67,77,-199,77v-137,0,-198,-102,-198,-218v0,-169,107,-314,269,-314v102,0,150,52,150,121xm162,-293v50,-6,158,-12,158,-95v0,-30,-17,-43,-37,-43v-67,0,-104,75,-121,138xm320,-724r149,0r-200,164r-76,-28","w":459},"\u00ea":{"d":"448,-398v0,135,-149,178,-295,183v0,69,38,123,100,123v84,0,165,-90,165,-90r8,118v0,0,-67,77,-199,77v-137,0,-198,-102,-198,-218v0,-169,107,-314,269,-314v102,0,150,52,150,121xm162,-293v50,-6,158,-12,158,-95v0,-30,-17,-43,-37,-43v-67,0,-104,75,-121,138xm236,-724r102,0r102,133r-81,30r-79,-93r-95,93r-75,-30","w":459},"\u00eb":{"d":"448,-398v0,135,-149,178,-295,183v0,69,38,123,100,123v84,0,165,-90,165,-90r8,118v0,0,-67,77,-199,77v-137,0,-198,-102,-198,-218v0,-169,107,-314,269,-314v102,0,150,52,150,121xm162,-293v50,-6,158,-12,158,-95v0,-30,-17,-43,-37,-43v-67,0,-104,75,-121,138xm244,-637v0,34,-26,61,-56,61v-30,0,-56,-27,-56,-61v0,-34,26,-62,56,-62v30,0,56,28,56,62xm428,-637v0,34,-26,61,-56,61v-31,0,-56,-27,-56,-61v0,-34,25,-62,56,-62v30,0,56,28,56,62","w":459},"\u00ec":{"d":"252,-520r-85,434r-5,86r-135,0r78,-404r6,-101xm22,-724r149,0r103,136r-82,28","w":282},"\u00ed":{"d":"252,-520r-85,434r-5,86r-135,0r78,-404r6,-101xm226,-724r149,0r-200,164r-76,-28","w":282},"\u00ee":{"d":"252,-520r-85,434r-5,86r-135,0r78,-404r6,-101xm142,-724r102,0r102,133r-81,30r-79,-93r-95,93r-75,-30","w":282},"\u00ef":{"d":"252,-520r-85,434r-5,86r-135,0r78,-404r6,-101xm150,-637v0,34,-26,61,-56,61v-30,0,-56,-27,-56,-61v0,-34,26,-62,56,-62v30,0,56,28,56,62xm334,-637v0,34,-26,61,-56,61v-31,0,-56,-27,-56,-61v0,-34,25,-62,56,-62v30,0,56,28,56,62","w":282},"\u00f0":{"d":"542,-682r-76,30v48,68,68,157,68,246v0,208,-99,419,-313,419v-161,0,-198,-123,-198,-202v0,-179,134,-331,278,-331v67,0,101,27,101,27v-11,-40,-29,-78,-54,-110r-125,50r-15,-63r89,-36v-23,-16,-50,-30,-81,-39r63,-80v58,14,105,38,141,69r130,-52xm309,-428v-100,0,-160,131,-160,227v0,71,29,126,84,126v121,0,174,-202,175,-313v-25,-26,-67,-40,-99,-40","w":540},"\u00f1":{"d":"448,0r-135,0r62,-327v3,-14,18,-85,-23,-85v-53,0,-135,76,-135,76r-49,251r-7,85r-134,0r79,-402r-9,-86r143,-31r-11,83v0,0,75,-84,169,-84v102,0,126,77,109,164r-53,273xm463,-680r54,39v0,0,-20,71,-111,71v-61,0,-93,-34,-121,-34v-45,0,-66,34,-66,34r-52,-37v0,0,28,-73,114,-73v52,0,86,35,117,35v16,0,49,-2,65,-35","w":553},"\u00f2":{"d":"222,-78v58,0,132,-73,132,-227v0,-71,-28,-125,-74,-125v-76,0,-132,120,-132,225v0,75,23,127,74,127xm305,-520v99,0,177,70,177,201v0,176,-104,332,-280,332v-145,0,-179,-120,-179,-200v0,-196,113,-333,282,-333xm151,-724r149,0r103,136r-82,28","w":507},"\u00f3":{"d":"222,-78v58,0,132,-73,132,-227v0,-71,-28,-125,-74,-125v-76,0,-132,120,-132,225v0,75,23,127,74,127xm305,-520v99,0,177,70,177,201v0,176,-104,332,-280,332v-145,0,-179,-120,-179,-200v0,-196,113,-333,282,-333xm355,-724r149,0r-200,164r-76,-28","w":507},"\u00f4":{"d":"222,-78v58,0,132,-73,132,-227v0,-71,-28,-125,-74,-125v-76,0,-132,120,-132,225v0,75,23,127,74,127xm305,-520v99,0,177,70,177,201v0,176,-104,332,-280,332v-145,0,-179,-120,-179,-200v0,-196,113,-333,282,-333xm271,-724r102,0r102,133r-81,30r-79,-93r-95,93r-75,-30","w":507},"\u00f5":{"d":"222,-78v58,0,132,-73,132,-227v0,-71,-28,-125,-74,-125v-76,0,-132,120,-132,225v0,75,23,127,74,127xm305,-520v99,0,177,70,177,201v0,176,-104,332,-280,332v-145,0,-179,-120,-179,-200v0,-196,113,-333,282,-333xm434,-680r54,39v0,0,-20,71,-111,71v-61,0,-93,-34,-121,-34v-45,0,-66,34,-66,34r-52,-37v0,0,28,-73,114,-73v52,0,86,35,117,35v16,0,49,-2,65,-35","w":507},"\u00f6":{"d":"222,-78v58,0,132,-73,132,-227v0,-71,-28,-125,-74,-125v-76,0,-132,120,-132,225v0,75,23,127,74,127xm305,-520v99,0,177,70,177,201v0,176,-104,332,-280,332v-145,0,-179,-120,-179,-200v0,-196,113,-333,282,-333xm279,-637v0,34,-26,61,-56,61v-30,0,-56,-27,-56,-61v0,-34,26,-62,56,-62v30,0,56,28,56,62xm463,-637v0,34,-26,61,-56,61v-31,0,-56,-27,-56,-61v0,-34,25,-62,56,-62v30,0,56,28,56,62","w":507},"\u00f7":{"d":"167,-411v0,-39,32,-70,70,-70v36,0,67,31,67,70v0,37,-31,67,-67,67v-38,0,-70,-30,-70,-67xm167,-83v0,-39,32,-70,70,-70v36,0,67,31,67,70v0,37,-31,67,-67,67v-38,0,-70,-30,-70,-67xm67,-297r352,0r-28,99r-324,0r0,-99","w":483},"\u00f8":{"d":"495,-579r-67,108v33,34,54,85,54,152v0,176,-104,332,-280,332v-27,0,-50,-4,-70,-11r-76,122r-62,-23r83,-134v-42,-42,-54,-106,-54,-154v0,-196,113,-333,282,-333v23,0,44,4,64,11r55,-88xm280,-430v-89,2,-157,163,-128,283r17,-35r145,-236v-10,-8,-22,-12,-34,-12xm222,-78v58,0,135,-73,135,-227v0,-15,-4,-38,-7,-51r-19,40r-143,229v10,6,21,9,34,9","w":507},"\u00f9":{"d":"376,13v-32,-26,-42,-62,-37,-92v0,0,-75,92,-179,92v-99,0,-129,-72,-112,-162r52,-273r5,-83r136,0r-62,327v-3,14,-18,85,28,85v45,0,132,-86,132,-86r47,-241r7,-85r134,0r-67,346v-14,72,-6,108,38,155xm162,-724r149,0r103,136r-82,28","w":557},"\u00fa":{"d":"376,13v-32,-26,-42,-62,-37,-92v0,0,-75,92,-179,92v-99,0,-129,-72,-112,-162r52,-273r5,-83r136,0r-62,327v-3,14,-18,85,28,85v45,0,132,-86,132,-86r47,-241r7,-85r134,0r-67,346v-14,72,-6,108,38,155xm366,-724r149,0r-200,164r-76,-28","w":557},"\u00fb":{"d":"376,13v-32,-26,-42,-62,-37,-92v0,0,-75,92,-179,92v-99,0,-129,-72,-112,-162r52,-273r5,-83r136,0r-62,327v-3,14,-18,85,28,85v45,0,132,-86,132,-86r47,-241r7,-85r134,0r-67,346v-14,72,-6,108,38,155xm282,-724r102,0r102,133r-81,30r-79,-93r-95,93r-75,-30","w":557},"\u00fc":{"d":"376,13v-32,-26,-42,-62,-37,-92v0,0,-75,92,-179,92v-99,0,-129,-72,-112,-162r52,-273r5,-83r136,0r-62,327v-3,14,-18,85,28,85v45,0,132,-86,132,-86r47,-241r7,-85r134,0r-67,346v-14,72,-6,108,38,155xm290,-637v0,34,-26,61,-56,61v-30,0,-56,-27,-56,-61v0,-34,26,-62,56,-62v30,0,56,28,56,62xm474,-637v0,34,-26,61,-56,61v-31,0,-56,-27,-56,-61v0,-34,25,-62,56,-62v30,0,56,28,56,62","w":557},"\u00fd":{"d":"121,-37r-56,-370r-31,-94r139,-19r45,305r3,85r42,-85r78,-128v16,-26,23,-50,23,-75v0,-37,-27,-83,-27,-83r131,-19v0,0,23,45,23,87v0,40,-16,82,-49,134r-251,399v-64,101,-155,143,-230,143v-21,0,-66,-12,-66,-12r-6,-110v0,0,39,15,73,15v40,0,83,-19,126,-81r45,-64xm305,-723r149,0r-200,164r-76,-28","w":486},"\u00fe":{"d":"237,-476r-13,39v0,0,69,-83,150,-83v69,0,130,56,130,171v0,184,-88,362,-279,362v-23,0,-74,-12,-74,-12r-29,154r-5,85r-136,0r173,-887r-8,-89r147,-29xm225,-79v94,0,151,-124,151,-256v0,-58,-19,-81,-42,-81v-40,0,-118,82,-118,82r-48,245v0,0,33,10,57,10","w":532},"\u00ff":{"d":"121,-37r-56,-370r-31,-94r139,-19r45,305r3,85r42,-85r78,-128v16,-26,23,-50,23,-75v0,-37,-27,-83,-27,-83r131,-19v0,0,23,45,23,87v0,40,-16,82,-49,134r-251,399v-64,101,-155,143,-230,143v-21,0,-66,-12,-66,-12r-6,-110v0,0,39,15,73,15v40,0,83,-19,126,-81r45,-64xm254,-636v0,34,-26,61,-56,61v-30,0,-56,-27,-56,-61v0,-34,26,-62,56,-62v30,0,56,28,56,62xm438,-636v0,34,-26,61,-56,61v-31,0,-56,-27,-56,-61v0,-34,25,-62,56,-62v30,0,56,28,56,62","w":486},"\u0131":{"d":"252,-520r-85,434r-5,86r-135,0r78,-404r6,-101","w":282},"\u0141":{"d":"38,0r42,-219r-56,29r-27,-89r106,-55r45,-232r4,-102r146,0r-50,259r112,-59r-1,104r-134,69r-37,194r257,0r-45,101r-362,0","w":445},"\u0142":{"d":"297,-760r-71,362r62,-32r0,97r-83,44r-40,204r-5,85r-135,0r42,-216r-52,27r-21,-88r94,-49r62,-319r5,-100","w":265},"\u0152":{"d":"285,0v-164,0,-250,-112,-250,-255v0,-231,142,-413,369,-413r430,0r-17,99r-216,0r-36,177r202,0r-37,99r-184,0r-36,194r242,0r-39,99r-428,0xm168,-267v0,107,51,175,129,175r80,0r90,-454r1,-31r-72,0v-91,0,-228,94,-228,310","w":829},"\u0153":{"d":"759,-398v0,135,-149,178,-295,183v0,69,38,123,100,123v84,0,165,-90,165,-90r8,118v0,0,-67,77,-199,77v-102,0,-152,-82,-152,-82v0,0,-70,82,-184,82v-145,0,-179,-120,-179,-200v0,-196,113,-333,282,-333v105,0,137,75,137,75v0,0,52,-74,167,-74v102,0,150,52,150,121xm222,-78v58,0,132,-73,132,-227v0,-71,-28,-125,-74,-125v-76,0,-132,120,-132,225v0,75,23,127,74,127xm473,-293v50,-6,158,-12,158,-95v0,-30,-17,-43,-37,-43v-67,0,-104,75,-121,138","w":770},"\u0160":{"d":"468,-645r-45,98v0,1,-67,-34,-129,-34v-51,0,-92,35,-92,83v0,115,217,144,217,311v0,115,-105,200,-233,200v-103,0,-185,-55,-185,-55r16,-103v0,0,87,58,163,58v45,0,109,-25,109,-89v0,-91,-222,-139,-222,-303v0,-120,117,-199,233,-199v96,0,168,33,168,33xm355,-712r-102,0r-102,-133r81,-30r79,93r95,-93r75,30","w":465},"\u0161":{"d":"60,-371v0,-92,100,-149,197,-149v70,0,147,28,147,28r-35,95v0,1,-64,-34,-124,-34v-37,0,-61,23,-61,48v0,86,185,87,185,233v0,106,-99,163,-193,163v-98,0,-161,-59,-161,-59r8,-110v1,0,86,75,151,75v30,0,71,-19,71,-59v0,-81,-185,-84,-185,-231xm305,-561r-102,0r-102,-133r81,-30r79,93r95,-93r75,30","w":405},"\u0178":{"d":"325,-291r-40,206r-4,85r-143,0r57,-290r-96,-291r-47,-87r151,0r75,222r8,42r28,-49r151,-215r135,0xm250,-788v0,34,-26,61,-56,61v-30,0,-56,-27,-56,-61v0,-34,26,-62,56,-62v30,0,56,28,56,62xm434,-788v0,34,-26,61,-56,61v-31,0,-56,-27,-56,-61v0,-34,25,-62,56,-62v30,0,56,28,56,62","w":535},"\u017d":{"d":"-27,0r0,-35r394,-478r52,-53r-338,0r51,-102r491,0r0,35r-395,477r-54,55r371,0r-21,101r-551,0xm436,-711r-102,0r-102,-133r81,-30r79,93r95,-93r75,30","w":571},"\u017e":{"d":"-17,0r0,-29r265,-344r36,-40r-246,0r45,-92r388,0r0,29r-265,345r-35,39r278,0r-18,92r-448,0xm326,-561r-102,0r-102,-133r81,-30r79,93r95,-93r75,30","w":468},"\u0192":{"d":"455,-505r-45,85r-97,0r-60,432v-19,137,-110,230,-237,231r-30,-85v80,0,135,-52,147,-147r56,-431r-72,0r17,-85r65,0r7,-58v21,-141,115,-191,200,-191v41,0,74,7,114,32r-46,94v0,0,-24,-24,-74,-24v-26,0,-58,24,-66,74r-11,73r132,0","w":483},"\u02c6":{"d":"156,-724r102,0r102,133r-81,30r-79,-93r-95,93r-75,-30","w":402},"\u02c7":{"d":"243,-561r-102,0r-102,-133r81,-30r79,93r95,-93r75,30","w":402},"\u02d8":{"d":"198,-636v46,0,93,-96,93,-96r82,29v0,0,-58,157,-183,157v-125,0,-155,-157,-155,-157r88,-29v0,0,29,96,75,96","w":402},"\u02d9":{"d":"165,-638v0,36,-31,65,-69,65v-39,0,-70,-29,-70,-65v0,-35,31,-64,70,-64v38,0,69,29,69,64","w":186},"\u02da":{"d":"346,-650v0,48,-43,88,-91,88v-47,0,-89,-40,-89,-88v0,-48,42,-88,89,-88v48,0,91,40,91,88xm299,-651v0,-23,-21,-43,-43,-43v-24,0,-43,20,-43,43v0,22,18,47,43,47v28,0,43,-25,43,-47","w":520},"\u02db":{"d":"143,-15r98,0v-8,7,-108,94,-108,137v0,28,55,23,87,23r-7,84v-74,12,-179,-1,-179,-75v0,-57,59,-129,109,-169","w":276},"\u02dc":{"d":"316,-680r54,39v0,0,-20,71,-111,71v-61,0,-93,-34,-121,-34v-45,0,-66,34,-66,34r-52,-37v0,0,28,-73,114,-73v52,0,86,35,117,35v16,0,49,-2,65,-35","w":380},"\u02dd":{"d":"171,-724r149,0r-200,164r-76,-28xm375,-724r149,0r-200,164r-76,-28","w":585},"\u2013":{"d":"36,-299r403,0r-28,104r-375,0r0,-104","w":462},"\u2014":{"d":"36,-299r628,0r-28,104r-600,0r0,-104","w":689},"\u2018":{"d":"235,-684r28,43v-46,32,-74,79,-74,108v0,28,10,37,29,46v2,37,-25,75,-67,75v-37,0,-71,-25,-71,-77v0,-48,43,-126,155,-195","w":250},"\u2019":{"d":"105,-412r-28,-43v46,-32,74,-79,74,-108v0,-28,-10,-37,-29,-46v-2,-37,25,-75,67,-75v37,0,71,25,71,77v0,48,-43,126,-155,195","w":250},"\u201a":{"d":"20,138r-28,-43v46,-32,74,-79,74,-108v0,-28,-10,-37,-29,-46v-2,-37,25,-75,67,-75v37,0,71,25,71,77v0,48,-43,126,-155,195","w":250},"\u201c":{"d":"235,-684r28,43v-46,32,-74,79,-74,108v0,28,10,37,29,46v2,37,-25,75,-67,75v-37,0,-71,-25,-71,-77v0,-48,43,-126,155,-195xm412,-684r28,43v-46,32,-74,79,-74,108v0,28,10,37,29,46v2,37,-25,75,-67,75v-37,0,-71,-25,-71,-77v0,-48,43,-126,155,-195","w":427},"\u201d":{"d":"105,-412r-28,-43v46,-32,74,-79,74,-108v0,-28,-10,-37,-29,-46v-2,-37,25,-75,67,-75v37,0,71,25,71,77v0,48,-43,126,-155,195xm280,-412r-28,-43v46,-32,74,-79,74,-108v0,-28,-10,-37,-29,-46v-2,-37,25,-75,67,-75v37,0,71,25,71,77v0,48,-43,126,-155,195","w":425},"\u201e":{"d":"20,138r-28,-43v46,-32,74,-79,74,-108v0,-28,-10,-37,-29,-46v-2,-37,25,-75,67,-75v37,0,71,25,71,77v0,48,-43,126,-155,195xm195,138r-28,-43v46,-32,74,-79,74,-108v0,-28,-10,-37,-29,-46v-2,-37,25,-75,67,-75v37,0,71,25,71,77v0,48,-43,126,-155,195","w":425},"\u2020":{"d":"197,244r-123,0r128,-656r-129,0r18,-93r129,0r28,-143r126,-15r-31,158r159,0r-49,93r-128,0","w":487},"\u2021":{"d":"197,244r-123,0r48,-244r-128,0r17,-93r129,0r62,-319r-129,0r18,-93r129,0r28,-143r126,-15r-31,158r159,0r-49,93r-128,0r-62,319r146,0r-49,93r-115,0","w":487},"\u2022":{"d":"211,-399v84,0,153,68,153,152v0,86,-69,154,-153,154v-86,0,-154,-68,-154,-154v0,-84,68,-152,154,-152","w":424},"\u2026":{"d":"197,-51v0,36,-28,64,-62,64v-36,0,-64,-28,-64,-64v0,-34,28,-62,64,-62v34,0,62,28,62,62xm432,-51v0,36,-28,64,-62,64v-35,0,-64,-28,-64,-64v0,-34,29,-62,64,-62v34,0,62,28,62,62xm663,-51v0,36,-28,64,-63,64v-35,0,-63,-28,-63,-64v0,-34,28,-62,63,-62v35,0,63,28,63,62","w":733},"\u2030":{"d":"387,-507v0,89,-78,163,-166,163v-86,0,-163,-74,-163,-163v0,-89,77,-163,163,-163v88,0,166,74,166,163xm299,-508v0,-41,-38,-75,-77,-75v-41,0,-76,34,-76,75v0,38,32,80,76,80v49,0,77,-42,77,-80xm802,-150v0,89,-78,163,-166,163v-86,0,-163,-74,-163,-163v0,-89,77,-163,163,-163v88,0,166,74,166,163xm714,-151v0,-41,-38,-75,-77,-75v-41,0,-76,34,-76,75v0,38,32,80,76,80v49,0,77,-42,77,-80xm1176,-150v0,89,-78,163,-166,163v-86,0,-163,-74,-163,-163v0,-89,77,-163,163,-163v88,0,166,74,166,163xm1088,-151v0,-41,-38,-75,-77,-75v-41,0,-76,34,-76,75v0,38,32,80,76,80v49,0,77,-42,77,-80xm772,-647r-569,647r-127,0r601,-688","w":1234},"\u2039":{"d":"371,-400r-193,155r129,151r-72,90r-210,-244r307,-244","w":391},"\u203a":{"d":"20,-96r193,-155r-129,-151r72,-90r210,244r-307,244","w":391},"\u2044":{"d":"565,-639r-442,639r-127,0r467,-679","w":544},"\u20ac":{"d":"12,-361r17,-89r69,0v62,-131,183,-228,356,-228v102,0,180,51,180,51r-54,99v0,0,-49,-51,-153,-51v-95,0,-164,55,-208,129r319,0r-49,89r-307,0v-7,24,-12,49,-15,73r290,0r-50,89r-240,0v11,67,59,112,161,112v48,0,123,-21,198,-74r-23,116v-70,40,-146,58,-213,58v-137,0,-228,-75,-239,-212r-70,0r18,-89r54,0v3,-24,7,-49,13,-73r-54,0","w":601},"\u2122":{"d":"27,-627r0,-78r289,0r0,78r-93,0r0,241r7,57r-114,0r0,-298r-89,0xm570,-341r-120,-165v0,61,-2,125,7,177r-108,0r0,-311r-8,-65r78,0r152,214r136,-214r77,0r0,319r7,57r-118,0r0,-172","w":812},"\u2202":{"d":"12,-694r0,694r-12,0r0,-694r12,0","w":12},"\u00a0":{"w":270}}});
