/*!
 * The following copyright notice may not be removed under any circumstances.
 * 
 * Copyright:
 * Copyright (c) 2007 by Jos Buivenga. All rights reserved.
 * 
 * Trademark:
 * Fontin Sans is a trademark of Jos Buivenga.
 * 
 * Full name:
 * Fontin Sans Rg
 * 
 * Description:
 * Copyright (c) 2007 by Jos Buivenga. All rights reserved.
 * 
 * Manufacturer:
 * Jos Buivenga
 */
Cufon.registerFont({"w":510,"face":{"font-family":"Fontin Sans Rg","font-weight":700,"font-stretch":"normal","units-per-em":"1000","panose-1":"2 0 0 0 0 0 0 0 0 0","ascent":"756","descent":"-244","x-height":"13","bbox":"-59 -879 1176 254","underline-thickness":"50","underline-position":"-50","stemh":"99","stemv":"124","unicode-range":"U+0020-U+FB04"},"glyphs":{" ":{"w":250},"!":{"d":"214,-766r-28,549r-92,15r-21,-451r-14,-93xm217,-61v0,41,-31,74,-75,74v-44,0,-75,-33,-75,-74v0,-38,31,-75,75,-75v44,0,75,37,75,75","w":274},"\"":{"d":"169,-427r-97,0r3,-126r-18,-100r112,-19r0,245xm339,-427r-97,0r3,-126r-18,-100r112,-19r0,245","w":411},"#":{"d":"646,-169r-141,0r-19,169r-118,0r20,-169r-121,0r-19,169r-118,0r20,-169r-136,0r0,-94r145,0r18,-156r-135,0r0,-94r144,0r16,-145r117,0r-17,145r121,0r16,-145r118,0r-17,145r144,0r-11,94r-141,0r-18,156r143,0xm397,-263r18,-156r-121,0r-18,156r121,0","w":714},"$":{"d":"281,-756r0,77v72,6,128,35,159,54r-25,111v0,0,-60,-51,-134,-63r0,177v81,51,179,111,179,221v0,106,-69,179,-179,190r0,83r-61,0r0,-82v-113,-9,-176,-67,-176,-67r10,-117v0,0,71,77,166,87r0,-184v-78,-50,-167,-111,-167,-216v0,-98,62,-178,167,-192r0,-79r61,0xm335,-154v0,-27,-22,-51,-54,-74r0,139v33,-9,54,-32,54,-65xm172,-514v0,28,19,51,48,73r0,-134v-26,8,-48,28,-48,61","w":490},"%":{"d":"387,-507v0,89,-78,163,-166,163v-86,0,-163,-74,-163,-163v0,-89,77,-163,163,-163v88,0,166,74,166,163xm299,-508v0,-41,-38,-75,-77,-75v-41,0,-76,34,-76,75v0,38,32,80,76,80v49,0,77,-42,77,-80xm707,-647r-448,647r-117,0r470,-688xm802,-150v0,89,-78,163,-166,163v-86,0,-163,-74,-163,-163v0,-89,77,-163,163,-163v88,0,166,74,166,163xm714,-151v0,-41,-38,-75,-77,-75v-41,0,-76,34,-76,75v0,38,32,80,76,80v49,0,77,-42,77,-80","w":860},"&":{"d":"740,-55r-89,77v-46,-19,-95,-49,-151,-91v-49,52,-123,82,-216,82v-138,0,-229,-86,-229,-188v0,-83,52,-150,135,-219v-52,-76,-83,-146,-83,-195v0,-101,91,-176,208,-176v111,0,179,65,179,140v0,82,-78,157,-171,232v46,58,103,119,161,172v0,0,35,-71,35,-186v0,-27,-1,-58,-4,-95r243,0r-20,89r-117,0v0,115,-30,212,-58,258v71,55,135,88,177,100xm312,-80v70,0,114,-52,114,-52v-65,-57,-127,-125,-181,-191v-84,76,-104,243,67,243xm220,-602v0,36,23,85,56,138v56,-46,101,-90,101,-135v0,-35,-23,-81,-73,-81v-35,0,-84,25,-84,78","w":769},"'":{"d":"169,-427r-97,0r3,-126r-18,-100r112,-19r0,245","w":241},"(":{"d":"171,-237v0,265,142,441,165,452r-91,33v-110,-68,-194,-301,-194,-485v0,-186,84,-388,194,-455r91,33v-23,11,-165,157,-165,422","w":340},")":{"d":"169,-237v0,-265,-142,-411,-165,-422r91,-33v109,67,194,269,194,455v0,184,-84,418,-194,485r-91,-33v23,-11,165,-187,165,-452","w":340},"*":{"d":"-11,-539r40,-82r108,3r-81,-126r103,-7r45,87r61,-112r67,65r-61,93r148,-3r-40,82r-108,-3r81,126r-103,7r-45,-86r-61,110r-65,-65r59,-92","w":412},"+":{"d":"186,-60r0,-144r-143,0r0,-98r143,0r0,-154r110,30r0,124r151,0r-25,98r-126,0r0,144r-110,0","w":481},",":{"d":"91,133r-40,-49v37,-33,59,-68,59,-97v0,-28,-10,-37,-29,-46v-2,-37,25,-75,67,-75v37,0,71,25,71,77v0,48,-36,126,-128,190","w":280},"-":{"d":"16,-299r291,0r-28,104r-263,0r0,-104","w":312},".":{"d":"215,-61v0,41,-31,74,-75,74v-44,0,-75,-33,-75,-74v0,-38,31,-75,75,-75v44,0,75,37,75,75","w":280},"\/":{"d":"286,-657r-214,901r-110,0r211,-901r113,0","w":301},"0":{"d":"261,-603v188,0,223,164,223,307v0,171,-65,309,-245,309v-117,0,-212,-83,-212,-310v0,-174,70,-306,234,-306xm255,-507v-66,0,-99,71,-99,199v0,133,22,227,94,227v64,0,107,-78,107,-211v0,-131,-30,-215,-102,-215"},"1":{"d":"34,0r0,-96r123,0r0,-365r-98,30r-36,-89r258,-85r0,509r123,0r-14,96r-356,0","w":410},"2":{"d":"458,0r-385,0r-13,-56v86,-92,247,-258,247,-361v0,-57,-40,-84,-76,-84v-70,0,-122,61,-122,61r-52,-91v49,-41,119,-67,188,-67v97,0,189,56,189,168v0,150,-202,322,-202,322r239,0"},"3":{"d":"436,-451v0,56,-42,104,-99,133v80,19,123,97,123,167v0,192,-193,276,-376,246r-30,-94v96,20,278,2,278,-139v0,-85,-115,-111,-155,-111r14,-82v57,-19,117,-60,117,-107v0,-46,-41,-65,-73,-65v-60,0,-125,52,-122,55r-41,-87v43,-35,107,-63,175,-63v99,0,189,50,189,147"},"4":{"d":"14,-166r284,-434r106,18r0,379r96,0r-20,108r-76,0r0,103r12,92r-136,0r0,-195r-253,0xm282,-203r0,-156r8,-77r-36,74r-79,129r-22,30r129,0"},"5":{"d":"442,-585r-20,108r-210,0r-5,102v130,1,246,88,246,219v0,181,-163,257,-313,257v-22,0,-43,-1,-63,-4r-30,-93v129,24,279,-13,279,-150v0,-92,-118,-158,-233,-138r14,-301r335,0"},"6":{"d":"477,-618r-42,98v-30,-33,-79,-59,-127,-59v-61,0,-133,56,-143,176v41,-24,86,-33,128,-33v102,0,193,57,193,198v0,137,-79,251,-228,251v-152,0,-224,-130,-224,-311v0,-289,130,-380,280,-380v102,0,163,60,163,60xm251,-335v-27,0,-58,8,-90,31v2,109,23,216,114,216v56,0,85,-61,85,-122v0,-93,-50,-125,-109,-125"},"7":{"d":"209,114r-112,-16r252,-575r-286,0r-32,-108r451,0r19,26"},"8":{"d":"241,13v-88,0,-203,-41,-203,-168v0,-88,63,-142,129,-193v-57,-47,-105,-98,-105,-157v0,-107,75,-173,205,-173v104,0,185,55,185,139v0,83,-51,129,-109,174v70,54,136,111,136,178v0,122,-103,200,-238,200xm241,-297v-42,30,-81,71,-81,126v0,40,31,82,90,82v51,0,103,-30,103,-76v0,-43,-54,-86,-112,-132xm271,-417v34,-25,61,-56,61,-101v0,-32,-23,-70,-76,-70v-43,0,-74,20,-74,63v0,36,38,70,89,108"},"9":{"d":"36,53r42,-98v30,33,79,59,127,59v61,0,133,-67,143,-197v-41,24,-86,33,-128,33v-102,0,-193,-57,-193,-198v0,-137,79,-250,228,-250v152,0,224,139,224,320v0,289,-130,391,-280,391v-102,0,-163,-60,-163,-60xm262,-251v27,0,58,-8,90,-31v-2,-109,-23,-215,-114,-215v-56,0,-85,60,-85,121v0,93,50,125,109,125"},":":{"d":"68,-323v0,-39,32,-70,70,-70v36,0,67,31,67,70v0,37,-31,67,-67,67v-38,0,-70,-30,-70,-67xm68,-54v0,-39,32,-70,70,-70v36,0,67,31,67,70v0,37,-31,67,-67,67v-38,0,-70,-30,-70,-67","w":268},";":{"d":"76,133r-40,-49v37,-33,59,-68,59,-97v0,-28,-9,-37,-28,-46v-6,-35,24,-75,66,-75v37,0,71,25,71,77v0,48,-36,126,-128,190xm68,-323v0,-39,32,-70,70,-70v36,0,67,31,67,70v0,37,-31,67,-67,67v-38,0,-70,-30,-70,-67","w":268},"<":{"d":"343,-401r-153,155r153,153r-45,90r-269,-244r269,-244","w":379},"=":{"d":"43,-201r398,0r-25,94r-373,0r0,-94xm43,-386r408,0r-25,94r-383,0r0,-94","w":490},">":{"d":"34,-93r153,-155r-153,-153r45,-90r269,244r-269,244","w":379},"?":{"d":"203,-190r-101,-35v-37,-152,174,-227,174,-337v0,-59,-50,-87,-101,-87v-40,0,-96,23,-96,23r-33,-108v0,0,76,-26,141,-26v105,0,215,54,215,187v0,147,-206,224,-206,322v0,11,0,41,7,61xm238,-61v0,41,-31,74,-75,74v-44,0,-75,-33,-75,-74v0,-38,31,-75,75,-75v44,0,75,37,75,75","w":439},"@":{"d":"625,-406r0,231v0,54,-1,93,10,105v84,0,126,-119,126,-212v0,-160,-98,-298,-286,-298v-180,0,-327,174,-327,351v0,159,124,334,330,342r-53,91v-246,-31,-378,-231,-378,-433v0,-213,155,-439,442,-439v221,0,376,164,376,372v0,157,-101,336,-315,309v-12,-13,-27,-43,-33,-64v0,0,-35,60,-107,60v-110,0,-165,-109,-165,-214v0,-178,117,-301,287,-301v46,0,102,20,102,20xm506,-118r-1,-300v-44,9,-132,45,-132,202v0,57,15,124,64,124v38,0,69,-26,69,-26","w":912},"A":{"d":"-10,0r257,-660r85,-21r204,557r56,124r-145,0r-57,-155r-221,0r-59,155r-120,0xm273,-451r-72,193r160,0r-69,-194r-9,-39","w":592},"B":{"d":"227,-575r0,170v78,0,101,5,114,6v16,-23,32,-61,32,-97v0,-60,-32,-81,-105,-81v-12,0,-26,1,-41,2xm83,-668r179,-5v139,0,232,49,232,157v0,55,-46,110,-79,140v78,36,120,94,120,166v0,121,-74,210,-247,210r-191,0r0,-565xm227,-309r0,212r62,0v73,0,114,-41,114,-109v0,-60,-38,-103,-139,-103r-37,0","w":576},"C":{"d":"595,-597r-53,96v-56,-57,-116,-80,-175,-80v-113,0,-198,117,-198,251v0,156,100,241,208,241v68,0,144,-32,202,-94r24,103v-203,179,-569,96,-569,-240v0,-211,145,-360,332,-360v90,0,165,26,229,83","w":619},"D":{"d":"83,-668r270,0v149,0,295,100,295,330v0,193,-127,338,-325,338r-226,0r0,-565xm227,-571r0,474r108,0v102,0,176,-101,176,-235v0,-136,-74,-239,-176,-239r-108,0","w":683},"E":{"d":"97,0r0,-565r-14,-103r383,0r0,99r-239,0r0,177r211,0r-25,99r-186,0r0,194r252,0r-25,99r-357,0"},"F":{"d":"97,-565r-14,-103r383,0r0,99r-239,0r0,177r211,0r-25,99r-186,0r0,207r11,86r-141,0r0,-565","w":485},"G":{"d":"595,-597r-53,96v-56,-57,-116,-80,-175,-80v-113,0,-198,117,-198,251v0,156,103,245,207,245v53,0,103,-13,103,-13r0,-141r-18,-86r144,0r1,294v0,0,-117,44,-248,44v-165,0,-324,-112,-324,-333v0,-211,145,-360,332,-360v90,0,165,26,229,83","w":656},"H":{"d":"669,-668r0,582r11,86r-141,0r0,-282r-312,0r0,196r11,86r-141,0r0,-565r-14,-103r144,0r0,277r312,0r0,-174r-14,-103r144,0","w":765},"I":{"d":"228,-668r0,582r11,86r-141,0r0,-565r-14,-103r144,0","w":329},"J":{"d":"231,-668r0,620v0,128,-65,247,-216,247v-19,0,-44,-3,-74,-9r7,-112v0,0,27,15,67,15v53,0,86,-62,86,-141r0,-517r-14,-103r144,0","w":324},"K":{"d":"227,-86r11,86r-141,0r0,-565r-14,-103r144,0r0,307r161,-236r32,-71r167,0r-233,316r249,352r-160,0r-216,-326r0,240","w":591},"L":{"d":"97,0r0,-565r-14,-103r144,0r0,567r255,0r-25,101r-360,0","w":481},"M":{"d":"445,-62r-209,-287r-33,-65r0,328r11,86r-126,0r0,-565r-14,-103r103,0r279,397r255,-397r87,0r0,582r11,86r-141,0r0,-413r-29,64","w":894},"N":{"d":"655,-668r0,582r7,86r-83,0r-337,-379r-39,-63r0,356r11,86r-126,0r0,-565r-14,-103r100,0r328,386r38,62r0,-345r-14,-103r129,0","w":742},"O":{"d":"351,-678v206,0,309,141,309,339v0,200,-140,352,-322,352v-196,0,-307,-149,-307,-340v0,-199,138,-351,320,-351xm169,-333v0,143,71,249,177,249v106,0,176,-106,176,-249v0,-143,-70,-249,-176,-249v-106,0,-177,106,-177,249","w":690},"P":{"d":"83,-668r207,0v120,0,236,66,236,208v-1,127,-126,234,-299,224r0,150r11,86r-141,0r0,-565xm227,-336r45,0v63,0,119,-53,119,-124v0,-76,-56,-111,-119,-111r-45,0r0,235","w":556},"Q":{"d":"297,64r0,-54v-171,-19,-266,-159,-266,-336v0,-199,138,-350,320,-350v206,0,309,140,309,338v0,175,-108,313,-256,344r212,81r-47,102xm169,-332v0,143,71,253,177,253v106,0,176,-110,176,-253v0,-143,-70,-253,-176,-253v-106,0,-177,110,-177,253","w":690},"R":{"d":"607,0r-163,0r-166,-236r-51,0r0,150r11,86r-141,0r0,-565r-14,-103r207,0v120,0,236,66,236,208v0,74,-51,157,-126,195xm227,-331r45,0v63,0,119,-58,119,-129v0,-76,-56,-116,-119,-116r-45,0r0,245","w":605},"S":{"d":"44,-55r10,-112v0,0,82,83,187,83v55,0,94,-38,94,-83v0,-114,-284,-120,-284,-316v0,-108,78,-197,203,-197v86,0,151,28,186,50r-25,100v0,0,-66,-55,-164,-55v-37,0,-81,30,-81,76v0,116,287,115,287,320v0,114,-81,202,-209,202v-130,0,-204,-68,-204,-68","w":490},"T":{"d":"0,-567r0,-101r556,0r0,101r-216,0r0,481r11,86r-141,0r0,-567r-210,0","w":556},"U":{"d":"529,-257r0,-308r-14,-103r129,0r0,400v0,168,-112,281,-288,281v-256,0,-262,-238,-262,-255r0,-323r-14,-103r144,0r0,418v0,100,64,165,150,165v87,0,155,-72,155,-172","w":716},"V":{"d":"622,-668r-267,681r-91,-20r-199,-537r-65,-124r160,0r146,419r15,79r21,-79r155,-419r125,0","w":622},"W":{"d":"962,-668r-267,681r-91,-20r-117,-311r-132,331r-91,-20r-199,-537r-65,-124r160,0r147,419r14,79r21,-79r88,-222r-73,-197r143,0r147,419r14,79r21,-79r155,-419r125,0","w":962},"X":{"d":"0,0r204,-334r-137,-247r-64,-87r159,0r102,188r15,35r13,-35r108,-188r132,0r-194,318r198,350r-146,0r-109,-203r-16,-35r-14,35r-113,203r-138,0","w":536},"Y":{"d":"345,-299r0,213r11,86r-141,0r0,-289r-153,-294r-62,-85r159,0r118,228r13,39r13,-39r117,-228r130,0","w":550},"Z":{"d":"24,0r-5,-35r305,-479r41,-52r-331,0r27,-102r482,0r5,35r-303,479r-41,53r355,0r0,101r-535,0","w":576},"[":{"d":"216,-734r0,87r-86,0r0,628r86,0r0,88r-201,0r0,-803r201,0","w":258},"\\":{"d":"262,244r-265,-901r116,0r257,901r-108,0","w":366},"]":{"d":"36,-647r0,-87r201,0r0,803r-201,0r0,-88r86,0r0,-628r-86,0","w":258},"^":{"d":"582,-320r-113,0r-154,-281r-155,281r-110,0r223,-388r86,0","w":634},"_":{"d":"514,65r-33,80r-481,0r0,-80r514,0","w":493},"`":{"d":"23,-724r149,0r115,136r-79,28","w":348},"a":{"d":"111,-356r-51,-88v0,0,74,-76,209,-76v83,0,171,34,171,138r0,259v0,60,51,120,51,120r-126,14v0,0,-25,-28,-34,-62v-39,39,-96,64,-151,64v-87,0,-146,-64,-146,-131v0,-105,104,-188,282,-194v4,-72,-20,-119,-68,-119v-79,0,-137,75,-137,75xm221,-79v31,0,73,-21,95,-43r0,-102v-49,4,-154,15,-154,90v0,28,19,55,59,55","w":523},"b":{"d":"65,-745r138,-15r0,277v0,0,48,-37,110,-37v106,0,212,85,212,256v0,149,-108,277,-264,277v-84,0,-160,-41,-182,-87r0,-570xm203,-400r0,295v18,17,45,28,74,28v63,0,115,-78,115,-178v0,-100,-52,-169,-115,-169v-41,0,-74,24,-74,24","w":559},"c":{"d":"467,-453r-57,90v-37,-46,-86,-62,-123,-62v-86,0,-124,82,-124,172v0,84,38,164,120,164v87,0,164,-80,164,-80r18,104v0,0,-75,78,-206,78v-149,0,-223,-128,-223,-257v0,-146,87,-276,248,-276v123,0,183,67,183,67","w":489},"d":{"d":"480,-767r0,643v0,60,51,120,51,120r-126,14v0,0,-22,-21,-34,-59v-31,34,-92,61,-137,61v-107,0,-200,-89,-200,-255v1,-167,132,-306,322,-272r0,-136r-14,-101xm266,-81v26,0,59,-20,90,-47r0,-297v0,0,-35,-6,-74,-6v-63,0,-115,79,-115,179v0,109,45,171,99,171","w":562},"e":{"d":"274,-520v175,0,188,187,190,262r-24,24r-277,0v5,81,46,145,125,145v87,0,168,-71,168,-71r18,102v0,0,-80,71,-210,71v-149,0,-228,-124,-228,-253v0,-146,71,-280,238,-280xm262,-435v-55,0,-83,50,-94,113r167,0v-3,-48,-20,-113,-73,-113","w":499},"f":{"d":"25,-412r0,-93r61,0r0,-60v1,-210,161,-236,297,-161r-42,101v-36,-29,-64,-32,-80,-32v-29,0,-51,20,-51,74r0,78r126,0r-33,93r-93,0r0,298r11,114r-135,0r0,-412r-61,0","w":338},"g":{"d":"243,-121v-41,0,-62,-10,-62,-10v-13,13,-21,27,-21,39v0,75,338,-44,338,161v0,118,-132,174,-257,174v-183,0,-219,-107,-219,-107r72,-66v0,0,32,84,158,84v58,0,129,-15,129,-64v0,-97,-325,21,-325,-142v0,-40,31,-79,62,-110v-44,-29,-82,-90,-82,-153v0,-117,91,-205,218,-205v41,0,89,20,98,28r18,-13r146,0r-21,77r-70,0v24,30,34,66,34,105v0,119,-94,202,-216,202xm163,-320v0,67,41,112,86,112v45,0,83,-45,83,-112v0,-68,-38,-113,-83,-113v-45,0,-86,45,-86,113","w":516},"h":{"d":"526,0r-135,0r0,-292v0,-94,-10,-124,-61,-124v-76,0,-125,55,-125,55r0,275r11,86r-135,0r0,-644r-14,-101r138,-15r0,300v44,-40,104,-60,159,-60v76,0,151,41,151,128r0,308","w":590},"i":{"d":"203,-520r0,434r11,86r-135,0r0,-404r-14,-101xm69,-653v0,-39,32,-70,70,-70v36,0,67,31,67,70v0,37,-31,67,-67,67v-38,0,-70,-30,-70,-67","w":284},"j":{"d":"204,-520r0,503v0,155,-86,260,-201,261r-43,-103v93,0,120,-71,120,-169r0,-376r-14,-101xm69,-653v0,-39,32,-70,70,-70v36,0,67,31,67,70v0,37,-31,67,-67,67v-38,0,-70,-30,-70,-67","w":278},"k":{"d":"205,-760r0,483r137,-174r24,-54r167,0r-203,229r213,276r-155,0r-183,-253r0,167r11,86r-135,0r0,-644r-14,-101","w":543},"l":{"d":"205,-760r0,674r11,86r-135,0r0,-644r-14,-101","w":286},"m":{"d":"835,0r-135,0r0,-292v0,-94,-10,-124,-61,-124v-74,0,-124,57,-124,57r0,275r11,84r-135,0r0,-292v0,-94,-10,-124,-61,-124v-76,0,-125,58,-125,58r0,272r11,86r-135,0r0,-403r-14,-101r138,-15r0,62v81,-78,234,-91,295,7v2,-3,61,-70,173,-70v76,0,151,41,151,128r0,308","w":902},"n":{"d":"526,0r-135,0r0,-292v0,-94,-10,-124,-61,-124v-76,0,-125,57,-125,57r0,273r11,86r-135,0r0,-403r-14,-101r138,-15r0,61v44,-40,104,-62,159,-62v76,0,151,41,151,128r0,308","w":593},"o":{"d":"529,-264v0,149,-97,277,-264,277v-152,0,-231,-133,-231,-259v0,-149,95,-274,265,-274v131,0,230,79,230,256xm166,-254v0,100,43,178,115,178v72,0,115,-78,115,-178v0,-100,-43,-177,-115,-177v-72,0,-115,77,-115,177","w":563},"p":{"d":"81,240r0,-644r-14,-101r138,-15r0,56v40,-37,82,-56,122,-56v107,0,200,90,200,256v0,167,-131,304,-322,273r0,145r11,86r-135,0xm295,-417v-56,0,-90,42,-90,42r0,294v0,0,35,4,74,4v63,0,115,-78,115,-178v0,-109,-45,-162,-99,-162","w":564},"q":{"d":"489,245r-133,0r0,-259v-28,15,-62,27,-102,27v-110,0,-220,-80,-220,-257v0,-149,108,-276,264,-276v61,0,182,20,182,20r0,643xm356,-101r0,-323v-18,-3,-50,-6,-74,-6v-63,0,-115,77,-115,177v0,135,87,226,189,152","w":552},"r":{"d":"424,-483r-38,110v0,0,-29,-27,-67,-27v-52,0,-114,64,-114,142r0,172r11,86r-135,0r0,-402r-14,-101r138,-15r0,91v0,0,49,-93,136,-93v31,0,59,12,83,37","w":424},"s":{"d":"34,-46r12,-105v0,0,81,70,159,70v36,0,73,-16,73,-50v0,-78,-243,-80,-243,-227v0,-123,97,-161,199,-161v88,0,143,33,143,33r-23,100v0,0,-50,-45,-141,-45v-34,0,-64,20,-64,47v0,81,244,72,244,240v0,102,-75,157,-189,157v-114,0,-170,-59,-170,-59","w":427},"t":{"d":"220,-609r-10,104r149,0r-32,93r-118,0r0,266v0,36,18,46,42,46v37,0,92,-27,115,-47r13,109v0,0,-56,51,-165,51v-85,0,-128,-45,-128,-162r0,-263r-61,0r0,-93r61,0r0,-89","w":379},"u":{"d":"561,-5r-130,18v0,0,-25,-32,-32,-68v0,0,-66,68,-172,68v-76,0,-151,-41,-151,-128r0,-288r-14,-101r138,-15r0,304v0,88,8,125,58,125v81,0,128,-62,128,-62r0,-251r-14,-101r138,-15r0,394v0,60,51,120,51,120","w":592},"v":{"d":"513,-519r-218,532r-108,-19r-138,-402r-49,-93r140,-18r102,322r11,67r16,-67r111,-303","w":513},"w":{"d":"843,-519r-218,532r-102,-19r-91,-265r-13,-50r-11,51r-119,283r-102,-19r-138,-402r-49,-93r137,-18r102,323r11,66r18,-66r98,-257r-20,-48r127,-18r102,323r11,66r17,-66r110,-304","w":843},"x":{"d":"0,0r187,-252r-107,-164r-73,-85r144,-18r94,155r12,27r14,-27r96,-137r147,-18r-197,257r173,262r-142,0r-89,-148r-14,-26r-13,27r-100,147r-132,0","w":514},"y":{"d":"513,-519r-247,607v-44,108,-117,155,-198,155v-20,0,-44,-3,-72,-14r-17,-120v0,0,41,17,74,17v57,0,100,-30,135,-129r-139,-403r-49,-93r138,-18r104,320r11,67r17,-67r112,-303","w":513},"z":{"d":"14,0r-4,-29r221,-343r32,-40r-247,0r26,-93r389,0r4,29r-221,344r-31,39r257,0r0,93r-426,0","w":455},"{":{"d":"12,-263r0,-72v63,0,68,-57,68,-70r0,-191v0,-109,89,-159,201,-159r0,82v-33,0,-81,9,-81,80r0,187v0,71,-56,107,-56,107v0,0,56,36,56,107r0,272v0,71,48,80,81,80r0,82v-112,0,-201,-50,-201,-159r0,-276v0,-13,-5,-70,-68,-70","w":311},"|":{"d":"174,-756r0,1010r-111,0r0,-1010r111,0","w":237},"}":{"d":"299,-335r0,72v-63,0,-68,57,-68,70r0,276v0,109,-89,159,-201,159r0,-82v33,0,81,-9,81,-80r0,-272v0,-71,56,-107,56,-107v0,0,-56,-36,-56,-107r0,-187v0,-71,-48,-80,-81,-80r0,-82v112,0,201,50,201,159r0,191v0,13,5,70,68,70","w":311},"~":{"d":"511,-348r45,89v-37,38,-97,67,-159,67v-84,0,-141,-56,-218,-56v-33,0,-74,12,-104,46r-41,-88v36,-31,89,-64,154,-64v93,0,147,56,213,56v32,0,67,-12,110,-50","w":588},"\u00a1":{"d":"62,108r28,-549r92,-15r21,451r14,93xm59,-597v0,-41,31,-74,75,-74v44,0,75,33,75,74v0,38,-31,75,-75,75v-44,0,-75,-37,-75,-75","w":274},"\u00a2":{"d":"321,-594r0,76v101,11,149,69,149,69r-63,80v-27,-33,-57,-47,-86,-53r0,326v71,-16,129,-76,129,-76r18,107v0,0,-54,55,-147,72r0,87r-61,0r0,-81v-148,-1,-221,-128,-221,-257v0,-137,77,-260,221,-274r0,-76r61,0xm260,-421v-124,30,-128,299,0,327r0,-327","w":492},"\u00a3":{"d":"531,102r-510,0v0,0,83,-177,83,-340r0,-25r-61,0r0,-88r61,0r0,-194v0,-145,141,-209,227,-209v135,0,197,64,197,64r-36,94v-26,-27,-91,-65,-150,-65v-59,0,-111,32,-111,108r0,202r204,0r-32,88r-172,0v9,105,-46,273,-48,271r373,0","w":559},"\u00a5":{"d":"88,-357r91,0r-117,-225r2,1r-64,-87r159,0r118,228r13,39r15,-39r118,-228r127,0r-174,311r113,0r-18,84r-126,0r0,79r134,0r-18,84r-116,0v-1,41,7,73,11,110r-141,0r0,-110r-127,0r0,-84r127,0r0,-79r-127,0r0,-84","w":550},"\u00a7":{"d":"287,-658r97,669v0,107,-96,168,-202,168v-114,0,-153,-76,-153,-76r6,-97v44,53,85,71,118,76v-97,-624,-97,-658,-97,-668v0,-106,95,-169,201,-169v114,0,153,76,153,76r-6,97v-46,-55,-85,-71,-117,-76xm154,-586r95,653v20,-13,35,-31,35,-57v0,-4,0,-34,-96,-654v-20,12,-38,30,-34,58","w":430},"\u00a8":{"d":"163,-637v0,34,-26,61,-56,61v-30,0,-56,-27,-56,-61v0,-34,26,-62,56,-62v30,0,56,28,56,62xm347,-637v0,34,-26,61,-56,61v-31,0,-56,-27,-56,-61v0,-34,25,-62,56,-62v30,0,56,28,56,62","w":394},"\u00a9":{"d":"540,-473r-37,72v0,0,-47,-43,-96,-43v-48,0,-83,47,-83,109v0,59,34,113,88,113v55,0,115,-49,115,-49r10,79v0,0,-54,52,-150,53v-109,1,-165,-91,-165,-185v0,-107,62,-200,187,-200v72,0,131,51,131,51xm750,-340v0,215,-139,353,-366,353v-192,0,-334,-145,-334,-335v0,-214,144,-346,375,-346v190,0,325,139,325,328xm658,-327v0,-160,-106,-265,-254,-265v-142,0,-260,96,-260,258v0,166,102,269,262,269v136,0,252,-101,252,-262","w":800},"\u00aa":{"d":"88,-547r-47,-62v0,0,54,-66,165,-66v69,0,133,27,133,102r0,191v0,41,40,87,40,87r-112,12v0,0,-22,-19,-25,-48v-29,36,-65,49,-93,49v-83,0,-122,-53,-122,-103v0,-71,72,-127,202,-134r0,-21v0,-45,-19,-61,-42,-61v-59,0,-99,54,-99,54xm229,-389r0,-67v-34,5,-95,13,-95,60v0,19,15,41,38,41v18,0,42,-19,57,-34","w":415},"\u00ab":{"d":"339,-401r-153,155r153,153r-45,90r-269,-244r269,-244xm607,-401r-153,155r153,153r-45,90r-269,-244r269,-244","w":642},"\u00ae":{"d":"584,-156r-121,0r-89,-131v2,61,-5,63,7,131r-108,0r0,-298r-7,-64r124,0v73,0,142,39,142,118v0,38,-28,83,-70,102xm374,-335v35,1,68,-20,68,-65v0,-44,-33,-57,-68,-56r0,121xm750,-340v0,215,-139,353,-366,353v-192,0,-334,-145,-334,-335v0,-214,144,-346,375,-346v190,0,325,139,325,328xm658,-327v0,-160,-106,-265,-254,-265v-142,0,-260,96,-260,258v0,166,102,269,262,269v136,0,252,-101,252,-262","w":800},"\u00af":{"d":"38,-665r274,0r-26,98r-248,0r0,-98","w":345},"\u00b0":{"d":"365,-576v0,91,-80,167,-170,167v-88,0,-167,-76,-167,-167v0,-91,79,-167,167,-167v90,0,170,76,170,167xm275,-577v0,-42,-39,-77,-79,-77v-42,0,-78,35,-78,77v0,39,33,82,78,82v50,0,79,-43,79,-82","w":409},"\u00b1":{"d":"186,-160r0,-114r-143,0r0,-98r143,0r0,-135r110,30r0,105r151,0r-25,98r-126,0r0,114r-110,0xm67,-104r352,0r-28,104r-324,0r0,-104","w":481},"\u00b2":{"d":"316,-286r-266,0r-8,-47v25,-26,147,-139,147,-212v0,-72,-76,-38,-107,-13r-41,-72v78,-75,262,-70,262,71v0,70,-78,150,-119,190r140,0","w":355},"\u00b3":{"d":"303,-581v0,31,-29,62,-60,79v42,7,75,51,75,95v0,115,-150,137,-261,121r-22,-70v71,10,173,4,173,-63v0,-32,-54,-40,-95,-40r7,-46v35,-15,71,-31,71,-68v0,-26,-20,-34,-39,-34v-40,0,-76,28,-76,28r-28,-61v0,0,48,-37,123,-37v67,0,132,33,132,96","w":357},"\u00b4":{"d":"182,-724r149,0r-185,164r-79,-28","w":348},"\u00b6":{"d":"43,-370v0,-168,140,-298,314,-298r75,0r0,912r-95,0r0,-317v-163,-11,-294,-136,-294,-297xm592,-668r0,912r-95,0r0,-912r95,0","w":652},"\u00b7":{"d":"201,-245v0,41,-31,74,-75,74v-44,0,-75,-33,-75,-74v0,-38,31,-75,75,-75v44,0,75,37,75,75","w":268},"\u00b8":{"d":"125,49r12,-52r61,0v33,41,118,63,118,124v0,130,-167,140,-252,75r30,-69v24,24,64,31,85,31v20,0,37,-7,37,-27v0,-29,-72,-51,-91,-82","w":412},"\u00b9":{"d":"42,-286r0,-71r75,0r0,-204r-55,17r-27,-68r191,-61r0,316r76,0r-10,71r-250,0","w":312},"\u00ba":{"d":"33,-472v0,-118,77,-200,201,-200v100,0,176,57,176,186v0,110,-73,205,-201,205v-172,0,-176,-179,-176,-191xm150,-479v0,70,26,124,71,124v45,0,72,-54,72,-124v0,-70,-27,-119,-72,-119v-45,0,-71,49,-71,119","w":452},"\u00bb":{"d":"456,-246r-153,-155r45,-90r269,244r-269,244r-45,-90xm188,-246r-153,-155r45,-90r269,244r-269,244r-45,-90","w":642},"\u00bc":{"d":"617,-559r-325,470r-102,0r345,-501xm42,-286r0,-71r75,0r0,-204r-55,17r-27,-68r191,-61r0,316r76,0r-10,71r-250,0xm391,-79r185,-266r89,26r0,210r70,0r-19,79r-51,0v-1,34,5,60,8,89r-115,0r0,-89r-157,0xm559,-109v-1,-42,-4,-85,1,-124v-17,41,-43,73,-66,108r-20,18v26,-3,56,-2,85,-2","w":748},"\u00bd":{"d":"749,59r-266,0r-8,-47v25,-26,147,-139,147,-212v0,-72,-76,-38,-107,-13r-41,-72v78,-75,262,-70,262,71v0,70,-78,150,-119,190r140,0xm617,-559r-325,470r-102,0r345,-501xm42,-286r0,-71r75,0r0,-204r-55,17r-27,-68r191,-61r0,316r76,0r-10,71r-250,0","w":788},"\u00be":{"d":"375,-79r185,-266r89,26r0,210r70,0r-19,79r-51,0v-1,34,5,60,8,89r-115,0r0,-89r-157,0xm543,-109v-1,-42,-4,-85,1,-124v-17,41,-43,73,-66,108r-20,18v26,-3,56,-2,85,-2xm601,-559r-325,470r-102,0r345,-501xm303,-581v0,31,-29,62,-60,79v42,7,75,51,75,95v0,115,-150,137,-261,121r-22,-70v71,10,173,4,173,-63v0,-32,-54,-40,-95,-40r7,-46v35,-15,71,-31,71,-68v0,-26,-20,-34,-39,-34v-40,0,-76,28,-76,28r-28,-61v0,0,48,-37,123,-37v67,0,132,33,132,96","w":732},"\u00bf":{"d":"234,-453r102,-16v10,32,13,55,13,73v0,123,-186,178,-186,300v0,59,50,87,101,87v40,0,91,-33,91,-33r38,108v-133,65,-356,38,-356,-151v0,-173,204,-214,204,-322v0,-11,0,-26,-7,-46xm201,-597v0,-41,31,-74,75,-74v44,0,75,33,75,74v0,38,-31,75,-75,75v-44,0,-75,-37,-75,-75","w":439},"\u00c0":{"d":"-10,0r257,-660r85,-21r204,557r56,124r-145,0r-57,-155r-221,0r-59,155r-120,0xm273,-451r-72,193r160,0r-69,-194r-9,-39xm116,-875r149,0r115,136r-79,28","w":592},"\u00c1":{"d":"-10,0r257,-660r85,-21r204,557r56,124r-145,0r-57,-155r-221,0r-59,155r-120,0xm273,-451r-72,193r160,0r-69,-194r-9,-39xm327,-865r149,0r-185,164r-79,-28","w":592},"\u00c2":{"d":"-10,0r257,-660r85,-21r204,557r56,124r-145,0r-57,-155r-221,0r-59,155r-120,0xm273,-451r-72,193r160,0r-69,-194r-9,-39xm241,-875r102,0r114,133r-78,30r-88,-93r-86,93r-78,-30","w":592},"\u00c3":{"d":"-10,0r257,-660r85,-21r204,557r56,124r-145,0r-57,-155r-221,0r-59,155r-120,0xm273,-451r-72,193r160,0r-69,-194r-9,-39xm416,-831r54,39v0,0,-20,71,-111,71v-61,0,-93,-34,-121,-34v-45,0,-66,34,-66,34r-52,-37v0,0,28,-73,114,-73v52,0,86,35,117,35v16,0,49,-2,65,-35","w":592},"\u00c4":{"d":"-10,0r257,-660r85,-21r204,557r56,124r-145,0r-57,-155r-221,0r-59,155r-120,0xm273,-451r-72,193r160,0r-69,-194r-9,-39xm256,-788v0,34,-26,61,-56,61v-30,0,-56,-27,-56,-61v0,-34,26,-62,56,-62v30,0,56,28,56,62xm440,-788v0,34,-26,61,-56,61v-31,0,-56,-27,-56,-61v0,-34,25,-62,56,-62v30,0,56,28,56,62","w":592},"\u00c5":{"d":"-10,0r257,-660r85,-21r204,557r56,124r-145,0r-57,-155r-221,0r-59,155r-120,0xm273,-451r-72,193r160,0r-69,-194r-9,-39xm383,-791v0,48,-43,88,-91,88v-47,0,-89,-40,-89,-88v0,-48,42,-88,89,-88v48,0,91,40,91,88xm336,-792v0,-23,-21,-43,-43,-43v-24,0,-43,20,-43,43v0,22,18,47,43,47v28,0,43,-25,43,-47","w":592},"\u00c6":{"d":"363,0r0,-164r-172,0r-78,164r-123,0r325,-668r417,0r0,99r-239,0r0,177r211,0r-25,99r-186,0r0,194r252,0r-25,99r-357,0xm235,-258r128,0r0,-284","w":776},"\u00c7":{"d":"595,-597r-53,96v-56,-57,-116,-80,-175,-80v-113,0,-198,117,-198,251v0,156,100,241,208,241v68,0,144,-32,202,-94r24,103v-203,179,-569,96,-569,-240v0,-211,145,-360,332,-360v90,0,165,26,229,83xm292,49r12,-52r61,0v33,41,118,63,118,124v0,130,-167,140,-252,75r30,-69v24,24,64,31,85,31v20,0,37,-7,37,-27v0,-29,-72,-51,-91,-82","w":619},"\u00c8":{"d":"97,0r0,-565r-14,-103r383,0r0,99r-239,0r0,177r211,0r-25,99r-186,0r0,194r252,0r-25,99r-357,0xm103,-875r149,0r115,136r-79,28"},"\u00c9":{"d":"97,0r0,-565r-14,-103r383,0r0,99r-239,0r0,177r211,0r-25,99r-186,0r0,194r252,0r-25,99r-357,0xm314,-865r149,0r-185,164r-79,-28"},"\u00ca":{"d":"97,0r0,-565r-14,-103r383,0r0,99r-239,0r0,177r211,0r-25,99r-186,0r0,194r252,0r-25,99r-357,0xm228,-875r102,0r114,133r-78,30r-88,-93r-86,93r-78,-30"},"\u00cb":{"d":"97,0r0,-565r-14,-103r383,0r0,99r-239,0r0,177r211,0r-25,99r-186,0r0,194r252,0r-25,99r-357,0xm243,-788v0,34,-26,61,-56,61v-30,0,-56,-27,-56,-61v0,-34,26,-62,56,-62v30,0,56,28,56,62xm427,-788v0,34,-26,61,-56,61v-31,0,-56,-27,-56,-61v0,-34,25,-62,56,-62v30,0,56,28,56,62"},"\u00cc":{"d":"228,-668r0,582r11,86r-141,0r0,-565r-14,-103r144,0xm-11,-875r149,0r115,136r-79,28","w":329},"\u00cd":{"d":"228,-668r0,582r11,86r-141,0r0,-565r-14,-103r144,0xm200,-865r149,0r-185,164r-79,-28","w":329},"\u00ce":{"d":"228,-668r0,582r11,86r-141,0r0,-565r-14,-103r144,0xm114,-875r102,0r114,133r-78,30r-88,-93r-86,93r-78,-30","w":329},"\u00cf":{"d":"228,-668r0,582r11,86r-141,0r0,-565r-14,-103r144,0xm129,-788v0,34,-26,61,-56,61v-30,0,-56,-27,-56,-61v0,-34,26,-62,56,-62v30,0,56,28,56,62xm313,-788v0,34,-26,61,-56,61v-31,0,-56,-27,-56,-61v0,-34,25,-62,56,-62v30,0,56,28,56,62","w":329},"\u00d0":{"d":"24,-392r73,0r0,-173r-14,-103r270,0v149,0,295,100,295,330v0,193,-127,338,-325,338r-226,0r0,-288r-73,0r0,-104xm227,-575r0,183r128,0r-28,104r-100,0r0,191r108,0v102,0,176,-101,176,-235v0,-136,-74,-243,-176,-243r-108,0","w":683},"\u00d1":{"d":"655,-668r0,582r7,86r-83,0r-337,-379r-39,-63r0,356r11,86r-126,0r0,-565r-14,-103r100,0r328,386r38,62r0,-345r-14,-103r129,0xm490,-831r54,39v0,0,-20,71,-111,71v-61,0,-93,-34,-121,-34v-45,0,-66,34,-66,34r-52,-37v0,0,28,-73,114,-73v52,0,86,35,117,35v16,0,49,-2,65,-35","w":742},"\u00d2":{"d":"351,-678v206,0,309,141,309,339v0,200,-140,352,-322,352v-196,0,-307,-149,-307,-340v0,-199,138,-351,320,-351xm169,-333v0,143,71,249,177,249v106,0,176,-106,176,-249v0,-143,-70,-249,-176,-249v-106,0,-177,106,-177,249xm168,-875r149,0r115,136r-79,28","w":690},"\u00d3":{"d":"351,-678v206,0,309,141,309,339v0,200,-140,352,-322,352v-196,0,-307,-149,-307,-340v0,-199,138,-351,320,-351xm169,-333v0,143,71,249,177,249v106,0,176,-106,176,-249v0,-143,-70,-249,-176,-249v-106,0,-177,106,-177,249xm379,-865r149,0r-185,164r-79,-28","w":690},"\u00d4":{"d":"351,-678v206,0,309,141,309,339v0,200,-140,352,-322,352v-196,0,-307,-149,-307,-340v0,-199,138,-351,320,-351xm169,-333v0,143,71,249,177,249v106,0,176,-106,176,-249v0,-143,-70,-249,-176,-249v-106,0,-177,106,-177,249xm293,-875r102,0r114,133r-78,30r-88,-93r-86,93r-78,-30","w":690},"\u00d5":{"d":"351,-678v206,0,309,141,309,339v0,200,-140,352,-322,352v-196,0,-307,-149,-307,-340v0,-199,138,-351,320,-351xm169,-333v0,143,71,249,177,249v106,0,176,-106,176,-249v0,-143,-70,-249,-176,-249v-106,0,-177,106,-177,249xm468,-831r54,39v0,0,-20,71,-111,71v-61,0,-93,-34,-121,-34v-45,0,-66,34,-66,34r-52,-37v0,0,28,-73,114,-73v52,0,86,35,117,35v16,0,49,-2,65,-35","w":690},"\u00d6":{"d":"351,-678v206,0,309,141,309,339v0,200,-140,352,-322,352v-196,0,-307,-149,-307,-340v0,-199,138,-351,320,-351xm169,-333v0,143,71,249,177,249v106,0,176,-106,176,-249v0,-143,-70,-249,-176,-249v-106,0,-177,106,-177,249xm308,-788v0,34,-26,61,-56,61v-30,0,-56,-27,-56,-61v0,-34,26,-62,56,-62v30,0,56,28,56,62xm492,-788v0,34,-26,61,-56,61v-31,0,-56,-27,-56,-61v0,-34,25,-62,56,-62v30,0,56,28,56,62","w":690},"\u00d7":{"d":"337,-62r-118,-117r-115,115r-71,-72r115,-116r-124,-122r90,-51r102,104r125,-126r53,94r-104,103r117,118","w":439},"\u00d8":{"d":"351,-678v12,0,24,1,36,2r19,-81r76,0r-22,95v133,42,200,164,200,323v0,200,-140,352,-322,352v-13,0,-25,-1,-37,-2r-19,80r-73,0r22,-95v-129,-44,-200,-170,-200,-323v0,-199,138,-351,320,-351xm522,-333v0,-98,-33,-179,-88,-220r-110,467v7,1,14,2,22,2v106,0,176,-106,176,-249xm169,-333v0,98,33,178,87,219r109,-466v-7,-1,-13,-2,-19,-2v-106,0,-177,106,-177,249","w":690},"\u00d9":{"d":"529,-257r0,-308r-14,-103r129,0r0,400v0,168,-112,281,-288,281v-256,0,-262,-238,-262,-255r0,-323r-14,-103r144,0r0,418v0,100,64,165,150,165v87,0,155,-72,155,-172xm188,-875r149,0r115,136r-79,28","w":716},"\u00da":{"d":"529,-257r0,-308r-14,-103r129,0r0,400v0,168,-112,281,-288,281v-256,0,-262,-238,-262,-255r0,-323r-14,-103r144,0r0,418v0,100,64,165,150,165v87,0,155,-72,155,-172xm399,-865r149,0r-185,164r-79,-28","w":716},"\u00db":{"d":"529,-257r0,-308r-14,-103r129,0r0,400v0,168,-112,281,-288,281v-256,0,-262,-238,-262,-255r0,-323r-14,-103r144,0r0,418v0,100,64,165,150,165v87,0,155,-72,155,-172xm313,-875r102,0r114,133r-78,30r-88,-93r-86,93r-78,-30","w":716},"\u00dc":{"d":"529,-257r0,-308r-14,-103r129,0r0,400v0,168,-112,281,-288,281v-256,0,-262,-238,-262,-255r0,-323r-14,-103r144,0r0,418v0,100,64,165,150,165v87,0,155,-72,155,-172xm328,-788v0,34,-26,61,-56,61v-30,0,-56,-27,-56,-61v0,-34,26,-62,56,-62v30,0,56,28,56,62xm512,-788v0,34,-26,61,-56,61v-31,0,-56,-27,-56,-61v0,-34,25,-62,56,-62v30,0,56,28,56,62","w":716},"\u00dd":{"d":"345,-299r0,213r11,86r-141,0r0,-289r-153,-294r-62,-85r159,0r118,228r13,39r13,-39r117,-228r130,0xm323,-865r149,0r-185,164r-79,-28","w":550},"\u00de":{"d":"83,-746r142,-10r0,149r65,0v120,0,236,66,236,208v-1,127,-126,234,-299,224r0,89r11,86r-141,0r0,-643xm227,-266r45,0v63,0,119,-62,119,-133v0,-76,-56,-120,-119,-120r-45,0r0,253","w":556},"\u00df":{"d":"263,-24r13,-103v0,0,67,47,111,47v37,0,68,-10,68,-56v0,-69,-175,-125,-175,-230v0,-103,116,-125,116,-231v0,-29,-24,-64,-68,-64v-69,0,-118,42,-118,108r0,439r11,114r-135,0r0,-413r-61,0r0,-88r61,0r0,-44v0,-145,146,-209,237,-209v87,0,194,37,194,150v0,100,-110,148,-110,208v0,89,175,140,175,252v0,81,-73,157,-196,157v-71,0,-123,-37,-123,-37","w":592},"\u00e0":{"d":"111,-356r-51,-88v0,0,74,-76,209,-76v83,0,171,34,171,138r0,259v0,60,51,120,51,120r-126,14v0,0,-25,-28,-34,-62v-39,39,-96,64,-151,64v-87,0,-146,-64,-146,-131v0,-105,104,-188,282,-194v4,-72,-20,-119,-68,-119v-79,0,-137,75,-137,75xm221,-79v31,0,73,-21,95,-43r0,-102v-49,4,-154,15,-154,90v0,28,19,55,59,55xm82,-724r149,0r115,136r-79,28","w":523},"\u00e1":{"d":"111,-356r-51,-88v0,0,74,-76,209,-76v83,0,171,34,171,138r0,259v0,60,51,120,51,120r-126,14v0,0,-25,-28,-34,-62v-39,39,-96,64,-151,64v-87,0,-146,-64,-146,-131v0,-105,104,-188,282,-194v4,-72,-20,-119,-68,-119v-79,0,-137,75,-137,75xm221,-79v31,0,73,-21,95,-43r0,-102v-49,4,-154,15,-154,90v0,28,19,55,59,55xm284,-714r149,0r-185,164r-79,-28","w":523},"\u00e2":{"d":"111,-356r-51,-88v0,0,74,-76,209,-76v83,0,171,34,171,138r0,259v0,60,51,120,51,120r-126,14v0,0,-25,-28,-34,-62v-39,39,-96,64,-151,64v-87,0,-146,-64,-146,-131v0,-105,104,-188,282,-194v4,-72,-20,-119,-68,-119v-79,0,-137,75,-137,75xm221,-79v31,0,73,-21,95,-43r0,-102v-49,4,-154,15,-154,90v0,28,19,55,59,55xm207,-724r102,0r114,133r-78,30r-88,-93r-86,93r-78,-30","w":523},"\u00e3":{"d":"111,-356r-51,-88v0,0,74,-76,209,-76v83,0,171,34,171,138r0,259v0,60,51,120,51,120r-126,14v0,0,-25,-28,-34,-62v-39,39,-96,64,-151,64v-87,0,-146,-64,-146,-131v0,-105,104,-188,282,-194v4,-72,-20,-119,-68,-119v-79,0,-137,75,-137,75xm221,-79v31,0,73,-21,95,-43r0,-102v-49,4,-154,15,-154,90v0,28,19,55,59,55xm373,-680r54,39v0,0,-20,71,-111,71v-61,0,-93,-34,-121,-34v-45,0,-66,34,-66,34r-52,-37v0,0,28,-73,114,-73v52,0,86,35,117,35v16,0,49,-2,65,-35","w":523},"\u00e4":{"d":"111,-356r-51,-88v0,0,74,-76,209,-76v83,0,171,34,171,138r0,259v0,60,51,120,51,120r-126,14v0,0,-25,-28,-34,-62v-39,39,-96,64,-151,64v-87,0,-146,-64,-146,-131v0,-105,104,-188,282,-194v4,-72,-20,-119,-68,-119v-79,0,-137,75,-137,75xm221,-79v31,0,73,-21,95,-43r0,-102v-49,4,-154,15,-154,90v0,28,19,55,59,55xm213,-637v0,34,-26,61,-56,61v-30,0,-56,-27,-56,-61v0,-34,26,-62,56,-62v30,0,56,28,56,62xm397,-637v0,34,-26,61,-56,61v-31,0,-56,-27,-56,-61v0,-34,25,-62,56,-62v30,0,56,28,56,62","w":523},"\u00e5":{"d":"111,-356r-51,-88v0,0,74,-76,209,-76v83,0,171,34,171,138r0,259v0,60,51,120,51,120r-126,14v0,0,-25,-28,-34,-62v-39,39,-96,64,-151,64v-87,0,-146,-64,-146,-131v0,-105,104,-188,282,-194v4,-72,-20,-119,-68,-119v-79,0,-137,75,-137,75xm221,-79v31,0,73,-21,95,-43r0,-102v-49,4,-154,15,-154,90v0,28,19,55,59,55xm340,-640v0,48,-43,88,-91,88v-47,0,-89,-40,-89,-88v0,-48,42,-88,89,-88v48,0,91,40,91,88xm293,-641v0,-23,-21,-43,-43,-43v-24,0,-43,20,-43,43v0,22,18,47,43,47v28,0,43,-25,43,-47","w":523},"\u00e6":{"d":"531,13v-78,0,-136,-35,-173,-85v-47,40,-114,85,-169,85v-107,0,-155,-65,-155,-134v0,-98,101,-178,284,-184r0,-26v0,-70,-29,-100,-71,-100v-79,0,-133,75,-133,75r-58,-85v0,0,74,-79,212,-79v50,0,107,22,135,55v31,-28,84,-55,143,-55v175,0,188,187,190,262r-24,24r-277,3v5,81,41,139,120,139v92,0,168,-72,168,-72r18,105v0,0,-75,72,-210,72xm220,-79v31,0,91,-28,113,-50v0,0,-15,-59,-15,-95v-49,4,-158,19,-158,86v0,29,18,59,60,59xm534,-435v-55,0,-83,58,-94,121r167,-3v-3,-48,-20,-118,-73,-118","w":766},"\u00e7":{"d":"467,-453r-57,90v-37,-46,-86,-62,-123,-62v-86,0,-124,82,-124,172v0,84,38,164,120,164v87,0,164,-80,164,-80r18,104v0,0,-75,78,-206,78v-149,0,-223,-128,-223,-257v0,-146,87,-276,248,-276v123,0,183,67,183,67xm211,49r12,-52r61,0v33,41,118,63,118,124v0,130,-167,140,-252,75r30,-69v24,24,64,31,85,31v20,0,37,-7,37,-27v0,-29,-72,-51,-91,-82","w":489},"\u00e8":{"d":"274,-520v175,0,188,187,190,262r-24,24r-277,0v5,81,46,145,125,145v87,0,168,-71,168,-71r18,102v0,0,-80,71,-210,71v-149,0,-228,-124,-228,-253v0,-146,71,-280,238,-280xm262,-435v-55,0,-83,50,-94,113r167,0v-3,-48,-20,-113,-73,-113xm90,-724r149,0r115,136r-79,28","w":499},"\u00e9":{"d":"274,-520v175,0,188,187,190,262r-24,24r-277,0v5,81,46,145,125,145v87,0,168,-71,168,-71r18,102v0,0,-80,71,-210,71v-149,0,-228,-124,-228,-253v0,-146,71,-280,238,-280xm262,-435v-55,0,-83,50,-94,113r167,0v-3,-48,-20,-113,-73,-113xm301,-714r149,0r-185,164r-79,-28","w":499},"\u00ea":{"d":"274,-520v175,0,188,187,190,262r-24,24r-277,0v5,81,46,145,125,145v87,0,168,-71,168,-71r18,102v0,0,-80,71,-210,71v-149,0,-228,-124,-228,-253v0,-146,71,-280,238,-280xm262,-435v-55,0,-83,50,-94,113r167,0v-3,-48,-20,-113,-73,-113xm215,-724r102,0r114,133r-78,30r-88,-93r-86,93r-78,-30","w":499},"\u00eb":{"d":"274,-520v175,0,188,187,190,262r-24,24r-277,0v5,81,46,145,125,145v87,0,168,-71,168,-71r18,102v0,0,-80,71,-210,71v-149,0,-228,-124,-228,-253v0,-146,71,-280,238,-280xm262,-435v-55,0,-83,50,-94,113r167,0v-3,-48,-20,-113,-73,-113xm230,-637v0,34,-26,61,-56,61v-30,0,-56,-27,-56,-61v0,-34,26,-62,56,-62v30,0,56,28,56,62xm414,-637v0,34,-26,61,-56,61v-31,0,-56,-27,-56,-61v0,-34,25,-62,56,-62v30,0,56,28,56,62","w":499},"\u00ec":{"d":"204,-520r0,434r11,86r-135,0r0,-404r-14,-101xm-34,-724r149,0r115,136r-79,28","w":284},"\u00ed":{"d":"204,-520r0,434r11,86r-135,0r0,-404r-14,-101xm177,-714r149,0r-185,164r-79,-28","w":284},"\u00ee":{"d":"204,-520r0,434r11,86r-135,0r0,-404r-14,-101xm91,-724r102,0r114,133r-78,30r-88,-93r-86,93r-78,-30","w":284},"\u00ef":{"d":"204,-520r0,434r11,86r-135,0r0,-404r-14,-101xm106,-637v0,34,-26,61,-56,61v-30,0,-56,-27,-56,-61v0,-34,26,-62,56,-62v30,0,56,28,56,62xm290,-637v0,34,-26,61,-56,61v-31,0,-56,-27,-56,-61v0,-34,25,-62,56,-62v30,0,56,28,56,62","w":284},"\u00f0":{"d":"340,-689r125,-54r0,75r-67,29v84,89,130,216,130,342v0,168,-78,310,-263,310v-226,0,-231,-239,-231,-256v0,-151,107,-272,236,-272v48,0,95,25,95,25v-20,-42,-44,-76,-72,-104r-145,63r-27,-62r109,-48v-28,-15,-58,-25,-90,-31r35,-83v62,9,118,33,165,66xm166,-252v0,100,43,176,115,176v63,0,113,-57,113,-236v0,-26,-1,-53,-7,-79v-29,-22,-76,-37,-106,-37v-72,0,-115,76,-115,176","w":558},"\u00f1":{"d":"526,0r-135,0r0,-292v0,-94,-10,-124,-61,-124v-76,0,-125,57,-125,57r0,273r11,86r-135,0r0,-403r-14,-101r138,-15r0,61v44,-40,104,-62,159,-62v76,0,151,41,151,128r0,308xm430,-680r54,39v0,0,-20,71,-111,71v-61,0,-93,-34,-121,-34v-45,0,-66,34,-66,34r-52,-37v0,0,28,-73,114,-73v52,0,86,35,117,35v16,0,49,-2,65,-35","w":593},"\u00f2":{"d":"529,-264v0,149,-97,277,-264,277v-152,0,-231,-133,-231,-259v0,-149,95,-274,265,-274v131,0,230,79,230,256xm166,-254v0,100,43,178,115,178v72,0,115,-78,115,-178v0,-100,-43,-177,-115,-177v-72,0,-115,77,-115,177xm105,-724r149,0r115,136r-79,28","w":563},"\u00f3":{"d":"529,-264v0,149,-97,277,-264,277v-152,0,-231,-133,-231,-259v0,-149,95,-274,265,-274v131,0,230,79,230,256xm166,-254v0,100,43,178,115,178v72,0,115,-78,115,-178v0,-100,-43,-177,-115,-177v-72,0,-115,77,-115,177xm316,-714r149,0r-185,164r-79,-28","w":563},"\u00f4":{"d":"529,-264v0,149,-97,277,-264,277v-152,0,-231,-133,-231,-259v0,-149,95,-274,265,-274v131,0,230,79,230,256xm166,-254v0,100,43,178,115,178v72,0,115,-78,115,-178v0,-100,-43,-177,-115,-177v-72,0,-115,77,-115,177xm230,-724r102,0r114,133r-78,30r-88,-93r-86,93r-78,-30","w":563},"\u00f5":{"d":"529,-264v0,149,-97,277,-264,277v-152,0,-231,-133,-231,-259v0,-149,95,-274,265,-274v131,0,230,79,230,256xm166,-254v0,100,43,178,115,178v72,0,115,-78,115,-178v0,-100,-43,-177,-115,-177v-72,0,-115,77,-115,177xm405,-680r54,39v0,0,-20,71,-111,71v-61,0,-93,-34,-121,-34v-45,0,-66,34,-66,34r-52,-37v0,0,28,-73,114,-73v52,0,86,35,117,35v16,0,49,-2,65,-35","w":563},"\u00f6":{"d":"529,-264v0,149,-97,277,-264,277v-152,0,-231,-133,-231,-259v0,-149,95,-274,265,-274v131,0,230,79,230,256xm166,-254v0,100,43,178,115,178v72,0,115,-78,115,-178v0,-100,-43,-177,-115,-177v-72,0,-115,77,-115,177xm245,-637v0,34,-26,61,-56,61v-30,0,-56,-27,-56,-61v0,-34,26,-62,56,-62v30,0,56,28,56,62xm429,-637v0,34,-26,61,-56,61v-31,0,-56,-27,-56,-61v0,-34,25,-62,56,-62v30,0,56,28,56,62","w":563},"\u00f7":{"d":"167,-411v0,-39,32,-70,70,-70v36,0,67,31,67,70v0,37,-31,67,-67,67v-38,0,-70,-30,-70,-67xm167,-83v0,-39,32,-70,70,-70v36,0,67,31,67,70v0,37,-31,67,-67,67v-38,0,-70,-30,-70,-67xm67,-297r352,0r-28,99r-324,0r0,-99","w":483},"\u00f8":{"d":"413,-658r-36,149v90,27,152,106,152,245v0,152,-102,285,-276,276r-37,155r-73,0r39,-167v-145,-50,-148,-230,-148,-245v0,-163,102,-277,270,-275r33,-138r76,0xm396,-254v0,-61,-16,-113,-45,-145r-77,323v81,3,122,-75,122,-178xm166,-254v0,60,15,111,42,143r75,-320v-75,-1,-116,76,-117,177","w":563},"\u00f9":{"d":"561,-5r-130,18v0,0,-25,-32,-32,-68v0,0,-66,68,-172,68v-76,0,-151,-41,-151,-128r0,-288r-14,-101r138,-15r0,304v0,88,8,125,58,125v81,0,128,-62,128,-62r0,-251r-14,-101r138,-15r0,394v0,60,51,120,51,120xm117,-724r149,0r115,136r-79,28","w":592},"\u00fa":{"d":"561,-5r-130,18v0,0,-25,-32,-32,-68v0,0,-66,68,-172,68v-76,0,-151,-41,-151,-128r0,-288r-14,-101r138,-15r0,304v0,88,8,125,58,125v81,0,128,-62,128,-62r0,-251r-14,-101r138,-15r0,394v0,60,51,120,51,120xm328,-714r149,0r-185,164r-79,-28","w":592},"\u00fb":{"d":"561,-5r-130,18v0,0,-25,-32,-32,-68v0,0,-66,68,-172,68v-76,0,-151,-41,-151,-128r0,-288r-14,-101r138,-15r0,304v0,88,8,125,58,125v81,0,128,-62,128,-62r0,-251r-14,-101r138,-15r0,394v0,60,51,120,51,120xm242,-724r102,0r114,133r-78,30r-88,-93r-86,93r-78,-30","w":592},"\u00fc":{"d":"561,-5r-130,18v0,0,-25,-32,-32,-68v0,0,-66,68,-172,68v-76,0,-151,-41,-151,-128r0,-288r-14,-101r138,-15r0,304v0,88,8,125,58,125v81,0,128,-62,128,-62r0,-251r-14,-101r138,-15r0,394v0,60,51,120,51,120xm257,-637v0,34,-26,61,-56,61v-30,0,-56,-27,-56,-61v0,-34,26,-62,56,-62v30,0,56,28,56,62xm441,-637v0,34,-26,61,-56,61v-31,0,-56,-27,-56,-61v0,-34,25,-62,56,-62v30,0,56,28,56,62","w":592},"\u00fd":{"d":"513,-519r-247,607v-44,108,-117,155,-198,155v-20,0,-44,-3,-72,-14r-17,-120v0,0,41,17,74,17v57,0,100,-30,135,-129r-139,-403r-49,-93r138,-18r104,320r11,67r17,-67r112,-303xm297,-714r149,0r-185,164r-79,-28","w":513},"\u00fe":{"d":"80,240r0,-880r-14,-101r138,-15r0,289v40,-37,82,-53,122,-53v107,0,200,90,200,256v0,167,-131,304,-322,273r0,145r11,86r-135,0xm393,-255v-2,-166,-101,-225,-189,-120r0,294v0,0,35,4,74,4v63,0,115,-78,115,-178","w":563},"\u00ff":{"d":"513,-519r-247,607v-44,108,-117,155,-198,155v-20,0,-44,-3,-72,-14r-17,-120v0,0,41,17,74,17v57,0,100,-30,135,-129r-139,-403r-49,-93r138,-18r104,320r11,67r17,-67r112,-303xm226,-637v0,34,-26,61,-56,61v-30,0,-56,-27,-56,-61v0,-34,26,-62,56,-62v30,0,56,28,56,62xm410,-637v0,34,-26,61,-56,61v-31,0,-56,-27,-56,-61v0,-34,25,-62,56,-62v30,0,56,28,56,62","w":513},"\u0131":{"d":"204,-520r0,434r11,86r-135,0r0,-404r-14,-101","w":284},"\u0141":{"d":"97,0r0,-222r-50,29r-42,-82r92,-52r0,-238r-14,-103r144,0r0,267r127,-73r14,94r-141,82r0,199r255,0r-25,99r-360,0","w":481},"\u0142":{"d":"204,-760r0,366r56,-32r14,94r-70,41r0,205r11,86r-135,0r0,-219r-45,26r-38,-83r83,-47r0,-321r-14,-101","w":284},"\u0152":{"d":"31,-329v0,-230,146,-339,295,-339r476,0r0,99r-239,0r0,177r211,0r-25,99r-186,0r0,194r252,0r-25,99r-434,0v-198,0,-325,-136,-325,-329xm168,-323v0,134,74,236,176,236r89,0r0,-498r-89,0v-102,0,-176,126,-176,262","w":846},"\u0153":{"d":"635,-520v175,0,188,187,190,262r-24,24r-277,0v5,81,41,142,120,142v92,0,168,-72,168,-72r18,105v0,0,-75,72,-210,72v-74,0,-129,-30,-166,-76v-45,47,-109,76,-189,76v-226,0,-231,-241,-231,-258v0,-161,101,-275,265,-275v68,0,128,22,169,68v39,-42,93,-68,167,-68xm166,-254v0,100,43,178,115,178v72,0,117,-78,117,-178v0,-100,-45,-177,-117,-177v-72,0,-115,77,-115,177xm623,-435v-55,0,-83,50,-94,113r167,0v-3,-48,-20,-113,-73,-113","w":855},"\u0160":{"d":"44,-55r10,-112v0,0,82,83,187,83v55,0,94,-38,94,-83v0,-114,-284,-120,-284,-316v0,-108,78,-197,203,-197v86,0,151,28,186,50r-25,100v0,0,-66,-55,-164,-55v-37,0,-81,30,-81,76v0,116,287,115,287,320v0,114,-81,202,-209,202v-130,0,-204,-68,-204,-68xm301,-712r-102,0r-114,-133r78,-30r88,93r86,-93r78,30","w":490},"\u0161":{"d":"34,-46r12,-105v0,0,81,70,159,70v36,0,73,-16,73,-50v0,-78,-243,-80,-243,-227v0,-123,97,-161,199,-161v88,0,143,33,143,33r-23,100v0,0,-50,-45,-141,-45v-34,0,-64,20,-64,47v0,81,244,72,244,240v0,102,-75,157,-189,157v-114,0,-170,-59,-170,-59xm266,-561r-102,0r-114,-133r78,-30r88,93r86,-93r78,30","w":427},"\u0178":{"d":"345,-299r0,213r11,86r-141,0r0,-289r-153,-294r-62,-85r159,0r118,228r13,39r13,-39r117,-228r130,0xm252,-788v0,34,-26,61,-56,61v-30,0,-56,-27,-56,-61v0,-34,26,-62,56,-62v30,0,56,28,56,62xm436,-788v0,34,-26,61,-56,61v-31,0,-56,-27,-56,-61v0,-34,25,-62,56,-62v30,0,56,28,56,62","w":550},"\u017d":{"d":"24,0r-5,-35r305,-479r41,-52r-331,0r27,-102r482,0r5,35r-303,479r-41,53r355,0r0,101r-535,0xm342,-712r-102,0r-114,-133r78,-30r88,93r86,-93r78,30","w":576},"\u017e":{"d":"14,0r-4,-29r221,-343r32,-40r-247,0r26,-93r389,0r4,29r-221,344r-31,39r257,0r0,93r-426,0xm286,-561r-102,0r-114,-133r78,-30r88,93r86,-93r78,30","w":455},"\u0192":{"d":"455,-505r-45,85r-97,0r-60,432v-19,137,-110,230,-237,231r-30,-85v80,0,135,-52,147,-147r56,-431r-72,0r17,-85r65,0r7,-58v21,-141,115,-191,200,-191v41,0,74,7,114,32r-46,94v0,0,-24,-24,-74,-24v-26,0,-58,24,-66,74r-11,73r132,0","w":493},"\u02c6":{"d":"154,-724r102,0r114,133r-78,30r-88,-93r-86,93r-78,-30","w":412},"\u02c7":{"d":"256,-561r-102,0r-114,-133r78,-30r88,93r86,-93r78,30","w":412},"\u02d8":{"d":"199,-636v46,0,84,-96,84,-96r85,29v0,0,-44,157,-169,157v-125,0,-169,-157,-169,-157r85,-29v0,0,38,96,84,96","w":412},"\u02d9":{"d":"165,-638v0,36,-31,65,-69,65v-39,0,-70,-29,-70,-65v0,-35,31,-64,70,-64v38,0,69,29,69,64","w":196},"\u02da":{"d":"351,-650v0,48,-43,88,-91,88v-47,0,-89,-40,-89,-88v0,-48,42,-88,89,-88v48,0,91,40,91,88xm304,-651v0,-23,-21,-43,-43,-43v-24,0,-43,20,-43,43v0,22,18,47,43,47v28,0,43,-25,43,-47","w":530},"\u02db":{"d":"133,-15r98,0v-11,9,-169,160,-55,160r48,0r0,84v-78,13,-186,-2,-186,-82v0,-56,50,-124,95,-162","w":286},"\u02dc":{"d":"326,-680r54,39v0,0,-20,71,-111,71v-61,0,-93,-34,-121,-34v-45,0,-66,34,-66,34r-52,-37v0,0,28,-73,114,-73v52,0,86,35,117,35v16,0,49,-2,65,-35","w":390},"\u02dd":{"d":"163,-724r149,0r-185,164r-79,-28xm367,-724r149,0r-185,164r-79,-28","w":595},"\u2013":{"d":"36,-299r403,0r-28,104r-375,0r0,-104","w":462},"\u2014":{"d":"36,-299r628,0r-28,104r-600,0r0,-104","w":689},"\u2018":{"d":"189,-684r40,49v-37,33,-59,68,-59,97v0,28,10,37,29,46v2,37,-25,75,-67,75v-37,0,-71,-25,-71,-77v0,-48,36,-126,128,-190","w":280},"\u2019":{"d":"91,-417r-40,-49v37,-33,59,-68,59,-97v0,-28,-10,-37,-29,-46v-2,-37,25,-75,67,-75v37,0,71,25,71,77v0,48,-36,126,-128,190","w":280},"\u201a":{"d":"91,133r-40,-49v37,-33,59,-68,59,-97v0,-28,-10,-37,-29,-46v-2,-37,25,-75,67,-75v37,0,71,25,71,77v0,48,-36,126,-128,190","w":280},"\u201c":{"d":"189,-684r40,49v-37,33,-59,68,-59,97v0,28,10,37,29,46v2,37,-25,75,-67,75v-37,0,-71,-25,-71,-77v0,-48,36,-126,128,-190xm364,-684r40,49v-37,33,-59,68,-59,97v0,28,10,37,29,46v2,37,-25,75,-67,75v-37,0,-71,-25,-71,-77v0,-48,36,-126,128,-190","w":455},"\u201d":{"d":"101,-417r-40,-49v37,-33,59,-68,59,-97v0,-28,-10,-37,-29,-46v-2,-37,25,-75,67,-75v37,0,71,25,71,77v0,48,-36,126,-128,190xm276,-417r-40,-49v37,-33,59,-68,59,-97v0,-28,-10,-37,-29,-46v-2,-37,25,-75,67,-75v37,0,71,25,71,77v0,48,-36,126,-128,190","w":455},"\u201e":{"d":"91,133r-40,-49v37,-33,59,-68,59,-97v0,-28,-10,-37,-29,-46v-2,-37,25,-75,67,-75v37,0,71,25,71,77v0,48,-36,126,-128,190xm266,133r-40,-49v37,-33,59,-68,59,-97v0,-28,-10,-37,-29,-46v-2,-37,25,-75,67,-75v37,0,71,25,71,77v0,48,-36,126,-128,190","w":455},"\u2020":{"d":"289,245r-123,0r0,-657r-129,0r0,-93r129,0r0,-143r123,-15r0,158r167,0r-39,93r-128,0r0,657","w":497},"\u2021":{"d":"289,245r-123,0r0,-245r-129,0r0,-93r129,0r0,-319r-129,0r0,-93r129,0r0,-143r123,-15r0,158r167,0r-39,93r-128,0r0,319r154,0r-39,93r-115,0r0,245","w":497},"\u2022":{"d":"216,-399v84,0,153,68,153,152v0,86,-69,154,-153,154v-86,0,-154,-68,-154,-154v0,-84,68,-152,154,-152","w":434},"\u2026":{"d":"197,-51v0,36,-28,64,-62,64v-36,0,-64,-28,-64,-64v0,-34,28,-62,64,-62v34,0,62,28,62,62xm432,-51v0,36,-28,64,-62,64v-35,0,-64,-28,-64,-64v0,-34,29,-62,64,-62v34,0,62,28,62,62xm663,-51v0,36,-28,64,-63,64v-35,0,-63,-28,-63,-64v0,-34,28,-62,63,-62v35,0,63,28,63,62","w":737},"\u2030":{"d":"387,-507v0,89,-78,163,-166,163v-86,0,-163,-74,-163,-163v0,-89,77,-163,163,-163v88,0,166,74,166,163xm299,-508v0,-41,-38,-75,-77,-75v-41,0,-76,34,-76,75v0,38,32,80,76,80v49,0,77,-42,77,-80xm707,-647r-448,647r-117,0r470,-688xm802,-150v0,89,-78,163,-166,163v-86,0,-163,-74,-163,-163v0,-89,77,-163,163,-163v88,0,166,74,166,163xm714,-151v0,-41,-38,-75,-77,-75v-41,0,-76,34,-76,75v0,38,32,80,76,80v49,0,77,-42,77,-80xm1176,-150v0,89,-78,163,-166,163v-86,0,-163,-74,-163,-163v0,-89,77,-163,163,-163v88,0,166,74,166,163xm1088,-151v0,-41,-38,-75,-77,-75v-41,0,-76,34,-76,75v0,38,32,80,76,80v49,0,77,-42,77,-80","w":1234},"\u2039":{"d":"339,-401r-153,155r153,153r-45,90r-269,-244r269,-244","w":374},"\u203a":{"d":"35,-93r153,-155r-153,-153r45,-90r269,244r-269,244","w":374},"\u2044":{"d":"565,-639r-442,639r-127,0r467,-679","w":544},"\u20ac":{"d":"4,-450r68,0v42,-146,168,-228,315,-228v61,0,138,17,190,51r-36,100v-63,-49,-118,-52,-162,-52v-80,0,-155,47,-184,129r318,0r-32,89r-303,0v-2,25,-4,48,0,73r285,0r-32,89r-240,0v27,80,94,110,185,110v48,0,120,-17,184,-70r0,114v-63,40,-135,58,-202,58v-131,0,-250,-59,-288,-212r-66,0r0,-89r57,0v-2,-19,0,-67,1,-73r-58,0r0,-89","w":611},"\u2122":{"d":"27,-627r0,-78r289,0r0,78r-93,0r0,241r7,57r-114,0r0,-298r-89,0xm570,-341r-120,-165v0,61,-2,125,7,177r-108,0r0,-311r-8,-65r78,0r152,214r136,-214r77,0r0,319r7,57r-118,0r0,-172","w":812},"\u2202":{"d":"17,-694r0,694r-12,0r0,-694r12,0","w":22},"\u222b":{"d":"80,0r0,-96r123,0r0,-365r-98,30r-36,-89r258,-85r0,509r123,0r-14,96r-356,0"},"\u00a0":{"w":250}}});
