/*!
 * The following copyright notice may not be removed under any circumstances.
 * 
 * Copyright:
 * Copyright (c) 2007 by Jos Buivenga. All rights reserved.
 * 
 * Trademark:
 * Fontin Sans is a trademark of Jos Buivenga.
 * 
 * Full name:
 * Fontin Sans Rg
 * 
 * Description:
 * Copyright (c) 2007 by Jos Buivenga. All rights reserved.
 * 
 * Manufacturer:
 * Jos Buivenga
 */
Cufon.registerFont({"w":470,"face":{"font-family":"Fontin Sans Rg","font-weight":400,"font-style":"italic","font-stretch":"normal","units-per-em":"1000","panose-1":"2 0 0 0 0 0 0 0 0 0","ascent":"756","descent":"-244","x-height":"13","bbox":"-137 -879 1109 254","underline-thickness":"50","underline-position":"-50","stemh":"72","stemv":"88","unicode-range":"U+0020-U+FB04"},"glyphs":{" ":{"w":250},"!":{"d":"171,-50v0,35,-28,63,-62,63v-34,0,-62,-28,-62,-63v0,-33,28,-61,62,-61v34,0,62,28,62,61xm290,-756r-130,578r-64,-8r75,-468r5,-90","w":269},"\"":{"d":"129,-543r4,-112r93,-16r-48,244r-73,1xm289,-543r4,-112r93,-16r-48,244r-73,1","w":375},"#":{"d":"603,-184r-148,0r-54,184r-77,0r54,-184r-146,0r-54,184r-77,0r54,-184r-145,0r13,-64r152,0r56,-186r-144,0r12,-64r151,0r48,-160r76,0r-48,160r146,0r48,-160r77,0r-48,160r150,0r-20,64r-148,0r-56,186r149,0xm398,-248r56,-186r-146,0r-56,186r146,0","w":704},"$":{"d":"345,-756r-17,88v43,5,90,20,124,43r-40,78v-15,-17,-53,-40,-99,-46r-41,213v60,43,125,92,125,193v0,113,-91,192,-201,199r-15,82r-51,0r16,-83v-89,-10,-134,-52,-134,-52r18,-78v23,28,80,51,130,56r45,-231v-59,-44,-123,-94,-123,-188v0,-107,95,-180,195,-187r17,-87r51,0xm304,-168v0,-38,-24,-66,-55,-92r-38,194v47,-12,93,-52,93,-102xm174,-501v0,38,23,64,54,89r34,-180v-50,9,-88,44,-88,91","w":452},"%":{"d":"381,-507v0,82,-72,150,-153,150v-79,0,-150,-68,-150,-150v0,-82,71,-150,150,-150v81,0,153,68,153,150xm322,-509v0,-49,-46,-90,-93,-90v-50,0,-92,41,-92,90v0,46,39,97,92,97v59,0,93,-51,93,-97xm756,-137v0,82,-72,150,-153,150v-79,0,-150,-68,-150,-150v0,-82,71,-150,150,-150v81,0,153,68,153,150xm697,-139v0,-49,-46,-90,-93,-90v-50,0,-92,41,-92,90v0,46,39,97,92,97v59,0,93,-51,93,-97xm733,-647r-564,647r-84,0r587,-674","w":798},"&":{"d":"394,-310r36,-73v137,-8,213,-66,242,-97r20,79v-22,17,-47,35,-79,51v20,218,-135,363,-313,363v-112,0,-239,-70,-239,-226v0,-93,49,-190,148,-235v-102,-152,25,-307,212,-307v84,0,158,44,158,44r-30,79v0,-2,-65,-49,-132,-49v-78,0,-149,59,-149,129v0,54,41,118,41,118r-2,8v-90,38,-150,123,-150,207v0,106,78,156,155,156v111,0,215,-105,215,-238v0,-10,-3,-19,-3,-19v-41,10,-97,14,-130,10","w":704},"'":{"d":"129,-543r4,-112r93,-16r-48,244r-73,1","w":215},"(":{"d":"324,-679r61,21v-146,116,-252,367,-252,577v0,178,49,287,65,295r-64,21v-62,-82,-86,-195,-86,-314v0,-230,103,-482,276,-600","w":318},")":{"d":"-24,235r-61,-21v146,-116,252,-367,252,-577v0,-178,-49,-287,-65,-295r64,-21v62,82,86,195,86,314v0,230,-103,482,-276,600","w":308},"*":{"d":"22,-549r30,-62r113,0r-71,-124r68,-5r57,99r72,-125r38,57r-57,98r144,0r-30,62r-114,0r72,124r-68,5r-57,-98r-72,124r-38,-57r56,-98r-143,0","w":402},"+":{"d":"199,-70r0,-146r-143,0r0,-74r143,0r0,-150r74,20r0,130r149,0r-20,74r-129,0r0,146r-74,0","w":471},",":{"d":"23,139r-28,-35v27,-23,75,-84,75,-121v0,-13,-1,-28,-21,-33v0,-37,29,-63,64,-63v29,0,51,26,51,61v0,61,-61,140,-141,191","w":250},"-":{"d":"39,-284r251,0r-20,74r-231,0r0,-74","w":302},".":{"d":"164,-50v0,35,-28,63,-62,63v-34,0,-62,-28,-62,-63v0,-33,28,-61,62,-61v34,0,62,28,62,61","w":237},"\/":{"d":"356,-657r-286,901r-74,0r283,-901r77,0","w":356},"0":{"d":"298,-588v115,0,158,89,158,188v0,205,-70,413,-252,413v-80,0,-159,-55,-159,-186v0,-212,90,-415,253,-415xm293,-522v-126,0,-163,249,-163,354v0,71,30,117,84,117v122,0,158,-236,158,-342v0,-64,-16,-129,-79,-129"},"1":{"d":"21,0r12,-66r95,0r76,-423r-102,32r-12,-61r217,-71r-95,523r115,0r-21,66r-285,0","w":370},"2":{"d":"353,0r-324,0r0,-45v35,-33,292,-253,292,-395v0,-40,-22,-77,-75,-77v-52,0,-122,33,-122,33r-19,-72v-1,1,84,-32,153,-32v91,0,154,52,154,143v0,157,-257,367,-257,367r222,0"},"3":{"d":"13,31v0,0,15,1,19,1v97,0,263,-51,263,-195v0,-71,-68,-89,-123,-97r23,-59v63,-29,128,-70,128,-131v0,-53,-37,-70,-73,-70v-59,0,-119,37,-119,37r-20,-70v0,0,71,-35,150,-35v75,0,148,39,148,123v0,62,-47,129,-132,156v50,7,107,40,107,137v0,174,-183,273,-333,273v-9,0,-24,-1,-31,-2"},"4":{"d":"3,-139r336,-451r71,22r-71,405r105,0r-35,78r-85,0r-19,110r-3,75r-94,0r32,-185r-237,0r0,-54xm257,-163r45,-252r15,-58r-39,70r-149,215r-22,25r150,0"},"5":{"d":"435,-575r-33,78r-177,0r-28,131v113,7,174,83,174,176v-2,176,-142,302,-334,290r-8,-68v105,0,251,-46,251,-209v0,-92,-77,-136,-174,-122r59,-276r270,0"},"6":{"d":"221,-58v80,0,123,-100,123,-175v0,-82,-43,-118,-94,-118v-54,0,-111,43,-111,43v-5,30,-8,60,-8,88v0,77,16,162,90,162xm466,-575v-160,-73,-260,49,-310,198v0,0,59,-44,130,-44v76,0,144,54,144,172v0,148,-90,262,-229,262v-108,0,-153,-109,-153,-227v0,-242,181,-549,449,-431"},"7":{"d":"97,111r-77,-15r354,-593r-274,0r-15,-78r402,0r11,23"},"8":{"d":"197,13v-96,0,-163,-60,-163,-142v0,-102,78,-159,163,-217v-46,-45,-85,-100,-85,-156v0,-109,90,-166,178,-166v98,0,146,63,146,122v0,84,-78,152,-130,187v52,49,96,107,96,174v0,119,-103,198,-205,198xm234,-309v-54,38,-120,91,-120,160v0,51,39,90,97,90v66,0,109,-57,109,-103v0,-62,-48,-110,-86,-147xm266,-397v54,-38,91,-84,91,-133v0,-42,-28,-78,-80,-78v-56,0,-83,46,-83,83v0,55,41,98,72,128"},"9":{"d":"269,-516v-80,0,-123,100,-123,175v0,82,43,118,94,118v54,0,111,-43,111,-43v5,-30,8,-60,8,-88v0,-77,-16,-162,-90,-162xm24,17v165,77,261,-62,310,-214v0,0,-59,44,-130,44v-76,0,-144,-54,-144,-172v0,-148,90,-262,229,-262v108,0,153,109,153,227v0,205,-118,474,-334,474v-36,0,-75,-8,-115,-27"},":":{"d":"164,-50v0,35,-28,63,-62,63v-34,0,-62,-28,-62,-63v0,-33,28,-61,62,-61v34,0,62,28,62,61xm214,-326v0,35,-28,63,-62,63v-34,0,-62,-28,-62,-63v0,-33,28,-61,62,-61v34,0,62,28,62,61","w":258},";":{"d":"221,-326v0,35,-28,63,-62,63v-34,0,-62,-28,-62,-63v0,-33,28,-61,62,-61v34,0,62,28,62,61xm8,136r-22,-42v36,-23,90,-72,90,-109v0,-13,-7,-23,-23,-33v7,-33,31,-63,68,-63v31,0,56,23,56,54v0,61,-59,141,-169,193","w":258},"<":{"d":"324,-413r-174,167r174,165r-40,65r-245,-231r245,-231","w":369},"=":{"d":"56,-203r360,0r-20,74r-340,0r0,-74xm56,-368r370,0r-20,74r-350,0r0,-74","w":480},">":{"d":"213,-246r-174,-167r40,-65r245,231r-245,231r-40,-65","w":369},"?":{"d":"163,-164r-72,-31v0,-3,-1,-6,-1,-10v0,-142,250,-256,250,-396v0,-45,-46,-71,-86,-71v-47,0,-107,42,-108,45r-21,-83v0,-5,81,-43,145,-43v84,0,167,52,167,145v0,162,-276,297,-276,425v0,6,0,13,2,19xm189,-50v0,35,-28,63,-62,63v-34,0,-62,-28,-62,-63v0,-33,28,-61,62,-61v34,0,62,28,62,61","w":411},"@":{"d":"631,-416v-51,281,-54,302,-54,325v0,15,5,43,11,49v125,-51,193,-154,193,-272v0,-140,-88,-281,-277,-281v-212,0,-380,220,-380,417v0,141,63,280,274,307r-59,64v-213,-38,-295,-205,-295,-359v0,-235,186,-492,472,-492v224,0,341,168,341,335v0,198,-159,330,-327,360v-20,-17,-42,-81,-39,-105v-4,0,-65,77,-144,77v-71,0,-117,-62,-117,-153v0,-178,152,-362,347,-362v28,0,51,5,81,15xm490,-117r61,-321v-128,0,-229,144,-229,268v0,55,27,98,73,98v29,0,54,-10,95,-45","w":902},"A":{"d":"-62,0r381,-659r63,-12r95,561r28,110r-101,0r-28,-172r-249,0r-98,172r-91,0xm320,-519v-46,95,-101,180,-151,271r194,0r-39,-226","w":549},"B":{"d":"202,-319r-48,247r63,0v116,0,165,-71,165,-150v0,-56,-36,-97,-133,-97r-47,0xm494,-528v0,81,-67,136,-109,160v51,21,92,71,92,143v0,134,-104,225,-286,225r-141,0r110,-566r4,-92r154,-6v125,-5,176,61,176,136xm216,-392v33,-3,123,5,125,8v33,-33,65,-90,65,-132v0,-39,-27,-81,-100,-77r-51,3","w":536},"C":{"d":"615,-606r-55,63v0,0,-59,-53,-149,-53v-138,0,-260,149,-260,332v0,101,57,202,179,202v66,0,135,-36,195,-98r6,93v-73,58,-144,80,-223,80v-150,0,-249,-115,-249,-267v0,-234,145,-417,360,-417v123,0,196,65,196,65","w":605},"D":{"d":"164,-658r246,0v123,0,210,105,210,255v0,213,-139,403,-357,403r-213,0r110,-566xm378,-586r-125,0r-99,514r122,0v130,0,250,-147,250,-319v0,-93,-53,-195,-148,-195","w":658},"E":{"d":"50,0r110,-566r4,-92r323,0r-13,72r-220,0r-42,214r203,0r-34,72r-183,0r-43,228r242,0r-35,72r-312,0","w":497},"F":{"d":"160,-566r4,-92r323,0r-13,72r-220,0r-42,214r203,0r-34,72r-183,0r-44,225r-4,75r-100,0","w":477},"G":{"d":"613,-605r-55,63v0,0,-59,-54,-149,-54v-138,0,-257,149,-257,332v0,101,54,202,176,202v32,0,74,-11,106,-21r33,-168r-5,-74r108,0r-57,305v-38,4,-132,33,-207,33v-150,0,-247,-115,-247,-267v0,-234,143,-417,358,-417v126,0,196,66,196,66","w":650},"H":{"d":"692,-658r-113,583r-4,75r-100,0r58,-300r-335,0r-44,225r-4,75r-100,0r110,-566r4,-92r103,0r-54,278r335,0r37,-186r4,-92r103,0","w":720},"I":{"d":"267,-658r-113,583r-4,75r-100,0r110,-566r4,-92r103,0","w":295},"J":{"d":"278,-658r-121,620v-27,138,-126,266,-294,231r22,-83v12,4,25,6,39,6v69,0,126,-69,143,-154r103,-528r5,-92r103,0","w":317},"K":{"d":"500,0r-105,0r-190,-333r-51,258r-4,75r-100,0r110,-566r5,-92r103,0r-61,313r237,-248r42,-65r134,0r-317,317","w":559},"L":{"d":"50,0r110,-566r4,-92r103,0r-112,582r254,0r-35,76r-324,0","w":426},"M":{"d":"402,-74r-161,-319r-20,-66r-75,384r-4,75r-92,0r110,-566r4,-92r59,0r207,426r341,-426r68,0r-113,583r-4,75r-100,0r90,-463r-49,70","w":867},"N":{"d":"714,-658r-112,583r-8,75r-37,0r-299,-423r-34,-62r-77,410r-4,75r-93,0r109,-566r-9,-92r66,0r290,417r33,67r75,-392r4,-92r96,0","w":734},"O":{"d":"377,-597v-99,0,-236,118,-236,342v0,114,60,197,150,197v137,0,237,-184,237,-337v0,-113,-54,-202,-151,-202xm48,-243v0,-225,125,-427,339,-427v179,0,234,157,234,256v0,248,-144,427,-343,427v-151,0,-230,-119,-230,-256","w":649},"P":{"d":"155,-658r181,0v108,0,179,55,179,149v0,150,-106,263,-280,263r-57,0r-33,171r-4,75r-100,0r110,-566xm245,-584r-52,264r56,0v112,0,170,-76,170,-178v0,-60,-37,-86,-104,-86r-70,0","w":515},"Q":{"d":"53,-243v0,-225,125,-427,339,-427v179,0,234,157,234,256v0,239,-133,413,-320,426v67,33,136,93,223,93v43,0,107,-18,131,-44r0,87v-27,26,-90,38,-130,38v-72,0,-165,-62,-269,-117r-20,-60v-124,-19,-188,-128,-188,-252xm382,-597v-99,0,-235,118,-235,342v0,114,59,197,149,197v137,0,237,-184,237,-337v0,-113,-54,-202,-151,-202","w":667},"R":{"d":"150,-658r186,0v99,0,174,64,174,168v0,111,-71,200,-178,227r167,263r-110,0r-145,-247r-71,1r-33,171r-4,75r-100,0r110,-566xm240,-584r-52,264r56,0v110,0,170,-69,170,-166v0,-67,-32,-98,-104,-98r-70,0","w":544},"S":{"d":"448,-641r-40,73v0,0,-59,-29,-119,-29v-62,0,-112,41,-112,96v0,126,220,155,220,317v0,118,-99,197,-216,197v-112,0,-169,-44,-169,-44r18,-76v-2,1,72,46,145,46v53,0,128,-31,128,-107v0,-128,-221,-158,-221,-314v0,-113,107,-188,213,-188v90,0,153,29,153,29","w":452},"T":{"d":"55,-582r15,-76r479,0r-15,76r-189,0r-98,507r-4,75r-100,0r112,-582r-200,0","w":495},"U":{"d":"560,-658r94,0r-77,395v-31,158,-125,276,-277,276v-227,0,-232,-171,-206,-316r48,-263r5,-92r104,0r-66,358v-18,94,-30,240,121,240v99,0,168,-91,188,-192r61,-314","w":663},"V":{"d":"641,-658r-389,671r-58,-13r-93,-548r-36,-110r113,0r71,440r5,84r42,-84r252,-440r93,0","w":582},"W":{"d":"950,-658r-362,671r-60,-13r-62,-360r-216,373r-53,-13r-93,-548r-36,-110r113,0r71,440r5,84v58,-120,126,-228,190,-342r-12,-72r-36,-110r113,0r71,440r5,84r42,-84r227,-440r93,0","w":882},"X":{"d":"571,-657r-246,325r123,332r-100,0r-81,-224r-11,-36r-26,41r-163,219r-97,0r257,-338r-90,-249r-49,-71r120,0r77,210r11,34v55,-85,118,-162,177,-243r98,0","w":506},"Y":{"d":"294,-297r-43,222r-4,75r-100,0r56,-290r-97,-297r-39,-71r109,0r82,247r7,40r27,-42r176,-245r95,0","w":508},"Z":{"d":"-25,0r0,-25r408,-502r52,-54r-339,0r36,-77r452,0r0,25r-409,503r-51,54r374,0r-14,76r-509,0","w":544},"[":{"d":"338,-724r-12,62r-81,0r-130,668r81,0r-13,63r-160,0r154,-793r161,0","w":288},"\\":{"d":"288,244r-283,-901r76,0r275,901r-68,0","w":356},"]":{"d":"122,-662r12,-62r161,0r-155,793r-160,0r13,-63r80,0r130,-668r-81,0","w":278},"^":{"d":"551,-320r-70,0r-170,-307r-170,307r-70,0r212,-388r56,0v0,0,198,364,212,388","w":624},"_":{"d":"418,75r-30,60r-446,0r0,-60r476,0","w":450},"`":{"d":"43,-724r110,0r111,143r-57,20","w":338},"a":{"d":"318,-161r53,-275v0,0,-50,-8,-65,-8v-86,0,-180,131,-180,283v0,42,15,99,58,99v47,0,133,-99,134,-99xm340,13v-28,-23,-36,-56,-30,-96v0,0,-71,96,-155,96v-61,0,-117,-54,-117,-159v0,-179,105,-359,261,-359v71,0,127,11,167,13r-65,338v-14,72,-12,110,28,154","w":507},"b":{"d":"174,-745r101,-11r-68,340v0,0,72,-89,162,-89v61,0,113,54,113,159v0,174,-86,359,-260,359v-86,0,-135,-42,-168,-56r117,-610xm192,-331r-48,255v0,0,33,24,84,24v97,0,166,-147,166,-280v0,-70,-32,-98,-63,-98v-58,0,-139,99,-139,99","w":521},"c":{"d":"432,-483r-32,72v2,-1,-65,-27,-108,-27v-107,0,-166,123,-166,222v0,80,31,155,119,155v86,0,147,-79,147,-79r0,87v0,0,-55,66,-161,66v-133,0,-193,-96,-193,-206v0,-199,117,-314,253,-314v67,0,141,24,141,24","w":445},"d":{"d":"333,-164r53,-273v0,0,-47,-6,-80,-6v-117,0,-178,178,-178,280v0,70,31,102,61,102v55,0,142,-104,144,-103xm533,-756r-117,602v-14,72,-14,110,26,154r-89,13v-29,-24,-37,-59,-29,-99v0,0,-82,99,-166,99v-61,0,-118,-57,-118,-162v0,-179,94,-356,273,-356v28,0,86,6,86,6r33,-154r0,-92","w":519},"e":{"d":"423,-398v0,132,-148,189,-291,189v-2,80,29,145,116,145v82,0,150,-76,150,-76r0,87v0,0,-51,66,-171,66v-123,0,-183,-96,-183,-206v0,-163,99,-314,249,-314v88,0,130,47,130,109xm280,-442v-77,0,-126,86,-142,175v25,-1,194,-14,194,-121v0,-23,-9,-54,-52,-54","w":449},"f":{"d":"200,-424r-65,435v-20,136,-94,230,-206,231r-23,-69v78,0,129,-58,145,-162r65,-435r-63,0r11,-68r62,0r11,-73v22,-146,100,-189,177,-189v38,0,77,13,109,34r-45,69v-63,-48,-140,-24,-154,68r-14,91r140,0r-41,68r-109,0","w":302},"g":{"d":"313,-505v81,0,144,13,144,13r-63,322v-14,45,-5,201,-5,237v0,109,-107,176,-222,176v-161,0,-211,-106,-211,-106r65,-42v0,0,48,84,154,84v71,0,131,-46,131,-121v0,-41,-10,-93,-5,-135v-9,17,-67,90,-148,90v-61,0,-108,-57,-108,-162v0,-179,84,-356,268,-356xm304,-444v-92,0,-171,148,-171,281v0,70,27,98,58,98v42,0,118,-90,118,-94r54,-279v-2,0,-29,-6,-59,-6","w":490},"h":{"d":"421,0r-93,0r61,-325v6,-30,18,-99,-33,-99v-69,0,-167,93,-167,93r-49,256r-6,75r-92,0r126,-648r3,-96r102,-11r-61,300r-15,49v0,0,101,-100,192,-100v87,0,107,69,92,148r-55,285","w":537},"i":{"d":"141,-641v0,-28,23,-52,52,-52v27,0,51,24,51,52v0,28,-24,54,-51,54v-29,0,-52,-26,-52,-54xm224,-503r-84,428r-4,75r-94,0r78,-400r5,-92","w":261},"j":{"d":"149,-641v0,-28,23,-52,52,-52v27,0,51,24,51,52v0,28,-24,54,-51,54v-29,0,-52,-26,-52,-54xm226,-503r-100,514v-26,136,-95,231,-210,232r-21,-75v79,0,127,-53,147,-157r80,-411v0,0,4,-64,5,-92","w":265},"k":{"d":"451,-11r-92,21r-183,-280r-37,195r-5,75r-94,0r127,-652r0,-92r104,-11r-91,463r124,-71v36,-21,60,-40,60,-59v0,-19,-30,-32,-30,-32r76,-49v0,0,46,21,46,72v0,48,-24,80,-84,111r-99,51","w":480},"l":{"d":"271,-755r-133,680r-5,75r-93,0r127,-652r5,-92","w":254},"m":{"d":"421,0r-93,0r61,-325v6,-30,18,-99,-33,-99v-69,0,-167,93,-167,93r-49,256r-6,75r-92,0r78,-400r-7,-82r99,-21r-12,97v0,0,98,-100,189,-100v69,0,95,44,96,102v20,-19,93,-102,194,-102v87,0,107,69,92,148r-55,285r-5,73r-93,0r61,-325v6,-30,18,-99,-33,-99v-72,0,-152,80,-171,97r-49,254","w":829},"n":{"d":"421,0r-93,0r61,-325v6,-30,18,-99,-33,-99v-69,0,-167,93,-167,93r-49,256r-6,75r-92,0r78,-400r-7,-82r99,-21r-15,97v0,0,101,-100,192,-100v87,0,107,69,92,148r-55,285","w":541},"o":{"d":"220,-54v67,0,155,-82,155,-244v0,-77,-38,-143,-97,-143v-87,0,-152,133,-152,243v0,82,29,144,94,144xm463,-312v0,170,-90,325,-263,325v-129,0,-162,-118,-162,-193v0,-189,98,-327,265,-327v88,0,160,72,160,195","w":503},"p":{"d":"213,-503r-13,96v0,0,83,-98,169,-98v58,0,110,52,110,159v0,178,-84,359,-261,359v-35,0,-90,-15,-91,-18r-33,170r-5,75r-93,0r125,-640r-7,-82xm190,-328r-50,257v0,0,34,16,78,16v106,0,173,-139,173,-277v0,-67,-29,-93,-59,-93v-50,0,-142,97,-142,97","w":522},"q":{"d":"340,-164r53,-272v-2,0,-63,-6,-104,-6v-80,0,-155,146,-155,279v0,70,32,101,63,101v55,0,143,-102,143,-102xm364,141r-5,99r-98,0r62,-317v-15,16,-80,90,-158,90v-61,0,-119,-57,-119,-162v0,-179,90,-356,274,-356v51,0,128,12,167,13","w":523},"r":{"d":"426,-489r-41,82v0,0,-37,-12,-57,-12v-68,0,-146,133,-160,205r-27,139r-5,75r-94,0r78,-400r-7,-83r99,-20r-20,124v18,-29,74,-128,163,-128v32,0,71,18,71,18","w":391},"s":{"d":"71,-364v0,-89,90,-143,177,-143v67,0,131,24,131,24r-32,72v0,0,-49,-31,-110,-31v-35,0,-83,22,-83,64v0,100,186,96,186,243v0,98,-89,148,-173,148v-85,0,-137,-43,-137,-43r0,-84v0,0,67,58,134,58v38,0,92,-19,92,-69v0,-94,-185,-89,-185,-239","w":395},"t":{"d":"252,-593r-29,101r153,0r-44,68r-123,0v-58,301,-58,308,-58,314v0,31,18,43,44,43v37,0,87,-31,118,-56r0,85v-49,34,-97,51,-143,51v-55,0,-105,-31,-105,-108v0,-13,2,-28,60,-329r-60,0r14,-68r60,0v5,-30,12,-60,17,-90","w":373},"u":{"d":"501,-492r-65,338v-14,72,-14,110,26,154r-89,13v-29,-24,-37,-60,-29,-100v0,0,-99,101,-190,101v-87,0,-107,-69,-92,-148r55,-285r5,-73r93,0r-61,325v-6,30,-18,99,33,99v69,0,167,-93,167,-93r49,-256r6,-75r92,0","w":546},"v":{"d":"206,13r-71,-13r-58,-409r-28,-83r98,-13r50,333r3,73r37,-73r101,-165v19,-32,26,-58,26,-80v0,-38,-21,-75,-21,-75r91,-13v0,0,17,40,17,68v0,43,-19,90,-46,132","w":449},"w":{"d":"206,13r-71,-13r-58,-409r-28,-83r98,-13r50,333r3,73v45,-94,101,-178,153,-266v9,-15,13,-31,13,-46v0,-44,-30,-81,-30,-81r89,-13v0,0,18,26,24,65r41,268r3,73v44,-92,98,-173,148,-259v30,-51,15,-99,-13,-134r89,-13v0,0,25,34,25,83v0,22,-6,51,-23,78r-220,357r-71,-13r-40,-281","w":740},"x":{"d":"-24,0r212,-250r-76,-171r-48,-71r99,-13r75,172r9,24r10,-16r75,-81v17,-17,26,-59,8,-86r89,-13v18,55,3,94,-38,138r-113,120r111,247r-93,0r-70,-159r-8,-23r-17,23r-132,159r-93,0","w":469},"y":{"d":"-104,152v15,6,31,10,49,10v50,0,101,-29,150,-101r44,-65r-8,-21r-54,-384r-28,-83r98,-13r50,345r1,72r33,-69r107,-179v41,-69,24,-121,5,-156r91,-13v34,74,10,137,-32,205r-244,394v-61,98,-146,149,-214,149v-17,0,-34,-4,-50,-11","w":450},"z":{"d":"-2,0r0,-19r284,-364r39,-41r-252,0r33,-68r353,0r0,19r-283,364r-39,41r297,0r-13,68r-419,0","w":467},"{":{"d":"40,-273r10,-52v73,0,90,-65,93,-80r39,-201v20,-102,100,-149,190,-149r-12,62v-33,0,-83,10,-98,90r-38,197v-13,65,-67,107,-67,107v32,32,27,78,21,120r-41,269v-9,49,7,89,64,90r-12,62v-89,-2,-148,-51,-132,-149r44,-274v9,-46,-3,-89,-61,-92","w":301},"|":{"d":"149,-756r0,1010r-71,0r0,-1010r71,0","w":227},"}":{"d":"287,-325r-10,52v-73,0,-91,65,-94,80r-55,286v-20,102,-100,149,-189,149r12,-62v33,0,82,-10,97,-90r55,-282v13,-65,67,-107,67,-107v0,0,-38,-42,-25,-107r38,-197v15,-80,-31,-90,-64,-90r12,-62v90,0,150,47,130,149r-39,201v-3,15,-8,80,65,80","w":301},"~":{"d":"529,-269v-35,36,-83,62,-137,62v-98,0,-141,-64,-216,-64v-42,0,-75,23,-98,43r-29,-61v31,-27,77,-55,134,-55v99,0,132,64,215,64v33,0,71,-21,101,-48","w":578},"\u00a1":{"d":"135,-604v0,-35,28,-63,62,-63v34,0,62,28,62,63v0,33,-28,61,-62,61v-34,0,-62,-28,-62,-61xm16,102r130,-578r64,8r-75,468r-5,90","w":264},"\u00a2":{"d":"366,-600r-19,97v49,7,91,20,91,20r-32,72v0,0,-36,-15,-72,-23r-72,373v80,-7,136,-79,136,-79r0,87v0,0,-52,62,-151,66r-18,96r-50,0r19,-99v-106,-17,-154,-104,-154,-203v0,-199,117,-314,254,-314r18,-93r50,0xm132,-216v0,67,22,131,81,150r71,-371v-98,10,-152,126,-152,221","w":461},"\u00a3":{"d":"455,102r-497,0v1,0,108,-166,143,-340r7,-35r-61,0r13,-68r61,0r42,-214v27,-138,168,-199,246,-199v124,0,174,64,174,64r-46,66v0,0,-55,-57,-132,-57v-82,0,-141,57,-153,118r-44,222r207,0r-43,68r-177,0r-8,44v-30,152,-97,257,-97,257r397,0","w":549},"\u00a5":{"d":"88,-348r97,0r-79,-239r-39,-71r109,0r82,247r7,40r27,-42r180,-245r91,0r-234,310r110,0r-28,64r-120,0r-16,83r135,0r-28,64r-119,0r-12,62r-4,75r-100,0r26,-137r-127,0r13,-64r126,0r16,-83r-126,0","w":508},"\u00a7":{"d":"327,-677r0,696v0,102,-86,154,-177,154v-109,0,-167,-83,-167,-83r13,-69v28,42,73,76,118,83r0,-713v0,-90,90,-137,177,-137v102,0,168,69,168,69r-13,73v-29,-39,-75,-67,-119,-73xm180,-568r0,673v67,-13,81,-54,81,-132r0,-651v-55,8,-81,39,-81,110","w":420},"\u00a8":{"d":"152,-631v0,31,-23,55,-50,55v-27,0,-50,-24,-50,-55v0,-30,23,-55,50,-55v27,0,50,25,50,55xm336,-631v0,31,-23,55,-50,55v-27,0,-50,-24,-50,-55v0,-30,23,-55,50,-55v27,0,50,25,50,55","w":384},"\u00a9":{"d":"524,-464r-37,52v-25,-35,-59,-44,-86,-44v-61,0,-94,57,-94,124v0,64,31,128,99,128v57,0,106,-54,106,-54r12,66v0,0,-51,51,-143,51v-96,0,-148,-91,-148,-180v0,-102,58,-195,170,-195v54,0,93,19,121,52xm735,-341v0,209,-141,354,-356,354v-190,0,-324,-141,-324,-325v0,-208,146,-352,365,-352v184,0,315,140,315,323xm673,-328v0,-166,-114,-285,-274,-285v-153,0,-280,121,-280,289v0,162,121,284,282,284v147,0,272,-121,272,-288","w":790},"\u00aa":{"d":"280,-402r40,-214v-10,-1,-34,-5,-42,-5v-63,0,-127,96,-127,213v0,28,7,69,33,69v50,0,96,-63,96,-63xm300,-280v-17,-14,-27,-37,-27,-56v-20,21,-60,55,-110,55v-49,0,-93,-40,-93,-119v0,-134,82,-269,202,-269v60,0,132,11,132,11v0,0,-57,296,-57,302v0,23,9,47,29,65","w":405},"\u00ab":{"d":"354,-412r-206,166r141,164r-51,64r-198,-229r287,-229xm583,-412r-206,166r141,164r-51,64r-198,-229r287,-229","w":618},"\u00ae":{"d":"564,-156r-80,0r-91,-129r-28,0v2,52,-4,76,5,129r-74,0r0,-299r-6,-53r108,0v63,0,122,36,122,108v0,40,-22,80,-67,100xm389,-325v31,0,62,-37,62,-75v0,-48,-36,-72,-86,-66r0,141r24,0xm735,-341v0,209,-141,354,-356,354v-190,0,-324,-141,-324,-325v0,-208,146,-352,365,-352v184,0,315,140,315,323xm673,-328v0,-166,-114,-285,-274,-285v-153,0,-280,121,-280,289v0,162,121,284,282,284v147,0,272,-121,272,-288","w":790},"\u00af":{"d":"53,-665r247,0r-27,74r-227,0","w":335},"\u00b0":{"d":"411,-576v0,92,-80,168,-170,168v-88,0,-168,-76,-168,-168v0,-92,80,-167,168,-167v90,0,170,75,170,167xm345,-578v0,-54,-51,-100,-103,-100v-56,0,-103,46,-103,100v0,52,43,108,103,108v66,0,103,-56,103,-108","w":399},"\u00b1":{"d":"201,-140r0,-146r-143,0r0,-74r143,0r0,-149r70,19r0,130r149,0r-20,74r-129,0r0,146r-70,0xm87,-69r310,0r-20,69r-290,0r0,-69","w":471},"\u00b2":{"d":"284,-286r-229,0r0,-29v51,-47,189,-163,189,-257v0,-25,-11,-47,-39,-47v-34,0,-79,20,-88,23r-13,-50v0,0,59,-23,109,-23v61,0,108,32,108,92v0,101,-164,236,-164,236r143,0","w":349},"\u00b3":{"d":"46,-286r-5,-51v65,4,182,-6,182,-70v0,-32,-41,-50,-78,-56r14,-40v41,-17,83,-33,83,-76v0,-30,-24,-40,-45,-40v-35,0,-78,23,-79,22r-13,-45v0,0,50,-25,104,-25v47,0,108,22,108,81v0,39,-29,69,-84,89v40,8,67,43,67,82v-3,99,-139,137,-254,129","w":349},"\u00b4":{"d":"199,-724r110,0r-194,163r-53,-20","w":338},"\u00b6":{"d":"62,-309v0,-176,167,-349,357,-349r60,0r-175,902r-60,0r61,-316v-143,0,-243,-102,-243,-237xm604,-658r-175,902r-60,0r175,-902r60,0","w":622},"\u00b7":{"d":"186,-245v0,35,-27,63,-60,63v-33,0,-60,-28,-60,-63v0,-33,27,-61,60,-61v33,0,60,28,60,61","w":258},"\u00b8":{"d":"146,58r14,-51r29,0v27,39,101,65,101,133v0,50,-48,95,-124,95v-33,0,-68,-11,-94,-31r29,-49v21,25,121,40,121,-14v0,-30,-44,-49,-76,-83","w":402},"\u00b9":{"d":"66,-284r8,-47r62,0r47,-265r-63,21r-9,-45r157,-53r-62,342r74,0r-13,47r-201,0","w":300},"\u00ba":{"d":"229,-335v47,0,108,-61,108,-181v0,-57,-25,-105,-65,-105v-62,0,-108,97,-108,180v0,60,20,106,65,106xm291,-673v69,0,123,54,123,146v0,129,-74,244,-200,244v-101,0,-125,-88,-125,-145v0,-142,80,-245,202,-245","w":442},"\u00bb":{"d":"469,-246r-140,-166r51,-64r199,229r-288,229r-27,-64xm240,-246r-140,-166r51,-64r199,229r-288,229r-27,-64","w":619},"\u00bc":{"d":"311,-71r225,-262r61,20r-44,223r70,0r-23,54r-57,0v-7,29,-11,60,-13,94r-80,0r19,-94r-158,0r0,-35xm480,-90r26,-142r-122,142r96,0xm556,-571r-330,477r-63,0r342,-497xm48,-286r8,-47r62,0r47,-265r-63,21r-9,-45r157,-53r-62,342r74,0r-13,47r-201,0","w":666},"\u00bd":{"d":"546,-571r-330,477r-63,0r342,-497xm48,-284r8,-47r62,0r47,-265r-63,21r-9,-45r157,-53r-62,342r74,0r-13,47r-201,0xm596,59r-229,0r0,-29v51,-47,189,-163,189,-257v0,-25,-11,-47,-39,-47v-34,0,-79,20,-88,23r-13,-50v0,0,59,-23,109,-23v61,0,108,32,108,92v0,101,-164,236,-164,236r143,0","w":666},"\u00be":{"d":"567,-571r-330,477r-63,0r342,-497xm321,-71r225,-262r61,20r-44,223r70,0r-23,54r-57,0v-7,29,-11,60,-13,94r-80,0r19,-94r-158,0r0,-35xm490,-90r26,-142r-122,142r96,0xm46,-286r-5,-51v65,4,182,-6,182,-70v0,-32,-41,-50,-78,-56r14,-40v41,-17,83,-33,83,-76v0,-30,-24,-40,-45,-40v-35,0,-78,23,-79,22r-13,-45v0,0,50,-25,104,-25v47,0,108,22,108,81v0,39,-29,69,-84,89v40,8,67,43,67,82v-3,99,-139,137,-254,129","w":676},"\u00bf":{"d":"295,-494r72,31v0,3,1,6,1,10v0,142,-250,256,-250,396v0,45,46,71,86,71v47,0,107,-42,108,-45r21,83v0,5,-81,43,-145,43v-84,0,-167,-52,-167,-145v0,-162,276,-297,276,-425v0,-6,0,-13,-2,-19xm269,-608v0,-35,28,-63,62,-63v34,0,62,28,62,63v0,33,-28,61,-62,61v-34,0,-62,-28,-62,-61","w":415},"\u00c0":{"d":"-62,0r381,-659r63,-12r95,561r28,110r-101,0r-28,-172r-249,0r-98,172r-91,0xm320,-519v-46,95,-101,180,-151,271r194,0r-39,-226xm199,-875r110,0r111,143r-57,20","w":549},"\u00c1":{"d":"-62,0r381,-659r63,-12r95,561r28,110r-101,0r-28,-172r-249,0r-98,172r-91,0xm320,-519v-46,95,-101,180,-151,271r194,0r-39,-226xm407,-875r110,0r-194,163r-53,-20","w":549},"\u00c2":{"d":"-62,0r381,-659r63,-12r95,561r28,110r-101,0r-28,-172r-249,0r-98,172r-91,0xm320,-519v-46,95,-101,180,-151,271r194,0r-39,-226xm326,-875r62,0r111,143r-55,20r-94,-93r-110,93r-51,-20","w":549},"\u00c3":{"d":"-62,0r381,-659r63,-12r95,561r28,110r-101,0r-28,-172r-249,0r-98,172r-91,0xm320,-519v-46,95,-101,180,-151,271r194,0r-39,-226xm472,-823r40,26v-26,40,-45,71,-109,71v-60,0,-84,-36,-122,-36v-15,0,-32,6,-53,33r-40,-26v26,-40,45,-71,109,-71v54,0,82,38,121,38v17,0,38,-6,54,-35","w":549},"\u00c4":{"d":"-62,0r381,-659r63,-12r95,561r28,110r-101,0r-28,-172r-249,0r-98,172r-91,0xm320,-519v-46,95,-101,180,-151,271r194,0r-39,-226xm308,-782v0,31,-23,55,-50,55v-27,0,-50,-24,-50,-55v0,-30,23,-55,50,-55v27,0,50,25,50,55xm492,-782v0,31,-23,55,-50,55v-27,0,-50,-24,-50,-55v0,-30,23,-55,50,-55v27,0,50,25,50,55","w":549},"\u00c5":{"d":"-62,0r381,-659r63,-12r95,561r28,110r-101,0r-28,-172r-249,0r-98,172r-91,0xm320,-519v-46,95,-101,180,-151,271r194,0r-39,-226xm441,-791v0,48,-43,88,-91,88v-47,0,-89,-40,-89,-88v0,-48,42,-88,89,-88v48,0,91,40,91,88xm404,-792v0,-29,-26,-53,-53,-53v-29,0,-53,24,-53,53v0,27,22,57,53,57v34,0,53,-30,53,-57","w":549},"\u00c6":{"d":"307,0r34,-176r-205,0r-115,176r-85,0r436,-658r372,0r-13,72r-220,0r-42,214r203,0r-34,72r-183,0r-43,228r242,0r-35,72r-312,0xm354,-246r63,-320r2,-41r-238,361r173,0","w":754},"\u00c7":{"d":"615,-606r-55,63v0,0,-59,-53,-149,-53v-138,0,-260,149,-260,332v0,101,57,202,179,202v66,0,135,-36,195,-98r6,93v-73,58,-144,80,-223,80v-150,0,-249,-115,-249,-267v0,-234,145,-417,360,-417v123,0,196,65,196,65xm276,58r14,-51r29,0v27,39,101,65,101,133v0,50,-48,95,-124,95v-33,0,-68,-11,-94,-31r29,-49v21,25,121,40,121,-14v0,-30,-44,-49,-76,-83","w":605},"\u00c8":{"d":"50,0r110,-566r4,-92r323,0r-13,72r-220,0r-42,214r203,0r-34,72r-183,0r-43,228r242,0r-35,72r-312,0xm180,-875r110,0r111,143r-57,20","w":497},"\u00c9":{"d":"50,0r110,-566r4,-92r323,0r-13,72r-220,0r-42,214r203,0r-34,72r-183,0r-43,228r242,0r-35,72r-312,0xm388,-875r110,0r-194,163r-53,-20","w":497},"\u00ca":{"d":"50,0r110,-566r4,-92r323,0r-13,72r-220,0r-42,214r203,0r-34,72r-183,0r-43,228r242,0r-35,72r-312,0xm307,-875r62,0r111,143r-55,20r-94,-93r-110,93r-51,-20","w":497},"\u00cb":{"d":"50,0r110,-566r4,-92r323,0r-13,72r-220,0r-42,214r203,0r-34,72r-183,0r-43,228r242,0r-35,72r-312,0xm289,-782v0,31,-23,55,-50,55v-27,0,-50,-24,-50,-55v0,-30,23,-55,50,-55v27,0,50,25,50,55xm473,-782v0,31,-23,55,-50,55v-27,0,-50,-24,-50,-55v0,-30,23,-55,50,-55v27,0,50,25,50,55","w":497},"\u00cc":{"d":"267,-658r-113,583r-4,75r-100,0r110,-566r4,-92r103,0xm75,-875r110,0r111,143r-57,20","w":295},"\u00cd":{"d":"267,-658r-113,583r-4,75r-100,0r110,-566r4,-92r103,0xm283,-875r110,0r-194,163r-53,-20","w":295},"\u00ce":{"d":"267,-658r-113,583r-4,75r-100,0r110,-566r4,-92r103,0xm202,-875r62,0r111,143r-55,20r-94,-93r-110,93r-51,-20","w":295},"\u00cf":{"d":"267,-658r-113,583r-4,75r-100,0r110,-566r4,-92r103,0xm184,-782v0,31,-23,55,-50,55v-27,0,-50,-24,-50,-55v0,-30,23,-55,50,-55v27,0,50,25,50,55xm368,-782v0,31,-23,55,-50,55v-27,0,-50,-24,-50,-55v0,-30,23,-55,50,-55v27,0,50,25,50,55","w":295},"\u00d0":{"d":"52,-374r71,0r37,-192r4,-92r246,0v123,0,210,105,210,255v0,213,-139,403,-357,403r-213,0r58,-300r-71,0xm380,-595r-125,0r-43,221r131,0r-35,74r-110,0r-45,233r122,0v130,0,251,-152,251,-324v0,-93,-51,-204,-146,-204","w":658},"\u00d1":{"d":"714,-658r-112,583r-8,75r-37,0r-299,-423r-34,-62r-77,410r-4,75r-93,0r109,-566r-9,-92r66,0r290,417r33,67r75,-392r4,-92r96,0xm572,-823r40,26v-26,40,-45,71,-109,71v-60,0,-84,-36,-122,-36v-15,0,-32,6,-53,33r-40,-26v26,-40,45,-71,109,-71v54,0,82,38,121,38v17,0,38,-6,54,-35","w":734},"\u00d2":{"d":"377,-597v-99,0,-236,118,-236,342v0,114,60,197,150,197v137,0,237,-184,237,-337v0,-113,-54,-202,-151,-202xm48,-243v0,-225,125,-427,339,-427v179,0,234,157,234,256v0,248,-144,427,-343,427v-151,0,-230,-119,-230,-256xm273,-875r110,0r111,143r-57,20","w":649},"\u00d3":{"d":"377,-597v-99,0,-236,118,-236,342v0,114,60,197,150,197v137,0,237,-184,237,-337v0,-113,-54,-202,-151,-202xm48,-243v0,-225,125,-427,339,-427v179,0,234,157,234,256v0,248,-144,427,-343,427v-151,0,-230,-119,-230,-256xm481,-875r110,0r-194,163r-53,-20","w":649},"\u00d4":{"d":"377,-597v-99,0,-236,118,-236,342v0,114,60,197,150,197v137,0,237,-184,237,-337v0,-113,-54,-202,-151,-202xm48,-243v0,-225,125,-427,339,-427v179,0,234,157,234,256v0,248,-144,427,-343,427v-151,0,-230,-119,-230,-256xm400,-875r62,0r111,143r-55,20r-94,-93r-110,93r-51,-20","w":649},"\u00d5":{"d":"377,-597v-99,0,-236,118,-236,342v0,114,60,197,150,197v137,0,237,-184,237,-337v0,-113,-54,-202,-151,-202xm48,-243v0,-225,125,-427,339,-427v179,0,234,157,234,256v0,248,-144,427,-343,427v-151,0,-230,-119,-230,-256xm546,-823r40,26v-26,40,-45,71,-109,71v-60,0,-84,-36,-122,-36v-15,0,-32,6,-53,33r-40,-26v26,-40,45,-71,109,-71v54,0,82,38,121,38v17,0,38,-6,54,-35","w":649},"\u00d6":{"d":"377,-597v-99,0,-236,118,-236,342v0,114,60,197,150,197v137,0,237,-184,237,-337v0,-113,-54,-202,-151,-202xm48,-243v0,-225,125,-427,339,-427v179,0,234,157,234,256v0,248,-144,427,-343,427v-151,0,-230,-119,-230,-256xm382,-782v0,31,-23,55,-50,55v-27,0,-50,-24,-50,-55v0,-30,23,-55,50,-55v27,0,50,25,50,55xm566,-782v0,31,-23,55,-50,55v-27,0,-50,-24,-50,-55v0,-30,23,-55,50,-55v27,0,50,25,50,55","w":649},"\u00d7":{"d":"342,-76r-125,-124r-122,122r-52,-52r122,-123r-127,-126r63,-36r114,113r126,-127r38,67r-112,112r124,125","w":429},"\u00d8":{"d":"621,-414v0,225,-125,427,-339,427v-47,0,-86,-11,-117,-28r-43,68r-51,-15r53,-85v-56,-54,-76,-136,-76,-196v0,-248,144,-427,343,-427v40,0,75,9,105,24r42,-67r55,15r-52,83v53,47,80,121,80,201xm292,-60v99,0,235,-118,235,-342v0,-53,-13,-99,-36,-134r-281,449v22,17,50,27,82,27xm141,-262v0,52,12,99,33,134r279,-448v-22,-15,-47,-23,-75,-23v-137,0,-237,184,-237,337","w":649},"\u00d9":{"d":"560,-658r94,0r-77,395v-31,158,-125,276,-277,276v-227,0,-232,-171,-206,-316r48,-263r5,-92r104,0r-66,358v-18,94,-30,240,121,240v99,0,168,-91,188,-192r61,-314xm260,-875r110,0r111,143r-57,20","w":663},"\u00da":{"d":"560,-658r94,0r-77,395v-31,158,-125,276,-277,276v-227,0,-232,-171,-206,-316r48,-263r5,-92r104,0r-66,358v-18,94,-30,240,121,240v99,0,168,-91,188,-192r61,-314xm468,-875r110,0r-194,163r-53,-20","w":663},"\u00db":{"d":"560,-658r94,0r-77,395v-31,158,-125,276,-277,276v-227,0,-232,-171,-206,-316r48,-263r5,-92r104,0r-66,358v-18,94,-30,240,121,240v99,0,168,-91,188,-192r61,-314xm387,-875r62,0r111,143r-55,20r-94,-93r-110,93r-51,-20","w":663},"\u00dc":{"d":"560,-658r94,0r-77,395v-31,158,-125,276,-277,276v-227,0,-232,-171,-206,-316r48,-263r5,-92r104,0r-66,358v-18,94,-30,240,121,240v99,0,168,-91,188,-192r61,-314xm369,-782v0,31,-23,55,-50,55v-27,0,-50,-24,-50,-55v0,-30,23,-55,50,-55v27,0,50,25,50,55xm553,-782v0,31,-23,55,-50,55v-27,0,-50,-24,-50,-55v0,-30,23,-55,50,-55v27,0,50,25,50,55","w":663},"\u00dd":{"d":"294,-297r-43,222r-4,75r-100,0r56,-290r-97,-297r-39,-71r109,0r82,247r7,40r27,-42r176,-245r95,0xm392,-875r110,0r-194,163r-53,-20","w":508},"\u00de":{"d":"247,-598r77,0v108,0,179,55,179,149v0,150,-106,263,-280,263r-56,0r-21,111r-5,75r-100,0r123,-634r9,-112r105,-10xm235,-537r-56,287r56,0v112,0,172,-86,172,-188v0,-60,-35,-99,-102,-99r-70,0","w":503},"\u00df":{"d":"457,-631v0,-36,-44,-53,-87,-53v-84,0,-136,38,-146,101r-94,594v-22,136,-91,230,-203,231r-23,-69v78,0,129,-58,145,-162r67,-435r-63,0r11,-68r62,0r11,-73v20,-135,129,-188,229,-188v93,0,178,45,178,113v0,113,-162,187,-162,253v0,72,130,129,130,231v0,89,-78,169,-199,169v-69,0,-114,-36,-114,-36r22,-72v0,0,41,40,96,40v47,0,108,-20,108,-82v0,-72,-127,-123,-127,-211v0,-129,159,-181,159,-283","w":560},"\u00e0":{"d":"318,-161r53,-275v0,0,-50,-8,-65,-8v-86,0,-180,131,-180,283v0,42,15,99,58,99v47,0,133,-99,134,-99xm340,13v-28,-23,-36,-56,-30,-96v0,0,-71,96,-155,96v-61,0,-117,-54,-117,-159v0,-179,105,-359,261,-359v71,0,127,11,167,13r-65,338v-14,72,-12,110,28,154xm168,-724r110,0r111,143r-57,20","w":507},"\u00e1":{"d":"318,-161r53,-275v0,0,-50,-8,-65,-8v-86,0,-180,131,-180,283v0,42,15,99,58,99v47,0,133,-99,134,-99xm340,13v-28,-23,-36,-56,-30,-96v0,0,-71,96,-155,96v-61,0,-117,-54,-117,-159v0,-179,105,-359,261,-359v71,0,127,11,167,13r-65,338v-14,72,-12,110,28,154xm376,-724r110,0r-194,163r-53,-20","w":507},"\u00e2":{"d":"318,-161r53,-275v0,0,-50,-8,-65,-8v-86,0,-180,131,-180,283v0,42,15,99,58,99v47,0,133,-99,134,-99xm340,13v-28,-23,-36,-56,-30,-96v0,0,-71,96,-155,96v-61,0,-117,-54,-117,-159v0,-179,105,-359,261,-359v71,0,127,11,167,13r-65,338v-14,72,-12,110,28,154xm295,-724r62,0r111,143r-55,20r-94,-93r-110,93r-51,-20","w":507},"\u00e3":{"d":"318,-161r53,-275v0,0,-50,-8,-65,-8v-86,0,-180,131,-180,283v0,42,15,99,58,99v47,0,133,-99,134,-99xm340,13v-28,-23,-36,-56,-30,-96v0,0,-71,96,-155,96v-61,0,-117,-54,-117,-159v0,-179,105,-359,261,-359v71,0,127,11,167,13r-65,338v-14,72,-12,110,28,154xm441,-672r40,26v-26,40,-45,71,-109,71v-60,0,-84,-36,-122,-36v-15,0,-32,6,-53,33r-40,-26v26,-40,45,-71,109,-71v54,0,82,38,121,38v17,0,38,-6,54,-35","w":507},"\u00e4":{"d":"318,-161r53,-275v0,0,-50,-8,-65,-8v-86,0,-180,131,-180,283v0,42,15,99,58,99v47,0,133,-99,134,-99xm340,13v-28,-23,-36,-56,-30,-96v0,0,-71,96,-155,96v-61,0,-117,-54,-117,-159v0,-179,105,-359,261,-359v71,0,127,11,167,13r-65,338v-14,72,-12,110,28,154xm277,-631v0,31,-23,55,-50,55v-27,0,-50,-24,-50,-55v0,-30,23,-55,50,-55v27,0,50,25,50,55xm461,-631v0,31,-23,55,-50,55v-27,0,-50,-24,-50,-55v0,-30,23,-55,50,-55v27,0,50,25,50,55","w":507},"\u00e5":{"d":"318,-161r53,-275v0,0,-50,-8,-65,-8v-86,0,-180,131,-180,283v0,42,15,99,58,99v47,0,133,-99,134,-99xm340,13v-28,-23,-36,-56,-30,-96v0,0,-71,96,-155,96v-61,0,-117,-54,-117,-159v0,-179,105,-359,261,-359v71,0,127,11,167,13r-65,338v-14,72,-12,110,28,154xm410,-640v0,48,-43,88,-91,88v-47,0,-89,-40,-89,-88v0,-48,42,-88,89,-88v48,0,91,40,91,88xm373,-641v0,-29,-26,-53,-53,-53v-29,0,-53,24,-53,53v0,27,22,57,53,57v34,0,53,-30,53,-57","w":507},"\u00e6":{"d":"707,-398v0,132,-148,185,-291,185v-2,81,30,149,116,149v85,0,149,-76,149,-76r0,83v0,0,-52,70,-175,70v-91,0,-145,-52,-167,-123v-45,48,-106,123,-188,123v-61,0,-113,-54,-113,-159v0,-179,104,-361,260,-361v68,0,124,14,154,14v39,0,98,-14,125,-14v88,0,130,47,130,109xm328,-175v-3,-105,28,-190,86,-256v-55,-5,-96,-13,-109,-13v-92,0,-176,131,-176,288v0,46,10,94,50,94v41,0,128,-90,149,-113xm564,-442v-77,0,-126,86,-142,175v25,-1,194,-14,194,-121v0,-23,-9,-54,-52,-54","w":733},"\u00e7":{"d":"432,-483r-32,72v2,-1,-65,-27,-108,-27v-107,0,-166,123,-166,222v0,80,31,155,119,155v86,0,147,-79,147,-79r0,87v0,0,-55,66,-161,66v-133,0,-193,-96,-193,-206v0,-199,117,-314,253,-314v67,0,141,24,141,24xm184,58r14,-51r29,0v27,39,101,65,101,133v0,50,-48,95,-124,95v-33,0,-68,-11,-94,-31r29,-49v21,25,121,40,121,-14v0,-30,-44,-49,-76,-83","w":445},"\u00e8":{"d":"423,-398v0,132,-148,189,-291,189v-2,80,29,145,116,145v82,0,150,-76,150,-76r0,87v0,0,-51,66,-171,66v-123,0,-183,-96,-183,-206v0,-163,99,-314,249,-314v88,0,130,47,130,109xm280,-442v-77,0,-126,86,-142,175v25,-1,194,-14,194,-121v0,-23,-9,-54,-52,-54xm129,-724r110,0r111,143r-57,20","w":449},"\u00e9":{"d":"423,-398v0,132,-148,189,-291,189v-2,80,29,145,116,145v82,0,150,-76,150,-76r0,87v0,0,-51,66,-171,66v-123,0,-183,-96,-183,-206v0,-163,99,-314,249,-314v88,0,130,47,130,109xm280,-442v-77,0,-126,86,-142,175v25,-1,194,-14,194,-121v0,-23,-9,-54,-52,-54xm337,-724r110,0r-194,163r-53,-20","w":449},"\u00ea":{"d":"423,-398v0,132,-148,189,-291,189v-2,80,29,145,116,145v82,0,150,-76,150,-76r0,87v0,0,-51,66,-171,66v-123,0,-183,-96,-183,-206v0,-163,99,-314,249,-314v88,0,130,47,130,109xm280,-442v-77,0,-126,86,-142,175v25,-1,194,-14,194,-121v0,-23,-9,-54,-52,-54xm256,-724r62,0r111,143r-55,20r-94,-93r-110,93r-51,-20","w":449},"\u00eb":{"d":"423,-398v0,132,-148,189,-291,189v-2,80,29,145,116,145v82,0,150,-76,150,-76r0,87v0,0,-51,66,-171,66v-123,0,-183,-96,-183,-206v0,-163,99,-314,249,-314v88,0,130,47,130,109xm280,-442v-77,0,-126,86,-142,175v25,-1,194,-14,194,-121v0,-23,-9,-54,-52,-54xm238,-631v0,31,-23,55,-50,55v-27,0,-50,-24,-50,-55v0,-30,23,-55,50,-55v27,0,50,25,50,55xm422,-631v0,31,-23,55,-50,55v-27,0,-50,-24,-50,-55v0,-30,23,-55,50,-55v27,0,50,25,50,55","w":449},"\u00ec":{"d":"224,-503r-84,428r-4,75r-94,0r78,-400r5,-92xm31,-724r110,0r111,143r-57,20","w":261},"\u00ed":{"d":"224,-503r-84,428r-4,75r-94,0r78,-400r5,-92xm239,-724r110,0r-194,163r-53,-20","w":261},"\u00ee":{"d":"224,-503r-84,428r-4,75r-94,0r78,-400r5,-92xm158,-724r62,0r111,143r-55,20r-94,-93r-110,93r-51,-20","w":261},"\u00ef":{"d":"224,-503r-84,428r-4,75r-94,0r78,-400r5,-92xm140,-631v0,31,-23,55,-50,55v-27,0,-50,-24,-50,-55v0,-30,23,-55,50,-55v27,0,50,25,50,55xm324,-631v0,31,-23,55,-50,55v-27,0,-50,-24,-50,-55v0,-30,23,-55,50,-55v27,0,50,25,50,55","w":261},"\u00f0":{"d":"530,-680r-83,34v45,66,62,152,62,240v0,202,-89,419,-299,419v-144,0,-172,-116,-172,-190v0,-173,124,-328,258,-328v82,0,127,42,127,42v-9,-61,-28,-109,-59,-150r-140,56r-11,-43r118,-48v-26,-21,-57,-38,-94,-49r46,-59v57,14,101,39,134,73r122,-49xm422,-385v0,0,-44,-55,-118,-55v-113,0,-179,150,-179,251v0,78,35,138,103,138v136,0,194,-224,194,-334","w":535},"\u00f1":{"d":"421,0r-93,0r61,-325v6,-30,18,-99,-33,-99v-69,0,-167,93,-167,93r-49,256r-6,75r-92,0r78,-400r-7,-82r99,-21r-15,97v0,0,101,-100,192,-100v87,0,107,69,92,148r-55,285xm466,-672r40,26v-26,40,-45,71,-109,71v-60,0,-84,-36,-122,-36v-15,0,-32,6,-53,33r-40,-26v26,-40,45,-71,109,-71v54,0,82,38,121,38v17,0,38,-6,54,-35","w":541},"\u00f2":{"d":"220,-54v67,0,155,-82,155,-244v0,-77,-38,-143,-97,-143v-87,0,-152,133,-152,243v0,82,29,144,94,144xm463,-312v0,170,-90,325,-263,325v-129,0,-162,-118,-162,-193v0,-189,98,-327,265,-327v88,0,160,72,160,195xm164,-724r110,0r111,143r-57,20","w":503},"\u00f3":{"d":"220,-54v67,0,155,-82,155,-244v0,-77,-38,-143,-97,-143v-87,0,-152,133,-152,243v0,82,29,144,94,144xm463,-312v0,170,-90,325,-263,325v-129,0,-162,-118,-162,-193v0,-189,98,-327,265,-327v88,0,160,72,160,195xm372,-724r110,0r-194,163r-53,-20","w":503},"\u00f4":{"d":"220,-54v67,0,155,-82,155,-244v0,-77,-38,-143,-97,-143v-87,0,-152,133,-152,243v0,82,29,144,94,144xm463,-312v0,170,-90,325,-263,325v-129,0,-162,-118,-162,-193v0,-189,98,-327,265,-327v88,0,160,72,160,195xm291,-724r62,0r111,143r-55,20r-94,-93r-110,93r-51,-20","w":503},"\u00f5":{"d":"220,-54v67,0,155,-82,155,-244v0,-77,-38,-143,-97,-143v-87,0,-152,133,-152,243v0,82,29,144,94,144xm463,-312v0,170,-90,325,-263,325v-129,0,-162,-118,-162,-193v0,-189,98,-327,265,-327v88,0,160,72,160,195xm437,-672r40,26v-26,40,-45,71,-109,71v-60,0,-84,-36,-122,-36v-15,0,-32,6,-53,33r-40,-26v26,-40,45,-71,109,-71v54,0,82,38,121,38v17,0,38,-6,54,-35","w":503},"\u00f6":{"d":"220,-54v67,0,155,-82,155,-244v0,-77,-38,-143,-97,-143v-87,0,-152,133,-152,243v0,82,29,144,94,144xm463,-312v0,170,-90,325,-263,325v-129,0,-162,-118,-162,-193v0,-189,98,-327,265,-327v88,0,160,72,160,195xm273,-631v0,31,-23,55,-50,55v-27,0,-50,-24,-50,-55v0,-30,23,-55,50,-55v27,0,50,25,50,55xm457,-631v0,31,-23,55,-50,55v-27,0,-50,-24,-50,-55v0,-30,23,-55,50,-55v27,0,50,25,50,55","w":503},"\u00f7":{"d":"87,-285r310,0r-20,69r-290,0r0,-69xm295,-407v0,35,-27,63,-60,63v-33,0,-60,-28,-60,-63v0,-33,27,-61,60,-61v33,0,60,28,60,61xm295,-105v0,35,-27,63,-60,63v-33,0,-60,-28,-60,-63v0,-33,27,-61,60,-61v33,0,60,28,60,61","w":473},"\u00f8":{"d":"299,-507v24,0,46,6,67,16r64,-103r55,15r-77,122v30,33,48,82,48,145v0,170,-97,325,-260,325v-29,0,-53,-6,-73,-16r-74,118r-51,-15r84,-135v-35,-41,-45,-101,-45,-145v0,-189,105,-327,262,-327xm216,-54v67,0,152,-82,152,-244v0,-27,-4,-53,-13,-75r-190,303v14,11,31,16,51,16xm274,-441v-107,3,-182,194,-140,323r189,-304v-14,-12,-30,-19,-49,-19","w":496},"\u00f9":{"d":"501,-492r-65,338v-14,72,-14,110,26,154r-89,13v-29,-24,-37,-60,-29,-100v0,0,-99,101,-190,101v-87,0,-107,-69,-92,-148r55,-285r5,-73r93,0r-61,325v-6,30,-18,99,33,99v69,0,167,-93,167,-93r49,-256r6,-75r92,0xm170,-724r110,0r111,143r-57,20","w":546},"\u00fa":{"d":"501,-492r-65,338v-14,72,-14,110,26,154r-89,13v-29,-24,-37,-60,-29,-100v0,0,-99,101,-190,101v-87,0,-107,-69,-92,-148r55,-285r5,-73r93,0r-61,325v-6,30,-18,99,33,99v69,0,167,-93,167,-93r49,-256r6,-75r92,0xm378,-724r110,0r-194,163r-53,-20","w":546},"\u00fb":{"d":"501,-492r-65,338v-14,72,-14,110,26,154r-89,13v-29,-24,-37,-60,-29,-100v0,0,-99,101,-190,101v-87,0,-107,-69,-92,-148r55,-285r5,-73r93,0r-61,325v-6,30,-18,99,33,99v69,0,167,-93,167,-93r49,-256r6,-75r92,0xm297,-724r62,0r111,143r-55,20r-94,-93r-110,93r-51,-20","w":546},"\u00fc":{"d":"501,-492r-65,338v-14,72,-14,110,26,154r-89,13v-29,-24,-37,-60,-29,-100v0,0,-99,101,-190,101v-87,0,-107,-69,-92,-148r55,-285r5,-73r93,0r-61,325v-6,30,-18,99,33,99v69,0,167,-93,167,-93r49,-256r6,-75r92,0xm279,-631v0,31,-23,55,-50,55v-27,0,-50,-24,-50,-55v0,-30,23,-55,50,-55v27,0,50,25,50,55xm463,-631v0,31,-23,55,-50,55v-27,0,-50,-24,-50,-55v0,-30,23,-55,50,-55v27,0,50,25,50,55","w":546},"\u00fd":{"d":"-104,152v15,6,31,10,49,10v50,0,101,-29,150,-101r44,-65r-8,-21r-54,-384r-28,-83r98,-13r50,345r1,72r33,-69r107,-179v41,-69,24,-121,5,-156r91,-13v34,74,10,137,-32,205r-244,394v-61,98,-146,149,-214,149v-17,0,-34,-4,-50,-11xm337,-723r110,0r-194,163r-53,-20","w":450},"\u00fe":{"d":"280,-748r-55,283r-17,58v0,0,83,-98,169,-98v58,0,110,52,110,159v0,178,-84,359,-261,359v-35,0,-90,-15,-91,-18r-33,170r-5,75r-93,0r172,-885r-7,-82xm198,-328r-50,257v0,0,34,16,78,16v106,0,173,-139,173,-277v0,-67,-29,-93,-59,-93v-50,0,-142,97,-142,97","w":530},"\u00ff":{"d":"-104,152v15,6,31,10,49,10v50,0,101,-29,150,-101r44,-65r-8,-21r-54,-384r-28,-83r98,-13r50,345r1,72r33,-69r107,-179v41,-69,24,-121,5,-156r91,-13v34,74,10,137,-32,205r-244,394v-61,98,-146,149,-214,149v-17,0,-34,-4,-50,-11xm238,-630v0,31,-23,55,-50,55v-27,0,-50,-24,-50,-55v0,-30,23,-55,50,-55v27,0,50,25,50,55xm422,-630v0,31,-23,55,-50,55v-27,0,-50,-24,-50,-55v0,-30,23,-55,50,-55v27,0,50,25,50,55","w":450},"\u0131":{"d":"224,-503r-84,428r-4,75r-94,0r78,-400r5,-92","w":261},"\u0141":{"d":"9,-265r102,-52r49,-249r4,-92r103,0r-56,288r147,-75r-1,76r-162,84r-41,212r254,0r-34,73r-324,0r45,-232r-66,34","w":426},"\u0142":{"d":"271,-755r-77,394r76,-39r-1,76r-92,47r-39,202r-5,75r-93,0r44,-227r-55,29r-19,-67r90,-46r67,-341r5,-92","w":254},"\u0152":{"d":"811,-658r-13,72r-220,0r-42,214r203,0r-34,72r-183,0r-43,228r242,0r-35,72r-404,0v-179,0,-234,-144,-234,-243v0,-248,134,-415,353,-415r410,0xm292,-60r93,0r98,-506r0,-33r-105,0v-137,0,-237,184,-237,337v0,113,54,202,151,202","w":821},"\u0153":{"d":"743,-398v0,132,-148,185,-291,185v-2,81,30,149,116,149v85,0,149,-76,149,-76r0,83v0,0,-52,70,-175,70v-79,0,-130,-39,-157,-96v-44,58,-108,96,-188,96v-129,0,-159,-118,-159,-193v0,-189,105,-327,262,-327v59,0,109,32,136,91v43,-55,104,-91,177,-91v88,0,130,47,130,109xm217,-54v67,0,152,-82,152,-244v0,-77,-35,-143,-94,-143v-87,0,-152,133,-152,243v0,82,29,144,94,144xm598,-442v-77,0,-126,86,-142,175v25,-1,194,-14,194,-121v0,-23,-9,-54,-52,-54","w":769},"\u0160":{"d":"448,-641r-40,73v0,0,-59,-29,-119,-29v-62,0,-112,41,-112,96v0,126,220,155,220,317v0,118,-99,197,-216,197v-112,0,-169,-44,-169,-44r18,-76v-2,1,72,46,145,46v53,0,128,-31,128,-107v0,-128,-221,-158,-221,-314v0,-113,107,-188,213,-188v90,0,153,29,153,29xm332,-712r-66,0r-111,-143r57,-20r93,93r111,-93r53,20","w":452},"\u0161":{"d":"71,-364v0,-89,90,-143,177,-143v67,0,131,24,131,24r-32,72v0,0,-49,-31,-110,-31v-35,0,-83,22,-83,64v0,100,186,96,186,243v0,98,-89,148,-173,148v-85,0,-137,-43,-137,-43r0,-84v0,0,67,58,134,58v38,0,92,-19,92,-69v0,-94,-185,-89,-185,-239xm278,-561r-66,0r-111,-143r57,-20r93,93r111,-93r53,20","w":395},"\u0178":{"d":"294,-297r-43,222r-4,75r-100,0r56,-290r-97,-297r-39,-71r109,0r82,247r7,40r27,-42r176,-245r95,0xm293,-782v0,31,-23,55,-50,55v-27,0,-50,-24,-50,-55v0,-30,23,-55,50,-55v27,0,50,25,50,55xm477,-782v0,31,-23,55,-50,55v-27,0,-50,-24,-50,-55v0,-30,23,-55,50,-55v27,0,50,25,50,55","w":508},"\u017d":{"d":"-25,0r0,-25r408,-502r52,-54r-339,0r36,-77r452,0r0,25r-409,503r-51,54r374,0r-14,76r-509,0xm406,-711r-66,0r-111,-143r57,-20r93,93r111,-93r53,20","w":544},"\u017e":{"d":"-2,0r0,-19r284,-364r39,-41r-252,0r33,-68r353,0r0,19r-283,364r-39,41r297,0r-13,68r-419,0xm312,-561r-66,0r-111,-143r57,-20r93,93r111,-93r53,20","w":472},"\u0192":{"d":"439,-492r-44,68r-101,0r-61,434v-19,137,-117,230,-210,231r-24,-69v78,0,132,-57,146,-162r61,-434r-69,0r14,-68r63,0r10,-73v19,-139,111,-189,188,-189v38,0,76,13,108,34r-48,69v-62,-49,-139,-23,-155,68r-15,91r137,0","w":483},"\u02c6":{"d":"176,-724r62,0r111,143r-55,20r-94,-93r-110,93r-51,-20","w":402},"\u02c7":{"d":"225,-561r-66,0r-111,-143r57,-20r93,93r111,-93r53,20","w":402},"\u02d8":{"d":"198,-627v64,0,111,-97,111,-97r53,20v0,0,-52,143,-170,143v-118,0,-144,-143,-144,-143r57,-20v0,0,29,97,93,97","w":402},"\u02d9":{"d":"147,-626v0,30,-24,54,-53,54v-30,0,-54,-24,-54,-54v0,-29,24,-53,54,-53v29,0,53,24,53,53","w":186},"\u02da":{"d":"346,-650v0,48,-43,88,-91,88v-47,0,-89,-40,-89,-88v0,-48,42,-88,89,-88v48,0,91,40,91,88xm309,-651v0,-29,-26,-53,-53,-53v-29,0,-53,24,-53,53v0,27,22,57,53,57v34,0,53,-30,53,-57","w":520},"\u02db":{"d":"155,0r64,0v0,0,-103,88,-107,139v-4,40,69,38,96,34r-6,59v-5,1,-13,1,-19,1v-101,0,-143,-27,-138,-82v6,-74,110,-151,110,-151","w":276},"\u02dc":{"d":"319,-672r40,26v-26,40,-45,71,-109,71v-60,0,-84,-36,-122,-36v-15,0,-32,6,-53,33r-40,-26v26,-40,45,-71,109,-71v54,0,82,38,121,38v17,0,38,-6,54,-35","w":380},"\u02dd":{"d":"199,-724r110,0r-194,163r-53,-20xm382,-724r110,0r-194,163r-53,-20","w":585},"\u2013":{"d":"31,-284r397,0r-20,74r-377,0r0,-74","w":452},"\u2014":{"d":"31,-284r623,0r-20,74r-603,0r0,-74","w":679},"\u2018":{"d":"233,-672r28,35v-27,23,-75,84,-75,121v0,13,1,28,21,33v0,37,-29,63,-64,63v-29,0,-51,-26,-51,-61v0,-61,61,-140,141,-191","w":250},"\u2019":{"d":"110,-420r-28,-35v27,-23,75,-84,75,-121v0,-13,-1,-28,-21,-33v0,-37,29,-63,64,-63v29,0,51,26,51,61v0,61,-61,140,-141,191","w":250},"\u201a":{"d":"23,139r-28,-35v27,-23,75,-84,75,-121v0,-13,-1,-28,-21,-33v0,-37,29,-63,64,-63v29,0,51,26,51,61v0,61,-61,140,-141,191","w":250},"\u201c":{"d":"233,-672r28,35v-27,23,-75,84,-75,121v0,13,1,28,21,33v0,37,-29,63,-64,63v-29,0,-51,-26,-51,-61v0,-61,61,-140,141,-191xm410,-672r28,35v-27,23,-75,84,-75,121v0,13,1,28,21,33v0,37,-29,63,-64,63v-29,0,-51,-26,-51,-61v0,-61,61,-140,141,-191","w":427},"\u201d":{"d":"110,-420r-28,-35v27,-23,75,-84,75,-121v0,-13,-1,-28,-21,-33v0,-37,29,-63,64,-63v29,0,51,26,51,61v0,61,-61,140,-141,191xm285,-420r-28,-35v27,-23,75,-84,75,-121v0,-13,-1,-28,-21,-33v0,-37,29,-63,64,-63v29,0,51,26,51,61v0,61,-61,140,-141,191","w":425},"\u201e":{"d":"23,139r-28,-35v27,-23,75,-84,75,-121v0,-13,-1,-28,-21,-33v0,-37,29,-63,64,-63v29,0,51,26,51,61v0,61,-61,140,-141,191xm198,139r-28,-35v27,-23,75,-84,75,-121v0,-13,-1,-28,-21,-33v0,-37,29,-63,64,-63v29,0,51,26,51,61v0,61,-61,140,-141,191","w":425},"\u2020":{"d":"175,245r-83,0r130,-669r-129,0r14,-68r129,0r30,-158r86,-11r-33,169r163,0r-44,68r-133,0","w":487},"\u2021":{"d":"175,245r-83,0r48,-245r-129,0r13,-68r129,0r69,-356r-129,0r14,-68r129,0r30,-158r86,-11r-33,169r163,0r-44,68r-133,0r-69,356r150,0r-43,68r-120,0","w":487},"\u2022":{"d":"211,-379v73,0,133,59,133,132v0,75,-60,134,-133,134v-75,0,-134,-59,-134,-134v0,-73,59,-132,134,-132","w":424},"\u2026":{"d":"184,-41v0,30,-24,54,-53,54v-30,0,-54,-24,-54,-54v0,-29,24,-53,54,-53v29,0,53,24,53,53xm389,-41v0,30,-24,54,-53,54v-30,0,-54,-24,-54,-54v0,-29,24,-53,54,-53v29,0,53,24,53,53xm589,-41v0,30,-24,54,-53,54v-30,0,-54,-24,-54,-54v0,-29,24,-53,54,-53v29,0,53,24,53,53","w":663},"\u2030":{"d":"381,-507v0,82,-72,150,-153,150v-79,0,-150,-68,-150,-150v0,-82,71,-150,150,-150v81,0,153,68,153,150xm322,-509v0,-49,-46,-90,-93,-90v-50,0,-92,41,-92,90v0,46,39,97,92,97v59,0,93,-51,93,-97xm756,-137v0,82,-72,150,-153,150v-79,0,-150,-68,-150,-150v0,-82,71,-150,150,-150v81,0,153,68,153,150xm697,-139v0,-49,-46,-90,-93,-90v-50,0,-92,41,-92,90v0,46,39,97,92,97v59,0,93,-51,93,-97xm1109,-137v0,82,-72,150,-153,150v-79,0,-150,-68,-150,-150v0,-82,71,-150,150,-150v81,0,153,68,153,150xm1050,-139v0,-49,-46,-90,-93,-90v-50,0,-92,41,-92,90v0,46,39,97,92,97v59,0,93,-51,93,-97xm733,-647r-564,647r-84,0r587,-674","w":1151},"\u2039":{"d":"354,-412r-206,166r141,164r-51,64r-198,-229r287,-229","w":389},"\u203a":{"d":"240,-246r-140,-166r51,-64r199,229r-288,229r-27,-64","w":390},"\u2044":{"d":"531,-650r-450,650r-85,0r466,-677","w":510},"\u20ac":{"d":"39,-435r64,0v70,-151,206,-238,345,-238v56,0,121,14,159,42r-38,74v-41,-37,-94,-47,-142,-47v-94,0,-188,69,-241,169r317,0r-37,69r-310,0v-8,27,-15,55,-18,83r285,0r-36,69r-249,0v5,102,72,157,180,157v53,0,123,-27,175,-64r-15,84v-62,35,-124,50,-186,50v-129,0,-228,-84,-233,-227r-62,0r12,-69r54,0v2,-26,9,-53,17,-83r-55,0","w":601},"\u2122":{"d":"64,-657r9,-48r309,0r-9,48r-120,0r-55,282r-3,46r-77,0r64,-328r-118,0xm543,-361r-102,-190r-34,176r-3,46r-62,0r63,-322r3,-54r39,0r120,235r195,-235r43,0r-64,330r-3,46r-77,0r44,-225","w":802},"\u2202":{"d":"12,-694r0,694r-12,0r0,-694r12,0","w":12},"\u00a0":{"w":250}}});
