/*!
 * The following copyright notice may not be removed under any circumstances.
 * 
 * Copyright:
 * Copyright (c) 2007 by Jos Buivenga. All rights reserved.
 * 
 * Trademark:
 * Fontin Sans is a trademark of Jos Buivenga.
 * 
 * Full name:
 * Fontin Sans SC Small Caps
 * 
 * Description:
 * Copyright (c) 20067 by Jos Buivenga. All rights reserved.
 * 
 * Manufacturer:
 * Jos Buivenga
 * 
 * Designer:
 * Jos Buivenga
 * 
 * Vendor URL:
 * http://www.josbuivenga.demon.nl
 */
Cufon.registerFont({"w":500,"face":{"font-family":"Fontin Sans Sc","font-weight":400,"font-variant":"small-caps","font-stretch":"normal","units-per-em":"1000","panose-1":"2 0 0 0 0 0 0 0 0 0","ascent":"756","descent":"-244","x-height":"13","bbox":"-54 -879 1275 254","underline-thickness":"50","underline-position":"-50","stemh":"67","stemv":"85","unicode-range":"U+0020-U+FB04"},"glyphs":{" ":{"w":270},"!":{"d":"183,-605r-13,428r-63,8r-12,-353r-12,-72xm201,-50v0,35,-29,63,-64,63v-35,0,-64,-28,-64,-63v0,-33,29,-61,64,-61v35,0,64,28,64,61","w":264},"\"":{"d":"89,-543r-18,-112r90,-16r-1,244r-73,1xm249,-543r-18,-112r90,-16r-1,244r-73,1","w":392},"#":{"d":"622,-184r-148,0r-19,184r-77,0r19,-184r-146,0r-19,184r-77,0r19,-184r-145,0r0,-64r152,0r20,-186r-144,0r0,-64r151,0r17,-160r76,0r-17,160r146,0r17,-160r77,0r-17,160r150,0r-8,64r-148,0r-20,186r149,0xm404,-248r20,-186r-146,0r-20,186r146,0","w":704},"$":{"d":"271,-755r0,86v67,4,116,29,143,46r-26,78v-2,-4,-53,-40,-117,-48r0,215v77,41,164,85,164,197v0,105,-64,177,-164,191r0,84r-52,0r0,-82v-109,-5,-165,-71,-164,-72r9,-82v0,0,65,73,155,82r0,-236v-78,-43,-163,-88,-163,-186v0,-93,66,-172,163,-186r0,-87r52,0xm340,-168v0,-42,-30,-71,-69,-97r0,201v40,-13,69,-49,69,-104xm150,-509v0,47,29,77,69,102r0,-185v-37,9,-69,36,-69,83","w":480},"%":{"d":"369,-507v0,82,-72,150,-153,150v-79,0,-150,-68,-150,-150v0,-82,71,-150,150,-150v81,0,153,68,153,150xm310,-509v0,-49,-46,-90,-93,-90v-50,0,-92,41,-92,90v0,46,39,97,92,97v59,0,93,-51,93,-97xm744,-137v0,82,-72,150,-153,150v-79,0,-150,-68,-150,-150v0,-82,71,-150,150,-150v81,0,153,68,153,150xm685,-139v0,-49,-46,-90,-93,-90v-50,0,-92,41,-92,90v0,46,39,97,92,97v59,0,93,-51,93,-97xm661,-647r-441,647r-81,0r456,-674","w":798},"&":{"d":"437,-492v1,74,-77,129,-149,181v45,54,106,112,163,157v37,-61,37,-145,35,-240r183,0r-18,62r-96,0v2,83,-15,155,-51,216v62,45,121,75,167,85r-55,49v-49,-14,-98,-43,-155,-80v-50,45,-122,72,-205,72v-105,0,-189,-56,-189,-155v0,-69,58,-121,124,-168v-44,-58,-74,-116,-74,-157v0,-82,65,-134,171,-134v93,0,149,46,149,112xm285,-52v43,0,87,-16,122,-49v-64,-48,-132,-115,-180,-170v-47,36,-76,67,-76,109v0,52,33,110,134,110xm196,-481v0,34,22,77,57,125v58,-40,107,-82,107,-122v0,-28,-24,-67,-82,-67v-48,0,-82,23,-82,64","w":696},"'":{"d":"89,-543r-18,-112r90,-16r-1,244r-73,1","w":232},"(":{"d":"151,-237v0,267,129,441,151,451r-59,21v-100,-56,-177,-289,-177,-472v0,-184,77,-386,177,-442r59,21v-22,10,-151,154,-151,421","w":330},")":{"d":"179,-237v0,-267,-129,-411,-151,-421r59,-21v100,56,177,258,177,442v0,183,-77,416,-177,472r-59,-21v22,-10,151,-184,151,-451","w":330},"*":{"d":"4,-549r30,-62r116,4r-74,-128r64,-5r59,104r72,-127r36,54r-60,102r147,-4r-30,62r-116,-4r74,128r-64,5r-59,-103r-72,126r-36,-54r59,-102","w":402},"+":{"d":"201,-80r0,-146r-143,0r0,-74r143,0r0,-149r70,19r0,130r149,0r-20,74r-129,0r0,146r-70,0","w":471},",":{"d":"96,141r-36,-35v35,-33,96,-120,20,-147v-3,-42,21,-71,60,-72v31,0,60,23,60,72v0,50,-31,134,-104,182","w":270},"-":{"d":"31,-299r247,0r-20,74r-227,0r0,-74","w":302},".":{"d":"195,-50v0,35,-27,63,-60,63v-33,0,-60,-28,-60,-63v0,-33,27,-61,60,-61v33,0,60,28,60,61","w":270},"\/":{"d":"260,-657r-216,901r-71,0r213,-901r74,0","w":291},"0":{"d":"256,-669v191,0,203,205,203,341v0,163,-40,341,-225,341v-126,0,-192,-126,-192,-342v0,-166,44,-340,214,-340xm250,-603v-90,0,-116,126,-116,263v0,142,13,289,111,289v86,0,124,-131,124,-273v0,-140,-22,-279,-119,-279"},"1":{"d":"108,0r0,-66r111,0r0,-506r-104,32r-25,-61r215,-71r0,606r114,0r-10,66r-301,0"},"2":{"d":"441,0r-379,0r-10,-44v93,-107,277,-273,277,-432v0,-172,-154,-133,-231,-57r-36,-70v43,-35,112,-66,184,-66v108,0,180,64,180,174v0,156,-143,310,-255,417r280,0"},"3":{"d":"402,-537v0,61,-41,110,-113,145v102,13,151,92,151,180v0,131,-102,225,-234,225v-49,0,-102,-11,-146,-31r19,-72v101,56,269,48,269,-111v0,-76,-61,-139,-163,-142r13,-59v58,-27,116,-68,116,-122v0,-45,-38,-80,-87,-80v-41,0,-86,21,-116,55r-35,-67v36,-29,98,-53,159,-53v89,0,167,45,167,132"},"4":{"d":"35,-219r274,-451r75,22r0,405r98,0r-20,78r-78,0r0,90r10,75r-94,0r0,-165r-255,0xm302,-243r0,-252r5,-58r-28,63r-130,222r-18,25r171,0"},"5":{"d":"429,-227v0,151,-107,240,-230,240v-45,0,-102,-10,-149,-31r19,-72v114,61,267,41,269,-131v2,-122,-97,-174,-228,-161r12,-276r299,0r-20,78r-209,0r-5,131v119,0,242,66,242,222"},"6":{"d":"285,-421v91,0,176,62,176,193v0,129,-75,241,-211,241v-149,0,-210,-155,-210,-315v0,-256,118,-367,266,-367v48,0,111,17,144,57r-35,68v-20,-31,-67,-56,-114,-56v-82,0,-155,71,-169,227v22,-14,84,-48,153,-48xm267,-58v70,0,103,-74,103,-142v0,-103,-57,-150,-127,-150v-51,0,-98,31,-113,43v1,121,32,249,137,249"},"7":{"d":"180,9r-81,-15r249,-573r-293,0r-30,-78r422,0r15,23"},"8":{"d":"236,13v-80,0,-185,-39,-185,-155v0,-93,69,-151,141,-201v-64,-50,-115,-100,-115,-166v0,-91,70,-160,185,-160v103,0,167,59,167,133v0,80,-58,133,-118,176v72,55,143,113,143,180v0,113,-93,193,-218,193xm138,-172v0,73,43,113,107,113v60,0,122,-42,122,-96v0,-53,-63,-102,-130,-154v-55,38,-99,78,-99,137xm343,-509v0,-47,-23,-97,-92,-97v-54,0,-91,31,-91,81v0,44,46,86,104,130v46,-34,79,-69,79,-114"},"9":{"d":"213,-236v-91,0,-176,-62,-176,-193v0,-129,75,-241,211,-241v149,0,210,155,210,315v0,256,-118,368,-266,368v-48,0,-111,-17,-144,-57r35,-68v20,31,67,56,114,56v82,0,155,-72,169,-228v-22,14,-84,48,-153,48xm231,-599v-70,0,-103,74,-103,142v0,103,57,150,127,150v51,0,98,-31,113,-43v-1,-121,-32,-249,-137,-249"},":":{"d":"193,-326v0,35,-27,63,-60,63v-33,0,-60,-28,-60,-63v0,-33,27,-61,60,-61v33,0,60,28,60,61xm193,-50v0,35,-27,63,-60,63v-33,0,-60,-28,-60,-63v0,-33,27,-61,60,-61v33,0,60,28,60,61","w":258},";":{"d":"193,-326v0,35,-27,63,-60,63v-33,0,-60,-28,-60,-63v0,-33,27,-61,60,-61v33,0,60,28,60,61xm87,141r-36,-35v35,-33,96,-120,20,-147v-3,-42,21,-71,60,-72v31,0,60,23,60,72v0,50,-31,134,-104,182","w":258},"<":{"d":"322,-427r-173,166r173,164r-39,64r-243,-229r243,-229","w":369},"=":{"d":"58,-218r356,0r-20,74r-336,0r0,-74xm58,-383r366,0r-20,74r-346,0r0,-74","w":480},">":{"d":"214,-261r-173,-166r39,-64r243,229r-243,229r-39,-64","w":369},"?":{"d":"176,-161r-77,-21v-2,-9,-4,-20,-4,-29v0,-137,165,-138,165,-250v0,-40,-31,-76,-93,-76v-37,0,-88,19,-92,20r-30,-64v34,-15,79,-25,122,-25v108,0,184,55,184,135v0,149,-184,166,-184,269v0,10,9,41,9,41xm208,-50v0,35,-29,63,-64,63v-35,0,-64,-28,-64,-63v0,-33,29,-61,64,-61v35,0,64,28,64,61","w":391},"@":{"d":"608,-416r0,246v0,57,2,106,20,121v83,-1,141,-115,141,-233v0,-178,-104,-313,-299,-313v-193,0,-333,191,-333,373v0,115,66,244,185,306r-66,54v-126,-76,-196,-220,-196,-358v0,-223,159,-438,424,-438v200,0,361,149,361,350v0,172,-94,342,-286,321v-15,-16,-26,-51,-28,-81v-4,0,-52,77,-131,77v-83,0,-157,-86,-157,-204v0,-187,137,-311,292,-311v28,0,54,5,86,15xm523,-117r-1,-321v-8,0,-190,11,-190,235v0,69,40,131,95,131v29,0,62,-10,96,-45","w":902},"A":{"d":"-2,0r254,-658r61,-13r204,561r50,110r-109,0r-63,-172r-245,0r-65,172r-87,0xm277,-517v-29,94,-67,179,-100,269r193,0r-83,-230","w":571},"B":{"d":"202,-588r0,195v38,-2,132,2,145,7v17,-23,38,-57,38,-101v0,-70,-43,-103,-140,-103v-13,0,-28,1,-43,2xm99,-658r158,-5v125,-4,214,52,214,156v0,55,-49,111,-75,137v65,30,113,71,113,166v0,107,-64,204,-246,204r-151,0r0,-566xm202,-319r0,247r73,0v107,0,139,-62,139,-123v0,-91,-53,-124,-155,-124r-57,0","w":559},"C":{"d":"573,-588r-46,68v-47,-49,-102,-76,-168,-76v-129,0,-218,132,-218,271v0,161,113,261,225,261v91,0,194,-84,194,-84r22,74v0,0,-96,87,-232,87v-155,0,-305,-114,-305,-328v0,-205,142,-355,318,-355v83,0,151,28,210,82","w":617},"D":{"d":"348,-658v139,0,275,102,275,325v0,187,-119,333,-305,333r-206,0r0,-566r-13,-92r249,0xm330,-586r-128,0r0,514r128,0v114,0,196,-116,196,-255v0,-141,-82,-259,-196,-259","w":668},"E":{"d":"112,0r0,-566r-13,-92r342,0r0,74r-239,0r0,210r209,0r-20,74r-189,0r0,226r250,0r-20,74r-320,0"},"F":{"d":"112,-566r-13,-92r342,0r0,74r-239,0r0,210r209,0r-20,74r-189,0r0,225r10,75r-100,0r0,-566","w":481},"G":{"d":"577,-325r1,300v0,0,-101,38,-228,38v-155,0,-305,-114,-305,-328v0,-205,137,-355,313,-355v83,0,156,28,215,82r-46,68v-47,-49,-102,-76,-168,-76v-124,0,-218,132,-218,271v0,162,113,266,227,266v54,0,122,-17,122,-17r1,-175r-17,-74r103,0","w":658},"H":{"d":"644,-658r0,583r10,75r-100,0r0,-300r-352,0r0,225r10,75r-100,0r0,-566r-13,-92r103,0r0,278r352,0r0,-186r-13,-92r103,0","w":755},"I":{"d":"202,-658r0,583r10,75r-100,0r0,-566r-13,-92r103,0","w":312},"J":{"d":"196,-658r0,620v0,123,-59,237,-196,237v-16,0,-34,-2,-54,-6r5,-88v91,46,156,-39,155,-143r0,-528r-13,-92r103,0","w":297},"K":{"d":"572,0r-119,0r-251,-333r0,258r10,75r-100,0r0,-566r-13,-92r103,0r0,313r203,-248r29,-65r129,0r-260,312","w":578},"L":{"d":"112,0r0,-566r-13,-92r103,0r0,582r258,0r-20,76r-328,0","w":466},"M":{"d":"453,-74r-232,-319r-33,-66r0,384r10,75r-92,0r0,-566r-13,-92r66,0r298,425r270,-425r56,0r0,583r10,75r-100,0r0,-463r-35,70","w":894},"N":{"d":"647,-658r0,583r6,75r-47,0r-375,-420r-43,-65r0,410r10,75r-92,0r0,-566r-13,-92r61,0r367,416r44,65r0,-389r-13,-92r95,0","w":748},"O":{"d":"346,-670v193,0,289,143,289,335v0,194,-131,348,-302,348v-183,0,-287,-151,-287,-336v0,-193,129,-347,300,-347xm144,-329v0,149,79,270,197,270v118,0,196,-121,196,-270v0,-149,-78,-270,-196,-270v-118,0,-197,121,-197,270","w":680},"P":{"d":"99,-658r186,0v110,0,216,63,216,198v0,114,-106,214,-250,214r-49,0r0,171r10,75r-100,0r0,-566xm202,-320r65,0v74,0,139,-54,139,-140v0,-82,-65,-124,-139,-124r-65,0r0,264","w":546},"Q":{"d":"346,-670v193,0,289,143,289,335v0,180,-113,325,-265,345r222,94r-38,84r-240,-114r0,-63v-171,-10,-268,-155,-268,-334v0,-193,129,-347,300,-347xm144,-329v0,149,79,270,197,270v118,0,196,-121,196,-270v0,-149,-78,-270,-196,-270v-118,0,-197,121,-197,270","w":680},"R":{"d":"578,0r-116,0r-176,-247v-11,1,-25,1,-84,1r0,171r10,75r-100,0r0,-566r-13,-92r186,0v110,0,216,63,216,198v0,78,-49,151,-128,188xm202,-320r65,0v74,0,139,-64,139,-140v0,-82,-65,-124,-139,-124r-65,0r0,264","w":588},"S":{"d":"54,-61v1,-1,10,-86,10,-86v0,0,73,88,172,88v57,0,107,-39,107,-109v0,-132,-287,-137,-287,-314v0,-103,80,-188,193,-188v79,0,135,28,165,47r-26,73v-2,-5,-66,-49,-142,-49v-47,0,-96,32,-96,90v0,144,282,132,282,328v0,113,-77,194,-199,194v-118,0,-179,-74,-179,-74","w":480},"T":{"d":"5,-582r0,-76r516,0r0,76r-216,0r0,507r10,75r-100,0r0,-582r-210,0","w":526},"U":{"d":"537,-252r0,-314r-13,-92r97,0r0,395v0,162,-106,276,-270,276v-236,0,-242,-234,-242,-250r0,-329r-13,-92r103,0r0,413v0,106,72,185,170,185v99,0,168,-86,168,-192","w":727},"V":{"d":"583,-658r-259,671r-63,-13r-199,-548r-58,-110r120,0r157,440r21,84r26,-84r166,-440r89,0","w":584},"W":{"d":"924,-658r-259,671r-62,-13r-119,-326r-18,-62r-17,63r-130,338r-56,-13r-199,-548r-58,-110r118,0r157,440r21,84v36,-122,84,-232,126,-347r-67,-177r103,0r157,440r21,84r26,-84r166,-440r90,0","w":924},"X":{"d":"9,0r195,-334r-141,-253r-52,-71r117,0r117,209r15,31r13,-31r119,-209r94,0r-187,316r192,342r-107,0r-124,-225r-15,-33r-16,35r-125,223r-95,0","w":497},"Y":{"d":"303,-290r0,215r10,75r-100,0r0,-290r-155,-297r-52,-71r116,0r130,247r14,40v46,-100,101,-191,150,-287r90,0","w":509},"Z":{"d":"36,0r-4,-25r313,-496r44,-60r-335,0r22,-77r446,0r4,25r-312,495r-46,62r369,0r0,76r-501,0","w":566},"[":{"d":"239,-724r0,62r-81,0r0,668r81,0r0,63r-161,0r0,-793r161,0","w":257},"\\":{"d":"288,244r-283,-901r76,0r275,901r-68,0","w":356},"]":{"d":"18,-662r0,-62r161,0r0,793r-161,0r0,-63r81,0r0,-668r-81,0","w":257},"^":{"d":"551,-320r-70,0r-170,-307r-170,307r-70,0r212,-388r56,0v0,0,198,364,212,388","w":624},"_":{"d":"478,75r-30,60r-446,0r0,-60r476,0","w":450},"`":{"d":"36,-724r110,0r124,143r-55,20","w":338},"a":{"d":"-2,0r232,-531r51,-11r183,448r48,94r-100,0r-57,-138r-218,0r-59,138r-80,0xm239,-379r-75,173r165,0r-70,-173r-9,-30","w":516},"b":{"d":"197,-467r0,147v34,-1,113,1,128,5v15,-17,32,-44,32,-77v0,-53,-37,-77,-124,-77v-11,0,-23,1,-36,2xm99,-531v149,-4,158,-4,158,-4v107,0,182,45,182,127v0,43,-38,85,-63,108v57,24,97,56,97,132v0,87,-59,168,-223,168r-138,0r0,-453xm197,-253r0,187r63,0v95,0,124,-48,124,-95v0,-70,-47,-92,-138,-92r-49,0","w":523},"c":{"d":"527,-472r-46,59v-42,-39,-92,-61,-151,-61v-115,0,-194,104,-194,213v0,127,101,203,200,203v83,0,176,-65,176,-65r22,65v0,0,-90,71,-212,71v-141,0,-277,-92,-277,-266v0,-166,129,-288,289,-288v74,0,137,23,193,69","w":569},"d":{"d":"99,-531r227,0v126,0,250,80,250,262v0,151,-108,269,-277,269r-187,0r0,-453xm310,-466r-113,0r0,400r113,0v102,0,174,-89,174,-199v0,-110,-72,-201,-174,-201","w":621},"e":{"d":"112,0r0,-453r-13,-78r313,0r0,67r-215,0r0,158r190,0r-21,67r-169,0r0,172r227,0r-21,67r-291,0","w":472},"f":{"d":"112,-453r-13,-78r313,0r0,67r-215,0r0,158r190,0r-21,67r-169,0r0,174r10,65r-95,0r0,-453","w":452},"g":{"d":"528,-265r1,248v0,0,-91,30,-207,30v-141,0,-277,-92,-277,-266v0,-166,125,-288,284,-288v75,0,142,23,198,69r-46,59v-42,-39,-92,-61,-151,-61v-111,0,-194,104,-194,213v0,128,101,209,202,209v46,0,108,-13,108,-13v0,-45,1,-91,1,-136r-16,-64r97,0","w":609},"h":{"d":"595,-531r0,466r10,65r-95,0r0,-238r-313,0r0,173r10,65r-95,0r0,-453r-13,-78r98,0r0,221r313,0r0,-143r-13,-78r98,0","w":706},"i":{"d":"197,-531r0,466r10,65r-95,0r0,-453r-13,-78r98,0","w":307},"j":{"d":"175,-531r0,497v0,100,-54,193,-178,193v-15,0,-33,-1,-51,-5r5,-79v77,37,139,-25,139,-109r0,-420r-12,-77r97,0","w":276},"k":{"d":"536,0r-116,0r-223,-262r0,197r10,65r-95,0r0,-453r-13,-78r98,0r0,245r174,-191r28,-54r125,0r-234,250","w":542},"l":{"d":"112,0r0,-453r-13,-78r98,0r0,462r233,0r-20,69r-298,0","w":436},"m":{"d":"418,-55r-209,-254r-28,-51r0,295r10,65r-86,0r0,-454r-12,-77r58,2r271,342r241,-344r54,0r0,466r10,65r-95,0r0,-361r-28,48","w":828},"n":{"d":"592,-531r0,467r6,64r-48,0r-334,-335r-35,-47r0,317r10,65r-86,0r0,-454r-12,-77r56,0r332,334r35,47r0,-304r-12,-77r88,0","w":693},"o":{"d":"318,-541v175,0,262,116,262,272v0,157,-118,282,-273,282v-166,0,-261,-122,-261,-272v0,-157,117,-282,272,-282xm139,-264v0,117,70,212,175,212v105,0,174,-95,174,-212v0,-117,-69,-212,-174,-212v-105,0,-175,95,-175,212","w":625},"p":{"d":"99,-531r170,0v100,0,197,51,197,162v0,93,-97,175,-227,175r-42,0r0,129r10,65r-95,0r0,-453xm197,-261r56,0v66,0,123,-41,123,-108v0,-63,-57,-95,-123,-95r-56,0r0,203","w":511},"q":{"d":"318,-541v175,0,262,116,262,272v0,140,-95,254,-224,278r188,70r-37,75r-219,-92r0,-50v-154,-9,-242,-126,-242,-271v0,-157,117,-282,272,-282xm139,-264v0,117,70,212,175,212v105,0,174,-95,174,-212v0,-117,-69,-212,-174,-212v-105,0,-175,95,-175,212","w":625},"r":{"d":"541,0r-111,0r-158,-195r-75,1r0,129r10,65r-95,0r0,-453r-13,-78r170,0v100,0,197,51,197,162v0,61,-44,121,-110,152xm197,-261r56,0v66,0,123,-49,123,-108v0,-63,-57,-95,-123,-95r-56,0r0,203","w":551},"s":{"d":"217,13v-110,0,-162,-56,-163,-63r10,-77v0,0,67,72,155,72v51,0,92,-27,92,-80v0,-101,-256,-106,-256,-252v0,-84,73,-154,176,-154v70,0,123,23,152,40r-27,70v-2,-4,-60,-42,-128,-42v-41,0,-84,21,-84,65v0,111,254,97,254,262v0,96,-71,159,-181,159","w":446},"t":{"d":"5,-463r0,-68r469,0r0,68r-195,0r0,398r10,65r-95,0r0,-463r-189,0","w":479},"u":{"d":"494,-203r0,-251r-12,-77r92,0r0,320v0,131,-97,224,-245,224v-215,0,-220,-191,-220,-204r0,-262r-13,-78r98,0r0,334v0,83,64,144,151,144v88,0,149,-67,149,-150","w":680},"v":{"d":"532,-531r-237,544r-55,-10r-180,-440r-56,-94r113,0r142,355r17,59r22,-63r150,-351r84,0","w":533},"w":{"d":"842,-531r-238,544r-55,-10r-108,-264r-15,-42r-14,47r-117,269r-52,-10r-180,-440r-57,-94r114,0r142,355r17,59v31,-95,73,-179,110,-269r-62,-145r99,0r142,355r17,59r22,-63r150,-351r85,0","w":842},"x":{"d":"9,0r179,-270r-126,-199r0,1r-53,-63r114,0r106,167r12,21r10,-21r108,-167r91,0r-171,254r176,277r-103,0r-113,-181r-12,-22r-12,24r-113,179r-93,0","w":461},"y":{"d":"284,-232r0,167r10,65r-95,0r0,-232r-140,-237r0,1r-53,-63r114,0r117,196r11,30r15,-29r119,-197r88,0","w":473},"z":{"d":"35,0r-3,-25r281,-395r35,-42r-298,0r22,-69r404,0r4,25r-283,398r-32,39r325,0r0,69r-455,0","w":519},"{":{"d":"17,-273r0,-52v73,0,78,-65,78,-80r0,-201v0,-102,71,-149,161,-149r0,62v-33,0,-81,10,-81,90r0,197v0,65,-46,107,-46,107v0,0,46,42,46,107r0,282v0,80,48,90,81,90r0,62v-90,0,-161,-47,-161,-149r0,-286v0,-15,-5,-80,-78,-80","w":274},"|":{"d":"149,-756r0,1010r-71,0r0,-1010r71,0","w":227},"}":{"d":"257,-325r0,52v-73,0,-78,65,-78,80r0,286v0,102,-71,149,-161,149r0,-62v33,0,81,-10,81,-90r0,-282v0,-65,46,-107,46,-107v0,0,-46,-42,-46,-107r0,-197v0,-80,-48,-90,-81,-90r0,-62v90,0,161,47,161,149r0,201v0,15,5,80,78,80","w":274},"~":{"d":"529,-269v-35,36,-83,62,-137,62v-98,0,-141,-64,-216,-64v-42,0,-75,23,-98,43r-29,-61v31,-27,77,-55,134,-55v99,0,132,64,215,64v33,0,71,-21,101,-48","w":578},"\u00a1":{"d":"81,13r13,-428r63,-8r12,353r12,72xm63,-542v0,-35,29,-63,64,-63v35,0,64,28,64,63v0,33,-29,61,-64,61v-35,0,-64,-28,-64,-61","w":264},"\u00a2":{"d":"299,-585r0,79v63,3,112,28,146,69r-41,58v-14,-22,-72,-60,-105,-61r0,373v78,-7,132,-68,132,-68r14,79v0,0,-53,52,-146,65r0,85r-52,0r0,-81v-128,-4,-196,-127,-196,-250v0,-129,66,-249,196,-267r0,-81r52,0xm247,-437v-139,41,-144,322,0,365r0,-365","w":472},"\u00a3":{"d":"509,102r-468,0v0,0,78,-166,78,-340r0,-35r-61,0r0,-68r61,0r0,-214v0,-138,129,-199,207,-199v124,0,187,64,187,64r-34,79v0,0,-66,-70,-143,-70v-81,0,-130,57,-130,118r0,222r207,0r-30,68r-177,0r0,44v0,152,-47,257,-47,257r370,0","w":549},"\u00a5":{"d":"99,-368r88,0r-114,-219r-62,-71r126,0r146,277r148,-277r87,0r-163,290r110,0r-20,68r-127,0r0,97r137,0r-20,68r-117,0r0,60r10,75r-100,0r0,-135r-129,0r0,-68r129,0r0,-97r-129,0r0,-68","w":520},"\u00a7":{"d":"270,-684v102,678,105,690,105,700v0,104,-92,163,-194,163v-126,0,-142,-65,-142,-65r4,-65v34,40,82,59,130,59v-105,-678,-106,-689,-106,-699v0,-103,92,-164,194,-164v126,0,142,65,142,65r-4,65v-34,-40,-84,-59,-129,-59xm236,99v41,-13,73,-38,73,-84v0,-5,0,-11,-104,-690v-41,12,-73,38,-73,84v0,5,1,11,104,690","w":420},"\u00a8":{"d":"152,-631v0,31,-23,55,-50,55v-27,0,-50,-24,-50,-55v0,-30,23,-55,50,-55v27,0,50,25,50,55xm336,-631v0,31,-23,55,-50,55v-27,0,-50,-24,-50,-55v0,-30,23,-55,50,-55v27,0,50,25,50,55","w":384},"\u00a9":{"d":"524,-464r-37,52v-25,-35,-59,-44,-86,-44v-61,0,-94,57,-94,124v0,64,31,128,99,128v57,0,106,-54,106,-54r12,66v0,0,-51,51,-143,51v-96,0,-148,-91,-148,-180v0,-102,58,-195,170,-195v54,0,93,19,121,52xm735,-341v0,209,-141,354,-356,354v-190,0,-324,-141,-324,-325v0,-208,146,-352,365,-352v184,0,315,140,315,323xm673,-328v0,-166,-114,-285,-274,-285v-153,0,-280,121,-280,289v0,162,121,284,282,284v147,0,272,-121,272,-288","w":790},"\u00aa":{"d":"93,-557r-40,-55v0,0,49,-59,152,-59v62,0,119,25,119,96r0,199v0,44,34,83,34,83r-78,11v0,0,-24,-15,-25,-48v-26,26,-75,48,-109,48v-73,0,-107,-50,-107,-97v0,-72,75,-128,210,-131r0,-31v0,-58,-23,-78,-49,-78v-64,0,-107,62,-107,62xm170,-338v30,0,64,-28,79,-44r0,-83v-28,2,-133,11,-133,74v0,25,16,53,54,53","w":405},"\u00ab":{"d":"322,-427r-173,166r173,164r-39,64r-243,-229r243,-229xm551,-427r-173,166r173,164r-39,64r-243,-229r243,-229","w":636},"\u00ac":{"d":"45,-265r527,-174r0,346xm1060,-265v0,-29,24,-53,53,-53v30,0,54,24,54,53v0,30,-24,54,-54,54v-29,0,-53,-24,-53,-54xm855,-265v0,-29,24,-53,53,-53v30,0,54,24,54,53v0,30,-24,54,-54,54v-29,0,-53,-24,-53,-54xm655,-265v0,-29,24,-53,53,-53v30,0,54,24,54,53v0,30,-24,54,-54,54v-29,0,-53,-24,-53,-54","w":1212},"\u00ae":{"d":"564,-156r-80,0r-91,-129r-28,0v2,52,-4,76,5,129r-74,0r0,-299r-6,-53r108,0v63,0,122,36,122,108v0,40,-22,80,-67,100xm389,-325v31,0,62,-37,62,-75v0,-48,-36,-72,-86,-66r0,141r24,0xm735,-341v0,209,-141,354,-356,354v-190,0,-324,-141,-324,-325v0,-208,146,-352,365,-352v184,0,315,140,315,323xm673,-328v0,-166,-114,-285,-274,-285v-153,0,-280,121,-280,289v0,162,121,284,282,284v147,0,272,-121,272,-288","w":790},"\u00af":{"d":"50,-665r247,0r-20,74r-227,0r0,-74","w":335},"\u00b0":{"d":"364,-576v0,92,-80,168,-170,168v-88,0,-168,-76,-168,-168v0,-92,80,-167,168,-167v90,0,170,75,170,167xm298,-578v0,-54,-51,-100,-103,-100v-56,0,-103,46,-103,100v0,52,43,108,103,108v66,0,103,-56,103,-108","w":399},"\u00b1":{"d":"201,-140r0,-146r-143,0r0,-74r143,0r0,-149r70,19r0,130r149,0r-20,74r-129,0r0,146r-70,0xm87,-69r310,0r-20,69r-290,0r0,-69","w":471},"\u00b2":{"d":"302,-286r-245,0r-6,-31v10,-11,157,-147,157,-233v0,-42,-25,-63,-50,-63v-23,0,-52,7,-77,36r-29,-56v70,-62,237,-57,236,71v0,96,-134,212,-141,218r161,0","w":349},"\u00b3":{"d":"285,-586v0,38,-29,76,-75,90v43,7,90,36,90,102v-1,107,-135,126,-240,108r-15,-58v10,2,35,8,63,8v55,0,111,-10,111,-58v0,-47,-58,-67,-97,-67r8,-40v38,-16,76,-40,76,-76v0,-32,-20,-40,-44,-40v-49,0,-82,33,-82,33r-27,-51v26,-21,69,-37,112,-37v61,0,120,30,120,86","w":349},"\u00b4":{"d":"192,-724r110,0r-179,163r-55,-20","w":338},"\u00b6":{"d":"58,-365v0,-162,131,-293,294,-293r60,0r0,902r-60,0r0,-316v-162,0,-294,-131,-294,-293xm537,-658r0,902r-60,0r0,-902r60,0","w":622},"\u00b7":{"d":"186,-264v0,35,-27,63,-60,63v-33,0,-60,-28,-60,-63v0,-33,27,-61,60,-61v33,0,60,28,60,61","w":258},"\u00b8":{"d":"141,58r10,-51r29,0v29,38,112,55,112,120v-1,115,-136,133,-212,77r24,-49v14,14,43,23,70,23v31,0,57,-9,57,-37v0,-32,-55,-50,-90,-83","w":402},"\u00b9":{"d":"48,-286r0,-46r79,0r0,-265r-64,20r-18,-45r158,-51r0,341r78,0r-6,46r-227,0","w":300},"\u00ba":{"d":"45,-470v0,-117,72,-202,189,-202v93,0,163,60,163,188v0,109,-69,202,-189,202v-159,0,-163,-176,-163,-188xm126,-477v0,78,36,145,94,145v59,0,95,-67,95,-145v0,-78,-36,-145,-95,-145v-58,0,-94,67,-94,145","w":442},"\u00bb":{"d":"478,-261r-173,-166r39,-64r243,229r-243,229r-39,-64xm249,-261r-173,-166r39,-64r243,229r-243,229r-39,-64","w":643},"\u00bc":{"d":"48,-286r0,-46r79,0r0,-265r-64,20r-18,-45r158,-51r0,341r78,0r-6,46r-227,0xm579,-571r-330,477r-63,0r342,-497xm356,-71r174,-262r65,20r0,223r70,0r-13,54r-57,0v-1,34,2,65,6,94r-80,0r0,-94r-158,0xm522,-90r0,-118r2,-36v-24,53,-59,94,-89,141r-14,14","w":688},"\u00bd":{"d":"663,58r-245,0r-6,-31v27,-28,155,-165,155,-246v0,-42,-23,-53,-48,-53v-23,0,-52,10,-77,39r-29,-56v66,-62,236,-54,236,62v0,96,-134,221,-141,227r161,0xm568,-571r-330,477r-63,0r342,-497xm48,-286r0,-46r79,0r0,-265r-64,20r-18,-45r158,-51r0,341r78,0r-6,46r-227,0","w":710},"\u00be":{"d":"567,-571r-330,477r-63,0r342,-497xm344,-71r174,-262r65,20r0,223r70,0r-13,54r-57,0v-1,34,2,65,6,94r-80,0r0,-94r-158,0xm510,-90r0,-118r2,-36v-24,53,-59,94,-89,141r-14,14xm285,-586v0,38,-29,76,-75,90v43,7,90,36,90,102v-1,107,-135,126,-240,108r-15,-58v10,2,35,8,63,8v55,0,111,-10,111,-58v0,-47,-58,-67,-97,-67r8,-40v38,-16,76,-40,76,-76v0,-32,-20,-40,-44,-40v-49,0,-82,33,-82,33r-27,-51v26,-21,69,-37,112,-37v61,0,120,30,120,86","w":676},"\u00bf":{"d":"215,-432r77,21v2,9,4,20,4,29v0,137,-165,138,-165,250v0,40,31,76,93,76v37,0,88,-19,92,-20r30,64v-34,15,-79,25,-122,25v-108,0,-184,-55,-184,-135v0,-149,184,-166,184,-269v0,-10,-9,-41,-9,-41xm183,-543v0,-35,29,-63,64,-63v35,0,64,28,64,63v0,33,-29,61,-64,61v-35,0,-64,-28,-64,-61","w":391},"\u00c0":{"d":"-2,0r254,-658r61,-13r204,561r50,110r-109,0r-63,-172r-245,0r-65,172r-87,0xm277,-517v-29,94,-67,179,-100,269r193,0r-83,-230xm127,-875r110,0r124,143r-55,20","w":571},"\u00c1":{"d":"-2,0r254,-658r61,-13r204,561r50,110r-109,0r-63,-172r-245,0r-65,172r-87,0xm277,-517v-29,94,-67,179,-100,269r193,0r-83,-230xm335,-875r110,0r-179,163r-55,-20","w":571},"\u00c2":{"d":"-2,0r254,-658r61,-13r204,561r50,110r-109,0r-63,-172r-245,0r-65,172r-87,0xm277,-517v-29,94,-67,179,-100,269r193,0r-83,-230xm254,-875r62,0r124,143r-53,20r-103,-93r-101,93r-53,-20","w":571},"\u00c3":{"d":"-2,0r254,-658r61,-13r204,561r50,110r-109,0r-63,-172r-245,0r-65,172r-87,0xm277,-517v-29,94,-67,179,-100,269r193,0r-83,-230xm403,-823r43,26v-23,40,-39,71,-103,71v-87,-1,-121,-79,-175,-3r-43,-26v23,-40,39,-71,103,-71v54,0,85,38,124,38v17,0,38,-6,51,-35","w":571},"\u00c4":{"d":"-2,0r254,-658r61,-13r204,561r50,110r-109,0r-63,-172r-245,0r-65,172r-87,0xm277,-517v-29,94,-67,179,-100,269r193,0r-83,-230xm243,-782v0,31,-23,55,-50,55v-27,0,-50,-24,-50,-55v0,-30,23,-55,50,-55v27,0,50,25,50,55xm427,-782v0,31,-23,55,-50,55v-27,0,-50,-24,-50,-55v0,-30,23,-55,50,-55v27,0,50,25,50,55","w":571},"\u00c5":{"d":"-2,0r254,-658r61,-13r204,561r50,110r-109,0r-63,-172r-245,0r-65,172r-87,0xm277,-517v-29,94,-67,179,-100,269r193,0r-83,-230xm376,-791v0,48,-43,88,-91,88v-47,0,-89,-40,-89,-88v0,-48,42,-88,89,-88v48,0,91,40,91,88xm339,-792v0,-29,-26,-53,-53,-53v-29,0,-53,24,-53,53v0,27,22,57,53,57v34,0,53,-30,53,-57","w":571},"\u00c6":{"d":"377,0r0,-174r-217,0r-83,174r-83,0r320,-658r392,0r0,74r-239,0r0,210r209,0r-20,74r-189,0r0,226r250,0r-20,74r-320,0xm195,-248r182,0r0,-318r-7,-47","w":765},"\u00c7":{"d":"573,-588r-46,68v-47,-49,-102,-76,-168,-76v-129,0,-218,132,-218,271v0,161,113,261,225,261v91,0,194,-84,194,-84r22,74v0,0,-96,87,-232,87v-155,0,-305,-114,-305,-328v0,-205,142,-355,318,-355v83,0,151,28,210,82xm312,58r10,-51r29,0v29,38,112,55,112,120v-1,115,-136,133,-212,77r24,-49v14,14,43,23,70,23v31,0,57,-9,57,-37v0,-32,-55,-50,-90,-83","w":617},"\u00c8":{"d":"112,0r0,-566r-13,-92r342,0r0,74r-239,0r0,210r209,0r-20,74r-189,0r0,226r250,0r-20,74r-320,0xm116,-875r110,0r124,143r-55,20"},"\u00c9":{"d":"112,0r0,-566r-13,-92r342,0r0,74r-239,0r0,210r209,0r-20,74r-189,0r0,226r250,0r-20,74r-320,0xm324,-875r110,0r-179,163r-55,-20"},"\u00ca":{"d":"112,0r0,-566r-13,-92r342,0r0,74r-239,0r0,210r209,0r-20,74r-189,0r0,226r250,0r-20,74r-320,0xm243,-875r62,0r124,143r-53,20r-103,-93r-101,93r-53,-20"},"\u00cb":{"d":"112,0r0,-566r-13,-92r342,0r0,74r-239,0r0,210r209,0r-20,74r-189,0r0,226r250,0r-20,74r-320,0xm232,-782v0,31,-23,55,-50,55v-27,0,-50,-24,-50,-55v0,-30,23,-55,50,-55v27,0,50,25,50,55xm416,-782v0,31,-23,55,-50,55v-27,0,-50,-24,-50,-55v0,-30,23,-55,50,-55v27,0,50,25,50,55"},"\u00cc":{"d":"202,-658r0,583r10,75r-100,0r0,-566r-13,-92r103,0xm1,-875r110,0r124,143r-55,20","w":312},"\u00cd":{"d":"202,-658r0,583r10,75r-100,0r0,-566r-13,-92r103,0xm209,-875r110,0r-179,163r-55,-20","w":312},"\u00ce":{"d":"202,-658r0,583r10,75r-100,0r0,-566r-13,-92r103,0xm128,-875r62,0r124,143r-53,20r-103,-93r-101,93r-53,-20","w":312},"\u00cf":{"d":"202,-658r0,583r10,75r-100,0r0,-566r-13,-92r103,0xm117,-782v0,31,-23,55,-50,55v-27,0,-50,-24,-50,-55v0,-30,23,-55,50,-55v27,0,50,25,50,55xm301,-782v0,31,-23,55,-50,55v-27,0,-50,-24,-50,-55v0,-30,23,-55,50,-55v27,0,50,25,50,55","w":312},"\u00d0":{"d":"40,-374r83,0r0,-192r-13,-92r249,0v139,0,275,102,275,325v0,187,-119,333,-305,333r-206,0r0,-300r-83,0r0,-74xm341,-595r-128,0r0,221r134,0r-20,74r-114,0r0,233r128,0v114,0,196,-121,196,-260v0,-141,-82,-268,-196,-268","w":679},"\u00d1":{"d":"647,-658r0,583r6,75r-47,0r-375,-420r-43,-65r0,410r10,75r-92,0r0,-566r-13,-92r61,0r367,416r44,65r0,-389r-13,-92r95,0xm489,-823r43,26v-23,40,-39,71,-103,71v-87,-1,-121,-79,-175,-3r-43,-26v23,-40,39,-71,103,-71v54,0,85,38,124,38v17,0,38,-6,51,-35","w":748},"\u00d2":{"d":"346,-670v193,0,289,143,289,335v0,194,-131,348,-302,348v-183,0,-287,-151,-287,-336v0,-193,129,-347,300,-347xm144,-329v0,149,79,270,197,270v118,0,196,-121,196,-270v0,-149,-78,-270,-196,-270v-118,0,-197,121,-197,270xm181,-875r110,0r124,143r-55,20","w":680},"\u00d3":{"d":"346,-670v193,0,289,143,289,335v0,194,-131,348,-302,348v-183,0,-287,-151,-287,-336v0,-193,129,-347,300,-347xm144,-329v0,149,79,270,197,270v118,0,196,-121,196,-270v0,-149,-78,-270,-196,-270v-118,0,-197,121,-197,270xm389,-875r110,0r-179,163r-55,-20","w":680},"\u00d4":{"d":"346,-670v193,0,289,143,289,335v0,194,-131,348,-302,348v-183,0,-287,-151,-287,-336v0,-193,129,-347,300,-347xm144,-329v0,149,79,270,197,270v118,0,196,-121,196,-270v0,-149,-78,-270,-196,-270v-118,0,-197,121,-197,270xm308,-875r62,0r124,143r-53,20r-103,-93r-101,93r-53,-20","w":680},"\u00d5":{"d":"346,-670v193,0,289,143,289,335v0,194,-131,348,-302,348v-183,0,-287,-151,-287,-336v0,-193,129,-347,300,-347xm144,-329v0,149,79,270,197,270v118,0,196,-121,196,-270v0,-149,-78,-270,-196,-270v-118,0,-197,121,-197,270xm457,-838r43,26v-23,40,-39,71,-103,71v-87,-1,-121,-79,-175,-3r-43,-26v23,-40,39,-71,103,-71v54,0,85,38,124,38v17,0,38,-6,51,-35","w":680},"\u00d6":{"d":"346,-670v193,0,289,143,289,335v0,194,-131,348,-302,348v-183,0,-287,-151,-287,-336v0,-193,129,-347,300,-347xm144,-329v0,149,79,270,197,270v118,0,196,-121,196,-270v0,-149,-78,-270,-196,-270v-118,0,-197,121,-197,270xm297,-782v0,31,-23,55,-50,55v-27,0,-50,-24,-50,-55v0,-30,23,-55,50,-55v27,0,50,25,50,55xm481,-782v0,31,-23,55,-50,55v-27,0,-50,-24,-50,-55v0,-30,23,-55,50,-55v27,0,50,25,50,55","w":680},"\u00d7":{"d":"342,-87r-125,-124r-122,122r-52,-52r122,-123r-127,-126r63,-36r114,113r126,-127r38,67r-112,112r124,125","w":429},"\u00d8":{"d":"346,-670v16,0,31,1,45,3r21,-88r57,0r-24,100v126,41,190,165,190,320v0,194,-131,347,-302,347v-17,0,-32,-1,-47,-4r-20,83r-54,0r22,-95v-121,-44,-188,-170,-188,-319v0,-193,129,-347,300,-347xm537,-329v0,-109,-42,-203,-111,-246r-123,511v12,3,25,4,38,4v118,0,196,-120,196,-269xm144,-329v0,108,41,201,109,244r121,-510v-11,-3,-22,-4,-33,-4v-118,0,-197,121,-197,270","w":680},"\u00d9":{"d":"537,-252r0,-314r-13,-92r97,0r0,395v0,162,-106,276,-270,276v-236,0,-242,-234,-242,-250r0,-329r-13,-92r103,0r0,413v0,106,72,185,170,185v99,0,168,-86,168,-192xm201,-875r110,0r124,143r-55,20","w":727},"\u00da":{"d":"537,-252r0,-314r-13,-92r97,0r0,395v0,162,-106,276,-270,276v-236,0,-242,-234,-242,-250r0,-329r-13,-92r103,0r0,413v0,106,72,185,170,185v99,0,168,-86,168,-192xm409,-875r110,0r-179,163r-55,-20","w":727},"\u00db":{"d":"537,-252r0,-314r-13,-92r97,0r0,395v0,162,-106,276,-270,276v-236,0,-242,-234,-242,-250r0,-329r-13,-92r103,0r0,413v0,106,72,185,170,185v99,0,168,-86,168,-192xm328,-875r62,0r124,143r-53,20r-103,-93r-101,93r-53,-20","w":727},"\u00dc":{"d":"537,-252r0,-314r-13,-92r97,0r0,395v0,162,-106,276,-270,276v-236,0,-242,-234,-242,-250r0,-329r-13,-92r103,0r0,413v0,106,72,185,170,185v99,0,168,-86,168,-192xm317,-782v0,31,-23,55,-50,55v-27,0,-50,-24,-50,-55v0,-30,23,-55,50,-55v27,0,50,25,50,55xm501,-782v0,31,-23,55,-50,55v-27,0,-50,-24,-50,-55v0,-30,23,-55,50,-55v27,0,50,25,50,55","w":727},"\u00dd":{"d":"303,-290r0,215r10,75r-100,0r0,-290r-155,-297r-52,-71r116,0r130,247r14,40v46,-100,101,-191,150,-287r90,0xm316,-875r110,0r-179,163r-55,-20","w":509},"\u00de":{"d":"99,-746r103,-10r0,158r83,0v110,0,216,63,216,198v0,114,-106,214,-250,214r-49,0r0,111r10,75r-100,0r0,-634xm202,-252r65,0v74,0,139,-72,139,-148v0,-82,-65,-135,-139,-135r-65,0r0,283","w":546},"\u00df":{"d":"249,-25r9,-77v0,0,57,47,112,47v48,0,88,-18,88,-71v0,-83,-180,-136,-180,-240v0,-104,121,-146,121,-252v0,-35,-23,-63,-83,-63v-81,0,-133,57,-133,118r0,460r10,103r-94,0r0,-423r-61,0r0,-68r61,0r0,-64v0,-138,129,-199,207,-199v78,0,179,34,179,130v0,101,-115,167,-115,228v0,75,176,148,176,247v0,99,-71,162,-177,162v-72,0,-120,-38,-120,-38","w":572},"\u00e0":{"d":"-2,0r232,-531r51,-11r183,448r48,94r-100,0r-57,-138r-218,0r-59,138r-80,0xm239,-379r-75,173r165,0r-70,-173r-9,-30xm96,-746r110,0r124,143r-55,20","w":514},"\u00e1":{"d":"-2,0r232,-531r51,-11r183,448r48,94r-100,0r-57,-138r-218,0r-59,138r-80,0xm239,-379r-75,173r165,0r-70,-173r-9,-30xm304,-746r110,0r-179,163r-55,-20","w":514},"\u00e2":{"d":"-2,0r232,-531r51,-11r183,448r48,94r-100,0r-57,-138r-218,0r-59,138r-80,0xm239,-379r-75,173r165,0r-70,-173r-9,-30xm223,-746r62,0r124,143r-53,20r-103,-93r-101,93r-53,-20","w":514},"\u00e3":{"d":"-2,0r232,-531r51,-11r183,448r48,94r-100,0r-57,-138r-218,0r-59,138r-80,0xm239,-379r-75,173r165,0r-70,-173r-9,-30xm372,-694r43,26v-23,40,-39,71,-103,71v-87,-1,-121,-79,-175,-3r-43,-26v23,-40,39,-71,103,-71v54,0,85,38,124,38v17,0,38,-6,51,-35","w":514},"\u00e4":{"d":"-2,0r232,-531r51,-11r183,448r48,94r-100,0r-57,-138r-218,0r-59,138r-80,0xm239,-379r-75,173r165,0r-70,-173r-9,-30xm212,-653v0,31,-23,55,-50,55v-27,0,-50,-24,-50,-55v0,-30,23,-55,50,-55v27,0,50,25,50,55xm396,-653v0,31,-23,55,-50,55v-27,0,-50,-24,-50,-55v0,-30,23,-55,50,-55v27,0,50,25,50,55","w":514},"\u00e5":{"d":"-2,0r232,-531r51,-11r183,448r48,94r-100,0r-57,-138r-218,0r-59,138r-80,0xm239,-379r-75,173r165,0r-70,-173r-9,-30xm345,-662v0,48,-43,88,-91,88v-47,0,-89,-40,-89,-88v0,-48,42,-88,89,-88v48,0,91,40,91,88xm308,-663v0,-29,-26,-53,-53,-53v-29,0,-53,24,-53,53v0,27,22,57,53,57v34,0,53,-30,53,-57","w":514},"\u00e6":{"d":"338,0r0,-133r-190,0r-76,133r-78,0r289,-526r353,0r0,66r-214,0r0,158r188,0r-18,66r-170,0r0,170r224,0r-18,66r-290,0xm179,-199r159,0r0,-253r-5,-32","w":701},"\u00e7":{"d":"527,-472r-46,59v-42,-39,-92,-61,-151,-61v-115,0,-194,104,-194,213v0,127,101,203,200,203v83,0,176,-65,176,-65r22,65v0,0,-90,71,-212,71v-141,0,-277,-92,-277,-266v0,-166,129,-288,289,-288v74,0,137,23,193,69xm235,58r10,-51r29,0v29,38,112,55,112,120v-1,115,-136,133,-212,77r24,-49v14,14,43,23,70,23v31,0,57,-9,57,-37v0,-32,-55,-50,-90,-83","w":565},"\u00e8":{"d":"112,0r0,-453r-13,-78r313,0r0,67r-215,0r0,158r190,0r-21,67r-169,0r0,172r227,0r-21,67r-291,0xm81,-745r110,0r124,143r-55,20","w":459},"\u00e9":{"d":"112,0r0,-453r-13,-78r313,0r0,67r-215,0r0,158r190,0r-21,67r-169,0r0,172r227,0r-21,67r-291,0xm289,-745r110,0r-179,163r-55,-20","w":459},"\u00ea":{"d":"112,0r0,-453r-13,-78r313,0r0,67r-215,0r0,158r190,0r-21,67r-169,0r0,172r227,0r-21,67r-291,0xm208,-745r62,0r124,143r-53,20r-103,-93r-101,93r-53,-20","w":459},"\u00eb":{"d":"112,0r0,-453r-13,-78r313,0r0,67r-215,0r0,158r190,0r-21,67r-169,0r0,172r227,0r-21,67r-291,0xm197,-652v0,31,-23,55,-50,55v-27,0,-50,-24,-50,-55v0,-30,23,-55,50,-55v27,0,50,25,50,55xm381,-652v0,31,-23,55,-50,55v-27,0,-50,-24,-50,-55v0,-30,23,-55,50,-55v27,0,50,25,50,55","w":459},"\u00ec":{"d":"178,-531r0,469r8,62r-94,0r0,-457r-12,-74r98,0xm-21,-724r110,0r124,143r-55,20","w":264},"\u00ed":{"d":"178,-531r0,469r8,62r-94,0r0,-457r-12,-74r98,0xm187,-724r110,0r-179,163r-55,-20","w":264},"\u00ee":{"d":"178,-531r0,469r8,62r-94,0r0,-457r-12,-74r98,0xm106,-724r62,0r124,143r-53,20r-103,-93r-101,93r-53,-20","w":264},"\u00ef":{"d":"178,-531r0,469r8,62r-94,0r0,-457r-12,-74r98,0xm95,-631v0,31,-23,55,-50,55v-27,0,-50,-24,-50,-55v0,-30,23,-55,50,-55v27,0,50,25,50,55xm279,-631v0,31,-23,55,-50,55v-27,0,-50,-24,-50,-55v0,-30,23,-55,50,-55v27,0,50,25,50,55","w":264},"\u00f0":{"d":"24,-301r74,0r0,-150r-13,-75r222,0v124,0,245,81,245,260v0,149,-105,266,-271,266r-183,0r0,-237r-74,0r0,-64xm291,-465r-113,0r0,164r119,0r-19,64r-100,0r0,173r113,0v102,0,174,-89,174,-198v0,-108,-72,-203,-174,-203","w":603},"\u00f1":{"d":"592,-531r0,467r6,64r-48,0r-334,-335r-35,-47r0,317r10,65r-86,0r0,-454r-12,-77r56,0r332,334r35,47r0,-304r-12,-77r88,0xm452,-693r43,26v-23,40,-39,71,-103,71v-87,-1,-121,-79,-175,-3r-43,-26v23,-40,39,-71,103,-71v54,0,85,38,124,38v17,0,38,-6,51,-35","w":660},"\u00f2":{"d":"318,-541v175,0,262,116,262,272v0,157,-118,282,-273,282v-166,0,-261,-122,-261,-272v0,-157,117,-282,272,-282xm139,-264v0,117,70,212,175,212v105,0,174,-95,174,-212v0,-117,-69,-212,-174,-212v-105,0,-175,95,-175,212xm163,-745r110,0r124,143r-55,20","w":638},"\u00f3":{"d":"318,-541v175,0,262,116,262,272v0,157,-118,282,-273,282v-166,0,-261,-122,-261,-272v0,-157,117,-282,272,-282xm139,-264v0,117,70,212,175,212v105,0,174,-95,174,-212v0,-117,-69,-212,-174,-212v-105,0,-175,95,-175,212xm371,-745r110,0r-179,163r-55,-20","w":638},"\u00f4":{"d":"318,-541v175,0,262,116,262,272v0,157,-118,282,-273,282v-166,0,-261,-122,-261,-272v0,-157,117,-282,272,-282xm139,-264v0,117,70,212,175,212v105,0,174,-95,174,-212v0,-117,-69,-212,-174,-212v-105,0,-175,95,-175,212xm290,-745r62,0r124,143r-53,20r-103,-93r-101,93r-53,-20","w":638},"\u00f5":{"d":"318,-541v175,0,262,116,262,272v0,157,-118,282,-273,282v-166,0,-261,-122,-261,-272v0,-157,117,-282,272,-282xm139,-264v0,117,70,212,175,212v105,0,174,-95,174,-212v0,-117,-69,-212,-174,-212v-105,0,-175,95,-175,212xm439,-693r43,26v-23,40,-39,71,-103,71v-87,-1,-121,-79,-175,-3r-43,-26v23,-40,39,-71,103,-71v54,0,85,38,124,38v17,0,38,-6,51,-35","w":638},"\u00f6":{"d":"318,-541v175,0,262,116,262,272v0,157,-118,282,-273,282v-166,0,-261,-122,-261,-272v0,-157,117,-282,272,-282xm139,-264v0,117,70,212,175,212v105,0,174,-95,174,-212v0,-117,-69,-212,-174,-212v-105,0,-175,95,-175,212xm279,-652v0,31,-23,55,-50,55v-27,0,-50,-24,-50,-55v0,-30,23,-55,50,-55v27,0,50,25,50,55xm463,-652v0,31,-23,55,-50,55v-27,0,-50,-24,-50,-55v0,-30,23,-55,50,-55v27,0,50,25,50,55","w":638},"\u00f7":{"d":"87,-295r310,0r-20,69r-290,0r0,-69xm295,-417v0,35,-27,63,-60,63v-33,0,-60,-28,-60,-63v0,-33,27,-61,60,-61v33,0,60,28,60,61xm295,-115v0,35,-27,63,-60,63v-33,0,-60,-28,-60,-63v0,-33,27,-61,60,-61v33,0,60,28,60,61","w":473},"\u00f8":{"d":"46,-258v0,-165,128,-295,305,-276r30,-123r59,0r-32,133v114,33,170,132,170,256v0,162,-126,293,-299,276r-31,128r-56,0r32,-137v-114,-33,-178,-135,-178,-257xm139,-263v0,88,39,161,102,192r95,-399v-121,-15,-197,83,-197,207xm487,-263v0,-85,-37,-156,-97,-189r-96,396v121,11,193,-83,193,-207","w":623},"\u00f9":{"d":"494,-203r0,-251r-12,-77r92,0r0,320v0,131,-97,224,-245,224v-215,0,-220,-191,-220,-204r0,-262r-13,-78r98,0r0,334v0,83,64,144,151,144v88,0,149,-67,149,-150xm167,-745r110,0r124,143r-55,20","w":637},"\u00fa":{"d":"494,-203r0,-251r-12,-77r92,0r0,320v0,131,-97,224,-245,224v-215,0,-220,-191,-220,-204r0,-262r-13,-78r98,0r0,334v0,83,64,144,151,144v88,0,149,-67,149,-150xm375,-745r110,0r-179,163r-55,-20","w":637},"\u00fb":{"d":"494,-203r0,-251r-12,-77r92,0r0,320v0,131,-97,224,-245,224v-215,0,-220,-191,-220,-204r0,-262r-13,-78r98,0r0,334v0,83,64,144,151,144v88,0,149,-67,149,-150xm294,-745r62,0r124,143r-53,20r-103,-93r-101,93r-53,-20","w":637},"\u00fc":{"d":"494,-203r0,-251r-12,-77r92,0r0,320v0,131,-97,224,-245,224v-215,0,-220,-191,-220,-204r0,-262r-13,-78r98,0r0,334v0,83,64,144,151,144v88,0,149,-67,149,-150xm283,-652v0,31,-23,55,-50,55v-27,0,-50,-24,-50,-55v0,-30,23,-55,50,-55v27,0,50,25,50,55xm467,-652v0,31,-23,55,-50,55v-27,0,-50,-24,-50,-55v0,-30,23,-55,50,-55v27,0,50,25,50,55","w":637},"\u00fd":{"d":"284,-232r0,167r10,65r-95,0r0,-232r-140,-237r0,1r-53,-63r114,0r117,196r11,30r15,-29r119,-197r88,0xm292,-745r110,0r-179,163r-55,-20","w":470},"\u00fe":{"d":"72,-536r92,-8r5,101r88,0v98,0,183,50,183,159v0,92,-85,174,-213,174r-58,0v-2,41,4,76,9,110r-94,0r0,-449xm169,-170r72,0v66,0,109,-56,109,-114v0,-63,-43,-103,-109,-103r-72,0r0,217","w":467},"\u00ff":{"d":"284,-232r0,167r10,65r-95,0r0,-232r-140,-237r0,1r-53,-63r114,0r117,196r11,30r15,-29r119,-197r88,0xm230,-631v0,31,-23,55,-50,55v-27,0,-50,-24,-50,-55v0,-30,23,-55,50,-55v27,0,50,25,50,55xm414,-631v0,31,-23,55,-50,55v-27,0,-50,-24,-50,-55v0,-30,23,-55,50,-55v27,0,50,25,50,55","w":470},"\u0131":{"d":"178,-531r0,469r8,62r-94,0r0,-457r-12,-74r98,0","w":264},"\u0141":{"d":"18,-265r92,-52r0,-249r-13,-92r103,0r0,288r132,-75r14,76r-146,84r0,211r262,0r-20,74r-332,0r0,-231r-59,33","w":468},"\u0142":{"d":"22,-214r84,-43r0,-194r-13,-75r93,0r0,228r117,-60r13,67r-130,66r0,156r234,0r-20,69r-294,0r0,-183r-52,27","w":423},"\u0152":{"d":"777,-658r0,74r-239,0r0,210r209,0r-20,74r-189,0r0,226r250,0r-20,74r-417,0v-186,0,-305,-146,-305,-333v0,-223,136,-325,275,-325r456,0xm143,-327v0,139,82,260,196,260r109,0r0,-528r-109,0v-114,0,-196,127,-196,268","w":836},"\u0153":{"d":"701,0r-387,0v-167,0,-263,-109,-263,-259v0,-156,119,-267,274,-267r384,0r0,66r-214,0r0,158r187,0r-18,66r-169,0r0,170r224,0xm321,-61r89,0r0,-406r-89,0v-105,0,-176,85,-176,203v0,120,71,203,176,203","w":774},"\u0160":{"d":"54,-61v1,-1,10,-86,10,-86v0,0,73,88,172,88v57,0,107,-39,107,-109v0,-132,-287,-137,-287,-314v0,-103,80,-188,193,-188v79,0,135,28,165,47r-26,73v-2,-5,-66,-49,-142,-49v-47,0,-96,32,-96,90v0,144,282,132,282,328v0,113,-77,194,-199,194v-118,0,-179,-74,-179,-74xm278,-712r-66,0r-124,-143r55,-20r102,93r102,-93r55,20","w":480},"\u0161":{"d":"217,13v-110,0,-162,-56,-163,-63r10,-77v0,0,67,72,155,72v51,0,92,-27,92,-80v0,-101,-256,-106,-256,-252v0,-84,73,-154,176,-154v70,0,123,23,152,40r-27,70v-2,-4,-60,-42,-128,-42v-41,0,-84,21,-84,65v0,111,254,97,254,262v0,96,-71,159,-181,159xm247,-582r-66,0r-124,-143r55,-20r102,93r102,-93r55,20","w":414},"\u0178":{"d":"303,-290r0,215r10,75r-100,0r0,-290r-155,-297r-52,-71r116,0r130,247r14,40v46,-100,101,-191,150,-287r90,0xm224,-782v0,31,-23,55,-50,55v-27,0,-50,-24,-50,-55v0,-30,23,-55,50,-55v27,0,50,25,50,55xm408,-782v0,31,-23,55,-50,55v-27,0,-50,-24,-50,-55v0,-30,23,-55,50,-55v27,0,50,25,50,55","w":509},"\u017d":{"d":"36,0r-4,-25r313,-496r44,-60r-335,0r22,-77r446,0r4,25r-312,495r-46,62r369,0r0,76r-501,0xm322,-712r-66,0r-124,-143r55,-20r102,93r102,-93r55,20","w":566},"\u017e":{"d":"24,0r-3,-25r281,-395r35,-42r-298,0r22,-69r404,0r4,25r-283,398r-32,39r325,0r0,69r-455,0xm270,-583r-66,0r-124,-143r55,-20r102,93r102,-93r55,20","w":485},"\u0192":{"d":"439,-492r-44,68r-101,0r-61,436v-19,137,-117,230,-210,231r-24,-69v78,0,131,-57,146,-162r61,-436r-69,0r14,-68r63,0r10,-73v19,-139,111,-189,188,-189v38,0,76,13,108,34r-48,69v-62,-49,-139,-23,-155,68r-15,91r137,0","w":483},"\u02c6":{"d":"169,-724r62,0r124,143r-53,20r-103,-93r-101,93r-53,-20","w":402},"\u02c7":{"d":"233,-561r-66,0r-124,-143r55,-20r102,93r102,-93r55,20","w":402},"\u02d8":{"d":"200,-627v64,0,102,-97,102,-97r55,20v0,0,-39,143,-157,143v-118,0,-157,-143,-157,-143r55,-20v0,0,38,97,102,97","w":402},"\u02d9":{"d":"147,-626v0,30,-24,54,-53,54v-30,0,-54,-24,-54,-54v0,-29,24,-53,54,-53v29,0,53,24,53,53","w":186},"\u02da":{"d":"346,-650v0,48,-43,88,-91,88v-47,0,-89,-40,-89,-88v0,-48,42,-88,89,-88v48,0,91,40,91,88xm309,-651v0,-29,-26,-53,-53,-53v-29,0,-53,24,-53,53v0,27,22,57,53,57v34,0,53,-30,53,-57","w":520},"\u02db":{"d":"145,0r64,0v0,0,-95,88,-95,139v0,40,73,38,99,34r0,59v-5,1,-13,1,-19,1v-101,0,-145,-27,-145,-82v0,-74,96,-151,96,-151","w":276},"\u02dc":{"d":"315,-672r43,26v-23,40,-39,71,-103,71v-87,-1,-121,-79,-175,-3r-43,-26v23,-40,39,-71,103,-71v54,0,85,38,124,38v17,0,38,-6,51,-35","w":380},"\u02dd":{"d":"192,-724r110,0r-179,163r-55,-20xm375,-724r110,0r-179,163r-55,-20","w":585},"\u0394":{"d":"627,-328v0,161,-133,292,-294,292v-162,0,-293,-131,-293,-292v0,-162,131,-293,293,-293v161,0,294,131,294,293xm545,-329r-324,-174r0,346","w":667},"\u2206":{"d":"627,-328v0,161,-133,292,-294,292v-162,0,-293,-131,-293,-292v0,-162,131,-293,293,-293v161,0,294,131,294,293xm545,-329r-324,-174r0,346","w":667},"\u03c0":{"d":"67,-490r324,174r-324,172r0,-346","w":425},"\u2013":{"d":"31,-284r397,0r-20,74r-377,0r0,-74","w":452},"\u2014":{"d":"31,-284r623,0r-20,74r-603,0r0,-74","w":679},"\u2018":{"d":"174,-674r36,35v-35,33,-96,120,-20,147v0,39,-18,72,-60,72v-31,0,-60,-23,-60,-72v0,-50,31,-134,104,-182","w":270},"\u2019":{"d":"96,-420r-36,-35v35,-33,96,-120,20,-147v-3,-42,21,-71,60,-72v31,0,60,23,60,72v0,50,-31,134,-104,182","w":270},"\u201a":{"d":"96,141r-36,-35v35,-33,96,-120,20,-147v-3,-42,21,-71,60,-72v31,0,60,23,60,72v0,50,-31,134,-104,182","w":270},"\u201c":{"d":"174,-674r36,35v-35,33,-96,120,-20,147v0,39,-18,72,-60,72v-31,0,-60,-23,-60,-72v0,-50,31,-134,104,-182xm349,-674r36,35v-35,33,-96,120,-20,147v0,39,-18,72,-60,72v-31,0,-60,-23,-60,-72v0,-50,31,-134,104,-182","w":445},"\u201d":{"d":"96,-420r-36,-35v35,-33,96,-120,20,-147v-3,-42,21,-71,60,-72v31,0,60,23,60,72v0,50,-31,134,-104,182xm271,-420r-36,-35v35,-33,96,-120,20,-147v-3,-42,21,-71,60,-72v31,0,60,23,60,72v0,50,-31,134,-104,182","w":445},"\u201e":{"d":"96,141r-36,-35v35,-33,96,-120,20,-147v-3,-42,21,-71,60,-72v31,0,60,23,60,72v0,50,-31,134,-104,182xm271,141r-36,-35v35,-33,96,-120,20,-147v-3,-42,21,-71,60,-72v31,0,60,23,60,72v0,50,-31,134,-104,182","w":445},"\u2020":{"d":"264,245r-83,0r0,-669r-129,0r0,-68r129,0r0,-158r83,-11r0,169r163,0r-30,68r-133,0r0,669","w":487},"\u2021":{"d":"264,245r-83,0r0,-245r-129,0r0,-68r129,0r0,-356r-129,0r0,-68r129,0r0,-158r83,-11r0,169r163,0r-30,68r-133,0r0,356r150,0r-30,68r-120,0r0,245","w":487},"\u2022":{"d":"211,-405v73,0,133,59,133,132v0,75,-60,134,-133,134v-75,0,-134,-59,-134,-134v0,-73,59,-132,134,-132","w":424},"\u2026":{"d":"184,-41v0,30,-24,54,-53,54v-30,0,-54,-24,-54,-54v0,-29,24,-53,54,-53v29,0,53,24,53,53xm389,-41v0,30,-24,54,-53,54v-30,0,-54,-24,-54,-54v0,-29,24,-53,54,-53v29,0,53,24,53,53xm589,-41v0,30,-24,54,-53,54v-30,0,-54,-24,-54,-54v0,-29,24,-53,54,-53v29,0,53,24,53,53","w":663},"\u2030":{"d":"369,-507v0,82,-72,150,-153,150v-79,0,-150,-68,-150,-150v0,-82,71,-150,150,-150v81,0,153,68,153,150xm310,-509v0,-49,-46,-90,-93,-90v-50,0,-92,41,-92,90v0,46,39,97,92,97v59,0,93,-51,93,-97xm744,-137v0,82,-72,150,-153,150v-79,0,-150,-68,-150,-150v0,-82,71,-150,150,-150v81,0,153,68,153,150xm685,-139v0,-49,-46,-90,-93,-90v-50,0,-92,41,-92,90v0,46,39,97,92,97v59,0,93,-51,93,-97xm664,-647r-448,647r-77,0r456,-674xm1097,-137v0,82,-72,150,-153,150v-79,0,-150,-68,-150,-150v0,-82,71,-150,150,-150v81,0,153,68,153,150xm1038,-139v0,-49,-46,-90,-93,-90v-50,0,-92,41,-92,90v0,46,39,97,92,97v59,0,93,-51,93,-97","w":1160},"\u2039":{"d":"322,-427r-173,166r173,164r-39,64r-243,-229r243,-229","w":369},"\u203a":{"d":"214,-261r-173,-166r39,-64r243,229r-243,229r-39,-64","w":369},"\u2044":{"d":"531,-650r-450,650r-85,0r466,-677","w":510},"\u20ac":{"d":"19,-435r64,0v41,-151,160,-238,299,-238v56,0,124,14,167,42r-24,74v-48,-37,-103,-47,-151,-47v-94,0,-174,69,-208,169r317,0r-23,69r-309,0v-3,23,-2,59,0,83r282,0r-23,69r-246,0v29,97,99,154,207,154v53,0,119,-19,164,-56r0,79v-184,107,-410,41,-456,-177r-60,0r0,-69r50,0v-2,-27,-1,-56,1,-83r-51,0r0,-69","w":601},"\u2122":{"d":"27,-657r0,-48r309,0r0,48r-120,0r0,282r6,46r-77,0r0,-328r-118,0xm564,-361r-139,-190v2,74,-5,157,6,222r-67,0r0,-322r-7,-54r44,0r166,235r149,-235r43,0r0,330r6,46r-77,0r0,-225","w":802},"\u2202":{"d":"12,-694r0,694r-12,0r0,-694r12,0","w":12},"\u220f":{"d":"368,-473r0,312r-310,0r0,-312r310,0","w":425},"\u2211":{"d":"210,-511r36,60r61,-39r0,76r75,0r-38,61r64,37r-63,37r38,61r-76,0r0,72r-60,-36r-38,65r-37,-64r-60,38r0,-75r-74,0r38,-63r-62,-37r61,-36r-35,-60r73,0r0,-71r61,35","w":425},"\u221a":{"d":"640,-439r527,174r-527,172r0,-346xm152,-265v0,30,-24,54,-53,54v-30,0,-54,-24,-54,-54v0,-29,24,-53,54,-53v29,0,53,24,53,53xm357,-265v0,30,-24,54,-53,54v-30,0,-54,-24,-54,-54v0,-29,24,-53,54,-53v29,0,53,24,53,53xm557,-265v0,30,-24,54,-53,54v-30,0,-54,-24,-54,-54v0,-29,24,-53,54,-53v29,0,53,24,53,53","w":1212},"\u222b":{"d":"56,0r0,-66r111,0r0,-506r-104,32r-25,-61r215,-71r0,606r114,0r-10,66r-301,0","w":400},"\u2248":{"d":"333,-621v161,0,294,131,294,293v0,161,-133,292,-294,292v-162,0,-293,-131,-293,-292v0,-162,131,-293,293,-293","w":667},"\u2264":{"d":"45,-348r527,-174r0,346xm1060,-348v0,-29,24,-53,53,-53v30,0,54,24,54,53v0,30,-24,54,-54,54v-29,0,-53,-24,-53,-54xm855,-348v0,-29,24,-53,53,-53v30,0,54,24,54,53v0,30,-24,54,-54,54v-29,0,-53,-24,-53,-54xm655,-348v0,-29,24,-53,53,-53v30,0,54,24,54,53v0,30,-24,54,-54,54v-29,0,-53,-24,-53,-54","w":1212},"\u2265":{"d":"640,-522r527,174r-527,172r0,-346xm152,-348v0,30,-24,54,-53,54v-30,0,-54,-24,-54,-54v0,-29,24,-53,54,-53v29,0,53,24,53,53xm357,-348v0,30,-24,54,-53,54v-30,0,-54,-24,-54,-54v0,-29,24,-53,54,-53v29,0,53,24,53,53xm557,-348v0,30,-24,54,-53,54v-30,0,-54,-24,-54,-54v0,-29,24,-53,54,-53v29,0,53,24,53,53","w":1212},"\u25ca":{"d":"416,-317r-203,203r-203,-203r203,-203","w":425},"\u00a0":{"w":270}}});
